################################################################################
# Neural network connection values (weights and biases).
################################################################################
# Col  Name       Description
################################################################################
# 1    connection Neural network connection value.
# 2    t          Connection type (a = weight, b = bias).
# 3    index      Index enumerating weights.
# 4    l_s        Starting point layer (end point layer for biases).
# 5    n_s        Starting point neuron in starting layer (end point neuron for biases).
# 6    l_e        End point layer.
# 7    n_e        End point neuron in end layer.
################################################################################
#                      1 2         3     4     5     6     7
#             connection t     index   l_s   n_s   l_e   n_e
############################################################
  8.5163049727250445E-02 a         1     0     1     1     1
  8.1316330397699123E-03 a         2     0     1     1     2
  2.2103763813523455E-01 a         3     0     1     1     3
 -4.7174681247892106E-02 a         4     0     1     1     4
 -8.6547311776928526E-01 a         5     0     1     1     5
 -7.7234738438208536E-02 a         6     0     1     1     6
  2.5341251782473090E-01 a         7     0     1     1     7
 -2.0258007381922555E-01 a         8     0     1     1     8
 -5.0713022118914833E-03 a         9     0     1     1     9
 -2.9419372950180239E-01 a        10     0     1     1    10
 -7.6263905429776555E-02 a        11     0     1     1    11
  3.2605661566205002E-01 a        12     0     1     1    12
  1.7571452930975706E-01 a        13     0     1     1    13
  1.1532374922282038E-01 a        14     0     1     1    14
 -2.2555397167387312E-01 a        15     0     1     1    15
  2.6864962890542293E-01 a        16     0     1     1    16
  2.8626113062183184E-01 a        17     0     1     1    17
 -4.6530531328126701E-01 a        18     0     1     1    18
 -3.1481929062466829E-01 a        19     0     1     1    19
 -2.1493253888605413E-01 a        20     0     1     1    20
 -8.6349250473356975E-01 a        21     0     1     1    21
 -2.3263592107489120E-01 a        22     0     1     1    22
  6.2787986418558525E-02 a        23     0     1     1    23
 -7.6827299340325020E-02 a        24     0     1     1    24
 -1.1445743437134037E-01 a        25     0     1     1    25
 -1.4864328968766452E-01 a        26     0     2     1     1
  8.5699687686807510E-02 a        27     0     2     1     2
  2.7465234006306450E-02 a        28     0     2     1     3
  4.0902012504536941E-02 a        29     0     2     1     4
  1.4623331334474940E-01 a        30     0     2     1     5
 -1.5665949397252393E-02 a        31     0     2     1     6
  2.1376670456425470E-01 a        32     0     2     1     7
 -3.1556010214588613E-02 a        33     0     2     1     8
  1.8699470210631099E-02 a        34     0     2     1     9
  1.6998605490504176E-01 a        35     0     2     1    10
  9.1197637800111933E-02 a        36     0     2     1    11
  3.5847792626824783E-02 a        37     0     2     1    12
 -1.0221931781275161E-01 a        38     0     2     1    13
 -2.6547915825676824E-02 a        39     0     2     1    14
  3.3193765424828291E-02 a        40     0     2     1    15
  9.5995381064885560E-02 a        41     0     2     1    16
  3.7203182934069240E-02 a        42     0     2     1    17
 -2.7264984444699006E-02 a        43     0     2     1    18
 -1.5949828165422822E-01 a        44     0     2     1    19
  1.9531146381826955E-02 a        45     0     2     1    20
  4.7775036090557658E-02 a        46     0     2     1    21
 -3.0145656598395919E-02 a        47     0     2     1    22
 -6.9200743444885138E-02 a        48     0     2     1    23
 -3.1165027756808986E-03 a        49     0     2     1    24
  4.2473523305806248E-02 a        50     0     2     1    25
 -9.5862611127638261E-02 a        51     0     3     1     1
  9.9534851953437684E-02 a        52     0     3     1     2
 -3.0363164101959710E-02 a        53     0     3     1     3
  5.7024631499668077E-02 a        54     0     3     1     4
  1.6573365656267258E-01 a        55     0     3     1     5
 -2.8581819288992692E-02 a        56     0     3     1     6
  1.0084504834516061E-01 a        57     0     3     1     7
  8.5070487576690723E-02 a        58     0     3     1     8
  6.1507036155325510E-02 a        59     0     3     1     9
 -4.2104617037536226E-03 a        60     0     3     1    10
 -1.0590767041795079E-01 a        61     0     3     1    11
  1.5551989731327596E-02 a        62     0     3     1    12
  3.2817541254870991E-02 a        63     0     3     1    13
 -9.6134135730033876E-02 a        64     0     3     1    14
 -2.6202714615585408E-02 a        65     0     3     1    15
  1.1544353882912482E-01 a        66     0     3     1    16
  2.0748038604889255E-01 a        67     0     3     1    17
 -1.5480781254675152E-01 a        68     0     3     1    18
  1.4583788939658715E-01 a        69     0     3     1    19
  7.9845540657367306E-02 a        70     0     3     1    20
 -5.4736567004128073E-02 a        71     0     3     1    21
 -2.4227419500799940E-01 a        72     0     3     1    22
 -1.1942367586595258E-01 a        73     0     3     1    23
 -1.6983360363570635E-01 a        74     0     3     1    24
 -1.7971592815435769E-01 a        75     0     3     1    25
  1.3670640971764389E-01 a        76     0     4     1     1
 -3.1125530502149673E-01 a        77     0     4     1     2
 -9.1652993757270526E-02 a        78     0     4     1     3
 -2.5950747140716740E-01 a        79     0     4     1     4
 -5.3887667259866275E-02 a        80     0     4     1     5
  1.2118264102535735E-02 a        81     0     4     1     6
 -6.5777758231868613E-02 a        82     0     4     1     7
 -1.0806178927944965E-01 a        83     0     4     1     8
 -1.0011393935732256E-01 a        84     0     4     1     9
 -3.1844760346389711E-01 a        85     0     4     1    10
  9.7520795603536922E-02 a        86     0     4     1    11
 -1.8256035609061005E-01 a        87     0     4     1    12
 -4.6614131554007676E-02 a        88     0     4     1    13
  7.0314799498448294E-02 a        89     0     4     1    14
  6.9639203142088477E-02 a        90     0     4     1    15
  2.4918569548460631E-01 a        91     0     4     1    16
 -7.4153783923764496E-02 a        92     0     4     1    17
  2.7406743688928198E-01 a        93     0     4     1    18
 -1.4727247722229385E-02 a        94     0     4     1    19
 -8.6919885028363189E-02 a        95     0     4     1    20
  6.0249448323752765E-02 a        96     0     4     1    21
 -2.0299087168124733E-01 a        97     0     4     1    22
  9.8669680546464977E-03 a        98     0     4     1    23
 -1.7452075624334218E-01 a        99     0     4     1    24
  2.7107946808820932E-01 a       100     0     4     1    25
 -7.5075184717614274E-01 a       101     0     5     1     1
 -1.7992651142517999E-01 a       102     0     5     1     2
 -1.9433430846427055E-01 a       103     0     5     1     3
  1.3024226988286200E-01 a       104     0     5     1     4
  5.1103874222464996E-01 a       105     0     5     1     5
  1.1741090487886614E-01 a       106     0     5     1     6
 -2.4488198405594067E-01 a       107     0     5     1     7
 -5.7534304476400655E-01 a       108     0     5     1     8
  4.3660617512660971E-01 a       109     0     5     1     9
  4.2782761747231296E-01 a       110     0     5     1    10
 -3.1822170533530425E-01 a       111     0     5     1    11
 -1.5716614992803139E-02 a       112     0     5     1    12
 -3.0428424308416679E-01 a       113     0     5     1    13
  7.4188751430586641E-01 a       114     0     5     1    14
  1.5399429324880431E-01 a       115     0     5     1    15
 -1.2459611479529045E-01 a       116     0     5     1    16
  1.9429104258437666E-01 a       117     0     5     1    17
  1.7531395251883136E-01 a       118     0     5     1    18
 -4.9033087927790753E-01 a       119     0     5     1    19
 -1.4413001550524811E-02 a       120     0     5     1    20
  1.8062470436495298E-01 a       121     0     5     1    21
  7.4284929567353453E-01 a       122     0     5     1    22
 -7.2888213810633762E-02 a       123     0     5     1    23
  1.1426326992321425E-02 a       124     0     5     1    24
  1.9690728901940996E-01 a       125     0     5     1    25
  1.1319129963334053E-01 a       126     0     6     1     1
  4.0802794516776819E-02 a       127     0     6     1     2
  1.5093951171566908E-01 a       128     0     6     1     3
 -1.8685093174470144E-01 a       129     0     6     1     4
 -1.1823282669748940E-01 a       130     0     6     1     5
 -3.8024948597446366E-02 a       131     0     6     1     6
 -1.6931771428377312E-01 a       132     0     6     1     7
  2.5040341865273952E-01 a       133     0     6     1     8
 -1.5889058856117133E-01 a       134     0     6     1     9
 -1.5622320719351715E-01 a       135     0     6     1    10
  6.9122796217877772E-02 a       136     0     6     1    11
 -6.9491319996904291E-02 a       137     0     6     1    12
  1.2755112381656436E-01 a       138     0     6     1    13
  3.6243318721290574E-01 a       139     0     6     1    14
  8.9074111672684128E-02 a       140     0     6     1    15
 -1.2920731873117619E-01 a       141     0     6     1    16
 -2.0856857955971364E-01 a       142     0     6     1    17
  9.2429399947996746E-02 a       143     0     6     1    18
  1.7217889045550394E-01 a       144     0     6     1    19
  1.8930426078447629E-01 a       145     0     6     1    20
 -5.9805199697074526E-02 a       146     0     6     1    21
 -1.3365454365720350E-01 a       147     0     6     1    22
  1.0865700104183994E-01 a       148     0     6     1    23
 -3.0185412057320435E-02 a       149     0     6     1    24
  2.0919357847134087E-01 a       150     0     6     1    25
  1.3822215149694023E-01 a       151     0     7     1     1
 -1.0442692931610509E-01 a       152     0     7     1     2
 -1.4756122018376328E-01 a       153     0     7     1     3
  6.2480359037713255E-02 a       154     0     7     1     4
  1.9044299718922988E-01 a       155     0     7     1     5
  1.6995245864410421E-02 a       156     0     7     1     6
 -3.3743465971530517E-01 a       157     0     7     1     7
 -1.0976951221972622E-01 a       158     0     7     1     8
 -7.0788013901380504E-03 a       159     0     7     1     9
 -4.3913862697352334E-02 a       160     0     7     1    10
  5.2215249317424252E-02 a       161     0     7     1    11
  8.1684719527599439E-02 a       162     0     7     1    12
  1.0034018172623803E-01 a       163     0     7     1    13
 -1.1593311412986240E-01 a       164     0     7     1    14
 -1.2461320455108565E-01 a       165     0     7     1    15
  1.6600453540648202E-01 a       166     0     7     1    16
  9.2182340069809063E-02 a       167     0     7     1    17
  4.2953912609567220E-02 a       168     0     7     1    18
 -1.7524869349865019E-01 a       169     0     7     1    19
 -8.2009465653340510E-02 a       170     0     7     1    20
  3.0453122487791451E-01 a       171     0     7     1    21
  3.1614970692145256E-01 a       172     0     7     1    22
  6.8736363115076207E-02 a       173     0     7     1    23
  2.0247382346635034E-01 a       174     0     7     1    24
  2.3223616853105533E-01 a       175     0     7     1    25
 -1.4341300551583000E-01 a       176     0     8     1     1
  2.6787330892342942E-01 a       177     0     8     1     2
 -2.6051274770889954E-01 a       178     0     8     1     3
 -2.3226860350539902E-01 a       179     0     8     1     4
 -3.5646787775001479E-02 a       180     0     8     1     5
 -1.2100145061957233E-01 a       181     0     8     1     6
 -1.4564089436352207E-01 a       182     0     8     1     7
  2.2008444875211280E-02 a       183     0     8     1     8
  2.1099729884727908E-01 a       184     0     8     1     9
  2.7787302768669708E-01 a       185     0     8     1    10
  7.1412613756237520E-03 a       186     0     8     1    11
  5.8967106433514889E-02 a       187     0     8     1    12
 -4.5035501083180531E-02 a       188     0     8     1    13
  3.7653736730478074E-02 a       189     0     8     1    14
 -2.0318528378372135E-02 a       190     0     8     1    15
 -3.4737515967842865E-02 a       191     0     8     1    16
 -1.3328532458931491E-02 a       192     0     8     1    17
 -6.9538334576722080E-02 a       193     0     8     1    18
 -1.0576548997801744E-01 a       194     0     8     1    19
  1.2219282682401247E-01 a       195     0     8     1    20
 -1.1493732147028656E-02 a       196     0     8     1    21
  1.1968382270905396E-01 a       197     0     8     1    22
 -3.6237426370996484E-01 a       198     0     8     1    23
  6.8009599261274797E-02 a       199     0     8     1    24
  4.5595261449142260E-03 a       200     0     8     1    25
  6.8662062770972528E-03 a       201     0     9     1     1
  1.2584538089170058E-02 a       202     0     9     1     2
 -1.1845217733059124E-01 a       203     0     9     1     3
 -2.3874447779905877E-01 a       204     0     9     1     4
  1.9229835853762994E-01 a       205     0     9     1     5
 -1.8051234046892739E-01 a       206     0     9     1     6
  3.1203261165140406E-01 a       207     0     9     1     7
 -3.4873949082105538E-01 a       208     0     9     1     8
 -1.8150642304537520E-01 a       209     0     9     1     9
 -2.0181427006457417E-01 a       210     0     9     1    10
  7.8075251347061489E-02 a       211     0     9     1    11
  1.4452202197927397E-01 a       212     0     9     1    12
  5.3144295372942012E-03 a       213     0     9     1    13
  1.3971739567563962E-01 a       214     0     9     1    14
 -1.6318790048457585E-01 a       215     0     9     1    15
 -1.0507788625797644E-01 a       216     0     9     1    16
  3.7621905233455660E-01 a       217     0     9     1    17
 -1.5340739319643895E-01 a       218     0     9     1    18
  1.1076302868744758E-01 a       219     0     9     1    19
 -8.7868712731423104E-02 a       220     0     9     1    20
 -1.8468808920944821E-01 a       221     0     9     1    21
 -1.8802778574221618E-01 a       222     0     9     1    22
  3.2499795304889667E-02 a       223     0     9     1    23
  4.6104095698703280E-02 a       224     0     9     1    24
  8.9928319038460325E-03 a       225     0     9     1    25
  1.2932153006481706E-01 a       226     0    10     1     1
  5.7503060043252792E-02 a       227     0    10     1     2
 -1.1686130815448553E-01 a       228     0    10     1     3
 -1.1670918521434540E-02 a       229     0    10     1     4
 -2.2603958379176531E-01 a       230     0    10     1     5
 -3.1812672882075656E-02 a       231     0    10     1     6
 -1.9498462159700691E-01 a       232     0    10     1     7
  5.9807963683215518E-02 a       233     0    10     1     8
 -5.9581974855802695E-02 a       234     0    10     1     9
  1.5394406645186023E-01 a       235     0    10     1    10
  9.5273444027388646E-02 a       236     0    10     1    11
 -1.9554452605434935E-02 a       237     0    10     1    12
  1.0394099689542658E-02 a       238     0    10     1    13
 -2.3102689270402821E-01 a       239     0    10     1    14
  6.0482883030806733E-02 a       240     0    10     1    15
 -6.6946286988128587E-02 a       241     0    10     1    16
  9.8505490779748225E-02 a       242     0    10     1    17
  5.8949628700489434E-02 a       243     0    10     1    18
 -5.5099284976965444E-02 a       244     0    10     1    19
 -6.4908806693843843E-02 a       245     0    10     1    20
  9.9701587821823413E-03 a       246     0    10     1    21
  1.7194797931364147E-01 a       247     0    10     1    22
 -1.8289283747726551E-01 a       248     0    10     1    23
  1.7712966106730277E-01 a       249     0    10     1    24
 -2.9732876738249259E-01 a       250     0    10     1    25
 -1.8928717582094134E-01 a       251     0    11     1     1
 -9.5249190186151092E-02 a       252     0    11     1     2
  1.3931697786281105E-01 a       253     0    11     1     3
 -6.2307794538847591E-02 a       254     0    11     1     4
 -3.2001438495637463E-01 a       255     0    11     1     5
  8.7111655785386682E-02 a       256     0    11     1     6
 -1.3530381380745177E-01 a       257     0    11     1     7
 -3.0572976748152891E-01 a       258     0    11     1     8
  9.8164798496194888E-02 a       259     0    11     1     9
  3.4103168462239160E-02 a       260     0    11     1    10
 -1.0646593607474357E-01 a       261     0    11     1    11
 -4.0813438362754653E-02 a       262     0    11     1    12
 -2.3241008981253999E-01 a       263     0    11     1    13
  7.8801876630632026E-02 a       264     0    11     1    14
  4.4062853741283617E-02 a       265     0    11     1    15
 -2.9646255176022174E-01 a       266     0    11     1    16
  8.2822719911973611E-02 a       267     0    11     1    17
 -1.2029867019155530E-01 a       268     0    11     1    18
  1.2620692143379823E-02 a       269     0    11     1    19
  3.7012025994877067E-02 a       270     0    11     1    20
 -1.7147559931204145E-01 a       271     0    11     1    21
 -5.6180325226665336E-02 a       272     0    11     1    22
  1.4063185334735367E-01 a       273     0    11     1    23
  2.2471186280349107E-03 a       274     0    11     1    24
  3.6265137319235675E-02 a       275     0    11     1    25
 -1.8413102976366844E-01 a       276     0    12     1     1
 -1.4633670838134524E-01 a       277     0    12     1     2
  4.5790870567117239E-02 a       278     0    12     1     3
  1.5245779713858190E-01 a       279     0    12     1     4
  2.0564790700314370E-01 a       280     0    12     1     5
 -3.2084869245385308E-03 a       281     0    12     1     6
  5.2717867612498540E-02 a       282     0    12     1     7
 -4.1038423410219647E-02 a       283     0    12     1     8
  1.2918701746466107E-01 a       284     0    12     1     9
  2.3146012065102370E-01 a       285     0    12     1    10
 -4.2127062828417494E-02 a       286     0    12     1    11
  1.1972854150602895E-02 a       287     0    12     1    12
  1.0864200175670269E-01 a       288     0    12     1    13
 -1.0734628163062240E-01 a       289     0    12     1    14
 -2.0289431299101196E-01 a       290     0    12     1    15
  6.8269327917080957E-03 a       291     0    12     1    16
  9.7608542558664663E-02 a       292     0    12     1    17
  9.1134399194378130E-02 a       293     0    12     1    18
  1.9533527158083897E-01 a       294     0    12     1    19
 -2.3557997964519206E-01 a       295     0    12     1    20
 -8.4923952577598091E-02 a       296     0    12     1    21
 -6.8335284980074643E-02 a       297     0    12     1    22
  7.7968341456528048E-02 a       298     0    12     1    23
 -3.1691873741821003E-02 a       299     0    12     1    24
 -1.0977107003229654E-02 a       300     0    12     1    25
 -3.1033140333044323E-01 a       301     0    13     1     1
 -2.1699525786810878E-02 a       302     0    13     1     2
 -1.6462908971824466E-01 a       303     0    13     1     3
  3.6832774270893577E-02 a       304     0    13     1     4
 -1.1826424475053585E-01 a       305     0    13     1     5
  2.1771569392472084E-01 a       306     0    13     1     6
  6.1950356462996039E-03 a       307     0    13     1     7
 -3.4966156747500776E-01 a       308     0    13     1     8
  2.0277845406847610E-02 a       309     0    13     1     9
  2.0521175889343449E-01 a       310     0    13     1    10
 -2.0436719845976417E-01 a       311     0    13     1    11
 -8.4873517203978247E-02 a       312     0    13     1    12
  1.4687847902615519E-02 a       313     0    13     1    13
  2.1404903064625413E-01 a       314     0    13     1    14
  1.2431696750678713E-01 a       315     0    13     1    15
 -1.6382079713274431E-01 a       316     0    13     1    16
 -2.9696667315472292E-01 a       317     0    13     1    17
 -1.2531714042517259E-01 a       318     0    13     1    18
 -3.5958272777192823E-01 a       319     0    13     1    19
 -7.6090210719875290E-02 a       320     0    13     1    20
 -2.8013702091057191E-01 a       321     0    13     1    21
  5.3697408922974033E-01 a       322     0    13     1    22
  6.8674075840098478E-02 a       323     0    13     1    23
  8.0888433084404347E-03 a       324     0    13     1    24
 -9.3737236502291099E-02 a       325     0    13     1    25
 -1.1284161057604120E-02 a       326     0    14     1     1
  2.2744219245575276E-01 a       327     0    14     1     2
 -1.9959668829419613E-02 a       328     0    14     1     3
  2.9373658366187683E-01 a       329     0    14     1     4
 -2.5170824909966905E-01 a       330     0    14     1     5
 -4.6924308237541824E-02 a       331     0    14     1     6
 -7.3076072227154412E-02 a       332     0    14     1     7
  3.9053781781946623E-01 a       333     0    14     1     8
  3.0535910686985945E-01 a       334     0    14     1     9
  1.3039730668185204E-01 a       335     0    14     1    10
  8.6769513656867248E-02 a       336     0    14     1    11
 -4.5925348637011733E-02 a       337     0    14     1    12
  2.6761032090762621E-01 a       338     0    14     1    13
  9.1738716605291280E-03 a       339     0    14     1    14
 -1.5983042549458992E-01 a       340     0    14     1    15
  2.1654048583938415E-01 a       341     0    14     1    16
 -2.5151194103405000E-01 a       342     0    14     1    17
  2.3898126977974221E-01 a       343     0    14     1    18
 -3.0794687157433765E-02 a       344     0    14     1    19
  5.5890988159812180E-02 a       345     0    14     1    20
 -1.6785690636476885E-01 a       346     0    14     1    21
 -1.7068922105665818E-03 a       347     0    14     1    22
  5.1522436135006386E-02 a       348     0    14     1    23
  1.7202004973096451E-02 a       349     0    14     1    24
 -1.5314665339001032E-01 a       350     0    14     1    25
 -7.1608959306360326E-02 a       351     0    15     1     1
 -1.4898009758021663E-02 a       352     0    15     1     2
 -3.8500437046579794E-01 a       353     0    15     1     3
 -7.3401922692139895E-02 a       354     0    15     1     4
 -3.6676958456882444E-02 a       355     0    15     1     5
  5.1092817895576258E-02 a       356     0    15     1     6
 -7.8023892309866449E-02 a       357     0    15     1     7
 -1.7608415918635123E-01 a       358     0    15     1     8
  2.3972892020417410E-02 a       359     0    15     1     9
 -8.4557737886595791E-02 a       360     0    15     1    10
  1.8717622940177054E-02 a       361     0    15     1    11
 -1.7000187056019730E-01 a       362     0    15     1    12
  9.9440535196569688E-02 a       363     0    15     1    13
 -3.7234504349616365E-02 a       364     0    15     1    14
 -1.4920427335409719E-01 a       365     0    15     1    15
  1.5517227832451580E-01 a       366     0    15     1    16
  4.1278248910634890E-02 a       367     0    15     1    17
 -1.3269964626971842E-01 a       368     0    15     1    18
 -2.1727232288781193E-01 a       369     0    15     1    19
  2.5954713355641829E-02 a       370     0    15     1    20
  1.1548503442018782E-01 a       371     0    15     1    21
  1.3525399488860571E-02 a       372     0    15     1    22
 -4.3082215255041745E-02 a       373     0    15     1    23
 -1.5132706359688516E-01 a       374     0    15     1    24
  2.5348606364598603E-01 a       375     0    15     1    25
  2.0749482387986593E-01 a       376     0    16     1     1
 -1.5320667025359894E-01 a       377     0    16     1     2
  1.3302946358391296E-01 a       378     0    16     1     3
 -2.5263549834585723E-02 a       379     0    16     1     4
 -5.0868099771732483E-02 a       380     0    16     1     5
 -8.5535129005275976E-02 a       381     0    16     1     6
  3.6754870056012787E-02 a       382     0    16     1     7
  2.8970936652534995E-01 a       383     0    16     1     8
 -1.2666955500369512E-01 a       384     0    16     1     9
 -9.1994854674452578E-02 a       385     0    16     1    10
  2.4630248935723650E-01 a       386     0    16     1    11
 -2.1524897321298048E-02 a       387     0    16     1    12
  2.5243037920652606E-01 a       388     0    16     1    13
 -1.0250156549825080E-01 a       389     0    16     1    14
  8.4475932431017933E-02 a       390     0    16     1    15
 -7.4301387475377595E-02 a       391     0    16     1    16
  8.3566910252438897E-03 a       392     0    16     1    17
  6.0621795506734480E-02 a       393     0    16     1    18
 -7.0354627795630453E-02 a       394     0    16     1    19
  1.0153017715416145E-01 a       395     0    16     1    20
 -2.8763922454479649E-02 a       396     0    16     1    21
  9.4671039913012400E-02 a       397     0    16     1    22
 -2.1052090389486675E-01 a       398     0    16     1    23
  9.9250979121017893E-02 a       399     0    16     1    24
  3.3427181130672834E-02 a       400     0    16     1    25
 -9.8700769870715577E-02 a       401     0    17     1     1
  6.1626565266272255E-02 a       402     0    17     1     2
 -2.6927910714471509E-01 a       403     0    17     1     3
 -1.0619585243885092E-01 a       404     0    17     1     4
  2.8604369111849470E-01 a       405     0    17     1     5
 -2.8087352871105703E-01 a       406     0    17     1     6
  1.0100658680326315E-01 a       407     0    17     1     7
 -2.1386800943010847E-01 a       408     0    17     1     8
 -1.8557732250469744E-01 a       409     0    17     1     9
 -1.2124928151023397E-01 a       410     0    17     1    10
  1.0226501688808830E-01 a       411     0    17     1    11
  1.2573014100269225E-01 a       412     0    17     1    12
 -4.9753160212267411E-01 a       413     0    17     1    13
  2.5132486745379251E-01 a       414     0    17     1    14
 -1.1217943524870791E-01 a       415     0    17     1    15
 -5.1660433031094743E-02 a       416     0    17     1    16
  1.6530977192072707E-01 a       417     0    17     1    17
 -1.1470269961829033E-01 a       418     0    17     1    18
  5.1090198659889379E-03 a       419     0    17     1    19
  8.2367913024843378E-02 a       420     0    17     1    20
  1.9693932479720275E-02 a       421     0    17     1    21
 -2.1196665063774489E-01 a       422     0    17     1    22
  7.9295499398607236E-02 a       423     0    17     1    23
 -3.9497161928800902E-03 a       424     0    17     1    24
  7.3407451371455781E-02 a       425     0    17     1    25
  1.4752542339111505E-01 a       426     0    18     1     1
  1.2195970747211081E-01 a       427     0    18     1     2
  2.8840109603443886E-01 a       428     0    18     1     3
 -2.3875251927788904E-01 a       429     0    18     1     4
 -1.6715722503222646E-01 a       430     0    18     1     5
 -4.7647015252899022E-02 a       431     0    18     1     6
  3.6519084614800489E-02 a       432     0    18     1     7
  2.2647406294187908E-01 a       433     0    18     1     8
 -5.5585604763074337E-02 a       434     0    18     1     9
 -3.4416390482658932E-02 a       435     0    18     1    10
  1.6682241860430458E-01 a       436     0    18     1    11
 -6.4600815508049927E-02 a       437     0    18     1    12
  6.6434258922119058E-02 a       438     0    18     1    13
 -2.4438953811563996E-01 a       439     0    18     1    14
  2.6705775143742660E-01 a       440     0    18     1    15
  6.8314630425664782E-02 a       441     0    18     1    16
  1.4853462333975884E-01 a       442     0    18     1    17
 -6.8513497947231120E-02 a       443     0    18     1    18
 -8.6911051025782296E-02 a       444     0    18     1    19
  6.3263956879295688E-02 a       445     0    18     1    20
  8.8934462364060274E-02 a       446     0    18     1    21
 -6.9462871513706961E-02 a       447     0    18     1    22
 -2.3279067068356629E-01 a       448     0    18     1    23
  2.4106664198153654E-01 a       449     0    18     1    24
 -1.3571753917332910E-01 a       450     0    18     1    25
 -1.1338090212753010E-01 a       451     0    19     1     1
 -1.0999221693292296E-01 a       452     0    19     1     2
  4.1859814422735626E-02 a       453     0    19     1     3
  9.1462824115639579E-02 a       454     0    19     1     4
  2.8976094466921041E-02 a       455     0    19     1     5
 -6.4234006344072003E-02 a       456     0    19     1     6
 -2.4747901271953796E-01 a       457     0    19     1     7
  1.6443128776739806E-02 a       458     0    19     1     8
  2.2704191940675005E-02 a       459     0    19     1     9
  7.2323564883141386E-02 a       460     0    19     1    10
 -4.1174909983489043E-02 a       461     0    19     1    11
  1.5574492972889045E-01 a       462     0    19     1    12
 -2.0728890314593174E-01 a       463     0    19     1    13
  1.3867577334971720E-01 a       464     0    19     1    14
  1.5743403568019034E-02 a       465     0    19     1    15
 -1.1658538586240543E-02 a       466     0    19     1    16
  6.2276486702578557E-02 a       467     0    19     1    17
 -4.5847157373058833E-02 a       468     0    19     1    18
 -9.0074948311956282E-02 a       469     0    19     1    19
 -5.2201556855410544E-02 a       470     0    19     1    20
  1.1049224171534523E-01 a       471     0    19     1    21
  2.1756206701594513E-01 a       472     0    19     1    22
  9.0602951211315397E-02 a       473     0    19     1    23
 -7.2047384530513722E-02 a       474     0    19     1    24
  3.3129208111598711E-03 a       475     0    19     1    25
 -6.0190728936819704E-02 a       476     0    20     1     1
  5.5007001575834661E-03 a       477     0    20     1     2
 -1.2072809980178421E-01 a       478     0    20     1     3
 -1.7990621230990803E-01 a       479     0    20     1     4
  4.9849870499315635E-02 a       480     0    20     1     5
 -7.4250351441618422E-03 a       481     0    20     1     6
  1.7082471448392744E-01 a       482     0    20     1     7
 -4.6391687053498776E-02 a       483     0    20     1     8
  1.9324175559638615E-01 a       484     0    20     1     9
  1.5661302939271846E-01 a       485     0    20     1    10
  4.7259902820029905E-02 a       486     0    20     1    11
 -7.8927127529567469E-03 a       487     0    20     1    12
  1.3494336635550777E-01 a       488     0    20     1    13
  1.2547580144111467E-02 a       489     0    20     1    14
  1.2502383059334596E-01 a       490     0    20     1    15
  3.8509979725917874E-02 a       491     0    20     1    16
 -4.0595934239059370E-02 a       492     0    20     1    17
  6.1142299911362732E-02 a       493     0    20     1    18
 -5.9096686176318386E-02 a       494     0    20     1    19
 -6.4743609010111808E-02 a       495     0    20     1    20
 -1.9037611448961497E-01 a       496     0    20     1    21
 -1.7351190366950003E-01 a       497     0    20     1    22
 -1.7556234082207858E-01 a       498     0    20     1    23
  1.1195823052404622E-01 a       499     0    20     1    24
 -1.0666040214605849E-01 a       500     0    20     1    25
 -1.4507779908295049E-01 a       501     0    21     1     1
 -7.4651205875625529E-02 a       502     0    21     1     2
 -1.7480183289438014E-01 a       503     0    21     1     3
  3.7472754392993447E-02 a       504     0    21     1     4
 -2.2049224818275051E-01 a       505     0    21     1     5
  2.5299098485033683E-01 a       506     0    21     1     6
  7.9609008233395943E-03 a       507     0    21     1     7
 -1.1318464507483085E-01 a       508     0    21     1     8
  7.3034307409654525E-02 a       509     0    21     1     9
  8.3671379706425020E-02 a       510     0    21     1    10
 -9.3573325738512084E-02 a       511     0    21     1    11
 -1.6597369325134631E-01 a       512     0    21     1    12
  1.5448686352972998E-01 a       513     0    21     1    13
  1.0606724213246990E-01 a       514     0    21     1    14
  4.9343462282525924E-02 a       515     0    21     1    15
  1.1134442351596094E-02 a       516     0    21     1    16
 -3.2489034337361639E-01 a       517     0    21     1    17
 -3.4048503000495856E-01 a       518     0    21     1    18
 -1.0441355559891397E-01 a       519     0    21     1    19
 -1.2649821790718840E-01 a       520     0    21     1    20
 -8.0047294760524357E-02 a       521     0    21     1    21
  3.1717273160428494E-01 a       522     0    21     1    22
  1.8810763971027173E-02 a       523     0    21     1    23
 -1.4550418346306759E-01 a       524     0    21     1    24
  1.7092236975540989E-01 a       525     0    21     1    25
  6.6498398207027506E-02 a       526     0    22     1     1
  7.3882725667506977E-02 a       527     0    22     1     2
  1.0916136673360630E-01 a       528     0    22     1     3
  1.1227445688959536E-01 a       529     0    22     1     4
  6.8112016466918418E-02 a       530     0    22     1     5
 -2.0297727605019258E-02 a       531     0    22     1     6
 -9.0215936457805589E-03 a       532     0    22     1     7
  9.3115365104060405E-02 a       533     0    22     1     8
  2.7210524872718295E-01 a       534     0    22     1     9
  7.2425548467896818E-03 a       535     0    22     1    10
 -1.0224697236374941E-01 a       536     0    22     1    11
  1.1588115831004291E-01 a       537     0    22     1    12
  2.7578757438363444E-01 a       538     0    22     1    13
 -4.9303469837484799E-02 a       539     0    22     1    14
 -7.3184223286801270E-02 a       540     0    22     1    15
  7.9396740222891712E-02 a       541     0    22     1    16
 -7.7989955791725782E-02 a       542     0    22     1    17
  3.3999246487044432E-01 a       543     0    22     1    18
  1.3811314092058274E-01 a       544     0    22     1    19
 -6.9696605661090955E-02 a       545     0    22     1    20
  9.6353413751452288E-02 a       546     0    22     1    21
 -2.4605423787988776E-02 a       547     0    22     1    22
 -5.7241437378831632E-02 a       548     0    22     1    23
  1.7005731138646046E-01 a       549     0    22     1    24
 -2.9719664438581206E-01 a       550     0    22     1    25
 -8.0451287806718244E-02 a       551     0    23     1     1
  9.0442581734065629E-03 a       552     0    23     1     2
 -1.8573655480840431E-01 a       553     0    23     1     3
 -1.0000383765370266E-01 a       554     0    23     1     4
 -1.4558929589430333E-01 a       555     0    23     1     5
  4.1198405076152009E-02 a       556     0    23     1     6
  7.5733302014343154E-02 a       557     0    23     1     7
 -2.1113693627562577E-01 a       558     0    23     1     8
 -8.0048117318773801E-02 a       559     0    23     1     9
 -4.8597732252978108E-02 a       560     0    23     1    10
  1.3642571586331104E-01 a       561     0    23     1    11
 -2.2856409529452723E-01 a       562     0    23     1    12
 -2.8222285855719832E-02 a       563     0    23     1    13
  1.0525543350492017E-01 a       564     0    23     1    14
 -1.7265192913131196E-03 a       565     0    23     1    15
 -3.8343707935425533E-02 a       566     0    23     1    16
 -2.2023237447747263E-01 a       567     0    23     1    17
 -1.5297612136496558E-01 a       568     0    23     1    18
 -2.0837584067232164E-02 a       569     0    23     1    19
  4.7660106019427634E-02 a       570     0    23     1    20
 -3.9224561482638448E-02 a       571     0    23     1    21
 -8.0942081182828932E-02 a       572     0    23     1    22
  2.2781580410207078E-03 a       573     0    23     1    23
 -4.4505148991905760E-02 a       574     0    23     1    24
  1.1741955235867291E-01 a       575     0    23     1    25
  3.6519469639426558E-03 a       576     0    24     1     1
  5.0863496066321838E-02 a       577     0    24     1     2
  4.1264803361004763E-02 a       578     0    24     1     3
 -5.4934588105963772E-02 a       579     0    24     1     4
  1.1862705921823841E-02 a       580     0    24     1     5
 -3.0656335382481446E-02 a       581     0    24     1     6
 -1.5699608487159747E-01 a       582     0    24     1     7
 -8.3871207075603207E-02 a       583     0    24     1     8
  1.9714119561358073E-01 a       584     0    24     1     9
 -1.0828849364256904E-01 a       585     0    24     1    10
 -1.5090397792966331E-01 a       586     0    24     1    11
  8.8471351507998897E-02 a       587     0    24     1    12
  8.1059104556659517E-02 a       588     0    24     1    13
 -3.0236251144562992E-01 a       589     0    24     1    14
 -1.1227395684415248E-01 a       590     0    24     1    15
 -1.3889292283189900E-02 a       591     0    24     1    16
  2.4355747606254727E-02 a       592     0    24     1    17
  1.9349826237026219E-01 a       593     0    24     1    18
  1.3146790198156344E-01 a       594     0    24     1    19
 -4.5250972211100284E-02 a       595     0    24     1    20
  4.9160700542482137E-02 a       596     0    24     1    21
  1.3820689707961598E-01 a       597     0    24     1    22
 -1.4122497799136966E-02 a       598     0    24     1    23
 -5.9084601684780670E-02 a       599     0    24     1    24
 -1.9868757420218561E-01 a       600     0    24     1    25
 -1.7442027392340367E-02 a       601     0    25     1     1
 -1.3698080498468646E-02 a       602     0    25     1     2
  2.9070893654245630E-02 a       603     0    25     1     3
  4.1489278207620030E-02 a       604     0    25     1     4
  1.6009726358310367E-01 a       605     0    25     1     5
 -1.6471542718142013E-01 a       606     0    25     1     6
  1.3725904099172558E-02 a       607     0    25     1     7
 -2.6959505535428883E-02 a       608     0    25     1     8
 -1.6352360048879996E-01 a       609     0    25     1     9
 -7.8646733706834962E-02 a       610     0    25     1    10
  1.1881961731010850E-01 a       611     0    25     1    11
  6.1441671818167391E-02 a       612     0    25     1    12
 -2.6790505622392907E-01 a       613     0    25     1    13
  2.1372515342105516E-01 a       614     0    25     1    14
 -1.2244216748049611E-02 a       615     0    25     1    15
 -1.1556223444079890E-02 a       616     0    25     1    16
 -2.2165166049337690E-01 a       617     0    25     1    17
  3.2167733123522502E-02 a       618     0    25     1    18
 -1.4074603828607135E-01 a       619     0    25     1    19
  2.1535188096594907E-01 a       620     0    25     1    20
 -4.2333451617666107E-02 a       621     0    25     1    21
 -7.3792385344469746E-02 a       622     0    25     1    22
  1.2604072442142086E-01 a       623     0    25     1    23
 -1.2995996092687426E-01 a       624     0    25     1    24
  1.3926250540645327E-01 a       625     0    25     1    25
  1.3395474716002335E-02 a       626     0    26     1     1
 -2.6460399559997058E-02 a       627     0    26     1     2
  1.0045864556794339E-01 a       628     0    26     1     3
 -1.3888320765342635E-01 a       629     0    26     1     4
 -2.4001904825825406E-02 a       630     0    26     1     5
  1.9643632359858890E-03 a       631     0    26     1     6
  9.1591762875737878E-02 a       632     0    26     1     7
 -3.7135283795375514E-02 a       633     0    26     1     8
 -5.2833388483869002E-02 a       634     0    26     1     9
  5.1253514259261654E-02 a       635     0    26     1    10
  5.6242681565063360E-02 a       636     0    26     1    11
 -7.4316600081930726E-03 a       637     0    26     1    12
 -1.2149631755958869E-02 a       638     0    26     1    13
 -2.8872049921844001E-01 a       639     0    26     1    14
  6.1095771251816061E-02 a       640     0    26     1    15
 -6.1945856033938519E-02 a       641     0    26     1    16
  3.2534372142323870E-01 a       642     0    26     1    17
  9.0129899913948264E-03 a       643     0    26     1    18
 -1.2802715088076407E-02 a       644     0    26     1    19
 -8.6619349198106474E-02 a       645     0    26     1    20
 -3.3726051967576332E-02 a       646     0    26     1    21
 -7.7998822823734229E-02 a       647     0    26     1    22
 -1.0851491833373948E-01 a       648     0    26     1    23
  1.0765148628839978E-01 a       649     0    26     1    24
  6.4164050759320329E-02 a       650     0    26     1    25
  3.8203269263552365E-02 a       651     0    27     1     1
 -1.0667237549089404E-03 a       652     0    27     1     2
  1.6383603670837712E-02 a       653     0    27     1     3
  1.1129378294321357E-01 a       654     0    27     1     4
  1.2936593850493205E-01 a       655     0    27     1     5
 -1.8895861461440150E-02 a       656     0    27     1     6
  5.4148080436849794E-03 a       657     0    27     1     7
  1.5571083664409130E-01 a       658     0    27     1     8
  1.1805584253929456E-01 a       659     0    27     1     9
 -3.6168709550575065E-02 a       660     0    27     1    10
 -8.3711712380189721E-02 a       661     0    27     1    11
  1.3550734302675657E-01 a       662     0    27     1    12
 -5.5042441129929655E-02 a       663     0    27     1    13
  1.1074379296108845E-02 a       664     0    27     1    14
  3.6890878791215012E-02 a       665     0    27     1    15
  7.4924375339275068E-02 a       666     0    27     1    16
  4.4470637506467028E-02 a       667     0    27     1    17
 -2.3079572698625889E-02 a       668     0    27     1    18
  6.6128012310462227E-03 a       669     0    27     1    19
 -4.3651429007462023E-02 a       670     0    27     1    20
  1.3787777245169695E-02 a       671     0    27     1    21
  1.3616478799314335E-01 a       672     0    27     1    22
  8.0188159521229943E-02 a       673     0    27     1    23
 -5.5069161089836057E-03 a       674     0    27     1    24
 -9.7869151716186847E-03 a       675     0    27     1    25
  2.6276029185970176E-02 a       676     0    28     1     1
 -1.7703745951976690E-01 a       677     0    28     1     2
  1.3748851368450257E-01 a       678     0    28     1     3
 -7.2607432010081477E-03 a       679     0    28     1     4
  1.5990061420440385E-01 a       680     0    28     1     5
 -7.9833710776224823E-02 a       681     0    28     1     6
  9.2406932202805547E-02 a       682     0    28     1     7
  1.2096792509374804E-01 a       683     0    28     1     8
 -5.2991652232762143E-02 a       684     0    28     1     9
  4.2820881385006171E-02 a       685     0    28     1    10
  1.8254819261277105E-01 a       686     0    28     1    11
 -7.8451906334989774E-03 a       687     0    28     1    12
  1.8512526930177964E-01 a       688     0    28     1    13
  3.2386612530039535E-02 a       689     0    28     1    14
  3.5517177808762998E-02 a       690     0    28     1    15
 -8.4452936921662031E-02 a       691     0    28     1    16
  8.1322463765598305E-02 a       692     0    28     1    17
 -4.7580381608790988E-02 a       693     0    28     1    18
 -4.0389731449613914E-02 a       694     0    28     1    19
 -8.0922540748525534E-02 a       695     0    28     1    20
 -6.6418129415079366E-02 a       696     0    28     1    21
 -9.5314486310528718E-02 a       697     0    28     1    22
 -4.3401655852940750E-02 a       698     0    28     1    23
  4.3911272506192605E-03 a       699     0    28     1    24
  4.0556098859063320E-04 a       700     0    28     1    25
 -1.9225806365422458E-02 a       701     0    29     1     1
 -3.9620683495908533E-02 a       702     0    29     1     2
 -2.1257309571692212E-01 a       703     0    29     1     3
  4.6037575094170224E-02 a       704     0    29     1     4
 -1.9140124646627199E-01 a       705     0    29     1     5
  1.4415920003476487E-01 a       706     0    29     1     6
 -2.2955121756853755E-02 a       707     0    29     1     7
  3.2016232857935777E-02 a       708     0    29     1     8
 -1.0480145286168795E-02 a       709     0    29     1     9
  6.9043594790255583E-02 a       710     0    29     1    10
 -3.5090992538921895E-02 a       711     0    29     1    11
 -1.8567286420155138E-01 a       712     0    29     1    12
  7.1903955509662734E-02 a       713     0    29     1    13
  5.4443420861969724E-02 a       714     0    29     1    14
 -1.7257462288123505E-02 a       715     0    29     1    15
  1.1230720424736515E-01 a       716     0    29     1    16
  6.0801926719788915E-02 a       717     0    29     1    17
 -1.5790572574778747E-01 a       718     0    29     1    18
  1.0225850107718584E-01 a       719     0    29     1    19
  4.7778824163294221E-03 a       720     0    29     1    20
  7.4459740171180802E-02 a       721     0    29     1    21
  5.4798343758476455E-02 a       722     0    29     1    22
 -1.0263637448073179E-01 a       723     0    29     1    23
  3.3942234745229942E-02 a       724     0    29     1    24
 -1.4351357554910750E-02 a       725     0    29     1    25
  9.1279177282576118E-02 a       726     0    30     1     1
  2.5070378040944336E-02 a       727     0    30     1     2
  1.1809370208122637E-01 a       728     0    30     1     3
  2.5798147860821522E-03 a       729     0    30     1     4
  1.6268996730622021E-01 a       730     0    30     1     5
 -5.0578351332658450E-02 a       731     0    30     1     6
 -8.2413024704435109E-02 a       732     0    30     1     7
  6.5998470513916857E-02 a       733     0    30     1     8
  1.7261871591250297E-02 a       734     0    30     1     9
 -2.0336604540219232E-02 a       735     0    30     1    10
 -1.2313204374094297E-01 a       736     0    30     1    11
  1.4404845763577520E-01 a       737     0    30     1    12
  1.8894465778264344E-01 a       738     0    30     1    13
  1.4618905325941220E-03 a       739     0    30     1    14
  4.5724199098942127E-04 a       740     0    30     1    15
  1.6766183747962883E-02 a       741     0    30     1    16
 -2.3310110062199099E-02 a       742     0    30     1    17
  2.0957176245456074E-01 a       743     0    30     1    18
  5.0887402814387269E-03 a       744     0    30     1    19
 -5.6302026029419673E-02 a       745     0    30     1    20
 -1.1431791301274551E-02 a       746     0    30     1    21
  8.8721038515222530E-03 a       747     0    30     1    22
  4.5769874150962666E-03 a       748     0    30     1    23
  1.1054232508022090E-01 a       749     0    30     1    24
 -2.0575079194838591E-01 a       750     0    30     1    25
 -2.3769189500650885E-02 a       751     0    31     1     1
 -3.5532826263466551E-02 a       752     0    31     1     2
 -6.9476060834461340E-02 a       753     0    31     1     3
 -4.2516204585422591E-03 a       754     0    31     1     4
 -1.8177893301633016E-01 a       755     0    31     1     5
  3.4102264167248028E-02 a       756     0    31     1     6
  1.0068135222864224E-02 a       757     0    31     1     7
 -1.3027822362891597E-01 a       758     0    31     1     8
 -3.0322171369349699E-01 a       759     0    31     1     9
  5.9973276458023646E-02 a       760     0    31     1    10
  6.5171018494323135E-02 a       761     0    31     1    11
 -1.3188751267084514E-01 a       762     0    31     1    12
  8.1688497009848426E-02 a       763     0    31     1    13
  1.0702207694763269E-01 a       764     0    31     1    14
  1.2503598658653959E-02 a       765     0    31     1    15
  3.5499038464955668E-02 a       766     0    31     1    16
  3.4626777477327611E-03 a       767     0    31     1    17
 -2.5061126958154420E-02 a       768     0    31     1    18
 -1.5039385555308166E-01 a       769     0    31     1    19
  4.2402375600207140E-02 a       770     0    31     1    20
 -1.0506135824607868E-01 a       771     0    31     1    21
 -3.3588378135807416E-02 a       772     0    31     1    22
 -1.9077266383848115E-02 a       773     0    31     1    23
 -1.5169138671556104E-01 a       774     0    31     1    24
  1.0320501406415557E-01 a       775     0    31     1    25
 -2.8598365122634334E-02 a       776     0    32     1     1
  1.4641742679682643E-01 a       777     0    32     1     2
  2.8936748780135101E-02 a       778     0    32     1     3
 -5.4924711614715974E-02 a       779     0    32     1     4
 -1.0053754354834989E-01 a       780     0    32     1     5
  4.2912589452399350E-03 a       781     0    32     1     6
 -1.0896712933436027E-01 a       782     0    32     1     7
 -1.1712811804613388E-01 a       783     0    32     1     8
  1.7624471480277726E-01 a       784     0    32     1     9
 -7.7142089282421458E-02 a       785     0    32     1    10
 -1.3003367805046126E-01 a       786     0    32     1    11
  7.4213084196189452E-02 a       787     0    32     1    12
 -6.7428993715814220E-02 a       788     0    32     1    13
 -6.1902362406574592E-03 a       789     0    32     1    14
  2.3534529220090576E-02 a       790     0    32     1    15
 -3.2073310611439809E-02 a       791     0    32     1    16
 -6.3404921585482082E-02 a       792     0    32     1    17
  1.2825406196062444E-01 a       793     0    32     1    18
  3.7928032552805975E-02 a       794     0    32     1    19
  2.3632269136809641E-02 a       795     0    32     1    20
  1.2363066325143540E-01 a       796     0    32     1    21
  6.8460781581903177E-02 a       797     0    32     1    22
  3.2569596738476255E-03 a       798     0    32     1    23
  1.8406885310343228E-02 a       799     0    32     1    24
 -8.1545309250059261E-02 a       800     0    32     1    25
 -5.8975649112391259E-03 a       801     0    33     1     1
  5.1108892839044240E-02 a       802     0    33     1     2
  4.5214372545877970E-02 a       803     0    33     1     3
  2.9286405471831357E-02 a       804     0    33     1     4
  1.8591473159216183E-03 a       805     0    33     1     5
 -8.0826099977922547E-02 a       806     0    33     1     6
 -1.1525710931011148E-02 a       807     0    33     1     7
 -8.1687396535226071E-03 a       808     0    33     1     8
 -8.1217776174321177E-03 a       809     0    33     1     9
 -3.4935511834868094E-02 a       810     0    33     1    10
  5.7366336180942910E-02 a       811     0    33     1    11
  4.9406704856103136E-02 a       812     0    33     1    12
 -8.2918951263216051E-02 a       813     0    33     1    13
  1.0870354290729363E-02 a       814     0    33     1    14
 -3.6515960016892245E-02 a       815     0    33     1    15
 -4.9020521157459626E-02 a       816     0    33     1    16
 -5.6190779201441200E-02 a       817     0    33     1    17
  3.3467308843556962E-02 a       818     0    33     1    18
 -6.1516829996780945E-02 a       819     0    33     1    19
  4.4879148902836202E-02 a       820     0    33     1    20
 -6.8100115268864225E-02 a       821     0    33     1    21
 -8.0289869730519429E-03 a       822     0    33     1    22
  7.0988745593031977E-02 a       823     0    33     1    23
 -9.6510950179286029E-02 a       824     0    33     1    24
  4.8415816838807017E-02 a       825     0    33     1    25
 -5.5436813550810649E-02 a       826     0    34     1     1
  3.8339835017147841E-02 a       827     0    34     1     2
 -6.5409166893384094E-02 a       828     0    34     1     3
 -3.8589450586465152E-02 a       829     0    34     1     4
 -8.7378579463388492E-02 a       830     0    34     1     5
  4.4838484268430880E-02 a       831     0    34     1     6
  1.0384539866588478E-01 a       832     0    34     1     7
 -5.8003675219577902E-02 a       833     0    34     1     8
  1.4745869224807304E-01 a       834     0    34     1     9
 -7.5448182019953978E-03 a       835     0    34     1    10
  4.7447668390084408E-02 a       836     0    34     1    11
 -3.8005183012850510E-02 a       837     0    34     1    12
 -1.1030890759455755E-01 a       838     0    34     1    13
 -1.0523875906865972E-01 a       839     0    34     1    14
  2.9765488911964507E-03 a       840     0    34     1    15
 -4.4345631824458463E-02 a       841     0    34     1    16
  5.7422758296939318E-02 a       842     0    34     1    17
 -1.1427755199236692E-01 a       843     0    34     1    18
  6.7067043773462384E-02 a       844     0    34     1    19
 -4.2766182098100743E-02 a       845     0    34     1    20
  2.7381668538250383E-02 a       846     0    34     1    21
 -1.4876057157507630E-02 a       847     0    34     1    22
  3.7761189290019545E-03 a       848     0    34     1    23
  6.5910453718758862E-03 a       849     0    34     1    24
  5.5720529151570872E-02 a       850     0    34     1    25
 -7.5849520498148526E-03 a       851     0    35     1     1
  2.5799063433917840E-02 a       852     0    35     1     2
  5.0092025452096308E-04 a       853     0    35     1     3
  7.4739653761475410E-03 a       854     0    35     1     4
  9.0804763940396688E-02 a       855     0    35     1     5
 -4.5452788929611361E-02 a       856     0    35     1     6
 -4.2900076754744006E-02 a       857     0    35     1     7
  4.4526085756932211E-02 a       858     0    35     1     8
  2.5641690262353284E-01 a       859     0    35     1     9
 -5.9579043380460980E-02 a       860     0    35     1    10
  2.9481109463383486E-02 a       861     0    35     1    11
  5.6727469506893724E-02 a       862     0    35     1    12
 -7.9184646465277564E-02 a       863     0    35     1    13
 -2.6184627321147002E-03 a       864     0    35     1    14
 -3.1231221016032259E-02 a       865     0    35     1    15
 -8.0531230308420479E-02 a       866     0    35     1    16
 -6.6680404229446308E-02 a       867     0    35     1    17
 -1.1163540777114811E-02 a       868     0    35     1    18
  1.3845133082822106E-01 a       869     0    35     1    19
 -1.1689783720467521E-02 a       870     0    35     1    20
  8.4298780063828627E-02 a       871     0    35     1    21
  4.0297408664463991E-02 a       872     0    35     1    22
  5.3537712159640836E-02 a       873     0    35     1    23
  4.8674135203786439E-02 a       874     0    35     1    24
 -7.8158512070256148E-02 a       875     0    35     1    25
  5.1873612496509507E-02 a       876     0    36     1     1
 -1.1273575438654730E-01 a       877     0    36     1     2
 -4.2812469074472344E-02 a       878     0    36     1     3
  5.4288585225742036E-02 a       879     0    36     1     4
  8.6807319250858203E-02 a       880     0    36     1     5
 -3.6575104852762566E-02 a       881     0    36     1     6
 -8.4394253751777679E-04 a       882     0    36     1     7
  8.2972598500393901E-02 a       883     0    36     1     8
 -4.7138115992516487E-02 a       884     0    36     1     9
  8.1615606761829794E-03 a       885     0    36     1    10
  7.7643272235233554E-02 a       886     0    36     1    11
 -5.6832087568467894E-02 a       887     0    36     1    12
  1.2042687063181001E-01 a       888     0    36     1    13
 -8.8284507157123437E-02 a       889     0    36     1    14
 -7.6476733192526902E-02 a       890     0    36     1    15
 -3.4179926964432866E-02 a       891     0    36     1    16
  1.4129961062372037E-01 a       892     0    36     1    17
 -3.5133387421848461E-02 a       893     0    36     1    18
  2.3804247313491362E-02 a       894     0    36     1    19
 -7.7228155392579961E-02 a       895     0    36     1    20
 -1.3343688979141122E-01 a       896     0    36     1    21
  2.7634346803684425E-03 a       897     0    36     1    22
  2.9619940629981131E-02 a       898     0    36     1    23
 -5.6437154032133605E-02 a       899     0    36     1    24
 -2.1112159082913865E-02 a       900     0    36     1    25
 -1.3239968932222436E-02 a       901     0    37     1     1
 -4.2082610373504505E-02 a       902     0    37     1     2
 -1.0283926752189702E-02 a       903     0    37     1     3
  7.9817238444355246E-03 a       904     0    37     1     4
 -9.7665924746646589E-04 a       905     0    37     1     5
  3.5245687908295097E-02 a       906     0    37     1     6
 -4.3038104131718231E-03 a       907     0    37     1     7
 -9.4217545820365293E-03 a       908     0    37     1     8
 -1.7057334216685144E-03 a       909     0    37     1     9
  9.0552770618722231E-03 a       910     0    37     1    10
  5.1264931872773483E-03 a       911     0    37     1    11
 -4.0033026228223252E-02 a       912     0    37     1    12
  6.2216435033764523E-03 a       913     0    37     1    13
  4.7029906677911515E-02 a       914     0    37     1    14
  9.4924189379672688E-03 a       915     0    37     1    15
  3.6119010323688722E-02 a       916     0    37     1    16
 -2.1472415532431104E-02 a       917     0    37     1    17
 -5.5033076092065043E-02 a       918     0    37     1    18
  2.9431547873226618E-02 a       919     0    37     1    19
  2.8477961425396079E-02 a       920     0    37     1    20
  5.8022650244192168E-02 a       921     0    37     1    21
 -1.7091590290373628E-02 a       922     0    37     1    22
 -3.4499534489266792E-02 a       923     0    37     1    23
  2.0976037521069475E-02 a       924     0    37     1    24
  4.5421781197910367E-05 a       925     0    37     1    25
  2.9041829874684337E-02 a       926     0    38     1     1
 -1.4413088933784519E-02 a       927     0    38     1     2
  9.5080432084176075E-02 a       928     0    38     1     3
 -1.6282271548147782E-02 a       929     0    38     1     4
  9.0026589201072926E-02 a       930     0    38     1     5
 -3.5877686354036688E-02 a       931     0    38     1     6
 -5.4552005350781398E-02 a       932     0    38     1     7
  1.7338685827122325E-02 a       933     0    38     1     8
 -5.7825924112974235E-02 a       934     0    38     1     9
  2.6782945219437984E-02 a       935     0    38     1    10
 -4.8569521896460049E-02 a       936     0    38     1    11
  9.3963820439765408E-02 a       937     0    38     1    12
  6.4690854841089690E-02 a       938     0    38     1    13
 -8.7671422212312714E-06 a       939     0    38     1    14
  1.1390239134771692E-02 a       940     0    38     1    15
  3.0531661713485106E-02 a       941     0    38     1    16
  1.0063444183864670E-02 a       942     0    38     1    17
  9.6615109249992698E-02 a       943     0    38     1    18
 -5.1439692407322997E-02 a       944     0    38     1    19
 -3.6393771634864007E-02 a       945     0    38     1    20
 -7.8637141460210570E-04 a       946     0    38     1    21
  2.9870667040985534E-03 a       947     0    38     1    22
 -3.9291697312307684E-03 a       948     0    38     1    23
  3.3136533585613193E-02 a       949     0    38     1    24
 -1.1432661282935132E-01 a       950     0    38     1    25
  2.1368796108982506E-02 a       951     0    39     1     1
 -3.7469991661831091E-02 a       952     0    39     1     2
 -5.3879999484480849E-02 a       953     0    39     1     3
  3.2565125223249711E-02 a       954     0    39     1     4
 -5.9148829787205877E-02 a       955     0    39     1     5
  1.2574475213224015E-02 a       956     0    39     1     6
  7.1627082987236509E-02 a       957     0    39     1     7
  1.3092566316383886E-02 a       958     0    39     1     8
 -2.0557975876953680E-01 a       959     0    39     1     9
  1.2954097910212637E-02 a       960     0    39     1    10
 -7.1428967931500163E-03 a       961     0    39     1    11
 -7.3127160145340778E-02 a       962     0    39     1    12
  7.3588470215685778E-02 a       963     0    39     1    13
  2.6340171414828275E-02 a       964     0    39     1    14
  3.9139134502443586E-02 a       965     0    39     1    15
  1.1207075346045957E-01 a       966     0    39     1    16
  4.6935502965221400E-02 a       967     0    39     1    17
 -1.0565980263164425E-02 a       968     0    39     1    18
 -1.0250287899697874E-01 a       969     0    39     1    19
 -1.7851088640737235E-02 a       970     0    39     1    20
 -8.5816019868134572E-02 a       971     0    39     1    21
  1.0754526221754499E-02 a       972     0    39     1    22
 -2.0561747045560224E-02 a       973     0    39     1    23
 -5.5625585209512579E-02 a       974     0    39     1    24
  8.6878365716613407E-02 a       975     0    39     1    25
 -4.8919583451849102E-02 a       976     0    40     1     1
  1.8629235491978730E-02 a       977     0    40     1     2
  7.5152440798482309E-02 a       978     0    40     1     3
 -6.0101722667456246E-02 a       979     0    40     1     4
  5.9757634626436780E-03 a       980     0    40     1     5
 -2.9651861113175186E-02 a       981     0    40     1     6
  1.1433611116596699E-02 a       982     0    40     1     7
 -8.2854391604293948E-02 a       983     0    40     1     8
  9.2577222251680608E-02 a       984     0    40     1     9
 -1.8135066909143762E-02 a       985     0    40     1    10
  7.9758614437231718E-03 a       986     0    40     1    11
  6.5256431323718764E-02 a       987     0    40     1    12
 -4.2995538962383147E-03 a       988     0    40     1    13
  2.2218109639670417E-02 a       989     0    40     1    14
  5.8139607069371317E-02 a       990     0    40     1    15
  9.2711372995022689E-03 a       991     0    40     1    16
 -8.8025841589232004E-02 a       992     0    40     1    17
  3.1713817866096727E-02 a       993     0    40     1    18
 -5.1987251474480982E-04 a       994     0    40     1    19
 -5.0520203045557217E-02 a       995     0    40     1    20
  8.8413589054347375E-02 a       996     0    40     1    21
 -4.0411529900410224E-03 a       997     0    40     1    22
 -2.9615033320059551E-02 a       998     0    40     1    23
  2.3513771337561502E-02 a       999     0    40     1    24
 -9.3442250879996525E-02 a      1000     0    40     1    25
  2.1855105320926044E-01 a      1001     0    41     1     1
  1.6100906767206188E-01 a      1002     0    41     1     2
  2.8732981523736428E-01 a      1003     0    41     1     3
  2.8991132249344159E-01 a      1004     0    41     1     4
 -3.2988754538624482E-01 a      1005     0    41     1     5
  3.3683660172926921E-01 a      1006     0    41     1     6
 -2.1828704127231449E-01 a      1007     0    41     1     7
  2.8408300464986497E-01 a      1008     0    41     1     8
  4.2944308232810841E-01 a      1009     0    41     1     9
 -5.2059488488776381E-02 a      1010     0    41     1    10
  1.0326412329839890E-01 a      1011     0    41     1    11
 -9.9383230149699103E-02 a      1012     0    41     1    12
 -1.6488640207289429E-01 a      1013     0    41     1    13
 -9.4920002311103049E-02 a      1014     0    41     1    14
  4.5859849999475337E-02 a      1015     0    41     1    15
 -2.2366639653347706E-01 a      1016     0    41     1    16
 -3.5824470962254273E-01 a      1017     0    41     1    17
  8.9935628586470764E-02 a      1018     0    41     1    18
  4.4064832361443894E-02 a      1019     0    41     1    19
  1.4412484950680621E-02 a      1020     0    41     1    20
  5.3336642416826107E-03 a      1021     0    41     1    21
 -3.5684787271409940E-01 a      1022     0    41     1    22
  2.3516501919874899E-01 a      1023     0    41     1    23
 -6.5705817853318887E-02 a      1024     0    41     1    24
  9.8158925360671875E-02 a      1025     0    41     1    25
 -1.2055735767583883E-01 a      1026     0    42     1     1
  9.7879977880852634E-02 a      1027     0    42     1     2
  3.9440888049128285E-02 a      1028     0    42     1     3
 -3.6742045792402050E-01 a      1029     0    42     1     4
  2.6351578959097860E-01 a      1030     0    42     1     5
 -4.0074454534105441E-01 a      1031     0    42     1     6
 -2.1917177815275826E-01 a      1032     0    42     1     7
  1.3013084147202150E-01 a      1033     0    42     1     8
 -3.8571508810467309E-01 a      1034     0    42     1     9
 -2.9981187143925192E-01 a      1035     0    42     1    10
 -3.7945857347569606E-01 a      1036     0    42     1    11
 -1.2592397726598320E-01 a      1037     0    42     1    12
 -3.1259567348903328E-01 a      1038     0    42     1    13
  2.3253816147102552E-02 a      1039     0    42     1    14
  2.8902142334084197E-01 a      1040     0    42     1    15
  1.7813975634681622E-01 a      1041     0    42     1    16
  3.7525280505189146E-01 a      1042     0    42     1    17
 -2.2303741631861410E-01 a      1043     0    42     1    18
  3.5485077983355456E-01 a      1044     0    42     1    19
 -3.0772414357699790E-01 a      1045     0    42     1    20
  1.2721447681476136E-01 a      1046     0    42     1    21
 -8.3089913043807251E-02 a      1047     0    42     1    22
 -3.0770596872099021E-01 a      1048     0    42     1    23
  2.7347622509204533E-01 a      1049     0    42     1    24
  2.8417050757245821E-01 a      1050     0    42     1    25
 -5.2010861288789602E-02 a      1051     0    43     1     1
 -4.5159113552526858E-01 a      1052     0    43     1     2
  1.9617900802226654E-01 a      1053     0    43     1     3
  1.2820408629636024E-01 a      1054     0    43     1     4
 -5.1954941640886598E-02 a      1055     0    43     1     5
 -4.4953783880558928E-02 a      1056     0    43     1     6
  3.1412879930113219E-01 a      1057     0    43     1     7
  3.0320427480689788E-01 a      1058     0    43     1     8
 -9.1815312229862986E-02 a      1059     0    43     1     9
 -9.2172783474571713E-03 a      1060     0    43     1    10
 -2.0170804445312565E-01 a      1061     0    43     1    11
 -1.7309574523084531E-01 a      1062     0    43     1    12
 -4.5560327959796969E-02 a      1063     0    43     1    13
  7.3703189160462562E-02 a      1064     0    43     1    14
 -1.4214472336709871E-01 a      1065     0    43     1    15
 -1.8776746803118471E-01 a      1066     0    43     1    16
  1.1579633798828037E-01 a      1067     0    43     1    17
  3.4687365231055856E-01 a      1068     0    43     1    18
 -4.9367833477845131E-02 a      1069     0    43     1    19
 -8.3713081679465687E-02 a      1070     0    43     1    20
 -4.7210555091188496E-02 a      1071     0    43     1    21
  1.6071654921785205E-02 a      1072     0    43     1    22
 -9.2567674834178834E-04 a      1073     0    43     1    23
  5.9053502541193410E-02 a      1074     0    43     1    24
 -1.8581554597737360E-01 a      1075     0    43     1    25
  1.1832316201915592E-01 a      1076     0    44     1     1
  3.2731607720134018E-02 a      1077     0    44     1     2
  1.5908417756950763E-01 a      1078     0    44     1     3
  3.8731049466467708E-02 a      1079     0    44     1     4
  2.1485390277841326E-01 a      1080     0    44     1     5
  3.2873995016354969E-02 a      1081     0    44     1     6
  1.5409348257772504E-01 a      1082     0    44     1     7
  1.4840038082305707E-01 a      1083     0    44     1     8
  3.9970805722312000E-03 a      1084     0    44     1     9
 -1.7739325557132027E-01 a      1085     0    44     1    10
 -6.8852418278875357E-03 a      1086     0    44     1    11
 -7.4844231433255110E-02 a      1087     0    44     1    12
  2.2291745067714208E-03 a      1088     0    44     1    13
  3.1793589636022390E-01 a      1089     0    44     1    14
  1.3428732414739167E-01 a      1090     0    44     1    15
  1.5305489000051398E-01 a      1091     0    44     1    16
 -6.7425032270460594E-02 a      1092     0    44     1    17
  1.0913070138193544E-01 a      1093     0    44     1    18
  2.2497763375036270E-01 a      1094     0    44     1    19
 -2.0767364493055055E-02 a      1095     0    44     1    20
 -3.0845604043378657E-02 a      1096     0    44     1    21
 -6.9815302708814586E-02 a      1097     0    44     1    22
 -1.2363520945256092E-01 a      1098     0    44     1    23
 -6.6266991865112881E-02 a      1099     0    44     1    24
 -9.7425762676988256E-02 a      1100     0    44     1    25
  1.9668623918971889E-01 a      1101     0    45     1     1
 -2.3112497890655426E-01 a      1102     0    45     1     2
 -2.1491990756321624E-01 a      1103     0    45     1     3
  3.2345352806915265E-02 a      1104     0    45     1     4
 -1.4772085719723768E-01 a      1105     0    45     1     5
  9.2675375863223164E-02 a      1106     0    45     1     6
  2.6177315120487002E-02 a      1107     0    45     1     7
  8.8707736242883889E-02 a      1108     0    45     1     8
  2.1693106944461856E-02 a      1109     0    45     1     9
  2.7263816262215029E-01 a      1110     0    45     1    10
  9.6589871620088155E-02 a      1111     0    45     1    11
  9.1175602431596156E-02 a      1112     0    45     1    12
  1.1962733641175767E-01 a      1113     0    45     1    13
 -9.1688862145181030E-02 a      1114     0    45     1    14
 -3.6033468163260468E-01 a      1115     0    45     1    15
  2.5906549470598195E-01 a      1116     0    45     1    16
  5.9292487273784542E-02 a      1117     0    45     1    17
  6.4327294246607880E-02 a      1118     0    45     1    18
 -8.3128404915846763E-02 a      1119     0    45     1    19
  5.0168780581423926E-02 a      1120     0    45     1    20
  1.2637174816571448E-01 a      1121     0    45     1    21
 -7.0949950467392553E-02 a      1122     0    45     1    22
  1.2584508995609053E-01 a      1123     0    45     1    23
  7.0864224831823155E-02 a      1124     0    45     1    24
 -1.8409866974340203E-01 a      1125     0    45     1    25
  5.6059078205752694E-03 a      1126     0    46     1     1
  7.3271993056339052E-02 a      1127     0    46     1     2
  3.4465513943664254E-02 a      1128     0    46     1     3
  4.9993416167922362E-02 a      1129     0    46     1     4
 -6.4389806416425055E-02 a      1130     0    46     1     5
 -3.4376205306032734E-02 a      1131     0    46     1     6
  2.5076031503151780E-01 a      1132     0    46     1     7
 -1.4188080659932831E-01 a      1133     0    46     1     8
  2.2132285597586715E-01 a      1134     0    46     1     9
 -1.5037187930904000E-01 a      1135     0    46     1    10
 -3.5215461880743322E-02 a      1136     0    46     1    11
  4.0918029078563989E-03 a      1137     0    46     1    12
 -9.7590177877050432E-02 a      1138     0    46     1    13
 -6.3909851828682362E-02 a      1139     0    46     1    14
  2.4905544283108261E-01 a      1140     0    46     1    15
  9.7722759244790236E-02 a      1141     0    46     1    16
  1.3633085517535479E-01 a      1142     0    46     1    17
 -1.8773327082267474E-01 a      1143     0    46     1    18
  1.9569390077741680E-01 a      1144     0    46     1    19
 -1.5434781247872037E-01 a      1145     0    46     1    20
  1.0714727972091047E-02 a      1146     0    46     1    21
 -3.4902639053953036E-02 a      1147     0    46     1    22
 -1.3921788584765411E-02 a      1148     0    46     1    23
  1.7624403155895450E-02 a      1149     0    46     1    24
  8.7312505189169887E-02 a      1150     0    46     1    25
  1.2763870663166013E-01 a      1151     0    47     1     1
  2.2615011306530798E-02 a      1152     0    47     1     2
  3.5204849238974836E-03 a      1153     0    47     1     3
  2.7610850869075072E-02 a      1154     0    47     1     4
 -1.9935279206531039E-02 a      1155     0    47     1     5
  3.0835152604080394E-02 a      1156     0    47     1     6
 -8.5041997113682544E-02 a      1157     0    47     1     7
 -5.7170840047489069E-02 a      1158     0    47     1     8
 -1.9813748315885390E-02 a      1159     0    47     1     9
  3.5550081336525638E-02 a      1160     0    47     1    10
  1.8927700752558625E-02 a      1161     0    47     1    11
 -1.0217041567362915E-03 a      1162     0    47     1    12
  1.4681222520239699E-02 a      1163     0    47     1    13
 -1.7703933597189517E-01 a      1164     0    47     1    14
 -1.7114794173895989E-01 a      1165     0    47     1    15
  2.9815685380065245E-02 a      1166     0    47     1    16
  2.0481197276839685E-01 a      1167     0    47     1    17
  5.6310701420296694E-03 a      1168     0    47     1    18
  3.5535824271409971E-02 a      1169     0    47     1    19
  4.2522053424474335E-02 a      1170     0    47     1    20
  6.9238467126601283E-02 a      1171     0    47     1    21
  2.8758983570285054E-02 a      1172     0    47     1    22
  1.5303061175400557E-02 a      1173     0    47     1    23
 -2.1334281351128231E-02 a      1174     0    47     1    24
  1.0683873855780751E-01 a      1175     0    47     1    25
  2.9969032549841845E-02 a      1176     0    48     1     1
  1.3013762676041771E-01 a      1177     0    48     1     2
 -8.1859869841955119E-02 a      1178     0    48     1     3
 -3.3317632243481644E-02 a      1179     0    48     1     4
  7.5413651197308321E-02 a      1180     0    48     1     5
 -2.5397343368081561E-02 a      1181     0    48     1     6
  1.6315754497269966E-01 a      1182     0    48     1     7
  1.1955202396210288E-03 a      1183     0    48     1     8
 -7.5885942491810951E-02 a      1184     0    48     1     9
 -7.3525192330242434E-02 a      1185     0    48     1    10
 -6.7329573803431325E-02 a      1186     0    48     1    11
 -5.6505805333311614E-02 a      1187     0    48     1    12
 -9.0934614828690041E-03 a      1188     0    48     1    13
  3.9207662611495067E-02 a      1189     0    48     1    14
 -9.3035365151422439E-02 a      1190     0    48     1    15
  7.2120557941604713E-02 a      1191     0    48     1    16
 -1.6602342117718397E-01 a      1192     0    48     1    17
  9.8518945693634244E-02 a      1193     0    48     1    18
 -6.8962374594200307E-02 a      1194     0    48     1    19
  1.3168251816325996E-01 a      1195     0    48     1    20
 -6.3357848921542462E-02 a      1196     0    48     1    21
 -8.0290573414795799E-02 a      1197     0    48     1    22
 -1.4117778477647100E-01 a      1198     0    48     1    23
 -5.3152435187348974E-02 a      1199     0    48     1    24
 -2.0312616708815975E-01 a      1200     0    48     1    25
 -7.8058524782861323E-03 a      1201     0    49     1     1
 -3.1130489322550654E-03 a      1202     0    49     1     2
  2.8638217690959398E-02 a      1203     0    49     1     3
  8.1894792330128641E-02 a      1204     0    49     1     4
 -1.0876898846463776E-01 a      1205     0    49     1     5
 -2.2113160513127277E-02 a      1206     0    49     1     6
  1.1822509346931426E-02 a      1207     0    49     1     7
 -6.0358098068858161E-02 a      1208     0    49     1     8
 -4.3238715886826920E-03 a      1209     0    49     1     9
 -4.8753698777969257E-02 a      1210     0    49     1    10
  2.5179337249234327E-02 a      1211     0    49     1    11
  2.6345747413662444E-02 a      1212     0    49     1    12
  4.6715856125982606E-02 a      1213     0    49     1    13
 -1.8605895790561183E-02 a      1214     0    49     1    14
  8.9695558040534015E-02 a      1215     0    49     1    15
  1.1635426661060207E-01 a      1216     0    49     1    16
  9.4413700291959002E-02 a      1217     0    49     1    17
 -1.0903041618522327E-01 a      1218     0    49     1    18
  1.2727529531544274E-01 a      1219     0    49     1    19
 -1.4730710706699357E-01 a      1220     0    49     1    20
 -1.0437653702332955E-01 a      1221     0    49     1    21
  2.9329378273067037E-02 a      1222     0    49     1    22
 -3.3124065070146001E-02 a      1223     0    49     1    23
 -5.4446833053146465E-03 a      1224     0    49     1    24
  5.2378536958965570E-02 a      1225     0    49     1    25
  4.5599155440264029E-02 a      1226     0    50     1     1
 -1.6788737867832756E-01 a      1227     0    50     1     2
 -1.4865996850249173E-02 a      1228     0    50     1     3
  2.3156223174660370E-01 a      1229     0    50     1     4
  1.3481066092593599E-01 a      1230     0    50     1     5
 -1.5148627659982550E-01 a      1231     0    50     1     6
 -9.5313979887688666E-02 a      1232     0    50     1     7
 -2.9389031311918024E-01 a      1233     0    50     1     8
 -5.7843056908764368E-03 a      1234     0    50     1     9
 -1.5345147750496033E-01 a      1235     0    50     1    10
  6.6093442899057331E-02 a      1236     0    50     1    11
 -5.9925683173620688E-02 a      1237     0    50     1    12
  3.1988801675147943E-01 a      1238     0    50     1    13
  1.0698407612165645E-01 a      1239     0    50     1    14
  7.8871901133299671E-02 a      1240     0    50     1    15
  2.8107142072634339E-01 a      1241     0    50     1    16
 -1.7165827894905054E-02 a      1242     0    50     1    17
  2.4474275617043087E-02 a      1243     0    50     1    18
 -9.4530082277979356E-03 a      1244     0    50     1    19
 -1.5126344254542853E-01 a      1245     0    50     1    20
  1.6313927424514891E-02 a      1246     0    50     1    21
  4.9324753684783965E-02 a      1247     0    50     1    22
  5.1310942640235606E-02 a      1248     0    50     1    23
  3.4387819194838569E-02 a      1249     0    50     1    24
  1.7435207554449342E-02 a      1250     0    50     1    25
  1.3843434799620094E-01 a      1251     0    51     1     1
  3.7575303026978901E-01 a      1252     0    51     1     2
 -2.4346430953501627E-01 a      1253     0    51     1     3
 -1.6335884278998703E-03 a      1254     0    51     1     4
 -4.0158811530133814E-02 a      1255     0    51     1     5
  1.1769152193628717E-01 a      1256     0    51     1     6
 -1.1252942797791382E-01 a      1257     0    51     1     7
  4.7101584487380371E-01 a      1258     0    51     1     8
  2.1049622020161141E-01 a      1259     0    51     1     9
  2.1032291949241227E-01 a      1260     0    51     1    10
  1.0155918986620220E-01 a      1261     0    51     1    11
 -7.8455551271488372E-02 a      1262     0    51     1    12
  2.1464245928992270E-01 a      1263     0    51     1    13
 -1.0241253297968711E-01 a      1264     0    51     1    14
 -2.7641839103791455E-01 a      1265     0    51     1    15
  3.8910447226129918E-01 a      1266     0    51     1    16
 -1.8869545665832504E-01 a      1267     0    51     1    17
 -1.9458742852087671E-01 a      1268     0    51     1    18
 -1.4524021921410313E-01 a      1269     0    51     1    19
  3.4562466785737916E-01 a      1270     0    51     1    20
  4.4654429066427165E-01 a      1271     0    51     1    21
  4.4438183900867206E-01 a      1272     0    51     1    22
  4.7257074017157653E-02 a      1273     0    51     1    23
 -1.2645792341384417E-02 a      1274     0    51     1    24
  3.8303978162579390E-02 a      1275     0    51     1    25
 -1.7485577539910371E-01 a      1276     0    52     1     1
 -4.6622505086866756E-01 a      1277     0    52     1     2
 -1.9060957726808109E-01 a      1278     0    52     1     3
  1.5049496405370597E-01 a      1279     0    52     1     4
  2.0326135355615058E-01 a      1280     0    52     1     5
 -5.7450735256274421E-02 a      1281     0    52     1     6
 -6.3111227191163272E-02 a      1282     0    52     1     7
 -1.5043598512840775E-01 a      1283     0    52     1     8
 -1.9573386892450462E-01 a      1284     0    52     1     9
 -4.9900137647488008E-01 a      1285     0    52     1    10
 -2.9121979419198341E-01 a      1286     0    52     1    11
  9.7451198987534363E-02 a      1287     0    52     1    12
  3.5427250623430884E-01 a      1288     0    52     1    13
 -1.7861420846715875E-01 a      1289     0    52     1    14
  9.0203493836121376E-02 a      1290     0    52     1    15
 -2.3927845848651089E-01 a      1291     0    52     1    16
  5.7307766058224974E-01 a      1292     0    52     1    17
  1.4541690898592682E-01 a      1293     0    52     1    18
 -1.7339189979054367E-01 a      1294     0    52     1    19
  3.9428627962942653E-01 a      1295     0    52     1    20
 -7.3945123469364521E-02 a      1296     0    52     1    21
 -9.5418521727097905E-01 a      1297     0    52     1    22
  1.9316563403631237E-01 a      1298     0    52     1    23
 -3.6781097793288020E-01 a      1299     0    52     1    24
 -1.3140414383532747E-01 a      1300     0    52     1    25
  1.7182496023477264E-01 a      1301     0    53     1     1
  3.9234279790514526E-01 a      1302     0    53     1     2
 -3.2498318863993519E-01 a      1303     0    53     1     3
 -7.4844124069288670E-02 a      1304     0    53     1     4
  1.3410393662243278E-01 a      1305     0    53     1     5
 -1.1900351117551795E-01 a      1306     0    53     1     6
 -2.9636999063178127E-01 a      1307     0    53     1     7
  2.7097668691897658E-01 a      1308     0    53     1     8
 -7.2116580253371781E-02 a      1309     0    53     1     9
  1.4685735518859522E-01 a      1310     0    53     1    10
  3.3231117892026862E-01 a      1311     0    53     1    11
  6.5375436549755431E-02 a      1312     0    53     1    12
  2.0179523641418620E-01 a      1313     0    53     1    13
  2.0008664559478351E-01 a      1314     0    53     1    14
  7.5338439891423609E-02 a      1315     0    53     1    15
 -6.2538435214785748E-02 a      1316     0    53     1    16
 -1.7241686022446284E-01 a      1317     0    53     1    17
 -1.9271069567299295E-01 a      1318     0    53     1    18
 -1.3176010817917014E-01 a      1319     0    53     1    19
  1.2457556502882770E-01 a      1320     0    53     1    20
  4.8263434229001298E-02 a      1321     0    53     1    21
  8.6856079827824006E-02 a      1322     0    53     1    22
 -8.4620360817226300E-04 a      1323     0    53     1    23
 -1.1605632217803784E-01 a      1324     0    53     1    24
  1.4473145958092412E-01 a      1325     0    53     1    25
 -9.6180976012904332E-02 a      1326     0    54     1     1
  2.4493677988854407E-02 a      1327     0    54     1     2
  1.2717109901667897E-01 a      1328     0    54     1     3
  8.9455261237222042E-02 a      1329     0    54     1     4
 -2.0990821194710349E-01 a      1330     0    54     1     5
 -1.3911080527758138E-01 a      1331     0    54     1     6
 -3.8961138424834013E-01 a      1332     0    54     1     7
  1.9407240050420807E-01 a      1333     0    54     1     8
 -2.6975404016266885E-01 a      1334     0    54     1     9
 -7.1973919642285292E-02 a      1335     0    54     1    10
  8.2991667884483089E-02 a      1336     0    54     1    11
 -7.6896424481853007E-02 a      1337     0    54     1    12
 -5.9134082252039019E-02 a      1338     0    54     1    13
  1.8750586139626066E-01 a      1339     0    54     1    14
 -1.3018513725298669E-02 a      1340     0    54     1    15
 -1.6346164299893276E-01 a      1341     0    54     1    16
  2.5430858579038257E-01 a      1342     0    54     1    17
 -2.6420312355728459E-01 a      1343     0    54     1    18
 -2.1259199423462399E-01 a      1344     0    54     1    19
  9.0587682088521845E-02 a      1345     0    54     1    20
  8.0422254265552051E-02 a      1346     0    54     1    21
  3.5302776710962713E-02 a      1347     0    54     1    22
  3.5049687541887686E-01 a      1348     0    54     1    23
 -1.4759645791136902E-01 a      1349     0    54     1    24
  5.5242069564000358E-02 a      1350     0    54     1    25
 -1.4965716665468573E-01 a      1351     0    55     1     1
  2.6504044024477147E-01 a      1352     0    55     1     2
  9.9285906767940676E-02 a      1353     0    55     1     3
  1.2628137518964402E-01 a      1354     0    55     1     4
  4.7378755803790618E-01 a      1355     0    55     1     5
  6.5432063784801070E-02 a      1356     0    55     1     6
 -1.3896660156146690E-01 a      1357     0    55     1     7
 -1.1547676830994212E-01 a      1358     0    55     1     8
 -4.7327129461245107E-02 a      1359     0    55     1     9
 -8.9060737302016565E-02 a      1360     0    55     1    10
 -1.2680993797992088E-01 a      1361     0    55     1    11
 -9.7926204020260824E-02 a      1362     0    55     1    12
 -1.3506962845257922E-01 a      1363     0    55     1    13
  6.9773794364097572E-02 a      1364     0    55     1    14
  2.8983097724598966E-01 a      1365     0    55     1    15
 -3.1099957664856881E-01 a      1366     0    55     1    16
 -2.9142386074746973E-01 a      1367     0    55     1    17
 -1.3295301398518530E-01 a      1368     0    55     1    18
  1.6961546890534257E-01 a      1369     0    55     1    19
 -4.8858351304780667E-02 a      1370     0    55     1    20
 -4.0741209695662561E-01 a      1371     0    55     1    21
  1.7039540326944050E-01 a      1372     0    55     1    22
 -2.8888278285038699E-01 a      1373     0    55     1    23
  3.6342126667088172E-02 a      1374     0    55     1    24
  2.7920458794766598E-02 a      1375     0    55     1    25
 -4.6990621673328091E-02 a      1376     0    56     1     1
 -5.2455186566644878E-02 a      1377     0    56     1     2
  1.5865176146334187E-01 a      1378     0    56     1     3
 -6.0579987913278576E-03 a      1379     0    56     1     4
  1.1291672418316905E-01 a      1380     0    56     1     5
  2.6020235783846180E-01 a      1381     0    56     1     6
 -1.5926574796278421E-02 a      1382     0    56     1     7
  3.1419526253020922E-03 a      1383     0    56     1     8
 -8.5764003978649486E-02 a      1384     0    56     1     9
  2.5074521547646660E-02 a      1385     0    56     1    10
 -1.5616377657986932E-01 a      1386     0    56     1    11
  5.6971160350645048E-02 a      1387     0    56     1    12
  1.5010609242003281E-01 a      1388     0    56     1    13
 -2.0237068308266801E-01 a      1389     0    56     1    14
 -1.7057505876366946E-01 a      1390     0    56     1    15
  1.4112583503405216E-01 a      1391     0    56     1    16
  1.0019355023755394E-01 a      1392     0    56     1    17
  1.6241117189704168E-01 a      1393     0    56     1    18
 -2.0962666258968837E-01 a      1394     0    56     1    19
 -3.2327837998919598E-02 a      1395     0    56     1    20
 -1.3278732178198648E-02 a      1396     0    56     1    21
 -7.7283498387333810E-02 a      1397     0    56     1    22
  2.0189470942415598E-02 a      1398     0    56     1    23
  7.0702390985969574E-02 a      1399     0    56     1    24
 -2.7447794697476691E-01 a      1400     0    56     1    25
 -1.3297234480802286E-01 a      1401     0    57     1     1
 -1.1380095654046300E-01 a      1402     0    57     1     2
 -1.5574267641806516E-01 a      1403     0    57     1     3
  7.6524714591731269E-02 a      1404     0    57     1     4
  1.4830590825097897E-01 a      1405     0    57     1     5
 -4.8935457766281353E-02 a      1406     0    57     1     6
 -1.0585900139308863E-01 a      1407     0    57     1     7
  1.4676682274974426E-01 a      1408     0    57     1     8
 -9.9154173483691783E-03 a      1409     0    57     1     9
  2.2862271167859015E-02 a      1410     0    57     1    10
 -1.4418051799224793E-01 a      1411     0    57     1    11
  9.7001049962989222E-02 a      1412     0    57     1    12
  3.8657094727075653E-02 a      1413     0    57     1    13
  1.0715273689787183E-01 a      1414     0    57     1    14
  9.1606928061804663E-02 a      1415     0    57     1    15
  9.8415149216745323E-02 a      1416     0    57     1    16
 -3.3023821396025510E-01 a      1417     0    57     1    17
 -4.1184067457564297E-02 a      1418     0    57     1    18
 -1.8797324102156804E-01 a      1419     0    57     1    19
 -4.4754780838563539E-03 a      1420     0    57     1    20
 -1.7157520448459651E-01 a      1421     0    57     1    21
  1.8208123423964762E-02 a      1422     0    57     1    22
 -4.7142427244724984E-02 a      1423     0    57     1    23
  3.7488099290424030E-03 a      1424     0    57     1    24
  6.4159987022720091E-02 a      1425     0    57     1    25
  2.4328349049241811E-02 a      1426     0    58     1     1
 -1.3201702862112477E-01 a      1427     0    58     1     2
 -2.6220255240663867E-03 a      1428     0    58     1     3
  2.0142252577318065E-01 a      1429     0    58     1     4
 -2.2595075469349055E-02 a      1430     0    58     1     5
 -2.8746169891764557E-02 a      1431     0    58     1     6
 -9.3147380979869007E-02 a      1432     0    58     1     7
 -3.8889405185222853E-02 a      1433     0    58     1     8
  1.0977862005902281E-01 a      1434     0    58     1     9
  4.7338641614147317E-02 a      1435     0    58     1    10
  1.3311228490110549E-01 a      1436     0    58     1    11
  2.1009197299629228E-02 a      1437     0    58     1    12
  2.8185143293353934E-02 a      1438     0    58     1    13
  1.2789571702387934E-02 a      1439     0    58     1    14
  7.3007903585296713E-02 a      1440     0    58     1    15
 -3.8573796367413433E-02 a      1441     0    58     1    16
  2.6805367160995019E-01 a      1442     0    58     1    17
 -3.8175881231618310E-02 a      1443     0    58     1    18
  9.6557423228064251E-02 a      1444     0    58     1    19
 -2.0015028164936877E-01 a      1445     0    58     1    20
 -8.2982431972891315E-03 a      1446     0    58     1    21
  1.3064585197685913E-01 a      1447     0    58     1    22
  1.0435913125851949E-01 a      1448     0    58     1    23
 -2.7680522793350343E-02 a      1449     0    58     1    24
 -1.3773528844073718E-01 a      1450     0    58     1    25
  4.6359607290892550E-02 a      1451     0    59     1     1
 -8.8155517243636836E-02 a      1452     0    59     1     2
  1.3125483322238918E-01 a      1453     0    59     1     3
 -1.1398513857192328E-02 a      1454     0    59     1     4
  1.8605167332968001E-01 a      1455     0    59     1     5
 -7.1906583815985843E-03 a      1456     0    59     1     6
 -1.8062283065560619E-01 a      1457     0    59     1     7
  1.6703779793279089E-01 a      1458     0    59     1     8
  2.3405426537079759E-03 a      1459     0    59     1     9
 -5.2593256707230467E-02 a      1460     0    59     1    10
 -7.4208750186503122E-02 a      1461     0    59     1    11
 -2.3491032452776232E-02 a      1462     0    59     1    12
  4.9493596532471040E-02 a      1463     0    59     1    13
  1.1152598544107289E-01 a      1464     0    59     1    14
 -2.4367480577499791E-02 a      1465     0    59     1    15
 -1.3013056812970231E-01 a      1466     0    59     1    16
  1.2273052135190114E-01 a      1467     0    59     1    17
  2.0785158354018315E-01 a      1468     0    59     1    18
 -1.5572344440978131E-01 a      1469     0    59     1    19
  4.4614114450970521E-02 a      1470     0    59     1    20
  9.0617662058611326E-02 a      1471     0    59     1    21
 -5.6104692825140717E-02 a      1472     0    59     1    22
  6.0429928535769041E-02 a      1473     0    59     1    23
 -1.1769108937042425E-01 a      1474     0    59     1    24
  6.7420176341768084E-02 a      1475     0    59     1    25
 -5.9355502885548687E-02 a      1476     0    60     1     1
 -3.4366226117253984E-02 a      1477     0    60     1     2
 -1.3609387116784916E-01 a      1478     0    60     1     3
 -2.0098962371493834E-02 a      1479     0    60     1     4
  1.2002446847048149E-02 a      1480     0    60     1     5
  8.4490936320736537E-02 a      1481     0    60     1     6
 -2.2609864935009352E-01 a      1482     0    60     1     7
  1.7563242382212341E-01 a      1483     0    60     1     8
  1.4273618029576429E-01 a      1484     0    60     1     9
  3.5089910071260007E-03 a      1485     0    60     1    10
  1.1152335674472276E-01 a      1486     0    60     1    11
  2.4329853833725747E-02 a      1487     0    60     1    12
 -1.2652511664151020E-01 a      1488     0    60     1    13
  9.5878930414525179E-02 a      1489     0    60     1    14
  4.7109652472358314E-02 a      1490     0    60     1    15
  3.4031627691482130E-02 a      1491     0    60     1    16
 -1.1266720794237571E-03 a      1492     0    60     1    17
  8.3138612539638237E-02 a      1493     0    60     1    18
  9.2265157362485598E-02 a      1494     0    60     1    19
  8.7105579457996560E-02 a      1495     0    60     1    20
  2.7671295506117861E-02 a      1496     0    60     1    21
 -3.9262596210632800E-02 a      1497     0    60     1    22
 -2.4519148092176621E-01 a      1498     0    60     1    23
 -1.0094714306439584E-01 a      1499     0    60     1    24
 -1.0132902136499411E-01 a      1500     0    60     1    25
 -7.5831571764775715E-02 a      1501     0    61     1     1
 -8.2900789764302263E-02 a      1502     0    61     1     2
  1.1478503570647289E-01 a      1503     0    61     1     3
 -2.5256932698566298E-01 a      1504     0    61     1     4
  3.0491333515535912E-02 a      1505     0    61     1     5
  7.2623138336243790E-03 a      1506     0    61     1     6
  1.5088803628771433E-01 a      1507     0    61     1     7
 -6.2150228664715056E-02 a      1508     0    61     1     8
 -1.9073155953950663E-01 a      1509     0    61     1     9
  6.7630408122785035E-02 a      1510     0    61     1    10
  1.4881140323694300E-01 a      1511     0    61     1    11
 -2.3726190595876151E-01 a      1512     0    61     1    12
 -3.6604629638117292E-01 a      1513     0    61     1    13
  1.8967841518344502E-02 a      1514     0    61     1    14
 -6.7198645252453004E-02 a      1515     0    61     1    15
 -3.7942701255571053E-02 a      1516     0    61     1    16
 -4.9491302957437344E-01 a      1517     0    61     1    17
 -4.5187015074885782E-02 a      1518     0    61     1    18
  2.7926616159927070E-01 a      1519     0    61     1    19
 -8.6051449863304805E-02 a      1520     0    61     1    20
 -2.2549172622636535E-01 a      1521     0    61     1    21
 -1.6703902763461877E-02 a      1522     0    61     1    22
  4.7799762284842923E-02 a      1523     0    61     1    23
  3.4747909176932984E-01 a      1524     0    61     1    24
  2.5991708863800400E-01 a      1525     0    61     1    25
 -9.9547508769685836E-02 a      1526     0    62     1     1
 -1.6972551412507789E-01 a      1527     0    62     1     2
 -1.7376383648369834E-01 a      1528     0    62     1     3
  2.3722180929635156E-02 a      1529     0    62     1     4
  4.4907675914700483E-02 a      1530     0    62     1     5
 -1.4307910357448013E-04 a      1531     0    62     1     6
  2.4174679838597402E-01 a      1532     0    62     1     7
 -1.4186802561744347E-01 a      1533     0    62     1     8
  1.4797974417926682E-01 a      1534     0    62     1     9
 -2.7825682002158240E-02 a      1535     0    62     1    10
 -1.3393620696664435E-02 a      1536     0    62     1    11
  1.1613964654047666E-01 a      1537     0    62     1    12
  1.2534309631122545E-01 a      1538     0    62     1    13
 -1.4460681080131368E-01 a      1539     0    62     1    14
 -6.5792486948048318E-02 a      1540     0    62     1    15
  3.6523975796315211E-01 a      1541     0    62     1    16
 -2.0274299753422942E-01 a      1542     0    62     1    17
  3.0029254031453564E-02 a      1543     0    62     1    18
 -3.2407148188178819E-01 a      1544     0    62     1    19
  4.1899687390961747E-02 a      1545     0    62     1    20
  5.5897993747711883E-01 a      1546     0    62     1    21
 -1.4453597439237031E-01 a      1547     0    62     1    22
 -1.2368637565970617E-01 a      1548     0    62     1    23
 -2.3836352545403652E-01 a      1549     0    62     1    24
 -1.5087316068351658E-02 a      1550     0    62     1    25
 -1.2803396368413673E-02 a      1551     0    63     1     1
  2.3473766037649912E-01 a      1552     0    63     1     2
 -1.0248224481861538E-01 a      1553     0    63     1     3
 -2.7278553330635091E-01 a      1554     0    63     1     4
 -1.0116557854137924E-01 a      1555     0    63     1     5
 -2.0930455384264673E-02 a      1556     0    63     1     6
 -3.0700919499382967E-01 a      1557     0    63     1     7
  5.3170391451988257E-02 a      1558     0    63     1     8
 -9.8693965870948391E-02 a      1559     0    63     1     9
  1.0321204690789085E-01 a      1560     0    63     1    10
  1.5096678532919902E-01 a      1561     0    63     1    11
  4.8014473629375012E-02 a      1562     0    63     1    12
 -1.3890477051567119E-02 a      1563     0    63     1    13
  2.6439583691470307E-02 a      1564     0    63     1    14
  2.0163634263638214E-01 a      1565     0    63     1    15
 -7.7873988722311382E-02 a      1566     0    63     1    16
 -1.8424199119070275E-01 a      1567     0    63     1    17
 -6.8316093750485640E-02 a      1568     0    63     1    18
  6.6821579324036706E-02 a      1569     0    63     1    19
  8.8648969867209923E-02 a      1570     0    63     1    20
 -1.3614444654728458E-01 a      1571     0    63     1    21
 -3.7707252394728386E-02 a      1572     0    63     1    22
  2.5038496169906607E-02 a      1573     0    63     1    23
 -1.0999889943443160E-01 a      1574     0    63     1    24
  3.0563487615977331E-01 a      1575     0    63     1    25
 -6.2734283773921803E-02 a      1576     0    64     1     1
 -1.1498701042367025E-02 a      1577     0    64     1     2
 -1.4193029327149548E-01 a      1578     0    64     1     3
  3.1195433549492731E-02 a      1579     0    64     1     4
 -1.3114338808945086E-01 a      1580     0    64     1     5
 -5.8467471799202891E-02 a      1581     0    64     1     6
 -6.8519674021070244E-03 a      1582     0    64     1     7
 -3.3505501488699699E-02 a      1583     0    64     1     8
 -8.7248021646220156E-02 a      1584     0    64     1     9
 -4.6802632661753617E-03 a      1585     0    64     1    10
  2.1215623711878993E-02 a      1586     0    64     1    11
 -6.3037283860713444E-02 a      1587     0    64     1    12
 -7.5055887863791984E-02 a      1588     0    64     1    13
 -8.3780902913572763E-02 a      1589     0    64     1    14
 -8.4179027017642474E-02 a      1590     0    64     1    15
  2.4616789591818541E-01 a      1591     0    64     1    16
 -8.2850093843173420E-02 a      1592     0    64     1    17
 -6.2005003323988249E-02 a      1593     0    64     1    18
 -1.1781964465354956E-01 a      1594     0    64     1    19
 -5.8875543772412678E-02 a      1595     0    64     1    20
  3.2950983284090840E-01 a      1596     0    64     1    21
 -2.9332487598026421E-02 a      1597     0    64     1    22
 -5.4791586618237638E-03 a      1598     0    64     1    23
  5.0971502202930405E-04 a      1599     0    64     1    24
 -1.3417843854287578E-01 a      1600     0    64     1    25
  1.4976355425728449E-02 a      1601     0    65     1     1
  1.1795068210661304E-01 a      1602     0    65     1     2
  1.0917727927158848E-01 a      1603     0    65     1     3
  4.7790610345975183E-02 a      1604     0    65     1     4
 -5.4156199655484585E-02 a      1605     0    65     1     5
  8.7613941968807854E-02 a      1606     0    65     1     6
  2.1559022881845469E-01 a      1607     0    65     1     7
 -8.4648432564543935E-02 a      1608     0    65     1     8
 -4.8106705795548162E-02 a      1609     0    65     1     9
 -4.7354132243954399E-02 a      1610     0    65     1    10
 -2.3559243426464265E-03 a      1611     0    65     1    11
 -6.6377947578968130E-02 a      1612     0    65     1    12
 -2.2061175885487828E-02 a      1613     0    65     1    13
  3.9006156031044029E-02 a      1614     0    65     1    14
  9.3244923282165909E-02 a      1615     0    65     1    15
 -5.8135569087318456E-02 a      1616     0    65     1    16
  2.9760226388136756E-02 a      1617     0    65     1    17
 -1.5003693523081377E-02 a      1618     0    65     1    18
  9.6653380926480772E-04 a      1619     0    65     1    19
  5.5204821321716085E-02 a      1620     0    65     1    20
 -1.5375057749747953E-01 a      1621     0    65     1    21
  2.6897273602806152E-02 a      1622     0    65     1    22
 -3.9314407617661494E-02 a      1623     0    65     1    23
