################################################################################
# Neural network connection values (weights and biases).
################################################################################
# Col  Name       Description
################################################################################
# 1    connection Neural network connection value.
# 2    t          Connection type (a = weight, b = bias).
# 3    index      Index enumerating weights.
# 4    l_s        Starting point layer (end point layer for biases).
# 5    n_s        Starting point neuron in starting layer (end point neuron for biases).
# 6    l_e        End point layer.
# 7    n_e        End point neuron in end layer.
################################################################################
#                      1 2         3     4     5     6     7
#             connection t     index   l_s   n_s   l_e   n_e
############################################################
  2.6568239540530675E-01 a         1     0     1     1     1
  2.8868242545247802E-01 a         2     0     1     1     2
  1.8163518686503280E-01 a         3     0     1     1     3
 -2.8245467342232128E-01 a         4     0     1     1     4
  8.3991736683530646E-02 a         5     0     1     1     5
 -6.4438521061586845E-02 a         6     0     1     1     6
  3.3568275095946803E-01 a         7     0     1     1     7
  5.7500329426689610E-02 a         8     0     1     1     8
  5.0902728955342376E-02 a         9     0     1     1     9
  9.7878017609253729E-02 a        10     0     1     1    10
  1.3720748881838934E-01 a        11     0     1     1    11
  3.2050188217800819E-02 a        12     0     1     1    12
 -2.0699967287886889E-01 a        13     0     1     1    13
 -5.6511472377157618E-02 a        14     0     1     1    14
  2.3886229812954060E-01 a        15     0     1     1    15
  7.3921494145177680E-01 a        16     0     1     1    16
  5.1895131159646224E-01 a        17     0     1     1    17
 -3.2512432372451001E-02 a        18     0     1     1    18
  6.2789568929721473E-01 a        19     0     1     1    19
  2.5672453099457793E-01 a        20     0     1     1    20
 -6.8659136135397161E-02 a        21     0     1     1    21
 -4.9437940375671485E-01 a        22     0     1     1    22
 -1.8067997548087947E-01 a        23     0     1     1    23
  3.9338908692970675E-01 a        24     0     1     1    24
  2.4030679694246365E-01 a        25     0     1     1    25
  2.2813882613739042E-01 a        26     0     2     1     1
 -6.1447654999996507E-02 a        27     0     2     1     2
  3.1358223285186221E-01 a        28     0     2     1     3
  5.4638994072407715E-02 a        29     0     2     1     4
  2.2297540470708206E-02 a        30     0     2     1     5
  1.0230301515482400E-01 a        31     0     2     1     6
 -1.1390674626224695E-01 a        32     0     2     1     7
 -3.2373407965128095E-02 a        33     0     2     1     8
  3.1537912825752468E-02 a        34     0     2     1     9
 -2.0905188400792543E-02 a        35     0     2     1    10
  2.8899407285176839E-02 a        36     0     2     1    11
  4.6674941748820808E-02 a        37     0     2     1    12
 -1.4403081253947653E-01 a        38     0     2     1    13
  5.7448478360194316E-02 a        39     0     2     1    14
  7.0366222112077187E-02 a        40     0     2     1    15
  1.2545708454220658E-01 a        41     0     2     1    16
  9.4407023613029231E-02 a        42     0     2     1    17
 -7.2496291762979198E-02 a        43     0     2     1    18
 -2.9117581784145452E-01 a        44     0     2     1    19
 -1.8212225314102548E-01 a        45     0     2     1    20
 -4.7328703419203047E-02 a        46     0     2     1    21
 -1.2347490251593068E-01 a        47     0     2     1    22
  9.1104458970762262E-02 a        48     0     2     1    23
 -1.9643094000966582E-01 a        49     0     2     1    24
 -9.8509032657129961E-03 a        50     0     2     1    25
 -1.1213572015895150E-01 a        51     0     3     1     1
  4.6078065178040653E-02 a        52     0     3     1     2
  1.0176200702361436E-01 a        53     0     3     1     3
 -8.1832358831943078E-02 a        54     0     3     1     4
 -3.9935425171291290E-02 a        55     0     3     1     5
 -1.0790546915455879E-01 a        56     0     3     1     6
 -1.0431696392285340E-01 a        57     0     3     1     7
  6.1609910027794805E-02 a        58     0     3     1     8
 -3.2232264996006475E-02 a        59     0     3     1     9
 -1.0321279995802157E-01 a        60     0     3     1    10
  1.2594467105053292E-02 a        61     0     3     1    11
  1.3402667404782090E-01 a        62     0     3     1    12
 -6.8074827061204379E-02 a        63     0     3     1    13
  8.1915372798061228E-02 a        64     0     3     1    14
  5.2822050480973361E-02 a        65     0     3     1    15
 -1.3717802514093821E-02 a        66     0     3     1    16
 -6.3881865630549359E-02 a        67     0     3     1    17
 -1.5276018748181247E-02 a        68     0     3     1    18
  8.7603301505280187E-02 a        69     0     3     1    19
  5.4977741254420023E-02 a        70     0     3     1    20
  8.0758337919173816E-03 a        71     0     3     1    21
 -4.3046355654344823E-02 a        72     0     3     1    22
  1.5524037976544000E-01 a        73     0     3     1    23
  2.1359933248736290E-01 a        74     0     3     1    24
  2.7033565473447606E-02 a        75     0     3     1    25
  1.6321827940868380E-01 a        76     0     4     1     1
  2.6499107051177184E-01 a        77     0     4     1     2
 -3.3828187813909627E-01 a        78     0     4     1     3
 -1.7113850104209255E-01 a        79     0     4     1     4
 -3.1375981427211423E-02 a        80     0     4     1     5
 -2.0143203587920810E-01 a        81     0     4     1     6
 -2.5105471315701813E-02 a        82     0     4     1     7
  1.8281691386524065E-01 a        83     0     4     1     8
 -7.0179218660004219E-02 a        84     0     4     1     9
  2.9309626628677872E-02 a        85     0     4     1    10
 -8.9631314926905806E-02 a        86     0     4     1    11
 -1.2292121095270709E-02 a        87     0     4     1    12
 -2.7828498815283531E-01 a        88     0     4     1    13
  1.6755492047273293E-01 a        89     0     4     1    14
  1.2344321400131100E-01 a        90     0     4     1    15
  2.0432753202918064E-01 a        91     0     4     1    16
 -9.5072717219336675E-02 a        92     0     4     1    17
 -3.2592448960129750E-02 a        93     0     4     1    18
  9.5380411710432652E-03 a        94     0     4     1    19
 -1.5443459566422574E-01 a        95     0     4     1    20
  1.2995688184879570E-01 a        96     0     4     1    21
  2.2433528199840710E-01 a        97     0     4     1    22
 -2.0798135104216875E-01 a        98     0     4     1    23
 -1.2949318646165292E-01 a        99     0     4     1    24
 -2.7961012480947395E-01 a       100     0     4     1    25
  1.2734624713522466E-01 a       101     0     5     1     1
 -3.6576789458752945E-01 a       102     0     5     1     2
 -3.4227752672553352E-01 a       103     0     5     1     3
  1.8160923723229375E-01 a       104     0     5     1     4
  2.8254537571782062E-01 a       105     0     5     1     5
  2.6502366941716010E-01 a       106     0     5     1     6
 -1.3791446567862227E+00 a       107     0     5     1     7
  1.5170805405090701E-01 a       108     0     5     1     8
  1.4067941193822731E-01 a       109     0     5     1     9
  4.1521132257207716E-01 a       110     0     5     1    10
 -1.8343289004488267E-01 a       111     0     5     1    11
 -9.2525809387277363E-02 a       112     0     5     1    12
 -1.2752754777745917E-01 a       113     0     5     1    13
 -3.9212730948519881E-01 a       114     0     5     1    14
 -7.1366794275636372E-02 a       115     0     5     1    15
  3.9426243131629977E-04 a       116     0     5     1    16
  2.3324338426600913E-01 a       117     0     5     1    17
  2.1674133430242437E-01 a       118     0     5     1    18
 -3.5014797768949373E-03 a       119     0     5     1    19
 -7.0752735461300442E-01 a       120     0     5     1    20
  1.5873100865894471E-01 a       121     0     5     1    21
 -3.3868788302928671E-01 a       122     0     5     1    22
 -3.5673466927628616E-01 a       123     0     5     1    23
 -4.3198921910409094E-01 a       124     0     5     1    24
  5.1849204853806985E-01 a       125     0     5     1    25
  1.0157569095473622E-02 a       126     0     6     1     1
  1.8868861566164755E-02 a       127     0     6     1     2
 -1.4701800868428200E-02 a       128     0     6     1     3
 -8.3187729690268691E-02 a       129     0     6     1     4
  6.3402405719776997E-02 a       130     0     6     1     5
  5.1640079930471858E-02 a       131     0     6     1     6
  2.0801846721024086E-01 a       132     0     6     1     7
  1.1164033659350003E-01 a       133     0     6     1     8
  1.5798597689662294E-01 a       134     0     6     1     9
  1.4782404248978956E-01 a       135     0     6     1    10
  1.7784760353620094E-01 a       136     0     6     1    11
 -2.0924607201460377E-02 a       137     0     6     1    12
  6.5036058867197613E-02 a       138     0     6     1    13
 -2.6653016722192314E-02 a       139     0     6     1    14
 -1.4687444247970524E-01 a       140     0     6     1    15
  1.2718455210333371E-01 a       141     0     6     1    16
 -4.1255344681549750E-03 a       142     0     6     1    17
 -6.3457162839548678E-02 a       143     0     6     1    18
 -1.2745508998941027E-01 a       144     0     6     1    19
  2.5986217039072712E-01 a       145     0     6     1    20
 -8.8816834534722316E-03 a       146     0     6     1    21
  1.5850880646057350E-01 a       147     0     6     1    22
 -1.2967385807349963E-01 a       148     0     6     1    23
  1.8621880564681378E-01 a       149     0     6     1    24
 -2.1146156326929576E-02 a       150     0     6     1    25
 -2.6068117778637995E-01 a       151     0     7     1     1
 -1.1840553511860033E-01 a       152     0     7     1     2
 -2.1936039025492909E-01 a       153     0     7     1     3
 -1.5776642803445559E-01 a       154     0     7     1     4
  1.2481109963707583E-01 a       155     0     7     1     5
  3.0685783524228669E-02 a       156     0     7     1     6
 -2.6542173616178097E-02 a       157     0     7     1     7
 -7.9129188756408037E-02 a       158     0     7     1     8
 -1.4386345524394625E-01 a       159     0     7     1     9
 -9.9790300522479211E-03 a       160     0     7     1    10
  2.3311368898323474E-02 a       161     0     7     1    11
 -1.9245332348755242E-01 a       162     0     7     1    12
 -8.7718713733079406E-02 a       163     0     7     1    13
 -9.3394246002438300E-02 a       164     0     7     1    14
  1.9040356326393751E-01 a       165     0     7     1    15
 -1.1138872974998928E-01 a       166     0     7     1    16
 -3.3350259133360802E-02 a       167     0     7     1    17
  1.2019425004681417E-01 a       168     0     7     1    18
 -9.6289794809145388E-02 a       169     0     7     1    19
 -5.0114077862273350E-02 a       170     0     7     1    20
  9.4701812741018881E-02 a       171     0     7     1    21
  7.1965885071691826E-02 a       172     0     7     1    22
 -8.1132349351476354E-02 a       173     0     7     1    23
 -2.1970320911188146E-01 a       174     0     7     1    24
  7.0578901769046909E-02 a       175     0     7     1    25
 -3.2761323273083127E-02 a       176     0     8     1     1
 -3.2469913050170170E-02 a       177     0     8     1     2
  1.2819036277681864E-01 a       178     0     8     1     3
  5.9127344596434178E-02 a       179     0     8     1     4
 -1.5662220381417624E-01 a       180     0     8     1     5
 -4.7870863814672496E-02 a       181     0     8     1     6
 -3.3775925760132913E-01 a       182     0     8     1     7
 -4.5997983472612261E-02 a       183     0     8     1     8
 -4.2972608136440792E-02 a       184     0     8     1     9
  1.0999243936811688E-01 a       185     0     8     1    10
  1.3055959828660077E-01 a       186     0     8     1    11
 -1.8535596678900110E-01 a       187     0     8     1    12
  6.1946042650615936E-02 a       188     0     8     1    13
  4.5369385220857823E-02 a       189     0     8     1    14
  2.1923913416029878E-01 a       190     0     8     1    15
 -1.1347691243212743E-01 a       191     0     8     1    16
  4.9261285768516776E-03 a       192     0     8     1    17
 -2.5696679573196456E-02 a       193     0     8     1    18
 -5.0063287375143380E-02 a       194     0     8     1    19
 -1.8457107990601121E-01 a       195     0     8     1    20
 -2.9376311841809899E-01 a       196     0     8     1    21
 -2.0645047953403523E-01 a       197     0     8     1    22
  4.9874458637578410E-02 a       198     0     8     1    23
  9.5584495409415729E-02 a       199     0     8     1    24
  2.5666481842634509E-01 a       200     0     8     1    25
 -3.8147036087103590E-02 a       201     0     9     1     1
  2.7555820136874526E-01 a       202     0     9     1     2
  2.3586337713557762E-01 a       203     0     9     1     3
  1.1805019957327165E-01 a       204     0     9     1     4
  1.4077864078121002E-01 a       205     0     9     1     5
  7.6339752449481713E-02 a       206     0     9     1     6
  9.5468840714024339E-02 a       207     0     9     1     7
 -2.4626787742972125E-01 a       208     0     9     1     8
  1.0387912631173267E-01 a       209     0     9     1     9
  3.8032332809480668E-01 a       210     0     9     1    10
  1.1265923062750210E-02 a       211     0     9     1    11
  3.3518877438885392E-01 a       212     0     9     1    12
 -6.3603372802979091E-02 a       213     0     9     1    13
 -1.1543642165283334E-01 a       214     0     9     1    14
  3.9842681497603255E-02 a       215     0     9     1    15
  1.5579148768049719E-01 a       216     0     9     1    16
  3.7280592047537109E-01 a       217     0     9     1    17
 -9.2365907422888721E-02 a       218     0     9     1    18
  2.3227444426277266E-01 a       219     0     9     1    19
  6.5565133008079601E-03 a       220     0     9     1    20
 -4.2741304390657148E-01 a       221     0     9     1    21
 -3.3483068747617872E-01 a       222     0     9     1    22
  3.5311476096063131E-02 a       223     0     9     1    23
  4.3453671536107852E-01 a       224     0     9     1    24
  3.8687790535866712E-01 a       225     0     9     1    25
 -1.7548053833023717E-02 a       226     0    10     1     1
  1.1669179319092003E-02 a       227     0    10     1     2
 -2.1326219035089156E-01 a       228     0    10     1     3
 -1.1271251272418742E-01 a       229     0    10     1     4
 -1.7646189005602417E-01 a       230     0    10     1     5
 -1.1550696094580018E-01 a       231     0    10     1     6
  3.0254144809497452E-02 a       232     0    10     1     7
  3.6389482736989515E-01 a       233     0    10     1     8
  8.2102543816917076E-02 a       234     0    10     1     9
 -1.2016149316178709E-01 a       235     0    10     1    10
 -3.5284864544644678E-01 a       236     0    10     1    11
 -9.8078258639521160E-02 a       237     0    10     1    12
  3.4829495986379640E-02 a       238     0    10     1    13
  7.0411228076711343E-03 a       239     0    10     1    14
  1.1369101925689518E-01 a       240     0    10     1    15
 -6.9126630502900993E-02 a       241     0    10     1    16
 -2.1069290256637030E-01 a       242     0    10     1    17
  1.2862325003230771E-02 a       243     0    10     1    18
  1.9742714599210387E-01 a       244     0    10     1    19
 -1.8176141935538243E-01 a       245     0    10     1    20
  1.0069166003592436E-01 a       246     0    10     1    21
 -3.6887919287147729E-03 a       247     0    10     1    22
  5.3031670079575509E-02 a       248     0    10     1    23
  1.1471659754490316E-02 a       249     0    10     1    24
  1.1621524960457240E-01 a       250     0    10     1    25
 -7.2836570535980291E-02 a       251     0    11     1     1
  6.5055001490550976E-02 a       252     0    11     1     2
  2.5500953616841421E-01 a       253     0    11     1     3
  2.8992013766047822E-04 a       254     0    11     1     4
 -1.5116820573430192E-02 a       255     0    11     1     5
  1.2403153672044155E-01 a       256     0    11     1     6
 -2.5889400896594184E-02 a       257     0    11     1     7
 -2.8031242453311767E-01 a       258     0    11     1     8
 -1.3816045810773653E-01 a       259     0    11     1     9
  6.1170719355970307E-02 a       260     0    11     1    10
 -1.6405146739331514E-01 a       261     0    11     1    11
  1.7611262411284453E-02 a       262     0    11     1    12
  2.9102091731570311E-02 a       263     0    11     1    13
 -7.3351408094154788E-02 a       264     0    11     1    14
  5.6702788769561591E-04 a       265     0    11     1    15
 -2.4573423278280406E-02 a       266     0    11     1    16
  1.9035363355985199E-01 a       267     0    11     1    17
 -1.7889290677239764E-01 a       268     0    11     1    18
  1.5808812569537467E-01 a       269     0    11     1    19
 -1.6598005036998053E-02 a       270     0    11     1    20
 -8.1054961833214659E-02 a       271     0    11     1    21
 -4.8643009081089865E-02 a       272     0    11     1    22
  8.0288480676555085E-02 a       273     0    11     1    23
  2.8766009202883372E-02 a       274     0    11     1    24
  1.1996608223460335E-01 a       275     0    11     1    25
 -9.6374200145872724E-02 a       276     0    12     1     1
  8.1726774277866149E-02 a       277     0    12     1     2
 -1.5310777983879909E-01 a       278     0    12     1     3
 -1.1725863108172296E-01 a       279     0    12     1     4
 -2.2450850690634555E-01 a       280     0    12     1     5
  2.1186862377793676E-02 a       281     0    12     1     6
 -1.2541569733948823E-02 a       282     0    12     1     7
 -5.5343337642884231E-02 a       283     0    12     1     8
 -2.0478979060780630E-01 a       284     0    12     1     9
 -2.4094071306228412E-01 a       285     0    12     1    10
 -1.5228545579721531E-01 a       286     0    12     1    11
  2.0509814461294879E-01 a       287     0    12     1    12
 -9.1236602886361096E-02 a       288     0    12     1    13
 -2.4419827972963798E-01 a       289     0    12     1    14
 -8.9707557039246481E-04 a       290     0    12     1    15
  1.0931765322065573E-01 a       291     0    12     1    16
  5.4157455702808159E-02 a       292     0    12     1    17
  2.4758261067409021E-01 a       293     0    12     1    18
 -9.5705115873684896E-02 a       294     0    12     1    19
 -2.4897342474339196E-02 a       295     0    12     1    20
 -1.0252599062090697E-03 a       296     0    12     1    21
  8.8846105986594009E-02 a       297     0    12     1    22
 -1.0949252555289844E-01 a       298     0    12     1    23
  5.0540785393831340E-02 a       299     0    12     1    24
 -2.5178855058802235E-01 a       300     0    12     1    25
  4.0721462761283700E-01 a       301     0    13     1     1
 -2.4605491677526803E-01 a       302     0    13     1     2
  2.7882323483506360E-01 a       303     0    13     1     3
 -6.4745240684467714E-02 a       304     0    13     1     4
  5.7086019131792320E-01 a       305     0    13     1     5
  6.2934903067201087E-01 a       306     0    13     1     6
 -2.0032957608171492E-01 a       307     0    13     1     7
  2.5576012733373915E-01 a       308     0    13     1     8
 -3.3084582897398207E-01 a       309     0    13     1     9
 -1.4435413635067439E-02 a       310     0    13     1    10
  4.5898647682976490E-01 a       311     0    13     1    11
 -7.2302944917434137E-02 a       312     0    13     1    12
  4.9805523338545360E-01 a       313     0    13     1    13
 -6.9267512783210125E-02 a       314     0    13     1    14
 -6.2466921496189425E-02 a       315     0    13     1    15
 -1.2585615651349044E-01 a       316     0    13     1    16
  3.8707923696871142E-02 a       317     0    13     1    17
  2.5507975355184292E-01 a       318     0    13     1    18
  1.2900539034706540E-01 a       319     0    13     1    19
 -6.5585791263776142E-03 a       320     0    13     1    20
  4.5992337840555381E-01 a       321     0    13     1    21
  5.2834836459573604E-02 a       322     0    13     1    22
  1.3659036643201028E-01 a       323     0    13     1    23
 -2.7101109267932855E-01 a       324     0    13     1    24
 -9.0125008941029316E-02 a       325     0    13     1    25
 -7.6658301748990146E-02 a       326     0    14     1     1
 -2.8144477819470137E-01 a       327     0    14     1     2
 -2.1865786501838763E-01 a       328     0    14     1     3
 -2.2440973760160954E-01 a       329     0    14     1     4
  1.6165928050060971E-01 a       330     0    14     1     5
  5.3288711427990895E-02 a       331     0    14     1     6
  2.1162495841474754E-01 a       332     0    14     1     7
  3.2483695123002343E-01 a       333     0    14     1     8
  1.8155347454378870E-01 a       334     0    14     1     9
 -1.4551471495521143E-01 a       335     0    14     1    10
  6.1628820754180469E-02 a       336     0    14     1    11
  1.3272221227527384E-01 a       337     0    14     1    12
  1.7227331802706894E-01 a       338     0    14     1    13
  4.1411246578829955E-02 a       339     0    14     1    14
 -1.6393754776492502E-02 a       340     0    14     1    15
 -2.9270093369591776E-01 a       341     0    14     1    16
 -6.5316695994112217E-02 a       342     0    14     1    17
  4.1026098647196162E-02 a       343     0    14     1    18
  2.2215718175905813E-01 a       344     0    14     1    19
 -1.1891617395574032E-01 a       345     0    14     1    20
  1.4673589903630946E-01 a       346     0    14     1    21
  3.6240753764821110E-02 a       347     0    14     1    22
 -8.7114169897781236E-03 a       348     0    14     1    23
 -1.0971824006497305E-01 a       349     0    14     1    24
 -1.0901158435497986E-01 a       350     0    14     1    25
 -1.9483830797378421E-02 a       351     0    15     1     1
 -1.9019882992507725E-01 a       352     0    15     1     2
 -9.0220859691903549E-02 a       353     0    15     1     3
 -1.5981025596371601E-01 a       354     0    15     1     4
  1.6363345365586929E-01 a       355     0    15     1     5
  1.9533710943224425E-01 a       356     0    15     1     6
 -2.2448523174309859E-01 a       357     0    15     1     7
 -1.9218477779672485E-01 a       358     0    15     1     8
 -9.8505598794933050E-02 a       359     0    15     1     9
  1.2192852837314104E-01 a       360     0    15     1    10
  4.7127066381244982E-02 a       361     0    15     1    11
 -7.2094314714633359E-02 a       362     0    15     1    12
 -9.7733692852508894E-02 a       363     0    15     1    13
 -1.0794264598164148E-01 a       364     0    15     1    14
 -6.3167615691683679E-02 a       365     0    15     1    15
  2.1016650564174655E-01 a       366     0    15     1    16
  1.3785763651206737E-01 a       367     0    15     1    17
 -4.1458585866596231E-02 a       368     0    15     1    18
 -9.5358788233778732E-02 a       369     0    15     1    19
  5.0081041321589477E-02 a       370     0    15     1    20
  2.4351910585098765E-01 a       371     0    15     1    21
 -1.6714787766381448E-01 a       372     0    15     1    22
  2.3257252793302882E-01 a       373     0    15     1    23
 -4.4452568926818224E-02 a       374     0    15     1    24
  1.9043107973282147E-01 a       375     0    15     1    25
 -1.1829547397730199E-01 a       376     0    16     1     1
 -3.6630283098783883E-01 a       377     0    16     1     2
 -1.1219978777725767E-01 a       378     0    16     1     3
 -1.9180083543012591E-01 a       379     0    16     1     4
 -1.9620996257903081E-01 a       380     0    16     1     5
 -1.3666876769605130E-01 a       381     0    16     1     6
  1.6054770071807795E-01 a       382     0    16     1     7
  3.7583833680773510E-01 a       383     0    16     1     8
  2.7077440168677480E-01 a       384     0    16     1     9
  2.1392439911337630E-01 a       385     0    16     1    10
 -1.3158245447238007E-01 a       386     0    16     1    11
  6.5975533189295429E-02 a       387     0    16     1    12
 -2.7542809089580792E-02 a       388     0    16     1    13
  1.3550253714242327E-01 a       389     0    16     1    14
  3.7599707386669967E-01 a       390     0    16     1    15
  2.1312395675313969E-01 a       391     0    16     1    16
 -1.3859088128638572E-01 a       392     0    16     1    17
  1.5514400273223927E-01 a       393     0    16     1    18
  1.0127872122626844E-01 a       394     0    16     1    19
  4.8594644644603266E-02 a       395     0    16     1    20
 -1.1388551471331695E-01 a       396     0    16     1    21
 -4.2062703286660327E-02 a       397     0    16     1    22
 -2.0908053108444933E-02 a       398     0    16     1    23
 -2.9166859256588901E-01 a       399     0    16     1    24
 -9.1872507589127773E-03 a       400     0    16     1    25
 -5.0509541812158262E-02 a       401     0    17     1     1
  2.9888717479705740E-01 a       402     0    17     1     2
  1.3955297770518736E-02 a       403     0    17     1     3
 -2.2233301323673585E-01 a       404     0    17     1     4
  1.2020636137135313E-01 a       405     0    17     1     5
 -2.0926561778532840E-01 a       406     0    17     1     6
 -2.2126051508088954E-01 a       407     0    17     1     7
  8.5054062338448408E-02 a       408     0    17     1     8
 -4.8951482615956783E-02 a       409     0    17     1     9
  4.3363506838704891E-01 a       410     0    17     1    10
 -2.9987056743922391E-01 a       411     0    17     1    11
 -1.8075430237687157E-01 a       412     0    17     1    12
 -3.5533646154537990E-01 a       413     0    17     1    13
 -2.1796589670121019E-01 a       414     0    17     1    14
 -6.2386900717740869E-02 a       415     0    17     1    15
 -1.3430328714121512E-01 a       416     0    17     1    16
  3.5333761149262433E-01 a       417     0    17     1    17
 -1.5677433698622681E-01 a       418     0    17     1    18
  4.3742031020590919E-02 a       419     0    17     1    19
  2.2199820276871595E-03 a       420     0    17     1    20
 -2.5046765562210832E-01 a       421     0    17     1    21
  1.4346407191626154E-01 a       422     0    17     1    22
 -1.0511145273553617E-01 a       423     0    17     1    23
  4.5176160288583911E-01 a       424     0    17     1    24
  1.3949607658626181E-01 a       425     0    17     1    25
  1.3742070107622126E-01 a       426     0    18     1     1
  1.2250788850040813E-01 a       427     0    18     1     2
 -3.6861866017619976E-01 a       428     0    18     1     3
 -8.4906299355045733E-02 a       429     0    18     1     4
 -2.9569504631239069E-01 a       430     0    18     1     5
 -1.1984305759455946E-01 a       431     0    18     1     6
 -3.6443394592428575E-02 a       432     0    18     1     7
  4.3078153001542357E-02 a       433     0    18     1     8
  3.5299545669832527E-01 a       434     0    18     1     9
  6.6969540243941889E-02 a       435     0    18     1    10
 -1.2528664172905260E-01 a       436     0    18     1    11
 -1.6348264759549869E-01 a       437     0    18     1    12
 -2.0280114575783742E-01 a       438     0    18     1    13
  9.1498040168894762E-02 a       439     0    18     1    14
  2.0430160147548539E-02 a       440     0    18     1    15
  1.2105494418761974E-01 a       441     0    18     1    16
 -5.5079456997865144E-02 a       442     0    18     1    17
 -1.7098432188230731E-01 a       443     0    18     1    18
  6.0617673682735931E-03 a       444     0    18     1    19
 -1.7861344096518156E-01 a       445     0    18     1    20
  2.2851144008262995E-02 a       446     0    18     1    21
  1.1060160900157563E-01 a       447     0    18     1    22
  2.5763878980100408E-02 a       448     0    18     1    23
 -1.9559262858542420E-01 a       449     0    18     1    24
 -1.4652265196856246E-01 a       450     0    18     1    25
 -1.9454167140542977E-01 a       451     0    19     1     1
  3.0428510852072016E-02 a       452     0    19     1     2
  1.5855633863052682E-01 a       453     0    19     1     3
 -3.4739187351137700E-02 a       454     0    19     1     4
  3.4283142779568931E-01 a       455     0    19     1     5
  2.2253497939989231E-01 a       456     0    19     1     6
 -1.7067111725513753E-02 a       457     0    19     1     7
  1.2042429996681706E-01 a       458     0    19     1     8
 -1.1456178463766964E-01 a       459     0    19     1     9
 -3.5448439987392721E-02 a       460     0    19     1    10
  4.2190404767247641E-02 a       461     0    19     1    11
 -9.7961957063264340E-02 a       462     0    19     1    12
  7.2069943909747372E-02 a       463     0    19     1    13
  1.6403090689351550E-02 a       464     0    19     1    14
 -3.1079896007480567E-02 a       465     0    19     1    15
 -1.1163097310791904E-01 a       466     0    19     1    16
  5.9508044958923166E-02 a       467     0    19     1    17
 -6.4219329054311797E-02 a       468     0    19     1    18
 -2.6203601610132848E-01 a       469     0    19     1    19
 -7.1147830261439074E-02 a       470     0    19     1    20
  7.6991358211642408E-02 a       471     0    19     1    21
 -3.1736412187853703E-02 a       472     0    19     1    22
  2.2860416590398328E-01 a       473     0    19     1    23
  1.2255576333605098E-01 a       474     0    19     1    24
  1.0534257765631518E-01 a       475     0    19     1    25
 -2.6518376342177752E-01 a       476     0    20     1     1
  3.5804176172838313E-02 a       477     0    20     1     2
 -1.9734946415292196E-01 a       478     0    20     1     3
 -3.3303549678693040E-01 a       479     0    20     1     4
  1.8053585334970526E-01 a       480     0    20     1     5
 -2.3803486166692648E-02 a       481     0    20     1     6
 -4.3659961401320405E-02 a       482     0    20     1     7
  3.9038587301891040E-02 a       483     0    20     1     8
  1.0986193925998498E-01 a       484     0    20     1     9
 -5.4179665873547285E-02 a       485     0    20     1    10
  1.0119321711144365E-01 a       486     0    20     1    11
 -4.5989455040720807E-02 a       487     0    20     1    12
 -3.2836553418577705E-02 a       488     0    20     1    13
  2.2393292671814766E-01 a       489     0    20     1    14
  1.5162516363923229E-01 a       490     0    20     1    15
  5.0690737055916757E-02 a       491     0    20     1    16
  2.2291481725077997E-01 a       492     0    20     1    17
  9.0687918176598575E-02 a       493     0    20     1    18
 -2.5234775848736091E-01 a       494     0    20     1    19
 -2.2278829786715476E-01 a       495     0    20     1    20
 -1.8637185119261160E-01 a       496     0    20     1    21
  3.3265425530117015E-01 a       497     0    20     1    22
  3.1721062989013268E-02 a       498     0    20     1    23
 -1.1073969290612727E-01 a       499     0    20     1    24
  1.0807005436757809E-01 a       500     0    20     1    25
  6.4837055298617802E-02 a       501     0    21     1     1
 -4.5777270532504311E-01 a       502     0    21     1     2
  3.1876743218102938E-01 a       503     0    21     1     3
  2.2677235716436325E-01 a       504     0    21     1     4
  2.5104058734998946E-01 a       505     0    21     1     5
  3.2197896886036464E-01 a       506     0    21     1     6
 -2.3449600505153070E-01 a       507     0    21     1     7
  1.9960536036926610E-01 a       508     0    21     1     8
 -2.0800977257964642E-01 a       509     0    21     1     9
  2.1707503732992212E-02 a       510     0    21     1    10
  6.2627726530936442E-02 a       511     0    21     1    11
  1.2096729776505412E-01 a       512     0    21     1    12
  2.2925166886251333E-02 a       513     0    21     1    13
  3.9518158481524332E-02 a       514     0    21     1    14
 -3.2371032853365822E-01 a       515     0    21     1    15
 -1.5031550266097855E-02 a       516     0    21     1    16
  1.8295260931481766E-01 a       517     0    21     1    17
  3.0806037216459586E-01 a       518     0    21     1    18
 -2.7659488509648883E-01 a       519     0    21     1    19
 -1.5909093775611136E-01 a       520     0    21     1    20
  1.8950320576154925E-01 a       521     0    21     1    21
 -6.3362019575264300E-02 a       522     0    21     1    22
  2.7063394252510664E-01 a       523     0    21     1    23
 -1.0987352965708941E-01 a       524     0    21     1    24
  2.0840499916705138E-01 a       525     0    21     1    25
 -2.4240580303167583E-01 a       526     0    22     1     1
  7.2513789019592920E-02 a       527     0    22     1     2
 -2.4609462840988161E-01 a       528     0    22     1     3
 -8.1954264197622292E-02 a       529     0    22     1     4
 -9.4321947428561301E-02 a       530     0    22     1     5
 -6.2813056770568393E-02 a       531     0    22     1     6
  3.5650946699111435E-01 a       532     0    22     1     7
  1.3154997869248358E-01 a       533     0    22     1     8
  3.4526276899047548E-01 a       534     0    22     1     9
 -2.3343242176798060E-01 a       535     0    22     1    10
 -3.6680643348922383E-02 a       536     0    22     1    11
  1.8640628763783568E-01 a       537     0    22     1    12
  8.4472226174808734E-02 a       538     0    22     1    13
 -9.4797776011081122E-02 a       539     0    22     1    14
  2.0879946264036059E-01 a       540     0    22     1    15
  1.0887526975957804E-02 a       541     0    22     1    16
 -1.5424169968816290E-01 a       542     0    22     1    17
 -4.7945461503716189E-02 a       543     0    22     1    18
  2.9600486257948394E-01 a       544     0    22     1    19
 -8.2384164242904664E-02 a       545     0    22     1    20
 -7.4361856098059856E-02 a       546     0    22     1    21
 -2.7250909815530933E-01 a       547     0    22     1    22
 -3.7719371221939448E-02 a       548     0    22     1    23
  2.6138850381206401E-02 a       549     0    22     1    24
 -3.2592080539055046E-02 a       550     0    22     1    25
  1.4576800953439467E-01 a       551     0    23     1     1
 -1.2471801390513028E-01 a       552     0    23     1     2
  1.7042424005757839E-01 a       553     0    23     1     3
 -7.6099278901175266E-02 a       554     0    23     1     4
  1.5856612912415044E-01 a       555     0    23     1     5
  1.3285439879204350E-01 a       556     0    23     1     6
 -1.0172554090892080E-01 a       557     0    23     1     7
  8.3049695746221550E-02 a       558     0    23     1     8
 -1.0278079644428149E-01 a       559     0    23     1     9
  1.5496858927087945E-01 a       560     0    23     1    10
 -4.2668942711157988E-02 a       561     0    23     1    11
 -7.7118575962089445E-02 a       562     0    23     1    12
 -4.4516275162855279E-02 a       563     0    23     1    13
  3.7650797421385433E-02 a       564     0    23     1    14
 -7.0423376840981336E-02 a       565     0    23     1    15
  1.5175533301960703E-02 a       566     0    23     1    16
  1.0608273327284444E-01 a       567     0    23     1    17
  2.5919203184543577E-02 a       568     0    23     1    18
 -8.4647518804813429E-02 a       569     0    23     1    19
  3.0702965454362234E-02 a       570     0    23     1    20
  1.9457457084736635E-02 a       571     0    23     1    21
 -5.3938278250334828E-02 a       572     0    23     1    22
  3.3215031684309532E-02 a       573     0    23     1    23
  3.7809200796286285E-03 a       574     0    23     1    24
  2.5295867302888651E-02 a       575     0    23     1    25
 -2.3381976275011998E-02 a       576     0    24     1     1
  5.4398621963115276E-02 a       577     0    24     1     2
 -2.0389850021673522E-01 a       578     0    24     1     3
 -1.1295628989481683E-01 a       579     0    24     1     4
 -6.6343857262998115E-02 a       580     0    24     1     5
  5.3261420301966546E-02 a       581     0    24     1     6
  7.7516554694655751E-02 a       582     0    24     1     7
 -1.7772771274423760E-01 a       583     0    24     1     8
  2.7354518371124814E-01 a       584     0    24     1     9
 -3.4098367199480485E-02 a       585     0    24     1    10
 -1.5288355406648224E-01 a       586     0    24     1    11
  4.1206577679245238E-02 a       587     0    24     1    12
 -2.2324135518604030E-02 a       588     0    24     1    13
 -6.3901732036256986E-02 a       589     0    24     1    14
  7.5243778411184029E-02 a       590     0    24     1    15
 -1.1753592623359128E-02 a       591     0    24     1    16
 -1.7153992068635424E-01 a       592     0    24     1    17
 -1.2737520519000655E-02 a       593     0    24     1    18
  9.1905762955288697E-02 a       594     0    24     1    19
 -1.6329902863134729E-01 a       595     0    24     1    20
 -2.0452579928185360E-02 a       596     0    24     1    21
 -9.4164735356066051E-02 a       597     0    24     1    22
  4.3172212538263213E-02 a       598     0    24     1    23
 -6.8771350928847466E-02 a       599     0    24     1    24
 -2.5326035777200390E-01 a       600     0    24     1    25
 -5.9261150929527148E-04 a       601     0    25     1     1
 -9.3408773277703864E-03 a       602     0    25     1     2
  1.7357143911582246E-02 a       603     0    25     1     3
 -3.0285184939730925E-01 a       604     0    25     1     4
  3.7520178386405312E-02 a       605     0    25     1     5
  5.0113731989692649E-02 a       606     0    25     1     6
  4.3275153226003393E-02 a       607     0    25     1     7
  8.5534015273792258E-02 a       608     0    25     1     8
 -5.3745223658817988E-02 a       609     0    25     1     9
  6.4382666275454664E-02 a       610     0    25     1    10
 -2.4762262681561412E-02 a       611     0    25     1    11
 -1.1801299387202489E-01 a       612     0    25     1    12
  6.2327990975348406E-02 a       613     0    25     1    13
 -5.5901336449791166E-02 a       614     0    25     1    14
 -7.6909530773623516E-02 a       615     0    25     1    15
 -1.2060979496005908E-02 a       616     0    25     1    16
 -2.7024943171527264E-02 a       617     0    25     1    17
 -2.8324519026120010E-01 a       618     0    25     1    18
 -7.7052462315457286E-03 a       619     0    25     1    19
  3.1847300408563833E-01 a       620     0    25     1    20
  8.4820638526068137E-02 a       621     0    25     1    21
 -1.1048262482760741E-01 a       622     0    25     1    22
 -3.2042221649415649E-02 a       623     0    25     1    23
  1.2092845630504849E-01 a       624     0    25     1    24
  5.6980127288351785E-02 a       625     0    25     1    25
  2.3370979285659219E-02 a       626     0    26     1     1
  1.9067448301923051E-01 a       627     0    26     1     2
 -1.2626010640689106E-01 a       628     0    26     1     3
  6.3157594267826370E-02 a       629     0    26     1     4
 -3.6053545947366650E-02 a       630     0    26     1     5
 -2.5146101196909250E-02 a       631     0    26     1     6
 -2.6652491468624789E-02 a       632     0    26     1     7
 -9.4566091344766748E-02 a       633     0    26     1     8
  5.8722798499061847E-02 a       634     0    26     1     9
  6.2709322293516750E-02 a       635     0    26     1    10
  5.6664539917506911E-02 a       636     0    26     1    11
 -7.1546618956081581E-02 a       637     0    26     1    12
  5.2496071032602086E-02 a       638     0    26     1    13
  7.9952398872060247E-04 a       639     0    26     1    14
  5.0537177232633408E-02 a       640     0    26     1    15
  9.6970068111038463E-02 a       641     0    26     1    16
  2.6214161414188585E-03 a       642     0    26     1    17
 -1.1117004194483998E-02 a       643     0    26     1    18
  1.2537045415048070E-01 a       644     0    26     1    19
 -1.6182453190626174E-02 a       645     0    26     1    20
 -6.6783363868197013E-02 a       646     0    26     1    21
  3.3168823806916617E-02 a       647     0    26     1    22
  3.7810071525139877E-02 a       648     0    26     1    23
 -5.8230939238527013E-02 a       649     0    26     1    24
 -1.9530327171910888E-01 a       650     0    26     1    25
 -1.7913367468445740E-01 a       651     0    27     1     1
 -6.2482627149119847E-02 a       652     0    27     1     2
  5.1994735125642344E-02 a       653     0    27     1     3
  8.0178914561367057E-03 a       654     0    27     1     4
  1.7527377954211210E-02 a       655     0    27     1     5
 -4.1626961596922939E-02 a       656     0    27     1     6
  4.9242954596464029E-02 a       657     0    27     1     7
 -8.2023600514121914E-02 a       658     0    27     1     8
 -7.4894982919093966E-02 a       659     0    27     1     9
 -7.0827027039399415E-02 a       660     0    27     1    10
 -3.8289023921017067E-02 a       661     0    27     1    11
 -1.6444179415978730E-02 a       662     0    27     1    12
  5.2891893567615630E-02 a       663     0    27     1    13
 -7.1757518999958247E-02 a       664     0    27     1    14
 -4.0123639188578003E-02 a       665     0    27     1    15
 -6.6531196032663997E-02 a       666     0    27     1    16
 -3.1484672150943416E-02 a       667     0    27     1    17
 -3.3980391642303613E-03 a       668     0    27     1    18
 -1.1792893878372697E-04 a       669     0    27     1    19
 -4.7052580706460477E-02 a       670     0    27     1    20
  7.7670146390136155E-02 a       671     0    27     1    21
  7.0599230696654774E-02 a       672     0    27     1    22
  1.5206115251680047E-01 a       673     0    27     1    23
  6.8831197894576021E-02 a       674     0    27     1    24
  1.7772409278071449E-01 a       675     0    27     1    25
 -6.3293708457474424E-02 a       676     0    28     1     1
 -9.1237315567432961E-02 a       677     0    28     1     2
  1.8584831188550217E-02 a       678     0    28     1     3
  1.2487222775621833E-01 a       679     0    28     1     4
  4.9168090316759963E-02 a       680     0    28     1     5
 -3.0538249808546837E-02 a       681     0    28     1     6
 -2.8232441821483656E-02 a       682     0    28     1     7
  7.2323549908636056E-02 a       683     0    28     1     8
  3.8269080767462854E-02 a       684     0    28     1     9
  1.1500133135146076E-01 a       685     0    28     1    10
  8.9203570923467937E-03 a       686     0    28     1    11
  1.1446159835935912E-01 a       687     0    28     1    12
 -8.7344941099976540E-03 a       688     0    28     1    13
  5.1591932784064085E-02 a       689     0    28     1    14
  3.0343823496895055E-02 a       690     0    28     1    15
  2.1351269453936536E-01 a       691     0    28     1    16
  1.6016761758224707E-01 a       692     0    28     1    17
  4.9067834382229503E-02 a       693     0    28     1    18
 -2.1732317061151391E-02 a       694     0    28     1    19
  3.6596163470545701E-02 a       695     0    28     1    20
 -1.4841037539828245E-01 a       696     0    28     1    21
 -5.6565310628263005E-02 a       697     0    28     1    22
 -2.2747668923394247E-03 a       698     0    28     1    23
  1.2236655861153325E-02 a       699     0    28     1    24
  1.0915239021647458E-01 a       700     0    28     1    25
  6.7687892992188961E-03 a       701     0    29     1     1
 -1.6158150733653506E-01 a       702     0    29     1     2
  2.1620294868435913E-01 a       703     0    29     1     3
  8.0805587531866147E-02 a       704     0    29     1     4
 -4.3774894271249552E-03 a       705     0    29     1     5
  3.4284336252175619E-02 a       706     0    29     1     6
 -1.8085044171692660E-01 a       707     0    29     1     7
 -2.9122974345674155E-02 a       708     0    29     1     8
 -2.4004360866741106E-01 a       709     0    29     1     9
  2.2400494684808869E-02 a       710     0    29     1    10
 -1.9577306659681038E-02 a       711     0    29     1    11
  2.5922821011976538E-01 a       712     0    29     1    12
 -8.2573422844489333E-02 a       713     0    29     1    13
  6.9723293228374644E-02 a       714     0    29     1    14
  8.0603232553472987E-02 a       715     0    29     1    15
 -1.8001042792290739E-01 a       716     0    29     1    16
 -1.2679489114567415E-02 a       717     0    29     1    17
  1.3229849110687000E-01 a       718     0    29     1    18
 -7.2463589814703147E-02 a       719     0    29     1    19
 -9.4420373792941367E-02 a       720     0    29     1    20
 -1.3139254593615096E-01 a       721     0    29     1    21
  2.7878622197150976E-01 a       722     0    29     1    22
  7.3384541414968474E-02 a       723     0    29     1    23
 -1.2557932449130763E-01 a       724     0    29     1    24
  1.0262663025693942E-01 a       725     0    29     1    25
 -2.4429278288383866E-01 a       726     0    30     1     1
  5.7470554890807081E-02 a       727     0    30     1     2
 -2.3116713976698448E-02 a       728     0    30     1     3
 -4.9867215273011273E-02 a       729     0    30     1     4
  7.8663994633734694E-03 a       730     0    30     1     5
 -1.7784146230192224E-02 a       731     0    30     1     6
  2.4146155981407275E-01 a       732     0    30     1     7
  6.9482871418907438E-02 a       733     0    30     1     8
  2.3091085081310830E-01 a       734     0    30     1     9
 -4.4155890371343189E-02 a       735     0    30     1    10
 -8.6059273144821369E-02 a       736     0    30     1    11
 -3.8757421385406325E-02 a       737     0    30     1    12
 -4.7932190587675894E-02 a       738     0    30     1    13
 -1.5623201344014451E-01 a       739     0    30     1    14
  3.5786229126851213E-02 a       740     0    30     1    15
  9.1743378599257380E-02 a       741     0    30     1    16
  4.0076721564789967E-02 a       742     0    30     1    17
 -8.5191507116457066E-02 a       743     0    30     1    18
  1.7331183794283789E-01 a       744     0    30     1    19
 -9.4296277598579753E-02 a       745     0    30     1    20
 -7.9933549273258804E-03 a       746     0    30     1    21
 -2.4263531384753425E-02 a       747     0    30     1    22
  2.7812644239246405E-02 a       748     0    30     1    23
  6.1805404629369509E-02 a       749     0    30     1    24
 -4.4270243376695897E-02 a       750     0    30     1    25
  1.6381862611003628E-01 a       751     0    31     1     1
 -7.7068389304637705E-02 a       752     0    31     1     2
  9.6623673957831890E-02 a       753     0    31     1     3
 -7.4580083046051113E-02 a       754     0    31     1     4
  2.0484449765280388E-01 a       755     0    31     1     5
  2.0413013856186649E-01 a       756     0    31     1     6
 -1.0364448306213013E-01 a       757     0    31     1     7
  1.3321026581504303E-01 a       758     0    31     1     8
 -4.8880337980827554E-02 a       759     0    31     1     9
  1.2236773824891774E-01 a       760     0    31     1    10
  3.1417004956220816E-02 a       761     0    31     1    11
  8.9436172306615963E-02 a       762     0    31     1    12
 -2.2742197432337749E-03 a       763     0    31     1    13
  1.6346873610555518E-01 a       764     0    31     1    14
 -4.5801408745312272E-02 a       765     0    31     1    15
  6.6615116521418535E-02 a       766     0    31     1    16
  1.9832611246121085E-02 a       767     0    31     1    17
 -3.3628508265123105E-02 a       768     0    31     1    18
 -2.0653129329655517E-01 a       769     0    31     1    19
  1.3762754946367289E-01 a       770     0    31     1    20
 -4.6177216305285700E-02 a       771     0    31     1    21
 -1.6053838117462346E-03 a       772     0    31     1    22
 -1.2715507671474593E-01 a       773     0    31     1    23
 -2.1405275301616053E-03 a       774     0    31     1    24
 -8.9455458526152692E-02 a       775     0    31     1    25
 -1.3080463535255904E-02 a       776     0    32     1     1
  1.1861075427745509E-01 a       777     0    32     1     2
 -4.4955123399310605E-02 a       778     0    32     1     3
 -2.3827005892076300E-01 a       779     0    32     1     4
  1.8471280504642229E-01 a       780     0    32     1     5
  8.7030845059123202E-02 a       781     0    32     1     6
  8.2419333445729798E-02 a       782     0    32     1     7
 -7.0180210748478092E-02 a       783     0    32     1     8
  2.3001396079981279E-01 a       784     0    32     1     9
 -1.0795754745997629E-02 a       785     0    32     1    10
 -1.0159861754916194E-01 a       786     0    32     1    11
 -1.3326239701405646E-01 a       787     0    32     1    12
  8.9713737766763030E-02 a       788     0    32     1    13
 -2.2763471446586641E-03 a       789     0    32     1    14
  2.9086806905467336E-02 a       790     0    32     1    15
  1.6308538895410011E-02 a       791     0    32     1    16
 -7.7665933398272366E-02 a       792     0    32     1    17
 -4.2039833959656936E-02 a       793     0    32     1    18
 -2.9761165617924291E-02 a       794     0    32     1    19
 -2.2838299507124127E-01 a       795     0    32     1    20
  2.6642298192730993E-02 a       796     0    32     1    21
 -2.6001929302157278E-02 a       797     0    32     1    22
 -5.1033028106333513E-02 a       798     0    32     1    23
  9.4666107708423416E-02 a       799     0    32     1    24
 -1.2057382192680911E-01 a       800     0    32     1    25
 -4.6248718869999726E-02 a       801     0    33     1     1
 -2.3667641944113024E-02 a       802     0    33     1     2
 -1.4033829951703967E-03 a       803     0    33     1     3
  3.5364286212274089E-02 a       804     0    33     1     4
  1.9775227731106761E-02 a       805     0    33     1     5
 -3.7164175398251446E-02 a       806     0    33     1     6
  6.5931551597794624E-02 a       807     0    33     1     7
 -1.7984981701575024E-02 a       808     0    33     1     8
  7.1265833168567966E-02 a       809     0    33     1     9
 -1.8425041357397681E-02 a       810     0    33     1    10
  4.3286900003929429E-02 a       811     0    33     1    11
 -1.3573091294568690E-01 a       812     0    33     1    12
  1.1973669384046765E-01 a       813     0    33     1    13
  4.8588382371919911E-02 a       814     0    33     1    14
 -2.4352039813036503E-03 a       815     0    33     1    15
  1.5747544169331307E-01 a       816     0    33     1    16
  3.8855945739590611E-04 a       817     0    33     1    17
  4.9481670169865037E-02 a       818     0    33     1    18
 -1.7381587455604783E-01 a       819     0    33     1    19
  1.1697030749201309E-01 a       820     0    33     1    20
  1.0625095172649911E-01 a       821     0    33     1    21
 -9.3392895626316697E-02 a       822     0    33     1    22
 -1.4689066147685184E-01 a       823     0    33     1    23
  3.6058739297873503E-02 a       824     0    33     1    24
  3.1590840019743056E-02 a       825     0    33     1    25
 -5.8957688094413360E-02 a       826     0    34     1     1
 -5.2575473032725559E-03 a       827     0    34     1     2
 -9.8827806580522565E-02 a       828     0    34     1     3
  3.6576475044519080E-02 a       829     0    34     1     4
 -1.6465712334410490E-01 a       830     0    34     1     5
 -4.9138587164993482E-02 a       831     0    34     1     6
 -1.3957827358901231E-01 a       832     0    34     1     7
  3.9745593841565598E-02 a       833     0    34     1     8
 -1.8321119409867431E-01 a       834     0    34     1     9
  1.7766765787256441E-02 a       835     0    34     1    10
 -1.9849905219648335E-02 a       836     0    34     1    11
 -1.1464793236240665E-02 a       837     0    34     1    12
 -3.5267865962523910E-02 a       838     0    34     1    13
 -8.8747350301447312E-04 a       839     0    34     1    14
 -2.4931249482549843E-02 a       840     0    34     1    15
 -5.6144850343437941E-02 a       841     0    34     1    16
 -3.6773553643023572E-02 a       842     0    34     1    17
  7.1814842730998821E-02 a       843     0    34     1    18
  1.4165124136584190E-01 a       844     0    34     1    19
 -5.0929015654906519E-02 a       845     0    34     1    20
 -2.7523864712262472E-03 a       846     0    34     1    21
 -1.4696711871266604E-01 a       847     0    34     1    22
 -8.5516987724190939E-03 a       848     0    34     1    23
  7.0968712275336271E-02 a       849     0    34     1    24
 -7.2329257082967058E-02 a       850     0    34     1    25
  1.2988735271255700E-01 a       851     0    35     1     1
 -2.8140363241535869E-02 a       852     0    35     1     2
 -2.1897298985985327E-02 a       853     0    35     1     3
  3.3005137424686727E-02 a       854     0    35     1     4
 -4.8090029740974496E-02 a       855     0    35     1     5
 -1.3285250071253671E-01 a       856     0    35     1     6
  1.1266334244804546E-01 a       857     0    35     1     7
 -7.1575339675369179E-02 a       858     0    35     1     8
  1.1239343380109569E-01 a       859     0    35     1     9
 -2.9319732852081830E-02 a       860     0    35     1    10
 -5.4400230383930326E-02 a       861     0    35     1    11
 -4.1515473918461276E-02 a       862     0    35     1    12
 -2.2822640845742922E-02 a       863     0    35     1    13
 -1.0366036049599034E-01 a       864     0    35     1    14
  1.0020672226185350E-02 a       865     0    35     1    15
 -6.3295399665178179E-02 a       866     0    35     1    16
  5.1399295335695816E-02 a       867     0    35     1    17
  1.8487033428997005E-02 a       868     0    35     1    18
  7.8889548521740516E-02 a       869     0    35     1    19
 -1.0925855036272666E-01 a       870     0    35     1    20
  6.4221356991534060E-03 a       871     0    35     1    21
  9.5589261654341149E-03 a       872     0    35     1    22
  2.0665702507192321E-01 a       873     0    35     1    23
 -2.3722831729935744E-02 a       874     0    35     1    24
  1.6997309847817169E-01 a       875     0    35     1    25
 -2.7843977443344009E-01 a       876     0    36     1     1
 -1.1130121646900831E-01 a       877     0    36     1     2
 -1.6840403716233687E-02 a       878     0    36     1     3
  1.4082230956325090E-01 a       879     0    36     1     4
 -8.7259504599135798E-02 a       880     0    36     1     5
 -2.5327266913876805E-02 a       881     0    36     1     6
 -2.7305395017856535E-02 a       882     0    36     1     7
 -2.9396702497359570E-02 a       883     0    36     1     8
 -1.8548060837061137E-01 a       884     0    36     1     9
  5.5333933384846316E-02 a       885     0    36     1    10
  7.7288639162835454E-03 a       886     0    36     1    11
  1.9457949536099237E-01 a       887     0    36     1    12
 -5.9085075763069317E-02 a       888     0    36     1    13
 -4.2909840236087966E-03 a       889     0    36     1    14
  7.6282069369481134E-02 a       890     0    36     1    15
 -4.6736874543883866E-02 a       891     0    36     1    16
  3.7634424925774020E-02 a       892     0    36     1    17
  8.6590582532997340E-02 a       893     0    36     1    18
  1.0941762154799305E-01 a       894     0    36     1    19
  1.1916118731540443E-01 a       895     0    36     1    20
 -1.1687329397668492E-01 a       896     0    36     1    21
  1.4387381196432143E-02 a       897     0    36     1    22
  1.1605430339302600E-01 a       898     0    36     1    23
 -1.0387026132954121E-01 a       899     0    36     1    24
 -1.8475079607844561E-02 a       900     0    36     1    25
  1.2418934341643210E-01 a       901     0    37     1     1
 -5.7945556285549503E-02 a       902     0    37     1     2
  1.6885140851890357E-01 a       903     0    37     1     3
 -4.6240803683535468E-02 a       904     0    37     1     4
  3.5725650226594255E-02 a       905     0    37     1     5
  6.5935294013021298E-02 a       906     0    37     1     6
 -2.7549760916156660E-02 a       907     0    37     1     7
 -6.5587989682104123E-02 a       908     0    37     1     8
 -9.4674102832201013E-02 a       909     0    37     1     9
  2.4509243411741561E-02 a       910     0    37     1    10
  1.4191665492970190E-02 a       911     0    37     1    11
  1.5265237437067983E-01 a       912     0    37     1    12
 -2.3835765743839599E-02 a       913     0    37     1    13
 -2.9864772872639422E-03 a       914     0    37     1    14
  5.1245318268954100E-02 a       915     0    37     1    15
  2.7589517229608215E-02 a       916     0    37     1    16
  8.9119773905557472E-03 a       917     0    37     1    17
 -3.8654104055296935E-02 a       918     0    37     1    18
 -1.3191678793654312E-02 a       919     0    37     1    19
 -1.0449400336345607E-02 a       920     0    37     1    20
 -1.0529125032163664E-01 a       921     0    37     1    21
 -1.8173575281594398E-02 a       922     0    37     1    22
  1.1645668434365362E-01 a       923     0    37     1    23
 -6.8459735486921192E-02 a       924     0    37     1    24
  3.7661900470775923E-02 a       925     0    37     1    25
 -4.9423690046340223E-02 a       926     0    38     1     1
  4.0822843781007749E-02 a       927     0    38     1     2
 -2.8267948617558405E-02 a       928     0    38     1     3
 -3.5951335210061060E-02 a       929     0    38     1     4
  5.4983929700140849E-02 a       930     0    38     1     5
 -7.9269944019458600E-03 a       931     0    38     1     6
  1.2593265493422864E-01 a       932     0    38     1     7
  9.8295567898940422E-02 a       933     0    38     1     8
  1.3476944427939816E-01 a       934     0    38     1     9
  2.5182597429341383E-02 a       935     0    38     1    10
 -4.3990649021721603E-02 a       936     0    38     1    11
 -4.4054617472749344E-02 a       937     0    38     1    12
 -1.1997859396884329E-02 a       938     0    38     1    13
 -1.1107243674698461E-01 a       939     0    38     1    14
 -4.0159948859314523E-02 a       940     0    38     1    15
  7.2035575251323007E-03 a       941     0    38     1    16
  3.4941866155704562E-02 a       942     0    38     1    17
 -8.6908660552018541E-02 a       943     0    38     1    18
  1.2320841594345840E-01 a       944     0    38     1    19
 -2.1120265571072758E-02 a       945     0    38     1    20
  3.9318478190083000E-03 a       946     0    38     1    21
 -2.9592530867628742E-02 a       947     0    38     1    22
  9.5293699331841522E-02 a       948     0    38     1    23
  4.0065007477758402E-02 a       949     0    38     1    24
 -4.4678998207401170E-02 a       950     0    38     1    25
 -2.0735974343701530E-01 a       951     0    39     1     1
 -2.4509871696053950E-02 a       952     0    39     1     2
  5.7970303559794378E-02 a       953     0    39     1     3
 -3.6538317787963570E-02 a       954     0    39     1     4
  1.5959237721792022E-01 a       955     0    39     1     5
  1.5236475533412056E-01 a       956     0    39     1     6
 -6.6845586637838503E-02 a       957     0    39     1     7
 -1.1017034480221059E-02 a       958     0    39     1     8
 -5.1908493979261720E-02 a       959     0    39     1     9
  2.7008171105241095E-02 a       960     0    39     1    10
  4.2685491653572778E-02 a       961     0    39     1    11
  8.1578673808557198E-02 a       962     0    39     1    12
  3.6227844851368776E-02 a       963     0    39     1    13
  1.2348429440007168E-01 a       964     0    39     1    14
 -2.8624900609000175E-02 a       965     0    39     1    15
 -3.7196538356563148E-02 a       966     0    39     1    16
 -4.6146319380353115E-02 a       967     0    39     1    17
 -2.9117678851668268E-02 a       968     0    39     1    18
 -1.4061409573943892E-01 a       969     0    39     1    19
  4.6277958645377780E-02 a       970     0    39     1    20
 -3.0313324438774013E-02 a       971     0    39     1    21
 -1.6892436822060548E-02 a       972     0    39     1    22
  1.4059105032264165E-03 a       973     0    39     1    23
 -3.2816938282363337E-03 a       974     0    39     1    24
 -2.3713481538999982E-02 a       975     0    39     1    25
  5.0493730093919477E-02 a       976     0    40     1     1
  2.3289734794976816E-02 a       977     0    40     1     2
 -7.5632783963123038E-03 a       978     0    40     1     3
 -5.6335055491872676E-02 a       979     0    40     1     4
  6.2906970027588840E-02 a       980     0    40     1     5
 -1.1704403946661193E-02 a       981     0    40     1     6
 -4.7797266127721470E-03 a       982     0    40     1     7
  1.4801051361808384E-02 a       983     0    40     1     8
  1.6264269381591662E-01 a       984     0    40     1     9
  1.2796839104238941E-02 a       985     0    40     1    10
 -3.3434551889507849E-02 a       986     0    40     1    11
 -9.0263284721875378E-02 a       987     0    40     1    12
 -1.4218694754857646E-02 a       988     0    40     1    13
  1.8799473199804632E-02 a       989     0    40     1    14
 -7.6621104470326648E-02 a       990     0    40     1    15
  8.4551728824364042E-02 a       991     0    40     1    16
  2.4268641701218882E-02 a       992     0    40     1    17
 -1.9017297512607532E-02 a       993     0    40     1    18
 -7.8727621126056371E-02 a       994     0    40     1    19
 -1.7083182217214096E-01 a       995     0    40     1    20
  2.4265032165107876E-03 a       996     0    40     1    21
 -1.1187688476691823E-01 a       997     0    40     1    22
  8.8995744646143578E-03 a       998     0    40     1    23
  8.0289017257011375E-02 a       999     0    40     1    24
 -3.2239195351845169E-03 a      1000     0    40     1    25
  1.5360359023905951E-01 a      1001     0    41     1     1
 -1.0370070940772154E-01 a      1002     0    41     1     2
  5.3101317604514864E-01 a      1003     0    41     1     3
 -3.6489242464937582E-01 a      1004     0    41     1     4
 -1.3117069023739253E-01 a      1005     0    41     1     5
 -3.9389989152546317E-01 a      1006     0    41     1     6
 -6.5311716552524865E-02 a      1007     0    41     1     7
 -1.0924223590228650E-01 a      1008     0    41     1     8
 -2.5104499322255980E-01 a      1009     0    41     1     9
 -7.1122875311049960E-01 a      1010     0    41     1    10
 -1.4957834227984398E-01 a      1011     0    41     1    11
 -1.7966761530874295E-01 a      1012     0    41     1    12
 -4.5760025253714315E-01 a      1013     0    41     1    13
 -8.1923674036963337E-02 a      1014     0    41     1    14
  1.5415707808869944E-01 a      1015     0    41     1    15
  1.3503457833033217E-01 a      1016     0    41     1    16
 -4.5875654208046696E-01 a      1017     0    41     1    17
 -3.6939660665909640E-01 a      1018     0    41     1    18
 -5.8372777637541495E-01 a      1019     0    41     1    19
  2.4942316071577128E-01 a      1020     0    41     1    20
  4.5033703205788495E-01 a      1021     0    41     1    21
 -1.2776107532303618E-01 a      1022     0    41     1    22
  2.4862103709324818E-02 a      1023     0    41     1    23
 -3.4207492796468220E-03 a      1024     0    41     1    24
 -6.3987206721006801E-02 a      1025     0    41     1    25
 -7.9834662160135003E-02 a      1026     0    42     1     1
 -2.9380156745409666E-02 a      1027     0    42     1     2
  1.2911441701378965E-01 a      1028     0    42     1     3
  1.5372571740170876E-01 a      1029     0    42     1     4
 -5.5226375814373407E-01 a      1030     0    42     1     5
  5.5508345909536727E-01 a      1031     0    42     1     6
  3.8063920693824133E-01 a      1032     0    42     1     7
 -5.8148780493923369E-01 a      1033     0    42     1     8
  1.3230340072920821E-01 a      1034     0    42     1     9
  6.5087122731009761E-01 a      1035     0    42     1    10
 -1.3909790389980905E-02 a      1036     0    42     1    11
 -1.8234582748375883E-01 a      1037     0    42     1    12
  1.4761752510473550E-01 a      1038     0    42     1    13
 -5.2396158831018821E-02 a      1039     0    42     1    14
 -1.8385414847376494E-01 a      1040     0    42     1    15
  2.2538887595226109E-01 a      1041     0    42     1    16
  3.2896029470407773E-01 a      1042     0    42     1    17
  1.5525522327160333E-02 a      1043     0    42     1    18
  1.4217658289602234E-01 a      1044     0    42     1    19
 -3.4534094705845825E-01 a      1045     0    42     1    20
 -4.6900076573802468E-01 a      1046     0    42     1    21
  1.7055221699139811E-01 a      1047     0    42     1    22
 -5.4024519273828425E-02 a      1048     0    42     1    23
 -9.3097119205186568E-02 a      1049     0    42     1    24
 -3.4673416040610544E-01 a      1050     0    42     1    25
  1.3843038826393636E-01 a      1051     0    43     1     1
 -1.3417651817862156E-01 a      1052     0    43     1     2
  2.5213300934377647E-01 a      1053     0    43     1     3
  1.4530811551078746E-01 a      1054     0    43     1     4
  2.4011878693512459E-01 a      1055     0    43     1     5
  5.2554326410111811E-02 a      1056     0    43     1     6
 -2.4274572252481932E-01 a      1057     0    43     1     7
 -1.1228258135075180E-01 a      1058     0    43     1     8
  7.7876126589983372E-02 a      1059     0    43     1     9
  1.1675505301296168E-01 a      1060     0    43     1    10
 -8.0244794425692573E-02 a      1061     0    43     1    11
  6.7907436309379746E-02 a      1062     0    43     1    12
  1.9330213693086132E-01 a      1063     0    43     1    13
 -5.6092348323420943E-02 a      1064     0    43     1    14
  2.2469786067347289E-01 a      1065     0    43     1    15
  2.0399376332311139E-01 a      1066     0    43     1    16
  2.7337269787642084E-02 a      1067     0    43     1    17
  2.2965661463947528E-02 a      1068     0    43     1    18
  6.3061994366669961E-03 a      1069     0    43     1    19
 -1.4022723943696253E-01 a      1070     0    43     1    20
  1.3147866741252878E-01 a      1071     0    43     1    21
  6.4684255182652375E-02 a      1072     0    43     1    22
  1.2452867444395399E-01 a      1073     0    43     1    23
  5.4774124013378434E-01 a      1074     0    43     1    24
 -1.6822519580835377E-01 a      1075     0    43     1    25
 -1.1255084583810604E-01 a      1076     0    44     1     1
  7.1108415551744117E-02 a      1077     0    44     1     2
 -7.4126871406162045E-02 a      1078     0    44     1     3
  2.1803938246368534E-01 a      1079     0    44     1     4
  1.0898944120426861E-01 a      1080     0    44     1     5
  1.1695341487996480E-01 a      1081     0    44     1     6
  2.0194655651860022E-01 a      1082     0    44     1     7
 -9.4305666686761241E-02 a      1083     0    44     1     8
  3.5808042914197308E-01 a      1084     0    44     1     9
  1.3585169500292349E-01 a      1085     0    44     1    10
  1.7336269703779755E-02 a      1086     0    44     1    11
 -4.6289136444441770E-02 a      1087     0    44     1    12
 -2.0027524723570700E-01 a      1088     0    44     1    13
  1.4268656275507141E-01 a      1089     0    44     1    14
 -1.3899105243866619E-01 a      1090     0    44     1    15
  2.2213997870037755E-01 a      1091     0    44     1    16
 -2.5056591206441670E-01 a      1092     0    44     1    17
 -1.7305283737673199E-01 a      1093     0    44     1    18
  8.9317755801751678E-02 a      1094     0    44     1    19
 -2.1478379279878508E-02 a      1095     0    44     1    20
  7.6544071243993789E-02 a      1096     0    44     1    21
 -3.0948251362005375E-01 a      1097     0    44     1    22
 -3.6482083269566729E-01 a      1098     0    44     1    23
 -5.5660109092014770E-02 a      1099     0    44     1    24
 -4.2623617302051366E-02 a      1100     0    44     1    25
 -1.1900759747300582E-01 a      1101     0    45     1     1
  2.4347353092809881E-01 a      1102     0    45     1     2
 -6.3433481785676274E-02 a      1103     0    45     1     3
  8.1160724200412468E-02 a      1104     0    45     1     4
  4.0914707897394327E-02 a      1105     0    45     1     5
 -3.9907088255593681E-01 a      1106     0    45     1     6
  2.3120130186173819E-02 a      1107     0    45     1     7
  1.7391566737010933E-01 a      1108     0    45     1     8
 -1.4288091766797822E-01 a      1109     0    45     1     9
 -1.2921551846588308E-01 a      1110     0    45     1    10
  5.0250053005028529E-02 a      1111     0    45     1    11
 -6.6762478391558105E-02 a      1112     0    45     1    12
 -8.8441215179943661E-02 a      1113     0    45     1    13
 -1.0990886656361651E-01 a      1114     0    45     1    14
  2.7485065775999501E-01 a      1115     0    45     1    15
  5.9558923749436624E-02 a      1116     0    45     1    16
 -1.7207950932154173E-02 a      1117     0    45     1    17
 -9.0930264733792385E-02 a      1118     0    45     1    18
 -3.5077335365660309E-02 a      1119     0    45     1    19
  2.2371833221457485E-01 a      1120     0    45     1    20
  2.6358065060092156E-01 a      1121     0    45     1    21
  2.0920448369669054E-01 a      1122     0    45     1    22
 -1.6223590983873867E-02 a      1123     0    45     1    23
 -6.7660290124497363E-03 a      1124     0    45     1    24
 -8.6646630748800895E-03 a      1125     0    45     1    25
  1.7316808970457426E-01 a      1126     0    46     1     1
  1.6816708945922329E-01 a      1127     0    46     1     2
  2.4317431028548886E-01 a      1128     0    46     1     3
 -1.2188643056612609E-01 a      1129     0    46     1     4
 -1.6621862265368267E-01 a      1130     0    46     1     5
  2.4666879047462015E-01 a      1131     0    46     1     6
  1.5148164441476492E-01 a      1132     0    46     1     7
 -1.2285123310408042E-01 a      1133     0    46     1     8
  7.0989662607949828E-03 a      1134     0    46     1     9
  6.5777288704741657E-02 a      1135     0    46     1    10
  5.3866085517345390E-02 a      1136     0    46     1    11
  8.0177040746413297E-02 a      1137     0    46     1    12
 -2.5227588641945027E-02 a      1138     0    46     1    13
 -1.2343550572888970E-01 a      1139     0    46     1    14
  1.9798683908327788E-01 a      1140     0    46     1    15
  2.1666288394367578E-01 a      1141     0    46     1    16
 -8.7102629938608511E-02 a      1142     0    46     1    17
 -1.1368301852106204E-01 a      1143     0    46     1    18
 -5.3304748395610169E-02 a      1144     0    46     1    19
  9.6777500385326565E-02 a      1145     0    46     1    20
 -1.0793046243981146E-01 a      1146     0    46     1    21
  9.9398864371378869E-03 a      1147     0    46     1    22
  1.9104728420633937E-01 a      1148     0    46     1    23
 -3.0204753297653344E-02 a      1149     0    46     1    24
 -1.4350090416642075E-01 a      1150     0    46     1    25
 -2.2998911398888634E-02 a      1151     0    47     1     1
  5.0555359226292153E-02 a      1152     0    47     1     2
 -8.4820137435532406E-02 a      1153     0    47     1     3
 -1.1815098972512321E-01 a      1154     0    47     1     4
  2.7316227435495357E-02 a      1155     0    47     1     5
 -1.5353831132730775E-01 a      1156     0    47     1     6
  1.1823458286074166E-01 a      1157     0    47     1     7
 -1.0377298176486766E-01 a      1158     0    47     1     8
 -3.9757935674934280E-01 a      1159     0    47     1     9
 -5.9137053041621472E-02 a      1160     0    47     1    10
 -3.8076121194119267E-02 a      1161     0    47     1    11
  4.2995774872968393E-02 a      1162     0    47     1    12
  1.4046241772998522E-01 a      1163     0    47     1    13
 -1.5680222751944689E-01 a      1164     0    47     1    14
  8.7886144682932724E-02 a      1165     0    47     1    15
 -4.8489595498576260E-02 a      1166     0    47     1    16
  7.2966887459047572E-04 a      1167     0    47     1    17
 -7.2887031568387120E-02 a      1168     0    47     1    18
  2.5591120404767226E-01 a      1169     0    47     1    19
  9.1180628857201323E-02 a      1170     0    47     1    20
  8.3863134351547769E-02 a      1171     0    47     1    21
  4.9284356263888406E-02 a      1172     0    47     1    22
 -2.3259479430352895E-02 a      1173     0    47     1    23
 -4.9007818283222405E-02 a      1174     0    47     1    24
 -9.6790803631521941E-02 a      1175     0    47     1    25
  9.7539782112135917E-02 a      1176     0    48     1     1
  2.3969314214113352E-01 a      1177     0    48     1     2
  1.9582197206655869E-03 a      1178     0    48     1     3
  3.0926238753701367E-02 a      1179     0    48     1     4
  2.4368843674649966E-03 a      1180     0    48     1     5
 -3.0439093859287086E-02 a      1181     0    48     1     6
  9.7915674143051398E-03 a      1182     0    48     1     7
  1.3513564773255181E-02 a      1183     0    48     1     8
  1.6580820824133491E-01 a      1184     0    48     1     9
  9.8797269913545246E-03 a      1185     0    48     1    10
  8.6343325528433698E-02 a      1186     0    48     1    11
  3.2982774009530147E-02 a      1187     0    48     1    12
  1.8478867493093146E-01 a      1188     0    48     1    13
 -1.5242000382087230E-02 a      1189     0    48     1    14
 -1.1739060265167219E-01 a      1190     0    48     1    15
  3.0567520157239007E-02 a      1191     0    48     1    16
  1.0280807538572699E-01 a      1192     0    48     1    17
  1.7053543820936984E-01 a      1193     0    48     1    18
 -1.6825639466895725E-01 a      1194     0    48     1    19
 -4.5442280388095779E-02 a      1195     0    48     1    20
 -4.4344034786644431E-03 a      1196     0    48     1    21
 -5.1166191585745903E-02 a      1197     0    48     1    22
  1.3215282641952217E-01 a      1198     0    48     1    23
  2.9260238723702342E-01 a      1199     0    48     1    24
  2.1603860532253036E-02 a      1200     0    48     1    25
  1.3546670854779050E-01 a      1201     0    49     1     1
  8.6965427378268748E-02 a      1202     0    49     1     2
  6.0163726127430541E-03 a      1203     0    49     1     3
 -1.6743688833398492E-02 a      1204     0    49     1     4
  1.4343097521615772E-01 a      1205     0    49     1     5
  6.4337773627427333E-02 a      1206     0    49     1     6
  1.0304863273743532E-01 a      1207     0    49     1     7
 -8.5016018865672338E-02 a      1208     0    49     1     8
 -6.4648615998138842E-02 a      1209     0    49     1     9
  2.7175776492045625E-02 a      1210     0    49     1    10
  7.3021608957628298E-02 a      1211     0    49     1    11
  2.5069699055868776E-02 a      1212     0    49     1    12
 -7.6752418087331197E-03 a      1213     0    49     1    13
  9.4147374490599178E-02 a      1214     0    49     1    14
  6.8253676105405808E-02 a      1215     0    49     1    15
  1.1495352031292089E-03 a      1216     0    49     1    16
 -1.1662642077430513E-01 a      1217     0    49     1    17
 -1.1414450826148705E-01 a      1218     0    49     1    18
  2.3790618023072918E-02 a      1219     0    49     1    19
  8.1924139902665741E-02 a      1220     0    49     1    20
  1.5199075560010008E-02 a      1221     0    49     1    21
  3.6934776074587838E-01 a      1222     0    49     1    22
 -1.6904653529932970E-01 a      1223     0    49     1    23
 -2.8859338596156726E-02 a      1224     0    49     1    24
 -4.5518848140048331E-03 a      1225     0    49     1    25
 -1.9587897693766093E-01 a      1226     0    50     1     1
  1.6150629222293725E-01 a      1227     0    50     1     2
 -2.5837890034981709E-01 a      1228     0    50     1     3
  7.3013123694486912E-02 a      1229     0    50     1     4
  4.7525769836740145E-02 a      1230     0    50     1     5
  1.6047406135175343E-02 a      1231     0    50     1     6
 -1.9512151815358914E-01 a      1232     0    50     1     7
  1.2170339282333787E-02 a      1233     0    50     1     8
 -6.1501821485015068E-02 a      1234     0    50     1     9
  6.2951408367929347E-03 a      1235     0    50     1    10
 -8.6987263106327525E-02 a      1236     0    50     1    11
  1.4199359949725041E-01 a      1237     0    50     1    12
  1.2394191934594788E-01 a      1238     0    50     1    13
  5.1053544452734891E-02 a      1239     0    50     1    14
  3.6054277788651772E-02 a      1240     0    50     1    15
 -1.4268745133923991E-01 a      1241     0    50     1    16
 -1.5787337934953227E-01 a      1242     0    50     1    17
  2.8164346504215239E-02 a      1243     0    50     1    18
 -7.0335969484699626E-02 a      1244     0    50     1    19
  2.4288497296367961E-01 a      1245     0    50     1    20
 -2.9615098104149251E-02 a      1246     0    50     1    21
  8.5660467727212794E-02 a      1247     0    50     1    22
  3.6528185037259403E-03 a      1248     0    50     1    23
 -1.2358523156487680E-02 a      1249     0    50     1    24
  2.8209370607443135E-01 a      1250     0    50     1    25
  2.6569170373854206E-01 a      1251     0    51     1     1
 -3.2886199447516579E-01 a      1252     0    51     1     2
  3.5162752804595943E-01 a      1253     0    51     1     3
  1.7748897947748241E-01 a      1254     0    51     1     4
 -2.0287080444905412E-01 a      1255     0    51     1     5
  4.9092109262379108E-01 a      1256     0    51     1     6
  3.2829312792712284E-01 a      1257     0    51     1     7
  3.2562937046230678E-01 a      1258     0    51     1     8
 -2.5647184427607262E-02 a      1259     0    51     1     9
  7.1814062928277508E-02 a      1260     0    51     1    10
  2.9448799552912158E-01 a      1261     0    51     1    11
  3.2375506910444707E-01 a      1262     0    51     1    12
  6.3763829535435135E-01 a      1263     0    51     1    13
 -1.5819057419862723E-01 a      1264     0    51     1    14
 -6.8699525095707120E-02 a      1265     0    51     1    15
 -5.0595171860478814E-02 a      1266     0    51     1    16
  9.0990327317998485E-02 a      1267     0    51     1    17
 -3.0339880647067108E-01 a      1268     0    51     1    18
 -1.8290463900823170E-01 a      1269     0    51     1    19
 -3.6404953841791260E-01 a      1270     0    51     1    20
 -6.1944336296422872E-03 a      1271     0    51     1    21
 -7.8151175580242260E-02 a      1272     0    51     1    22
 -1.1012033676910159E-01 a      1273     0    51     1    23
 -8.7311075159314092E-02 a      1274     0    51     1    24
  6.3189860904005546E-01 a      1275     0    51     1    25
 -3.3210009569244175E-01 a      1276     0    52     1     1
  3.0863438809318750E-01 a      1277     0    52     1     2
 -7.9017981145791227E-02 a      1278     0    52     1     3
  5.4041908892341861E-01 a      1279     0    52     1     4
  2.6860060506506211E-01 a      1280     0    52     1     5
  1.8391356798538292E-02 a      1281     0    52     1     6
 -3.8592488155656984E-01 a      1282     0    52     1     7
 -3.2913517647323282E-01 a      1283     0    52     1     8
  2.9057962915035307E-01 a      1284     0    52     1     9
 -3.2242865772435580E-01 a      1285     0    52     1    10
 -2.1454495930499853E-01 a      1286     0    52     1    11
  2.2208464294576530E-01 a      1287     0    52     1    12
 -1.6357410292628186E-01 a      1288     0    52     1    13
  5.2491458169184702E-01 a      1289     0    52     1    14
  4.9324063178586497E-01 a      1290     0    52     1    15
 -9.2176792660143669E-02 a      1291     0    52     1    16
  3.9271571173501313E-01 a      1292     0    52     1    17
 -1.7201893015021977E-01 a      1293     0    52     1    18
  3.5992694080984233E-01 a      1294     0    52     1    19
  1.0485209707231269E+00 a      1295     0    52     1    20
 -2.1254015252541070E-01 a      1296     0    52     1    21
 -3.6267261381544180E-01 a      1297     0    52     1    22
 -1.0027353099639023E-01 a      1298     0    52     1    23
  1.7357058194951253E-01 a      1299     0    52     1    24
  1.8019906752340283E-02 a      1300     0    52     1    25
  6.1023654201440625E-02 a      1301     0    53     1     1
  2.0308847237945249E-01 a      1302     0    53     1     2
  1.9796668278324753E-01 a      1303     0    53     1     3
 -7.1805188172372345E-02 a      1304     0    53     1     4
 -1.9195760360051539E-01 a      1305     0    53     1     5
 -1.0496884644209596E-01 a      1306     0    53     1     6
 -2.7067336708121045E-02 a      1307     0    53     1     7
  4.2684840336621560E-01 a      1308     0    53     1     8
 -8.2188722183813068E-02 a      1309     0    53     1     9
 -1.8986220241951682E-01 a      1310     0    53     1    10
  1.7322331200931559E-01 a      1311     0    53     1    11
  4.5742667158786200E-02 a      1312     0    53     1    12
 -9.6922224364973594E-02 a      1313     0    53     1    13
  7.0906374732198185E-02 a      1314     0    53     1    14
 -3.0724065334122730E-01 a      1315     0    53     1    15
 -2.9637724556807174E-02 a      1316     0    53     1    16
  1.4145489002982209E-02 a      1317     0    53     1    17
  1.1012200759579505E-01 a      1318     0    53     1    18
 -3.0017814307625840E-01 a      1319     0    53     1    19
 -2.1204509581883996E-02 a      1320     0    53     1    20
 -1.8467332781433254E-01 a      1321     0    53     1    21
 -1.2440684520245779E-01 a      1322     0    53     1    22
 -3.7393263341998595E-01 a      1323     0    53     1    23
 -3.7375298073206553E-01 a      1324     0    53     1    24
  1.7908369893208753E-01 a      1325     0    53     1    25
  1.5781970921228805E-01 a      1326     0    54     1     1
  4.8023704697478103E-02 a      1327     0    54     1     2
  1.2691219490494593E-01 a      1328     0    54     1     3
  2.9542196943924054E-01 a      1329     0    54     1     4
  8.1364891350573079E-02 a      1330     0    54     1     5
  1.2816180582847539E-01 a      1331     0    54     1     6
 -2.6142295576619973E-01 a      1332     0    54     1     7
  8.5242374184116662E-02 a      1333     0    54     1     8
 -5.8438471914820413E-02 a      1334     0    54     1     9
 -1.0543144313162763E-01 a      1335     0    54     1    10
 -1.0422613516623198E-01 a      1336     0    54     1    11
  2.2332171051077751E-01 a      1337     0    54     1    12
  1.4988382013852605E-01 a      1338     0    54     1    13
  4.3463490101350012E-02 a      1339     0    54     1    14
 -1.4424793152206328E-01 a      1340     0    54     1    15
 -3.3506877204172536E-01 a      1341     0    54     1    16
  2.1414418902988536E-01 a      1342     0    54     1    17
 -2.4978506653493750E-02 a      1343     0    54     1    18
 -1.4981532859398561E-01 a      1344     0    54     1    19
  2.8858312298292571E-01 a      1345     0    54     1    20
 -1.4213171477360684E-01 a      1346     0    54     1    21
 -8.1848124415758630E-02 a      1347     0    54     1    22
 -2.6330596076431491E-02 a      1348     0    54     1    23
  2.9053369401000118E-01 a      1349     0    54     1    24
  5.7501419717848778E-02 a      1350     0    54     1    25
  2.2713747309607130E-01 a      1351     0    55     1     1
 -3.2476093720273291E-01 a      1352     0    55     1     2
  6.1090770808545358E-02 a      1353     0    55     1     3
 -1.1513681943900682E-01 a      1354     0    55     1     4
  8.7322511831414901E-02 a      1355     0    55     1     5
  4.1480478903312062E-01 a      1356     0    55     1     6
 -1.9909371258067896E-01 a      1357     0    55     1     7
 -1.5105339997300735E-01 a      1358     0    55     1     8
  1.0475065310992814E-01 a      1359     0    55     1     9
  1.7451229597019273E-02 a      1360     0    55     1    10
  1.0200542310038115E-01 a      1361     0    55     1    11
  2.9580965255286498E-02 a      1362     0    55     1    12
 -2.3514209181584464E-02 a      1363     0    55     1    13
  1.8101999237116601E-01 a      1364     0    55     1    14
 -3.5541499304612773E-01 a      1365     0    55     1    15
 -1.7078140425250510E-01 a      1366     0    55     1    16
 -2.3308164770231313E-01 a      1367     0    55     1    17
  9.5867466975750354E-02 a      1368     0    55     1    18
 -9.9110544176468945E-02 a      1369     0    55     1    19
 -2.5422508892355150E-01 a      1370     0    55     1    20
 -2.0470123260292519E-01 a      1371     0    55     1    21
  1.0221958541894610E-01 a      1372     0    55     1    22
 -8.9956409938806658E-02 a      1373     0    55     1    23
 -3.7538858371738887E-01 a      1374     0    55     1    24
  6.2725556060705470E-02 a      1375     0    55     1    25
  8.0604175966882893E-02 a      1376     0    56     1     1
 -1.7763210116416184E-01 a      1377     0    56     1     2
 -2.2080387312301084E-01 a      1378     0    56     1     3
 -3.3488029328009677E-03 a      1379     0    56     1     4
  3.7366420312254761E-02 a      1380     0    56     1     5
 -1.1898235557306357E-01 a      1381     0    56     1     6
  1.3354693173308022E-01 a      1382     0    56     1     7
 -1.9163005385277709E-01 a      1383     0    56     1     8
 -1.5624903716953655E-02 a      1384     0    56     1     9
 -1.2721744942858648E-01 a      1385     0    56     1    10
  3.0202308369435292E-02 a      1386     0    56     1    11
  1.4063531436999224E-01 a      1387     0    56     1    12
  8.0817139789522735E-02 a      1388     0    56     1    13
  1.0981614895023135E-01 a      1389     0    56     1    14
  1.0936406675226039E-01 a      1390     0    56     1    15
 -8.9157063512879123E-02 a      1391     0    56     1    16
  5.7885696265065331E-02 a      1392     0    56     1    17
  5.1675051867625381E-02 a      1393     0    56     1    18
  3.9099815119376560E-02 a      1394     0    56     1    19
  1.3809280238723576E-01 a      1395     0    56     1    20
  4.2618347022891287E-02 a      1396     0    56     1    21
 -7.4286586836468563E-02 a      1397     0    56     1    22
 -2.8200488491925318E-01 a      1398     0    56     1    23
  3.3530268646704942E-02 a      1399     0    56     1    24
 -2.3244197842456507E-01 a      1400     0    56     1    25
 -4.8282415702030797E-02 a      1401     0    57     1     1
 -4.5671916817721050E-02 a      1402     0    57     1     2
  3.9398831783659542E-02 a      1403     0    57     1     3
  1.2629085003106960E-01 a      1404     0    57     1     4
 -2.8249540630755285E-02 a      1405     0    57     1     5
  5.6585408620866237E-02 a      1406     0    57     1     6
 -2.9292083944120789E-01 a      1407     0    57     1     7
  1.0713040596756686E-01 a      1408     0    57     1     8
 -1.2033440300385704E-02 a      1409     0    57     1     9
  4.4404953467272766E-02 a      1410     0    57     1    10
  1.0973739731077987E-01 a      1411     0    57     1    11
 -2.3193601538893964E-03 a      1412     0    57     1    12
 -1.5261159842174452E-01 a      1413     0    57     1    13
  1.3918113495429482E-01 a      1414     0    57     1    14
  5.1741100044582017E-02 a      1415     0    57     1    15
 -1.0484208121996352E-01 a      1416     0    57     1    16
 -5.6041169036179221E-02 a      1417     0    57     1    17
  2.7647701006318609E-01 a      1418     0    57     1    18
 -8.6981072438136034E-02 a      1419     0    57     1    19
 -4.1931505551448138E-02 a      1420     0    57     1    20
 -2.0672947077070231E-01 a      1421     0    57     1    21
  9.5788852955604794E-03 a      1422     0    57     1    22
 -6.8109002071978040E-03 a      1423     0    57     1    23
 -1.3075224249545461E-01 a      1424     0    57     1    24
  1.7830868134422555E-03 a      1425     0    57     1    25
 -1.4759925199668522E-01 a      1426     0    58     1     1
 -1.5075073118939733E-01 a      1427     0    58     1     2
  1.7540646939941018E-01 a      1428     0    58     1     3
  1.3358566326091420E-01 a      1429     0    58     1     4
  1.1266025807538840E-01 a      1430     0    58     1     5
 -6.6479511061991708E-02 a      1431     0    58     1     6
  1.7976708777124581E-02 a      1432     0    58     1     7
  3.9500970040591075E-02 a      1433     0    58     1     8
 -1.5036515013906909E-01 a      1434     0    58     1     9
  1.0783514548588531E-01 a      1435     0    58     1    10
 -2.7277372001925204E-01 a      1436     0    58     1    11
 -1.2897851077048578E-01 a      1437     0    58     1    12
 -1.5638005632573343E-01 a      1438     0    58     1    13
 -1.8645053989290766E-01 a      1439     0    58     1    14
 -5.1881204057886189E-02 a      1440     0    58     1    15
  1.3721409694170247E-01 a      1441     0    58     1    16
  9.9618642054567816E-02 a      1442     0    58     1    17
 -4.9184827539490328E-02 a      1443     0    58     1    18
  7.8449992966478088E-02 a      1444     0    58     1    19
 -5.4758175795344637E-02 a      1445     0    58     1    20
  3.9730736595860036E-03 a      1446     0    58     1    21
 -1.2049063935168951E-01 a      1447     0    58     1    22
 -2.4352526603489902E-01 a      1448     0    58     1    23
  6.2476743382295134E-02 a      1449     0    58     1    24
  3.1857534671772401E-02 a      1450     0    58     1    25
  1.2037224703200003E-01 a      1451     0    59     1     1
  7.1352437591442774E-02 a      1452     0    59     1     2
  1.5614787325081690E-02 a      1453     0    59     1     3
  1.6427260152084439E-01 a      1454     0    59     1     4
 -1.1958114058340737E-01 a      1455     0    59     1     5
  1.1366499268129458E-01 a      1456     0    59     1     6
 -6.1795129403686359E-02 a      1457     0    59     1     7
 -8.8182625797093711E-02 a      1458     0    59     1     8
  2.6413319714122296E-01 a      1459     0    59     1     9
 -1.3766033238187616E-02 a      1460     0    59     1    10
 -9.0883353046067497E-02 a      1461     0    59     1    11
  5.4567141241256119E-02 a      1462     0    59     1    12
  9.5502763946891348E-02 a      1463     0    59     1    13
  8.9789595263293047E-03 a      1464     0    59     1    14
 -8.6025034215823554E-02 a      1465     0    59     1    15
 -1.3233370761491653E-01 a      1466     0    59     1    16
 -2.9906879899079742E-02 a      1467     0    59     1    17
 -2.0763411218945923E-02 a      1468     0    59     1    18
 -1.9028933473398194E-01 a      1469     0    59     1    19
 -1.6412217652886801E-01 a      1470     0    59     1    20
  7.0031692017458735E-02 a      1471     0    59     1    21
 -2.0506082343648982E-01 a      1472     0    59     1    22
  1.3092340091384524E-01 a      1473     0    59     1    23
  1.6711416872996462E-01 a      1474     0    59     1    24
  6.8597663763553862E-02 a      1475     0    59     1    25
  5.8944718591623334E-02 a      1476     0    60     1     1
  1.9241274959537741E-01 a      1477     0    60     1     2
 -2.9655800711466507E-01 a      1478     0    60     1     3
  2.8151362194659132E-02 a      1479     0    60     1     4
  3.1711865912229339E-02 a      1480     0    60     1     5
 -7.8684174885784358E-02 a      1481     0    60     1     6
  8.9118584811164719E-02 a      1482     0    60     1     7
 -1.0237222714099777E-01 a      1483     0    60     1     8
  2.0828753478094805E-01 a      1484     0    60     1     9
 -4.8350365809608317E-02 a      1485     0    60     1    10
  7.4486295001732053E-02 a      1486     0    60     1    11
 -1.7602871669853537E-01 a      1487     0    60     1    12
  7.8073389297041274E-02 a      1488     0    60     1    13
  5.9916482853940786E-02 a      1489     0    60     1    14
  2.3721596717895758E-02 a      1490     0    60     1    15
  2.1261636956303182E-01 a      1491     0    60     1    16
 -1.2237588574217561E-02 a      1492     0    60     1    17
 -7.7885898640129264E-02 a      1493     0    60     1    18
 -9.2518085323484933E-02 a      1494     0    60     1    19
 -3.9974643133629056E-02 a      1495     0    60     1    20
  9.6297423917201239E-02 a      1496     0    60     1    21
 -1.6445112114745042E-01 a      1497     0    60     1    22
 -2.4020980980308729E-01 a      1498     0    60     1    23
  4.8309411187621486E-03 a      1499     0    60     1    24
 -1.3145610567044413E-01 a      1500     0    60     1    25
 -4.2309156127341829E-01 a      1501     0    61     1     1
 -2.1834972194449204E-01 a      1502     0    61     1     2
  1.9119921849467469E-01 a      1503     0    61     1     3
 -8.9137300912354115E-03 a      1504     0    61     1     4
  5.1168802724637315E-02 a      1505     0    61     1     5
  1.2925919648238707E-01 a      1506     0    61     1     6
 -2.2677689597699550E-02 a      1507     0    61     1     7
  1.7112022349135370E-01 a      1508     0    61     1     8
 -1.6386594452802838E-01 a      1509     0    61     1     9
 -7.9619940929093885E-02 a      1510     0    61     1    10
  2.1008044760151109E-01 a      1511     0    61     1    11
  3.5441293553338375E-03 a      1512     0    61     1    12
 -2.4568488780496603E-01 a      1513     0    61     1    13
  1.0066798629246568E-01 a      1514     0    61     1    14
 -3.1436879888946978E-01 a      1515     0    61     1    15
 -6.9933622082625491E-03 a      1516     0    61     1    16
 -2.9115826642759879E-01 a      1517     0    61     1    17
  7.3037922906349084E-02 a      1518     0    61     1    18
  1.6693619082517852E-01 a      1519     0    61     1    19
  3.3339800973964814E-02 a      1520     0    61     1    20
  9.8839149760261147E-02 a      1521     0    61     1    21
  4.0191985797588588E-03 a      1522     0    61     1    22
 -1.5425835809277194E-01 a      1523     0    61     1    23
 -8.1625113762615137E-02 a      1524     0    61     1    24
 -4.2960018672743849E-01 a      1525     0    61     1    25
 -4.1270387196742378E-02 a      1526     0    62     1     1
  1.7508256304526032E-01 a      1527     0    62     1     2
 -1.7813959249909475E-01 a      1528     0    62     1     3
  6.7876032036874936E-02 a      1529     0    62     1     4
 -9.6292749813732717E-02 a      1530     0    62     1     5
  1.0160094759714841E-01 a      1531     0    62     1     6
 -3.5163174759119016E-02 a      1532     0    62     1     7
  3.2385511361015182E-02 a      1533     0    62     1     8
 -1.1271893356075390E-01 a      1534     0    62     1     9
  1.5887268592577253E-01 a      1535     0    62     1    10
 -2.4566422026712571E-02 a      1536     0    62     1    11
  5.4952341080829865E-02 a      1537     0    62     1    12
  3.3019320255421070E-01 a      1538     0    62     1    13
  8.7518325716797629E-02 a      1539     0    62     1    14
  1.8496344233209411E-01 a      1540     0    62     1    15
 -1.2025644216844139E-01 a      1541     0    62     1    16
  2.1980609089694234E-01 a      1542     0    62     1    17
 -2.4742520011270935E-01 a      1543     0    62     1    18
  2.8850211349865349E-02 a      1544     0    62     1    19
 -1.6965475529205125E-02 a      1545     0    62     1    20
  1.2899410630181875E-02 a      1546     0    62     1    21
 -3.5456099032991917E-01 a      1547     0    62     1    22
  4.8849073587084867E-02 a      1548     0    62     1    23
  1.6139425786291828E-01 a      1549     0    62     1    24
 -7.0535900282425845E-02 a      1550     0    62     1    25
 -6.0456370293084399E-02 a      1551     0    63     1     1
 -2.4440200841258572E-02 a      1552     0    63     1     2
  1.1506764096170620E-01 a      1553     0    63     1     3
 -3.1364592647604334E-01 a      1554     0    63     1     4
 -1.6690189588367942E-02 a      1555     0    63     1     5
  1.7630461076979237E-01 a      1556     0    63     1     6
 -4.6126601318511692E-02 a      1557     0    63     1     7
  2.0955869976179606E-01 a      1558     0    63     1     8
 -2.1818462911381006E-01 a      1559     0    63     1     9
 -1.1555393822708439E-01 a      1560     0    63     1    10
 -8.0749525251966270E-02 a      1561     0    63     1    11
 -7.3759182315031202E-02 a      1562     0    63     1    12
 -2.7984519904444963E-02 a      1563     0    63     1    13
  8.8554794244613252E-02 a      1564     0    63     1    14
 -3.4701643807687982E-01 a      1565     0    63     1    15
  2.0524038890947471E-01 a      1566     0    63     1    16
 -1.1741122070052420E-01 a      1567     0    63     1    17
 -4.8101971979647183E-02 a      1568     0    63     1    18
  1.4395448708133628E-02 a      1569     0    63     1    19
 -1.4621156951149022E-02 a      1570     0    63     1    20
 -3.8103549444893844E-02 a      1571     0    63     1    21
  1.0851221506496729E-01 a      1572     0    63     1    22
 -1.2978553520168920E-01 a      1573     0    63     1    23
  4.0418130355473092E-02 a      1574     0    63     1    24
  1.0944416634659222E-01 a      1575     0    63     1    25
  3.0202684217209508E-02 a      1576     0    64     1     1
  2.4252072504117868E-03 a      1577     0    64     1     2
  1.7266306445835597E-01 a      1578     0    64     1     3
  1.8469280569517052E-01 a      1579     0    64     1     4
 -6.1881275178061336E-02 a      1580     0    64     1     5
  1.3809216214271686E-02 a      1581     0    64     1     6
 -7.8451913712509133E-02 a      1582     0    64     1     7
 -1.6368126040179304E-01 a      1583     0    64     1     8
 -2.6210661283373177E-01 a      1584     0    64     1     9
  3.0315788367551572E-02 a      1585     0    64     1    10
  7.1734034532084656E-02 a      1586     0    64     1    11
  5.5080918185085988E-02 a      1587     0    64     1    12
  1.7251062957338109E-01 a      1588     0    64     1    13
  1.1108374319860762E-03 a      1589     0    64     1    14
  4.1694333670321083E-02 a      1590     0    64     1    15
 -2.9078096620253790E-02 a      1591     0    64     1    16
  1.7290353385705470E-01 a      1592     0    64     1    17
  1.8631113011947812E-02 a      1593     0    64     1    18
 -7.2186535084507272E-02 a      1594     0    64     1    19
 -7.4915230008226724E-02 a      1595     0    64     1    20
 -6.1522868449398325E-02 a      1596     0    64     1    21
 -3.5150690502317267E-01 a      1597     0    64     1    22
  4.0677524661656878E-01 a      1598     0    64     1    23
  3.9851626055054698E-02 a      1599     0    64     1    24
 -1.3163708521488876E-01 a      1600     0    64     1    25
 -2.0027437626976599E-01 a      1601     0    65     1     1
 -9.2079381996286406E-03 a      1602     0    65     1     2
  8.2614142192871054E-02 a      1603     0    65     1     3
 -9.8954526661576506E-03 a      1604     0    65     1     4
  1.0806201805825685E-01 a      1605     0    65     1     5
 -7.7408960887040357E-02 a      1606     0    65     1     6
 -6.2767067537940785E-02 a      1607     0    65     1     7
 -1.4497229635424116E-01 a      1608     0    65     1     8
 -8.8308155063503369E-02 a      1609     0    65     1     9
 -1.5038375644980145E-01 a      1610     0    65     1    10
  1.2291300704926586E-01 a      1611     0    65     1    11
  2.0466394073790948E-02 a      1612     0    65     1    12
  1.6746226809104684E-03 a      1613     0    65     1    13
  1.7008350211921128E-01 a      1614     0    65     1    14
  1.4421770921755564E-01 a      1615     0    65     1    15
  2.1534427995721530E-04 a      1616     0    65     1    16
 -1.4109027019612413E-01 a      1617     0    65     1    17
  2.4050254149234646E-01 a      1618     0    65     1    18
 -9.9301582621536530E-02 a      1619     0    65     1    19
 -6.9798429069103232E-02 a      1620     0    65     1    20
 -4.3475409742785159E-02 a      1621     0    65     1    21
 -5.5203881433680225E-03 a      1622     0    65     1    22
  1.9645068288958872E-01 a      1623     0    65     1    23
