################################################################################
# Neural network connection values (weights and biases).
################################################################################
# Col  Name       Description
################################################################################
# 1    connection Neural network connection value.
# 2    t          Connection type (a = weight, b = bias).
# 3    index      Index enumerating weights.
# 4    l_s        Starting point layer (end point layer for biases).
# 5    n_s        Starting point neuron in starting layer (end point neuron for biases).
# 6    l_e        End point layer.
# 7    n_e        End point neuron in end layer.
################################################################################
#                      1 2         3     4     5     6     7
#             connection t     index   l_s   n_s   l_e   n_e
############################################################
  3.2627646003138078E-01 a         1     0     1     1     1
 -8.6710406517770011E-02 a         2     0     1     1     2
  4.6390359708255741E-01 a         3     0     1     1     3
 -4.5556074419470606E-02 a         4     0     1     1     4
 -2.3373523115633679E-01 a         5     0     1     1     5
  1.1653591066146358E-01 a         6     0     1     1     6
  7.1372921573138709E-02 a         7     0     1     1     7
  9.0393527876562866E-04 a         8     0     1     1     8
 -1.5338522695398604E-01 a         9     0     1     1     9
  1.1251106259517885E-01 a        10     0     1     1    10
  1.3025098278574032E-01 a        11     0     1     1    11
 -7.1608081608050919E-02 a        12     0     1     1    12
 -2.4963768627897640E-01 a        13     0     1     1    13
  1.7316574848831662E-01 a        14     0     1     1    14
 -2.2760845115268069E-01 a        15     0     1     1    15
 -1.1733086557709771E-02 a        16     0     1     1    16
 -1.0831795512898977E-01 a        17     0     1     1    17
 -2.7025826735516012E-01 a        18     0     1     1    18
 -7.9335718203828079E-02 a        19     0     1     1    19
  8.2907475359276853E-02 a        20     0     1     1    20
  3.9920605061340902E-02 a        21     0     1     1    21
 -2.3180633741569891E-02 a        22     0     1     1    22
  1.4111232211108066E-01 a        23     0     1     1    23
  1.9549334544251079E-01 a        24     0     1     1    24
  1.8586902474569214E-01 a        25     0     1     1    25
 -1.5173633052967803E-01 a        26     0     2     1     1
 -1.7373783172915117E-01 a        27     0     2     1     2
 -1.0019719721162165E-01 a        28     0     2     1     3
 -1.8782742734571894E-01 a        29     0     2     1     4
  1.1493391037926538E-01 a        30     0     2     1     5
 -1.2820242159716135E-02 a        31     0     2     1     6
 -1.1565976074157525E-01 a        32     0     2     1     7
 -5.7155671439007426E-02 a        33     0     2     1     8
  2.2539843715050807E-02 a        34     0     2     1     9
  2.1006062596898487E-01 a        35     0     2     1    10
  1.0339993297495546E-01 a        36     0     2     1    11
 -1.4705434705438072E-01 a        37     0     2     1    12
  4.3158886850862982E-01 a        38     0     2     1    13
  1.3069377189226708E-01 a        39     0     2     1    14
 -1.7154069723423049E-01 a        40     0     2     1    15
  2.1285258274358013E-01 a        41     0     2     1    16
 -4.4756755860414450E-02 a        42     0     2     1    17
  6.7968443578481485E-03 a        43     0     2     1    18
  2.9972138357625672E-01 a        44     0     2     1    19
 -1.0711188119093348E-01 a        45     0     2     1    20
 -2.5096192397783854E-02 a        46     0     2     1    21
 -1.2128489334666689E-02 a        47     0     2     1    22
 -2.4499925471255880E-02 a        48     0     2     1    23
 -3.3149181284555712E-02 a        49     0     2     1    24
  1.2316337326657432E-02 a        50     0     2     1    25
  1.1463444338722491E-01 a        51     0     3     1     1
 -3.7589436429577239E-02 a        52     0     3     1     2
 -1.3256246994924363E-02 a        53     0     3     1     3
 -7.9280158759939781E-02 a        54     0     3     1     4
  2.3503687184622171E-01 a        55     0     3     1     5
 -2.9643908781468647E-02 a        56     0     3     1     6
  1.6385739598921353E-01 a        57     0     3     1     7
 -6.0288901625418376E-02 a        58     0     3     1     8
 -1.1772610958327430E-01 a        59     0     3     1     9
 -5.5476016058302456E-02 a        60     0     3     1    10
 -6.9514027499147316E-03 a        61     0     3     1    11
  8.6196306511514678E-02 a        62     0     3     1    12
 -7.7664695911951978E-02 a        63     0     3     1    13
 -8.9276519156993028E-02 a        64     0     3     1    14
  8.6471294004778265E-02 a        65     0     3     1    15
 -1.2870231527900552E-01 a        66     0     3     1    16
  2.0754806904054399E-01 a        67     0     3     1    17
  1.2602297213555080E-01 a        68     0     3     1    18
 -7.9628131064901908E-02 a        69     0     3     1    19
  7.5322785312657028E-02 a        70     0     3     1    20
 -1.4404339451921772E-01 a        71     0     3     1    21
  1.3912023790423220E-01 a        72     0     3     1    22
  1.9628559355539643E-01 a        73     0     3     1    23
 -1.7798731751063893E-01 a        74     0     3     1    24
  3.8674112328391931E-03 a        75     0     3     1    25
  8.8976374098390695E-02 a        76     0     4     1     1
 -2.4345544214354262E-01 a        77     0     4     1     2
 -1.2913552218572957E-01 a        78     0     4     1     3
 -6.2853803244763529E-02 a        79     0     4     1     4
 -2.9680794850072451E-01 a        80     0     4     1     5
  1.0907432027551789E-01 a        81     0     4     1     6
  1.9188663573196971E-02 a        82     0     4     1     7
 -1.2781014237105764E-01 a        83     0     4     1     8
 -7.9934173698288771E-02 a        84     0     4     1     9
 -2.0477818537485373E-01 a        85     0     4     1    10
 -4.0485878382306349E-02 a        86     0     4     1    11
 -8.1066924108711885E-02 a        87     0     4     1    12
 -6.9745678572071340E-02 a        88     0     4     1    13
  6.4055261221608858E-02 a        89     0     4     1    14
  3.1457888696236291E-01 a        90     0     4     1    15
 -7.1419609847396632E-03 a        91     0     4     1    16
 -5.8628573009769251E-02 a        92     0     4     1    17
  8.9003568867881258E-02 a        93     0     4     1    18
  2.0111663853567752E-01 a        94     0     4     1    19
  5.2532650823931423E-02 a        95     0     4     1    20
 -9.3720124703599014E-02 a        96     0     4     1    21
 -2.5376711918395078E-01 a        97     0     4     1    22
  5.4147087261054251E-02 a        98     0     4     1    23
 -1.5563072107914039E-01 a        99     0     4     1    24
  4.9738949119395713E-02 a       100     0     4     1    25
  8.9487826220559730E-02 a       101     0     5     1     1
  1.2795362194430582E-01 a       102     0     5     1     2
  1.3902899335837349E-01 a       103     0     5     1     3
 -1.1639701882889276E-01 a       104     0     5     1     4
 -4.4014079742051605E-02 a       105     0     5     1     5
 -1.2958793297406679E-01 a       106     0     5     1     6
 -2.4809506983559995E-01 a       107     0     5     1     7
  1.4735252377961497E-01 a       108     0     5     1     8
 -1.3341636457139761E-01 a       109     0     5     1     9
 -1.8789151583155725E-01 a       110     0     5     1    10
 -3.5552962273350586E-02 a       111     0     5     1    11
 -3.3034378647005030E-01 a       112     0     5     1    12
 -3.0884514044680311E-01 a       113     0     5     1    13
  1.1633372191512606E-01 a       114     0     5     1    14
  2.1104618864025132E-01 a       115     0     5     1    15
  5.4533811166478242E-02 a       116     0     5     1    16
  2.5790738028219784E-01 a       117     0     5     1    17
 -1.2310180982085264E-01 a       118     0     5     1    18
 -2.2371860643998751E-02 a       119     0     5     1    19
  9.1689229948199776E-03 a       120     0     5     1    20
 -7.8402120319590554E-02 a       121     0     5     1    21
  6.4994260729153389E-02 a       122     0     5     1    22
  1.6852076358749882E-01 a       123     0     5     1    23
 -1.2109946958064902E-01 a       124     0     5     1    24
 -1.3503920683946874E-01 a       125     0     5     1    25
 -1.2216505740176559E-01 a       126     0     6     1     1
 -1.6698589964224929E-02 a       127     0     6     1     2
 -1.8815320457253387E-01 a       128     0     6     1     3
 -7.3447648028303489E-02 a       129     0     6     1     4
 -5.4555748915296923E-02 a       130     0     6     1     5
  1.4186827285055986E-01 a       131     0     6     1     6
  9.6909228647743512E-02 a       132     0     6     1     7
  7.3127331744687413E-02 a       133     0     6     1     8
 -7.0445770986935097E-03 a       134     0     6     1     9
 -2.2991175508122139E-01 a       135     0     6     1    10
 -1.5265058668670031E-02 a       136     0     6     1    11
  2.1092450939720880E-02 a       137     0     6     1    12
 -2.1982163406677455E-01 a       138     0     6     1    13
 -2.4460886529425208E-01 a       139     0     6     1    14
  1.2599463856337301E-01 a       140     0     6     1    15
  3.9505397134892491E-02 a       141     0     6     1    16
 -4.4577704405588487E-03 a       142     0     6     1    17
  1.1960661927058465E-01 a       143     0     6     1    18
 -1.3978920686414198E-01 a       144     0     6     1    19
  5.9970655496610001E-02 a       145     0     6     1    20
 -2.5381152343037384E-02 a       146     0     6     1    21
  4.4330859534220363E-02 a       147     0     6     1    22
  1.5719800238629445E-02 a       148     0     6     1    23
  1.2138766783822966E-01 a       149     0     6     1    24
 -6.7214136398606322E-02 a       150     0     6     1    25
 -1.8156170505266073E-01 a       151     0     7     1     1
 -1.4129121572715783E-01 a       152     0     7     1     2
  3.2533763352139825E-02 a       153     0     7     1     3
  1.9890348214487916E-01 a       154     0     7     1     4
  1.0895836629125903E-01 a       155     0     7     1     5
  3.4570699916629272E-01 a       156     0     7     1     6
 -5.3208199022279114E-02 a       157     0     7     1     7
  3.4209916816418891E-02 a       158     0     7     1     8
 -7.5852693435608382E-02 a       159     0     7     1     9
 -1.4876366788274134E-01 a       160     0     7     1    10
 -2.6075058545254859E-01 a       161     0     7     1    11
 -1.7445738216169921E-02 a       162     0     7     1    12
 -2.1743211996511383E-01 a       163     0     7     1    13
  8.2048812761837772E-02 a       164     0     7     1    14
  2.4443203880371134E-01 a       165     0     7     1    15
 -1.6789690969881241E-01 a       166     0     7     1    16
 -2.7541099780347728E-01 a       167     0     7     1    17
 -2.1848293372880248E-01 a       168     0     7     1    18
 -2.6463311827760516E-01 a       169     0     7     1    19
  2.2782808407626784E-01 a       170     0     7     1    20
  1.9928571616276136E-01 a       171     0     7     1    21
 -7.8920683358859073E-02 a       172     0     7     1    22
 -2.2070853887351727E-01 a       173     0     7     1    23
  1.8507978920656473E-01 a       174     0     7     1    24
 -5.2309415893089489E-02 a       175     0     7     1    25
 -2.0864184670962924E-01 a       176     0     8     1     1
 -1.7184712244598773E-02 a       177     0     8     1     2
  1.7543323909273371E-02 a       178     0     8     1     3
 -1.5311104832412578E-01 a       179     0     8     1     4
  2.2206233392870078E-01 a       180     0     8     1     5
  1.4610681752206880E-01 a       181     0     8     1     6
 -1.0762868602327651E-01 a       182     0     8     1     7
  2.3333180301395497E-02 a       183     0     8     1     8
  2.4383035639149098E-01 a       184     0     8     1     9
 -2.9147662621892750E-01 a       185     0     8     1    10
 -5.6336154873663342E-02 a       186     0     8     1    11
  1.5971761087579117E-01 a       187     0     8     1    12
  5.6205270838040111E-02 a       188     0     8     1    13
 -1.9382798053294539E-01 a       189     0     8     1    14
 -1.8371789631872226E-01 a       190     0     8     1    15
 -1.9049329246777463E-01 a       191     0     8     1    16
  1.3234108718717241E-01 a       192     0     8     1    17
  1.7566726815766620E-01 a       193     0     8     1    18
  2.3729150546752228E-01 a       194     0     8     1    19
 -9.3288614035255027E-02 a       195     0     8     1    20
  2.2680537986597260E-01 a       196     0     8     1    21
  2.8392718094953508E-02 a       197     0     8     1    22
 -9.1699737069627960E-02 a       198     0     8     1    23
  2.0157768527857364E-01 a       199     0     8     1    24
 -9.1401830194100461E-02 a       200     0     8     1    25
 -8.1476909772193531E-02 a       201     0     9     1     1
  1.9671114274392183E-02 a       202     0     9     1     2
  4.2154387269142092E-02 a       203     0     9     1     3
  2.2396129474723681E-02 a       204     0     9     1     4
  2.1515679659890008E-01 a       205     0     9     1     5
 -6.9907196391418638E-02 a       206     0     9     1     6
  2.1744455727764327E-02 a       207     0     9     1     7
 -5.3253755662141092E-02 a       208     0     9     1     8
  7.8758875980032964E-02 a       209     0     9     1     9
  2.0922394979007369E-01 a       210     0     9     1    10
 -2.1411225775107651E-02 a       211     0     9     1    11
  4.6033530183351400E-02 a       212     0     9     1    12
  9.0702353750731810E-02 a       213     0     9     1    13
  1.0559289765713223E-01 a       214     0     9     1    14
  2.0476327497034910E-01 a       215     0     9     1    15
 -1.4228643529412208E-02 a       216     0     9     1    16
  4.5402084745572710E-02 a       217     0     9     1    17
  2.1262496772025280E-01 a       218     0     9     1    18
 -7.2633506324678965E-02 a       219     0     9     1    19
 -1.2843131935530527E-01 a       220     0     9     1    20
  1.6949418151324097E-01 a       221     0     9     1    21
  2.0291073260872882E-02 a       222     0     9     1    22
 -8.7575762844944269E-02 a       223     0     9     1    23
 -5.3142387373250617E-02 a       224     0     9     1    24
  1.1532483958978129E-01 a       225     0     9     1    25
  9.7224153000045860E-02 a       226     0    10     1     1
  6.4388936046120462E-02 a       227     0    10     1     2
 -1.9788185493832436E-01 a       228     0    10     1     3
  2.4968234579611271E-02 a       229     0    10     1     4
 -8.1088165703302115E-03 a       230     0    10     1     5
 -1.1532625786165712E-01 a       231     0    10     1     6
  1.3907658360196196E-01 a       232     0    10     1     7
 -1.6231181186727456E-01 a       233     0    10     1     8
  1.8484131716705313E-01 a       234     0    10     1     9
 -2.4321738782437500E-03 a       235     0    10     1    10
 -2.1705784107733717E-01 a       236     0    10     1    11
 -1.0741409912772823E-01 a       237     0    10     1    12
 -2.0005392419938570E-02 a       238     0    10     1    13
  5.7544691248710686E-02 a       239     0    10     1    14
 -7.3217416567833107E-02 a       240     0    10     1    15
 -4.4583351568843136E-03 a       241     0    10     1    16
  8.3036183348530121E-02 a       242     0    10     1    17
  1.4339950121499986E-02 a       243     0    10     1    18
 -2.9726851191907583E-01 a       244     0    10     1    19
 -1.6794373091018458E-01 a       245     0    10     1    20
 -1.4654473721147884E-01 a       246     0    10     1    21
  3.6548180739301273E-02 a       247     0    10     1    22
 -2.4786415240818147E-01 a       248     0    10     1    23
  9.9687451032107841E-02 a       249     0    10     1    24
 -1.6033515768117848E-01 a       250     0    10     1    25
 -1.6222783166136453E-02 a       251     0    11     1     1
  2.1611692895081544E-01 a       252     0    11     1     2
 -1.5606742749695535E-01 a       253     0    11     1     3
 -1.6747310055309464E-01 a       254     0    11     1     4
 -2.3138992694214636E-01 a       255     0    11     1     5
  1.8826380804713588E-01 a       256     0    11     1     6
 -4.5491886624293827E-02 a       257     0    11     1     7
 -4.1670219022002304E-02 a       258     0    11     1     8
  1.2423754770837871E-01 a       259     0    11     1     9
 -1.7183186865724800E-01 a       260     0    11     1    10
  1.8987000006394092E-01 a       261     0    11     1    11
 -1.6885493720497508E-01 a       262     0    11     1    12
 -2.0060891096332117E-01 a       263     0    11     1    13
  8.7266100605817937E-02 a       264     0    11     1    14
 -2.2684385612665070E-01 a       265     0    11     1    15
  4.9249371256539470E-02 a       266     0    11     1    16
  1.6604175126750334E-01 a       267     0    11     1    17
  1.4242366508477347E-01 a       268     0    11     1    18
  8.9697744327022627E-02 a       269     0    11     1    19
 -1.9677896166399658E-01 a       270     0    11     1    20
 -8.7415731228975575E-03 a       271     0    11     1    21
  1.7019490041153656E-01 a       272     0    11     1    22
  2.0692504708211698E-02 a       273     0    11     1    23
 -1.3385775988283841E-01 a       274     0    11     1    24
  1.0536350669718485E-01 a       275     0    11     1    25
  9.8138401322234795E-02 a       276     0    12     1     1
 -1.0051504478027608E-01 a       277     0    12     1     2
  3.0685714687701426E-01 a       278     0    12     1     3
 -1.5159512496595731E-01 a       279     0    12     1     4
 -1.4309228543167649E-01 a       280     0    12     1     5
  1.2881749198744546E-01 a       281     0    12     1     6
  1.1142776363873348E-01 a       282     0    12     1     7
  1.0581035752554971E-01 a       283     0    12     1     8
 -3.3737769143507318E-01 a       284     0    12     1     9
 -3.3265472857647327E-01 a       285     0    12     1    10
 -3.6497588867370749E-02 a       286     0    12     1    11
  2.3877285437111529E-02 a       287     0    12     1    12
 -2.1966681744906880E-01 a       288     0    12     1    13
  1.7068462406852830E-01 a       289     0    12     1    14
 -7.1763655218768582E-02 a       290     0    12     1    15
 -1.3582286179150294E-01 a       291     0    12     1    16
 -1.2574404886627025E-01 a       292     0    12     1    17
 -1.2696586274004362E-01 a       293     0    12     1    18
 -2.9960509485943587E-01 a       294     0    12     1    19
  4.2228654627180173E-02 a       295     0    12     1    20
 -2.1502737898579349E-01 a       296     0    12     1    21
  1.4074214113142791E-01 a       297     0    12     1    22
  8.0714348069239675E-02 a       298     0    12     1    23
  8.5517433809131106E-03 a       299     0    12     1    24
 -9.8587276317143677E-03 a       300     0    12     1    25
 -6.3697727584283229E-02 a       301     0    13     1     1
 -1.3221648295103114E-01 a       302     0    13     1     2
  1.7363778120261072E-01 a       303     0    13     1     3
  1.1295500486199875E-01 a       304     0    13     1     4
 -1.1474417537388579E-01 a       305     0    13     1     5
  1.1850489011078243E-01 a       306     0    13     1     6
 -1.3422483132285751E-01 a       307     0    13     1     7
  5.8739271308173628E-02 a       308     0    13     1     8
 -2.1323255840001173E-01 a       309     0    13     1     9
 -2.1754829587368135E-01 a       310     0    13     1    10
  4.0230254978566443E-02 a       311     0    13     1    11
 -2.1161429626079484E-01 a       312     0    13     1    12
  3.8847920162049437E-02 a       313     0    13     1    13
  3.4816390769345995E-01 a       314     0    13     1    14
  6.3029893799761538E-02 a       315     0    13     1    15
 -5.5659439283752624E-02 a       316     0    13     1    16
 -6.1255082706733632E-02 a       317     0    13     1    17
  6.8468901026732712E-02 a       318     0    13     1    18
 -5.2934161756092002E-02 a       319     0    13     1    19
  1.5794187152526623E-01 a       320     0    13     1    20
  6.3132154130966678E-02 a       321     0    13     1    21
 -1.9350951662175944E-01 a       322     0    13     1    22
  1.2187509713944543E-01 a       323     0    13     1    23
  5.1233555645706936E-03 a       324     0    13     1    24
 -2.4546659917882501E-02 a       325     0    13     1    25
 -1.2682447314905479E-01 a       326     0    14     1     1
 -1.9010315527654781E-02 a       327     0    14     1     2
 -1.6364621367961185E-01 a       328     0    14     1     3
  1.3897979171466798E-01 a       329     0    14     1     4
 -5.6392579734566156E-02 a       330     0    14     1     5
 -1.1165353284660069E-01 a       331     0    14     1     6
  1.2843586898188297E-01 a       332     0    14     1     7
 -3.5723367302808950E-01 a       333     0    14     1     8
  1.3242588400247035E-01 a       334     0    14     1     9
 -2.5269447464111361E-02 a       335     0    14     1    10
  3.8329764097781487E-02 a       336     0    14     1    11
  1.1903047888619825E-01 a       337     0    14     1    12
  2.8796078820530303E-02 a       338     0    14     1    13
 -1.3935716567295511E-01 a       339     0    14     1    14
  2.0190487370482388E-01 a       340     0    14     1    15
  1.3226258594453405E-01 a       341     0    14     1    16
 -2.9820526203709944E-04 a       342     0    14     1    17
 -3.3924391615353051E-02 a       343     0    14     1    18
 -5.1771621488127539E-01 a       344     0    14     1    19
  1.0256780633102668E-01 a       345     0    14     1    20
 -2.2617733070202767E-01 a       346     0    14     1    21
 -1.2981005943990775E-01 a       347     0    14     1    22
 -1.1292500716504678E-01 a       348     0    14     1    23
  1.8155960304966973E-01 a       349     0    14     1    24
  2.1372548661227464E-01 a       350     0    14     1    25
  7.0551579936285858E-02 a       351     0    15     1     1
 -1.6083600847064947E-01 a       352     0    15     1     2
  5.2824847678611337E-03 a       353     0    15     1     3
  3.0908254495938770E-01 a       354     0    15     1     4
 -1.3288757746654692E-01 a       355     0    15     1     5
 -2.3726333578572456E-01 a       356     0    15     1     6
  7.0380047247110916E-02 a       357     0    15     1     7
  1.9991547276343705E-01 a       358     0    15     1     8
  8.6787691809654691E-02 a       359     0    15     1     9
 -3.2393166723213379E-02 a       360     0    15     1    10
  2.4090852131714316E-01 a       361     0    15     1    11
 -3.2321535556824585E-02 a       362     0    15     1    12
  2.0141656345873221E-01 a       363     0    15     1    13
 -2.3008476457394317E-02 a       364     0    15     1    14
  1.6903601711559005E-01 a       365     0    15     1    15
  2.5097747401657422E-01 a       366     0    15     1    16
 -9.3264381673405172E-02 a       367     0    15     1    17
 -4.5744315381406005E-02 a       368     0    15     1    18
 -6.8519783346620788E-02 a       369     0    15     1    19
  8.4798585648480182E-02 a       370     0    15     1    20
  5.1625043759900603E-03 a       371     0    15     1    21
 -2.2677838259102168E-01 a       372     0    15     1    22
  5.6548273409108223E-02 a       373     0    15     1    23
  9.8030559018807403E-02 a       374     0    15     1    24
 -1.0322111703667239E-01 a       375     0    15     1    25
  5.1251362220564312E-02 a       376     0    16     1     1
  4.0251876310614075E-03 a       377     0    16     1     2
  1.3915863338701786E-02 a       378     0    16     1     3
  2.0784347210414164E-01 a       379     0    16     1     4
 -2.5098596610593787E-01 a       380     0    16     1     5
 -8.2714357928590998E-02 a       381     0    16     1     6
  7.6657085329625202E-02 a       382     0    16     1     7
 -1.1250554424178606E-01 a       383     0    16     1     8
 -1.9926583320731880E-02 a       384     0    16     1     9
 -3.3536592157601158E-01 a       385     0    16     1    10
  2.0221619465606580E-01 a       386     0    16     1    11
  6.0384282358371670E-02 a       387     0    16     1    12
 -1.9225887952934476E-01 a       388     0    16     1    13
 -8.8315960531086354E-02 a       389     0    16     1    14
  4.2734180039678119E-02 a       390     0    16     1    15
 -2.1083836717224011E-01 a       391     0    16     1    16
 -7.8222570954218657E-03 a       392     0    16     1    17
 -5.3664225915536413E-02 a       393     0    16     1    18
 -2.9460085818724319E-01 a       394     0    16     1    19
 -5.8218552447353591E-02 a       395     0    16     1    20
  6.0975774145285024E-02 a       396     0    16     1    21
 -1.0328014213137206E-01 a       397     0    16     1    22
  3.6933995361811543E-02 a       398     0    16     1    23
  2.6232714593149766E-02 a       399     0    16     1    24
  6.0290231414330292E-02 a       400     0    16     1    25
 -1.8922603514775649E-01 a       401     0    17     1     1
  1.8832718823864855E-01 a       402     0    17     1     2
  2.6799234709544234E-01 a       403     0    17     1     3
 -1.0218668422158260E-02 a       404     0    17     1     4
  6.9076697214912525E-02 a       405     0    17     1     5
 -2.1278464028594354E-01 a       406     0    17     1     6
  1.5892235813787254E-02 a       407     0    17     1     7
 -1.1090146534411797E-01 a       408     0    17     1     8
 -5.5211569065385151E-02 a       409     0    17     1     9
  1.2263270184498354E-02 a       410     0    17     1    10
 -1.1910651584283033E-01 a       411     0    17     1    11
  2.2441153129141089E-01 a       412     0    17     1    12
  5.1216709814618189E-01 a       413     0    17     1    13
  4.6231792841594632E-01 a       414     0    17     1    14
  5.0865664873695475E-02 a       415     0    17     1    15
 -4.1890769057611937E-02 a       416     0    17     1    16
  3.4254550622130453E-01 a       417     0    17     1    17
  1.6049444320594961E-01 a       418     0    17     1    18
  1.6443049545643706E-01 a       419     0    17     1    19
 -2.3570601691203263E-01 a       420     0    17     1    20
 -6.1203802894960614E-02 a       421     0    17     1    21
  6.6813045864412557E-02 a       422     0    17     1    22
 -1.0586131610580685E-01 a       423     0    17     1    23
  1.6986482381608270E-01 a       424     0    17     1    24
  2.4248734345671133E-03 a       425     0    17     1    25
 -1.9398168568820762E-01 a       426     0    18     1     1
 -1.8374674630813545E-01 a       427     0    18     1     2
 -2.1986985391012187E-01 a       428     0    18     1     3
 -1.0903034587952175E-01 a       429     0    18     1     4
 -2.2683935857442286E-01 a       430     0    18     1     5
 -1.3235537481067777E-01 a       431     0    18     1     6
 -1.0937455774291782E-01 a       432     0    18     1     7
 -1.5131201674623640E-01 a       433     0    18     1     8
  1.0399237662594216E-01 a       434     0    18     1     9
 -1.2508722803248570E-01 a       435     0    18     1    10
 -1.7672941765921715E-01 a       436     0    18     1    11
 -5.8993227399287557E-02 a       437     0    18     1    12
 -9.0090848936466406E-02 a       438     0    18     1    13
 -3.3558306982649139E-01 a       439     0    18     1    14
 -1.7792458993928856E-01 a       440     0    18     1    15
  4.5617942601667572E-02 a       441     0    18     1    16
  1.4051267752137139E-01 a       442     0    18     1    17
  1.6873631313434262E-01 a       443     0    18     1    18
 -1.9114590250279204E-01 a       444     0    18     1    19
 -2.8479130394924279E-01 a       445     0    18     1    20
 -3.2728150361453834E-01 a       446     0    18     1    21
  3.0601314758376939E-02 a       447     0    18     1    22
 -1.2555582325517192E-01 a       448     0    18     1    23
  9.7163853541393216E-02 a       449     0    18     1    24
 -1.4060662854195383E-01 a       450     0    18     1    25
  5.6470150851366759E-02 a       451     0    19     1     1
 -3.4134440909693010E-02 a       452     0    19     1     2
  1.1433406065781225E-01 a       453     0    19     1     3
 -2.3668538148511603E-01 a       454     0    19     1     4
  2.3664764894791809E-01 a       455     0    19     1     5
  1.4183799473408756E-01 a       456     0    19     1     6
 -9.0041443632986093E-02 a       457     0    19     1     7
 -1.3428680469082896E-01 a       458     0    19     1     8
 -1.0415207644354102E-01 a       459     0    19     1     9
 -1.1167362228510826E-01 a       460     0    19     1    10
  1.1426298126621121E-01 a       461     0    19     1    11
  2.1460902611313316E-02 a       462     0    19     1    12
  5.4883414875216342E-02 a       463     0    19     1    13
  3.3605507974288157E-01 a       464     0    19     1    14
  8.2236689343229474E-02 a       465     0    19     1    15
  1.5721889949829856E-02 a       466     0    19     1    16
  1.9467703483600513E-01 a       467     0    19     1    17
 -1.2226579058663911E-01 a       468     0    19     1    18
  1.6946842792830952E-01 a       469     0    19     1    19
 -1.6907302111819563E-02 a       470     0    19     1    20
 -4.0737462293659599E-02 a       471     0    19     1    21
 -1.0524488185809536E-01 a       472     0    19     1    22
  8.2426098456805263E-02 a       473     0    19     1    23
 -4.4602379635579364E-02 a       474     0    19     1    24
 -7.8815633904529780E-02 a       475     0    19     1    25
 -8.2064659622462441E-02 a       476     0    20     1     1
  1.8503526905835338E-01 a       477     0    20     1     2
 -3.2014467601766461E-02 a       478     0    20     1     3
 -1.0580161662463329E-01 a       479     0    20     1     4
 -1.2009067123755544E-01 a       480     0    20     1     5
  7.4693177456145857E-02 a       481     0    20     1     6
 -3.6313737794931987E-02 a       482     0    20     1     7
 -1.8677748673584925E-02 a       483     0    20     1     8
  7.0274413952886874E-02 a       484     0    20     1     9
 -3.0206350072563914E-01 a       485     0    20     1    10
  2.6265621223264141E-01 a       486     0    20     1    11
  1.0353683864458595E-01 a       487     0    20     1    12
 -1.2719592196100268E-01 a       488     0    20     1    13
  4.4257192761235709E-03 a       489     0    20     1    14
  4.6020523487934328E-01 a       490     0    20     1    15
  1.0846526902475224E-01 a       491     0    20     1    16
 -8.8640380142068365E-03 a       492     0    20     1    17
  6.6496651698114556E-02 a       493     0    20     1    18
 -1.6121736404183870E-01 a       494     0    20     1    19
  1.6046588886195975E-01 a       495     0    20     1    20
  9.0739141927527509E-02 a       496     0    20     1    21
 -3.6423655876311756E-01 a       497     0    20     1    22
 -1.9178342803300146E-02 a       498     0    20     1    23
  4.9540089414123190E-03 a       499     0    20     1    24
  6.6557213606284679E-02 a       500     0    20     1    25
  8.1421438010762889E-02 a       501     0    21     1     1
 -2.0134823944824426E-01 a       502     0    21     1     2
 -1.1822839618417251E-01 a       503     0    21     1     3
  6.1283539565581989E-02 a       504     0    21     1     4
  1.1487036884477517E-01 a       505     0    21     1     5
  1.1741684322026097E-01 a       506     0    21     1     6
  1.3543273316844229E-01 a       507     0    21     1     7
  6.2116413105970615E-03 a       508     0    21     1     8
  1.8628083505585094E-01 a       509     0    21     1     9
 -1.0412506102736387E-01 a       510     0    21     1    10
 -7.1979472774867909E-02 a       511     0    21     1    11
  1.8531732333593212E-01 a       512     0    21     1    12
  9.9981935479381598E-02 a       513     0    21     1    13
  3.7134445371172464E-01 a       514     0    21     1    14
 -2.3765127518884585E-01 a       515     0    21     1    15
  5.6540698809757969E-02 a       516     0    21     1    16
 -1.2221774265588533E-02 a       517     0    21     1    17
 -1.5924389118236213E-02 a       518     0    21     1    18
 -4.4779144315583455E-02 a       519     0    21     1    19
 -6.0908338746833532E-02 a       520     0    21     1    20
 -3.5376413712953345E-02 a       521     0    21     1    21
  2.7868093638271443E-02 a       522     0    21     1    22
  2.4163351835454469E-02 a       523     0    21     1    23
  1.5817206021834831E-01 a       524     0    21     1    24
 -2.2421802845061214E-01 a       525     0    21     1    25
  5.6359716649454279E-02 a       526     0    22     1     1
  1.3849554065321018E-01 a       527     0    22     1     2
 -8.8177625780230778E-02 a       528     0    22     1     3
 -1.1736643217916028E-01 a       529     0    22     1     4
  2.0631524298901712E-03 a       530     0    22     1     5
 -4.0084976659725623E-02 a       531     0    22     1     6
 -9.5724254517657259E-02 a       532     0    22     1     7
 -1.6466365170590486E-01 a       533     0    22     1     8
 -7.6467373926247556E-02 a       534     0    22     1     9
  1.8924125967512053E-02 a       535     0    22     1    10
  9.7159704516069353E-02 a       536     0    22     1    11
 -1.1156818039030732E-01 a       537     0    22     1    12
  1.4392360963196961E-03 a       538     0    22     1    13
 -1.9048928330892312E-01 a       539     0    22     1    14
  1.8892877721665230E-01 a       540     0    22     1    15
  1.9174938753986188E-02 a       541     0    22     1    16
  8.0931020659960433E-03 a       542     0    22     1    17
  8.2334881726034495E-03 a       543     0    22     1    18
 -3.8364434209346238E-01 a       544     0    22     1    19
 -1.5488842082935561E-01 a       545     0    22     1    20
 -3.8597283350584329E-02 a       546     0    22     1    21
  2.3993853732731857E-01 a       547     0    22     1    22
 -1.2333553599157368E-01 a       548     0    22     1    23
 -1.1280366846495138E-01 a       549     0    22     1    24
  6.0968185818340542E-02 a       550     0    22     1    25
 -8.3746550641296574E-02 a       551     0    23     1     1
  2.3417265483004712E-01 a       552     0    23     1     2
 -1.6127646382047794E-01 a       553     0    23     1     3
 -9.8577867381594866E-02 a       554     0    23     1     4
 -2.6787214895091555E-01 a       555     0    23     1     5
  2.3559067817977247E-01 a       556     0    23     1     6
 -4.1235045717445871E-02 a       557     0    23     1     7
 -9.2438743925206526E-02 a       558     0    23     1     8
  1.0356707273192711E-01 a       559     0    23     1     9
 -7.0723067832801120E-02 a       560     0    23     1    10
 -9.0408242272105643E-02 a       561     0    23     1    11
  3.2432488302907531E-01 a       562     0    23     1    12
 -1.0081237926469802E-01 a       563     0    23     1    13
 -8.3784550471582148E-02 a       564     0    23     1    14
  1.5462973134495132E-02 a       565     0    23     1    15
 -2.4698913691687788E-01 a       566     0    23     1    16
 -1.0837592432699493E-01 a       567     0    23     1    17
  1.4752752962197965E-01 a       568     0    23     1    18
  1.5943668667068426E-02 a       569     0    23     1    19
  8.0399518646095278E-02 a       570     0    23     1    20
  3.3288896936578764E-02 a       571     0    23     1    21
 -5.1189792898358968E-02 a       572     0    23     1    22
 -7.9914744593864315E-02 a       573     0    23     1    23
 -9.1297876273090259E-02 a       574     0    23     1    24
  4.5324179685304201E-02 a       575     0    23     1    25
 -1.6780670182764498E-01 a       576     0    24     1     1
  1.6562009560651073E-01 a       577     0    24     1     2
 -1.0109935713207249E-01 a       578     0    24     1     3
 -2.0093389075185733E-01 a       579     0    24     1     4
  5.1826785627953155E-02 a       580     0    24     1     5
  6.6436054702092448E-02 a       581     0    24     1     6
  3.3297963546883268E-02 a       582     0    24     1     7
  3.3430519243907990E-02 a       583     0    24     1     8
 -1.9365223719682970E-02 a       584     0    24     1     9
  3.5641671186624271E-02 a       585     0    24     1    10
 -1.8893553585552531E-01 a       586     0    24     1    11
 -2.1938663269919650E-01 a       587     0    24     1    12
 -1.0602187080878811E-01 a       588     0    24     1    13
 -2.1834274155267927E-01 a       589     0    24     1    14
 -1.8581381244649256E-01 a       590     0    24     1    15
 -2.5913082118478764E-01 a       591     0    24     1    16
  3.2091906172824015E-02 a       592     0    24     1    17
  1.2199686779598351E-01 a       593     0    24     1    18
 -1.9084251218242818E-01 a       594     0    24     1    19
  1.4990545542944406E-01 a       595     0    24     1    20
 -6.9646776667536686E-02 a       596     0    24     1    21
  1.6309545203994488E-01 a       597     0    24     1    22
  6.7564697931008541E-02 a       598     0    24     1    23
 -7.5734595418373726E-02 a       599     0    24     1    24
  1.5179302352950830E-02 a       600     0    24     1    25
 -2.3892577480303342E-01 a       601     0    25     1     1
 -1.1314824876115447E-02 a       602     0    25     1     2
  1.6294337509802470E-01 a       603     0    25     1     3
  8.4817712363187581E-02 a       604     0    25     1     4
 -1.0369970055766035E-01 a       605     0    25     1     5
 -5.4633572069103423E-02 a       606     0    25     1     6
 -5.4974008297120056E-02 a       607     0    25     1     7
 -1.5038907222448739E-01 a       608     0    25     1     8
 -1.0591893720421318E-01 a       609     0    25     1     9
 -7.2273421728844142E-02 a       610     0    25     1    10
 -3.0282134188799481E-01 a       611     0    25     1    11
  2.6504072943351409E-01 a       612     0    25     1    12
  1.6490371294716041E-01 a       613     0    25     1    13
  8.2306305641564118E-02 a       614     0    25     1    14
 -1.0043542910717718E-01 a       615     0    25     1    15
 -3.7807378315316865E-02 a       616     0    25     1    16
  9.3144848425186652E-02 a       617     0    25     1    17
  1.7837110423756183E-01 a       618     0    25     1    18
  3.1843718260852916E-01 a       619     0    25     1    19
  6.3230407320630830E-02 a       620     0    25     1    20
 -4.8614117816770955E-02 a       621     0    25     1    21
 -1.2315213417152809E-01 a       622     0    25     1    22
 -1.3721029503996948E-01 a       623     0    25     1    23
  6.0873947225420610E-02 a       624     0    25     1    24
  2.3642903752355525E-02 a       625     0    25     1    25
 -1.1562061905105486E-02 a       626     0    26     1     1
 -4.1536379199568985E-02 a       627     0    26     1     2
  2.0720387185522626E-01 a       628     0    26     1     3
  2.0119708000419464E-01 a       629     0    26     1     4
 -1.5802618693456028E-01 a       630     0    26     1     5
 -2.4538183880396167E-01 a       631     0    26     1     6
  6.6346762588909966E-02 a       632     0    26     1     7
 -1.8873232927480038E-01 a       633     0    26     1     8
  1.2502723305449834E-01 a       634     0    26     1     9
 -4.0395677027758446E-02 a       635     0    26     1    10
  9.2820075031407503E-02 a       636     0    26     1    11
 -2.0843932368105869E-01 a       637     0    26     1    12
 -1.3556203175722631E-01 a       638     0    26     1    13
 -9.3828984987377739E-02 a       639     0    26     1    14
  9.7381888595818436E-02 a       640     0    26     1    15
  1.2903190539255007E-02 a       641     0    26     1    16
  6.0481189329117824E-03 a       642     0    26     1    17
 -9.5182549434142380E-02 a       643     0    26     1    18
 -4.0335862684389073E-01 a       644     0    26     1    19
 -3.2784494834152592E-02 a       645     0    26     1    20
 -2.0183746912557704E-01 a       646     0    26     1    21
 -1.7638862686001849E-01 a       647     0    26     1    22
 -2.0993513162451464E-02 a       648     0    26     1    23
  1.1976237274010169E-01 a       649     0    26     1    24
  5.2581243064763437E-02 a       650     0    26     1    25
 -1.3684657614086870E-01 a       651     0    27     1     1
 -8.9475219234172051E-02 a       652     0    27     1     2
  1.2944139044513606E-01 a       653     0    27     1     3
  1.4902685884232592E-01 a       654     0    27     1     4
  9.8671087674907343E-02 a       655     0    27     1     5
 -1.1929732275527397E-01 a       656     0    27     1     6
  2.0577610407421862E-01 a       657     0    27     1     7
  2.8343391000516194E-01 a       658     0    27     1     8
  1.1797360632044541E-02 a       659     0    27     1     9
 -1.0193050065353415E-01 a       660     0    27     1    10
 -6.7672669441196848E-02 a       661     0    27     1    11
 -5.9292107067582138E-02 a       662     0    27     1    12
  7.1471415371183511E-02 a       663     0    27     1    13
  2.2082841385801388E-01 a       664     0    27     1    14
 -1.5718199904726549E-01 a       665     0    27     1    15
  1.2708909468443791E-01 a       666     0    27     1    16
  1.9039984927213222E-01 a       667     0    27     1    17
 -4.2541801840246973E-02 a       668     0    27     1    18
  2.6600357188941881E-01 a       669     0    27     1    19
  1.2822959629871536E-01 a       670     0    27     1    20
  3.4439181047465385E-02 a       671     0    27     1    21
 -6.5572416957316179E-02 a       672     0    27     1    22
  1.5644416931276142E-01 a       673     0    27     1    23
  1.5672725026673662E-01 a       674     0    27     1    24
  5.6664005547296288E-02 a       675     0    27     1    25
 -1.1531909855746292E-03 a       676     0    28     1     1
 -3.7129215016117456E-01 a       677     0    28     1     2
 -2.7201383570122230E-02 a       678     0    28     1     3
  7.4318646491470927E-03 a       679     0    28     1     4
  6.9559240522157418E-03 a       680     0    28     1     5
 -3.7723284803447735E-02 a       681     0    28     1     6
 -1.5359435427010207E-01 a       682     0    28     1     7
 -1.0298559391804085E-01 a       683     0    28     1     8
 -1.9014777492912738E-01 a       684     0    28     1     9
 -1.6157633141188035E-01 a       685     0    28     1    10
  1.8713312561846093E-01 a       686     0    28     1    11
  1.5885138227725529E-01 a       687     0    28     1    12
 -1.6604921546926124E-01 a       688     0    28     1    13
 -6.0588305678306253E-02 a       689     0    28     1    14
  1.2625178912325566E-01 a       690     0    28     1    15
 -1.2169510374123646E-01 a       691     0    28     1    16
 -5.8700728118096859E-02 a       692     0    28     1    17
  6.8377264518737532E-02 a       693     0    28     1    18
 -7.4633198768633752E-02 a       694     0    28     1    19
 -3.8825385411142513E-02 a       695     0    28     1    20
  3.4550571712134902E-02 a       696     0    28     1    21
 -3.6103872660771270E-03 a       697     0    28     1    22
 -1.5660538053011114E-02 a       698     0    28     1    23
 -1.2267216744082396E-01 a       699     0    28     1    24
 -2.0949348820958068E-02 a       700     0    28     1    25
  2.1336107536963300E-01 a       701     0    29     1     1
 -3.7938033716605625E-02 a       702     0    29     1     2
 -3.9260771495206598E-03 a       703     0    29     1     3
 -1.2506827103012516E-01 a       704     0    29     1     4
  1.6250797350002416E-01 a       705     0    29     1     5
 -6.6503483347755910E-02 a       706     0    29     1     6
  1.0108411978291772E-01 a       707     0    29     1     7
  2.8988934934575470E-02 a       708     0    29     1     8
  1.6714693304057046E-01 a       709     0    29     1     9
  8.3227349937355893E-02 a       710     0    29     1    10
  4.1987292044857606E-02 a       711     0    29     1    11
 -1.5185459551420183E-01 a       712     0    29     1    12
  3.7692443559109362E-02 a       713     0    29     1    13
  1.3322243313706378E-01 a       714     0    29     1    14
 -2.0572592604879730E-01 a       715     0    29     1    15
  8.9261222701239137E-02 a       716     0    29     1    16
 -1.1040698633917488E-01 a       717     0    29     1    17
 -1.2113821294305309E-01 a       718     0    29     1    18
  1.6135081295605652E-01 a       719     0    29     1    19
 -2.3098971698502441E-01 a       720     0    29     1    20
  3.5844632293933275E-02 a       721     0    29     1    21
  7.5235637997794563E-02 a       722     0    29     1    22
 -1.2104047261852577E-01 a       723     0    29     1    23
  3.5291560454898167E-02 a       724     0    29     1    24
 -1.2448263345548084E-01 a       725     0    29     1    25
  3.7770704337570085E-02 a       726     0    30     1     1
 -1.3528044608083314E-01 a       727     0    30     1     2
 -2.1294715087316143E-01 a       728     0    30     1     3
 -2.0416442955782224E-01 a       729     0    30     1     4
  1.2274073484453961E-02 a       730     0    30     1     5
  7.8803905800268512E-02 a       731     0    30     1     6
 -6.7465120887137079E-03 a       732     0    30     1     7
  2.8989191796859264E-02 a       733     0    30     1     8
 -1.9939477046126725E-01 a       734     0    30     1     9
 -1.0231060347074204E-01 a       735     0    30     1    10
 -2.2828451787380986E-02 a       736     0    30     1    11
  1.6034129377539598E-02 a       737     0    30     1    12
 -8.3263172615669512E-02 a       738     0    30     1    13
 -2.0284218273255392E-01 a       739     0    30     1    14
  1.0759621869263755E-01 a       740     0    30     1    15
 -3.3467239354867083E-03 a       741     0    30     1    16
 -2.4042998595408299E-02 a       742     0    30     1    17
  9.5922868262588779E-02 a       743     0    30     1    18
 -9.3675355412967246E-02 a       744     0    30     1    19
 -1.7529848977945545E-01 a       745     0    30     1    20
  2.2603748809682196E-02 a       746     0    30     1    21
  1.8750104274690965E-01 a       747     0    30     1    22
 -8.4650646639524693E-02 a       748     0    30     1    23
 -9.9237500977897006E-02 a       749     0    30     1    24
 -5.4616501865739069E-02 a       750     0    30     1    25
  1.6496956515589731E-01 a       751     0    31     1     1
 -1.8283321236357283E-01 a       752     0    31     1     2
 -9.9253893806521942E-02 a       753     0    31     1     3
 -8.4095570581172646E-02 a       754     0    31     1     4
  1.2042180060687069E-01 a       755     0    31     1     5
  1.3184418108674775E-01 a       756     0    31     1     6
 -2.1991415278650178E-01 a       757     0    31     1     7
 -1.9786188884965575E-01 a       758     0    31     1     8
 -1.3012015317326500E-01 a       759     0    31     1     9
 -1.5850716046131925E-02 a       760     0    31     1    10
 -3.7302131513646745E-02 a       761     0    31     1    11
 -1.3890483850558033E-01 a       762     0    31     1    12
  1.9153640670782391E-02 a       763     0    31     1    13
  2.7440493971715062E-02 a       764     0    31     1    14
 -6.3098684948145189E-02 a       765     0    31     1    15
 -1.1206788151016001E-01 a       766     0    31     1    16
 -1.1645533505392404E-01 a       767     0    31     1    17
  5.5274149670563703E-02 a       768     0    31     1    18
  3.2359161048423607E-01 a       769     0    31     1    19
 -1.6482728556940146E-01 a       770     0    31     1    20
 -3.1042823602283373E-02 a       771     0    31     1    21
  1.4373601079977438E-01 a       772     0    31     1    22
 -3.9457003455683155E-02 a       773     0    31     1    23
 -1.5973542757772444E-01 a       774     0    31     1    24
 -8.7219723456071541E-02 a       775     0    31     1    25
 -1.2091341995337922E-01 a       776     0    32     1     1
  1.7021692345914713E-01 a       777     0    32     1     2
 -1.2773414963098392E-01 a       778     0    32     1     3
  2.4241327102439463E-02 a       779     0    32     1     4
 -2.6873404314520091E-02 a       780     0    32     1     5
  9.1815921026838582E-02 a       781     0    32     1     6
  1.1585751818053804E-01 a       782     0    32     1     7
  3.0850269494598338E-02 a       783     0    32     1     8
  3.3421116046299180E-02 a       784     0    32     1     9
 -1.0613960802029755E-01 a       785     0    32     1    10
 -1.2076660732024827E-01 a       786     0    32     1    11
 -8.9884858583547320E-02 a       787     0    32     1    12
  9.2628705185281573E-02 a       788     0    32     1    13
 -9.9146342610243257E-02 a       789     0    32     1    14
 -6.6073042042767219E-02 a       790     0    32     1    15
 -6.5351693392312810E-02 a       791     0    32     1    16
  6.7510429013504805E-02 a       792     0    32     1    17
  8.7554402266500894E-02 a       793     0    32     1    18
 -3.2461403888890572E-02 a       794     0    32     1    19
 -5.0837443518509856E-02 a       795     0    32     1    20
 -4.2114542955971702E-02 a       796     0    32     1    21
 -7.9180872329287347E-02 a       797     0    32     1    22
 -9.5624989636858337E-02 a       798     0    32     1    23
  2.9427535327541093E-02 a       799     0    32     1    24
  5.5069687003793548E-02 a       800     0    32     1    25
 -1.2135319507169980E-01 a       801     0    33     1     1
 -1.4387102194554499E-01 a       802     0    33     1     2
  4.1264062905428701E-02 a       803     0    33     1     3
  1.1345074728802387E-01 a       804     0    33     1     4
  7.9521560132507871E-02 a       805     0    33     1     5
 -1.1638403284712627E-02 a       806     0    33     1     6
 -1.5306023017429183E-02 a       807     0    33     1     7
 -1.6026155853093171E-01 a       808     0    33     1     8
 -4.4160450073920414E-03 a       809     0    33     1     9
 -8.6702156366134875E-02 a       810     0    33     1    10
 -5.6905767562521990E-02 a       811     0    33     1    11
  2.3814472524888305E-01 a       812     0    33     1    12
 -4.6012367962805077E-02 a       813     0    33     1    13
  1.0215340330612258E-01 a       814     0    33     1    14
  8.9660096518785745E-02 a       815     0    33     1    15
 -3.0815014160293648E-02 a       816     0    33     1    16
  1.8132390643516547E-01 a       817     0    33     1    17
  1.3644139892169088E-04 a       818     0    33     1    18
 -1.3579954262036301E-01 a       819     0    33     1    19
  6.2383184875271981E-02 a       820     0    33     1    20
 -8.1736012206822611E-02 a       821     0    33     1    21
  2.0853102938054736E-02 a       822     0    33     1    22
  6.2001743089346008E-02 a       823     0    33     1    23
 -5.5053921443102463E-02 a       824     0    33     1    24
  1.2404923673149380E-02 a       825     0    33     1    25
 -2.2693807814110220E-02 a       826     0    34     1     1
 -1.4700437431829283E-01 a       827     0    34     1     2
  8.6480228366844242E-02 a       828     0    34     1     3
  1.0050536833201235E-01 a       829     0    34     1     4
  5.0677606612832028E-02 a       830     0    34     1     5
 -1.2719714949709179E-01 a       831     0    34     1     6
  2.6193421018072052E-02 a       832     0    34     1     7
 -1.0597679876458792E-01 a       833     0    34     1     8
  1.3811362448284520E-01 a       834     0    34     1     9
  1.1406686935753503E-01 a       835     0    34     1    10
  4.1318403739486448E-02 a       836     0    34     1    11
 -1.0958246476715043E-01 a       837     0    34     1    12
 -1.8164540648725445E-02 a       838     0    34     1    13
  1.9049582848958979E-01 a       839     0    34     1    14
  4.3967184860140215E-02 a       840     0    34     1    15
  7.3721088072569038E-02 a       841     0    34     1    16
  7.3451875686234833E-02 a       842     0    34     1    17
 -1.2215687742779430E-01 a       843     0    34     1    18
 -2.2168037827497450E-01 a       844     0    34     1    19
 -1.7095231826582735E-02 a       845     0    34     1    20
 -8.9910416282201019E-02 a       846     0    34     1    21
  4.5644608297869690E-02 a       847     0    34     1    22
  4.4774500345813290E-02 a       848     0    34     1    23
  5.4636636406945376E-02 a       849     0    34     1    24
  1.9707942263446191E-02 a       850     0    34     1    25
 -1.0406207751184501E-01 a       851     0    35     1     1
  4.7915197502858088E-02 a       852     0    35     1     2
  1.9519622821108081E-02 a       853     0    35     1     3
 -9.6034250871814178E-02 a       854     0    35     1     4
 -1.0511697666066483E-01 a       855     0    35     1     5
 -1.3274329091984387E-02 a       856     0    35     1     6
  1.1995907489398853E-01 a       857     0    35     1     7
  9.7416465218342310E-02 a       858     0    35     1     8
 -7.3201639568836963E-02 a       859     0    35     1     9
 -1.4933844180961167E-01 a       860     0    35     1    10
 -9.3441803971828205E-02 a       861     0    35     1    11
  2.4808614486308059E-02 a       862     0    35     1    12
 -1.1296744328023504E-01 a       863     0    35     1    13
 -2.9821224531097406E-02 a       864     0    35     1    14
 -8.1272627694402605E-02 a       865     0    35     1    15
 -9.4050786489240035E-02 a       866     0    35     1    16
  9.6843681383181182E-02 a       867     0    35     1    17
  1.1818683048786230E-01 a       868     0    35     1    18
 -1.0743730069448838E-01 a       869     0    35     1    19
  1.2779968416904061E-01 a       870     0    35     1    20
  1.9964171489903104E-02 a       871     0    35     1    21
 -1.0670088354040899E-01 a       872     0    35     1    22
  5.0415012028272206E-02 a       873     0    35     1    23
  1.2411240864415349E-01 a       874     0    35     1    24
  8.0446574187503270E-02 a       875     0    35     1    25
  2.1264613284149450E-01 a       876     0    36     1     1
  6.2702547579341919E-02 a       877     0    36     1     2
  1.8439836713376281E-01 a       878     0    36     1     3
 -8.1609188640795069E-02 a       879     0    36     1     4
  2.6856491159372359E-02 a       880     0    36     1     5
 -1.4003500670886512E-01 a       881     0    36     1     6
 -6.9621043192012663E-02 a       882     0    36     1     7
 -1.0700191924651632E-01 a       883     0    36     1     8
 -6.2973882221523544E-02 a       884     0    36     1     9
 -8.3249603155529331E-02 a       885     0    36     1    10
  9.2754474651023919E-02 a       886     0    36     1    11
  1.1851747964109625E-01 a       887     0    36     1    12
 -2.3131751641854628E-01 a       888     0    36     1    13
  4.0263443205274231E-02 a       889     0    36     1    14
  7.7707312224460603E-02 a       890     0    36     1    15
 -1.4989976111920994E-01 a       891     0    36     1    16
  8.3576786030745490E-03 a       892     0    36     1    17
 -8.0411597899877882E-02 a       893     0    36     1    18
 -2.8748711149929235E-01 a       894     0    36     1    19
  2.0951809997839185E-01 a       895     0    36     1    20
  9.0155300510784582E-03 a       896     0    36     1    21
  2.3682065155977497E-02 a       897     0    36     1    22
  1.8105805020138271E-01 a       898     0    36     1    23
 -3.0480082660194644E-02 a       899     0    36     1    24
  7.6573307541015134E-03 a       900     0    36     1    25
 -1.2750052473670848E-01 a       901     0    37     1     1
  3.3472733689860645E-01 a       902     0    37     1     2
 -1.4310255929171536E-01 a       903     0    37     1     3
 -1.8441261907955187E-02 a       904     0    37     1     4
 -7.1685411577111528E-03 a       905     0    37     1     5
  1.7254561223002630E-03 a       906     0    37     1     6
  1.0330408522439954E-01 a       907     0    37     1     7
 -1.4959740029916105E-01 a       908     0    37     1     8
  4.8433014041059798E-02 a       909     0    37     1     9
 -1.7689894666624692E-01 a       910     0    37     1    10
 -2.9248423838051613E-02 a       911     0    37     1    11
 -4.6658645138896095E-02 a       912     0    37     1    12
 -3.6219266410983060E-02 a       913     0    37     1    13
  4.1417881952981066E-02 a       914     0    37     1    14
 -9.0417140752758265E-02 a       915     0    37     1    15
  6.6889865589242356E-02 a       916     0    37     1    16
 -3.6311037746370796E-02 a       917     0    37     1    17
 -1.3286740051266404E-02 a       918     0    37     1    18
 -1.9057165283218727E-02 a       919     0    37     1    19
  6.4019143634836059E-02 a       920     0    37     1    20
 -9.2315576980920827E-02 a       921     0    37     1    21
 -1.3260865436034774E-01 a       922     0    37     1    22
 -1.5658195041977127E-01 a       923     0    37     1    23
  9.2750738603325764E-02 a       924     0    37     1    24
 -3.3555232468492145E-02 a       925     0    37     1    25
 -1.0340194202075217E-01 a       926     0    38     1     1
 -6.7662488943993652E-03 a       927     0    38     1     2
  3.9268543730235656E-03 a       928     0    38     1     3
  8.3821925678888812E-02 a       929     0    38     1     4
  7.7082111155371766E-02 a       930     0    38     1     5
 -7.1316639104365476E-02 a       931     0    38     1     6
 -2.6343708357033448E-02 a       932     0    38     1     7
 -9.3127330510379136E-02 a       933     0    38     1     8
  4.6211771103523237E-02 a       934     0    38     1     9
 -1.1491039896054040E-02 a       935     0    38     1    10
  3.1527684526089839E-02 a       936     0    38     1    11
  2.3428730608619072E-03 a       937     0    38     1    12
 -1.4471613058184413E-01 a       938     0    38     1    13
 -1.0392443982815899E-01 a       939     0    38     1    14
  4.0220036872094106E-03 a       940     0    38     1    15
 -2.4027990571914837E-02 a       941     0    38     1    16
 -2.4955319125856849E-02 a       942     0    38     1    17
 -4.6984575550078282E-02 a       943     0    38     1    18
 -2.5944713560911331E-01 a       944     0    38     1    19
 -1.9394050153281825E-01 a       945     0    38     1    20
 -5.7482226297320492E-02 a       946     0    38     1    21
  1.0971564987846297E-01 a       947     0    38     1    22
 -1.3578001917917948E-01 a       948     0    38     1    23
 -9.3070752187408845E-03 a       949     0    38     1    24
 -5.0398331148090399E-02 a       950     0    38     1    25
  7.8437458734745932E-02 a       951     0    39     1     1
 -2.3245638021105436E-01 a       952     0    39     1     2
  1.8133585619296927E-02 a       953     0    39     1     3
  8.5973968603069995E-02 a       954     0    39     1     4
  1.3102526725147307E-01 a       955     0    39     1     5
  4.4183709496397487E-02 a       956     0    39     1     6
  4.9719212775119141E-02 a       957     0    39     1     7
  3.6852025377497894E-03 a       958     0    39     1     8
 -9.7238080386651150E-03 a       959     0    39     1     9
  7.0089551062292631E-03 a       960     0    39     1    10
 -2.4736574824513680E-02 a       961     0    39     1    11
  3.9971094179954009E-02 a       962     0    39     1    12
 -8.7197757424006483E-02 a       963     0    39     1    13
  7.0987641118022332E-02 a       964     0    39     1    14
 -2.5152316257994717E-02 a       965     0    39     1    15
  2.0860201513570122E-02 a       966     0    39     1    16
 -2.7194454581951605E-02 a       967     0    39     1    17
 -8.3302762088778390E-02 a       968     0    39     1    18
  2.0989267392472011E-01 a       969     0    39     1    19
 -7.0335535184878437E-02 a       970     0    39     1    20
  2.1119727847145518E-02 a       971     0    39     1    21
  5.1935477959781311E-02 a       972     0    39     1    22
 -2.1876136056608930E-02 a       973     0    39     1    23
 -5.1066284544955369E-02 a       974     0    39     1    24
 -4.0451833159250300E-02 a       975     0    39     1    25
 -7.8088269855169659E-02 a       976     0    40     1     1
  1.0660585750044120E-01 a       977     0    40     1     2
 -1.0659099009892165E-01 a       978     0    40     1     3
  2.7109079813917598E-02 a       979     0    40     1     4
  5.6279683861916965E-02 a       980     0    40     1     5
 -1.1521745076394418E-02 a       981     0    40     1     6
  6.7088825348704015E-02 a       982     0    40     1     7
  4.6977274539948440E-02 a       983     0    40     1     8
 -1.2297118531059015E-02 a       984     0    40     1     9
  2.6423748345093461E-02 a       985     0    40     1    10
  6.9859264074642005E-02 a       986     0    40     1    11
 -1.9442143740492857E-01 a       987     0    40     1    12
 -7.6242062582600134E-02 a       988     0    40     1    13
 -4.7256695405234098E-02 a       989     0    40     1    14
 -2.5181375857917489E-02 a       990     0    40     1    15
  4.1711231504465027E-02 a       991     0    40     1    16
  3.2343277516527396E-03 a       992     0    40     1    17
 -5.3655617858131104E-02 a       993     0    40     1    18
 -1.2132450480703245E-01 a       994     0    40     1    19
  2.9862910747156866E-03 a       995     0    40     1    20
  2.0772131987900500E-02 a       996     0    40     1    21
 -2.9350513912195585E-02 a       997     0    40     1    22
 -3.8017586221214046E-02 a       998     0    40     1    23
 -7.2845096026947539E-02 a       999     0    40     1    24
  5.0727743377967149E-02 a      1000     0    40     1    25
  2.6826451368005300E-01 a      1001     0    41     1     1
 -1.4166512645891347E-01 a      1002     0    41     1     2
  1.0321886682667432E-02 a      1003     0    41     1     3
  1.9618965052923609E-01 a      1004     0    41     1     4
 -5.6413785327872161E-02 a      1005     0    41     1     5
  1.3879280640332614E-01 a      1006     0    41     1     6
  2.0056629091349554E-01 a      1007     0    41     1     7
  3.5288594512300003E-01 a      1008     0    41     1     8
 -1.3120559342559246E-01 a      1009     0    41     1     9
  1.1224947528243233E-01 a      1010     0    41     1    10
 -9.2595553072961467E-02 a      1011     0    41     1    11
 -3.8546003015563407E-02 a      1012     0    41     1    12
 -1.9889580193405199E-01 a      1013     0    41     1    13
 -1.1000504445178189E-01 a      1014     0    41     1    14
  1.3333447480706401E-01 a      1015     0    41     1    15
 -3.0019811719757254E-02 a      1016     0    41     1    16
  1.2442189676561791E-01 a      1017     0    41     1    17
 -5.9825699767493801E-02 a      1018     0    41     1    18
  3.0063748651299388E-01 a      1019     0    41     1    19
 -4.5082137943227581E-02 a      1020     0    41     1    20
  2.1186103690271474E-01 a      1021     0    41     1    21
 -1.2875879810074292E-01 a      1022     0    41     1    22
  1.5128357709104956E-01 a      1023     0    41     1    23
 -7.0894804756408900E-02 a      1024     0    41     1    24
  1.5068777627721591E-01 a      1025     0    41     1    25
 -2.5182917075922018E-01 a      1026     0    42     1     1
 -2.2677126285460908E-01 a      1027     0    42     1     2
  1.7877412548800839E-01 a      1028     0    42     1     3
  1.5107800081220877E-02 a      1029     0    42     1     4
 -1.7757094186409234E-01 a      1030     0    42     1     5
 -1.2632813434355725E-01 a      1031     0    42     1     6
 -2.6908512849003935E-01 a      1032     0    42     1     7
 -1.4859283812851992E-01 a      1033     0    42     1     8
  4.6712760854021396E-01 a      1034     0    42     1     9
  2.6969836491024814E-03 a      1035     0    42     1    10
  5.7460680765791861E-02 a      1036     0    42     1    11
  2.6082559567486185E-01 a      1037     0    42     1    12
  4.8614095056271220E-02 a      1038     0    42     1    13
 -2.0649216600362985E-01 a      1039     0    42     1    14
  1.5832106021261655E-01 a      1040     0    42     1    15
  2.8543062218226349E-03 a      1041     0    42     1    16
 -1.2431069622427096E-01 a      1042     0    42     1    17
  1.2374839485394246E-01 a      1043     0    42     1    18
  3.3081017955413855E-01 a      1044     0    42     1    19
 -1.0855889810193310E-01 a      1045     0    42     1    20
 -9.7833862654716011E-02 a      1046     0    42     1    21
  1.2871784039425621E-01 a      1047     0    42     1    22
  1.8142122382842874E-03 a      1048     0    42     1    23
 -3.4920266521248543E-02 a      1049     0    42     1    24
 -6.7302252766010748E-02 a      1050     0    42     1    25
 -4.0078141937845049E-02 a      1051     0    43     1     1
  1.5264216356858692E-01 a      1052     0    43     1     2
 -7.8808915205197033E-02 a      1053     0    43     1     3
  2.7099824141543466E-01 a      1054     0    43     1     4
  3.0441687445178289E-02 a      1055     0    43     1     5
  1.5328213229098708E-01 a      1056     0    43     1     6
  1.1283504833834951E-01 a      1057     0    43     1     7
  7.4553127048927970E-02 a      1058     0    43     1     8
  1.1312696752019209E-01 a      1059     0    43     1     9
 -1.3793443246588134E-02 a      1060     0    43     1    10
  8.6813935344099338E-03 a      1061     0    43     1    11
  3.2872426128101470E-02 a      1062     0    43     1    12
 -1.1041461343370299E-03 a      1063     0    43     1    13
  1.3781969207842432E-01 a      1064     0    43     1    14
 -5.8510061902148948E-02 a      1065     0    43     1    15
 -1.7335662702629015E-01 a      1066     0    43     1    16
  1.0640851801010578E-01 a      1067     0    43     1    17
  3.6855406628050195E-02 a      1068     0    43     1    18
 -4.8499121314184115E-02 a      1069     0    43     1    19
 -3.3622166701024844E-02 a      1070     0    43     1    20
 -2.8567318969598254E-02 a      1071     0    43     1    21
 -2.0104097822359775E-02 a      1072     0    43     1    22
  2.4216979473973849E-02 a      1073     0    43     1    23
  4.5689165901444305E-02 a      1074     0    43     1    24
 -2.4152945498984130E-02 a      1075     0    43     1    25
  2.5700373123362409E-02 a      1076     0    44     1     1
  1.5729351343344028E-01 a      1077     0    44     1     2
  4.2609774048569062E-02 a      1078     0    44     1     3
 -5.7110434256236818E-02 a      1079     0    44     1     4
  8.8179673000939998E-02 a      1080     0    44     1     5
  2.1017877354649250E-01 a      1081     0    44     1     6
  7.3763331781361904E-03 a      1082     0    44     1     7
  9.7193279123055781E-03 a      1083     0    44     1     8
  7.6805397058480870E-02 a      1084     0    44     1     9
 -2.6746704189769666E-01 a      1085     0    44     1    10
  6.1857389040277343E-02 a      1086     0    44     1    11
  7.5854351330282302E-02 a      1087     0    44     1    12
  1.3456771708784196E-01 a      1088     0    44     1    13
  8.9902374482642797E-03 a      1089     0    44     1    14
  2.0498906089867641E-01 a      1090     0    44     1    15
 -3.4798509329281475E-02 a      1091     0    44     1    16
  9.5157461531665058E-02 a      1092     0    44     1    17
 -7.3515278861848943E-02 a      1093     0    44     1    18
  2.1858102617249570E-01 a      1094     0    44     1    19
  1.2140845163519154E-01 a      1095     0    44     1    20
 -1.3410328763513579E-01 a      1096     0    44     1    21
 -9.9744376824577374E-02 a      1097     0    44     1    22
  7.2955345255919651E-02 a      1098     0    44     1    23
 -1.5733493175530514E-01 a      1099     0    44     1    24
 -8.0533188631624120E-02 a      1100     0    44     1    25
 -1.1881195780427890E-01 a      1101     0    45     1     1
 -1.6286053655015365E-01 a      1102     0    45     1     2
  6.2100284092982010E-02 a      1103     0    45     1     3
 -2.5128128317100706E-01 a      1104     0    45     1     4
  2.9937335472598547E-01 a      1105     0    45     1     5
  1.6992976035595503E-01 a      1106     0    45     1     6
 -5.7540900580295429E-02 a      1107     0    45     1     7
  4.0283662994357941E-02 a      1108     0    45     1     8
 -2.6383909796905131E-01 a      1109     0    45     1     9
  1.8109483304084578E-01 a      1110     0    45     1    10
 -7.1109157804568918E-02 a      1111     0    45     1    11
  4.5605840508768702E-02 a      1112     0    45     1    12
 -7.9389682566601769E-03 a      1113     0    45     1    13
  1.3779380724955607E-02 a      1114     0    45     1    14
 -1.5051959201733767E-01 a      1115     0    45     1    15
 -1.9093161392760385E-01 a      1116     0    45     1    16
  5.9048257055147706E-02 a      1117     0    45     1    17
 -1.2145729527016420E-01 a      1118     0    45     1    18
 -8.0697632906553865E-02 a      1119     0    45     1    19
  8.7379430212924745E-03 a      1120     0    45     1    20
  5.6347950431989403E-02 a      1121     0    45     1    21
 -2.4526167219827876E-02 a      1122     0    45     1    22
 -6.9642304927964471E-02 a      1123     0    45     1    23
 -3.9816695235910338E-01 a      1124     0    45     1    24
 -1.1365933215067688E-01 a      1125     0    45     1    25
  7.7920925965321922E-02 a      1126     0    46     1     1
 -6.5884043155280958E-02 a      1127     0    46     1     2
 -1.0719285204196809E-01 a      1128     0    46     1     3
 -1.4379061563610853E-02 a      1129     0    46     1     4
  2.6837382213331429E-01 a      1130     0    46     1     5
 -1.6569830143850456E-01 a      1131     0    46     1     6
  6.8891305640954269E-03 a      1132     0    46     1     7
  5.4985968801817602E-02 a      1133     0    46     1     8
 -1.7774036576007510E-01 a      1134     0    46     1     9
 -4.4669466644750189E-02 a      1135     0    46     1    10
 -1.4261699390647734E-02 a      1136     0    46     1    11
 -1.6108954691844712E-01 a      1137     0    46     1    12
 -4.5396893143664060E-02 a      1138     0    46     1    13
 -1.3337211173614202E-01 a      1139     0    46     1    14
  8.6041190134777720E-02 a      1140     0    46     1    15
  1.1029085582693045E-01 a      1141     0    46     1    16
 -8.0857777104379566E-02 a      1142     0    46     1    17
 -1.7899112151482016E-02 a      1143     0    46     1    18
 -2.4291428234148579E-01 a      1144     0    46     1    19
  4.7671666061703630E-02 a      1145     0    46     1    20
  1.2132948575869289E-01 a      1146     0    46     1    21
  2.9019348199759404E-01 a      1147     0    46     1    22
  6.5954839063064709E-03 a      1148     0    46     1    23
 -1.3901125031690397E-02 a      1149     0    46     1    24
  4.8486232424442631E-02 a      1150     0    46     1    25
 -2.5729890301586478E-01 a      1151     0    47     1     1
 -2.1019863035905820E-01 a      1152     0    47     1     2
 -3.0267352281740989E-01 a      1153     0    47     1     3
 -8.9841546557653640E-02 a      1154     0    47     1     4
 -7.7035033865327951E-02 a      1155     0    47     1     5
  9.8963466092607796E-02 a      1156     0    47     1     6
  5.5726702482440146E-02 a      1157     0    47     1     7
 -1.8599870573150215E-01 a      1158     0    47     1     8
 -4.5047375718375839E-02 a      1159     0    47     1     9
  1.5444462468592046E-02 a      1160     0    47     1    10
 -1.9525766009221304E-01 a      1161     0    47     1    11
  2.1195746120563443E-02 a      1162     0    47     1    12
  1.0349917177582016E-01 a      1163     0    47     1    13
 -1.6939626008112513E-01 a      1164     0    47     1    14
 -1.5415816177386257E-01 a      1165     0    47     1    15
 -2.8211971226268208E-02 a      1166     0    47     1    16
 -1.3814239853272278E-01 a      1167     0    47     1    17
  1.1286335300172132E-01 a      1168     0    47     1    18
  8.8745292915356003E-02 a      1169     0    47     1    19
 -1.5940338374862936E-01 a      1170     0    47     1    20
 -1.1962801425835438E-01 a      1171     0    47     1    21
  1.7262577876404994E-03 a      1172     0    47     1    22
 -8.5243149305317706E-02 a      1173     0    47     1    23
  2.4042832741346973E-03 a      1174     0    47     1    24
 -2.8676134235558887E-02 a      1175     0    47     1    25
 -1.2719243727140944E-01 a      1176     0    48     1     1
  6.1700219060205161E-02 a      1177     0    48     1     2
 -1.3210945939625554E-02 a      1178     0    48     1     3
 -4.1131374596082099E-02 a      1179     0    48     1     4
 -1.3904113213554356E-01 a      1180     0    48     1     5
 -7.0422400077382777E-02 a      1181     0    48     1     6
  1.9569172693983783E-02 a      1182     0    48     1     7
  7.5247948060132935E-02 a      1183     0    48     1     8
 -1.6823674896039423E-02 a      1184     0    48     1     9
 -6.0317259885105251E-03 a      1185     0    48     1    10
 -2.1598915745768660E-01 a      1186     0    48     1    11
 -7.7454424252421383E-02 a      1187     0    48     1    12
  1.3411119135588723E-01 a      1188     0    48     1    13
  4.4713916894694207E-02 a      1189     0    48     1    14
  1.9931910869569688E-02 a      1190     0    48     1    15
  8.2454875415481924E-02 a      1191     0    48     1    16
 -3.6455755649327536E-02 a      1192     0    48     1    17
 -6.0272463328507074E-02 a      1193     0    48     1    18
 -1.4359986184056248E-01 a      1194     0    48     1    19
  9.0944785530879008E-02 a      1195     0    48     1    20
 -1.6562658852130741E-01 a      1196     0    48     1    21
  2.8431227372590140E-01 a      1197     0    48     1    22
  3.5328934083504009E-02 a      1198     0    48     1    23
  7.1736171562050630E-02 a      1199     0    48     1    24
 -7.1485655943446552E-02 a      1200     0    48     1    25
 -8.9569502846401333E-02 a      1201     0    49     1     1
  1.6061313472893118E-01 a      1202     0    49     1     2
  9.4833823928439059E-02 a      1203     0    49     1     3
  2.2477416403820834E-02 a      1204     0    49     1     4
  1.3526113165033091E-01 a      1205     0    49     1     5
  3.1253609880417405E-01 a      1206     0    49     1     6
 -1.3082443165479121E-01 a      1207     0    49     1     7
  5.8105336374067278E-02 a      1208     0    49     1     8
 -5.9199894583171785E-02 a      1209     0    49     1     9
  2.3019711283788841E-02 a      1210     0    49     1    10
 -8.1928036967964021E-03 a      1211     0    49     1    11
 -9.5460517868861686E-02 a      1212     0    49     1    12
  8.5009138098182072E-02 a      1213     0    49     1    13
 -8.5200242717695648E-02 a      1214     0    49     1    14
 -2.7907878527244342E-02 a      1215     0    49     1    15
 -1.4287253661242236E-01 a      1216     0    49     1    16
  1.0349983914942013E-01 a      1217     0    49     1    17
  2.3372400139397975E-01 a      1218     0    49     1    18
  6.6246064833325166E-02 a      1219     0    49     1    19
  1.8739759765093000E-03 a      1220     0    49     1    20
  6.9215673042889295E-02 a      1221     0    49     1    21
  1.9191861534344051E-01 a      1222     0    49     1    22
  1.1140219543585639E-01 a      1223     0    49     1    23
  1.3599185209381970E-01 a      1224     0    49     1    24
  1.1548218528066863E-01 a      1225     0    49     1    25
 -1.0949708831697090E-02 a      1226     0    50     1     1
  5.0585158931951098E-02 a      1227     0    50     1     2
 -7.5294553673749043E-02 a      1228     0    50     1     3
 -7.0195489888713811E-02 a      1229     0    50     1     4
  6.8742869349894639E-02 a      1230     0    50     1     5
 -2.1377607860076170E-02 a      1231     0    50     1     6
 -2.8182290331710172E-02 a      1232     0    50     1     7
 -1.9989741704299660E-01 a      1233     0    50     1     8
 -3.0667093414117347E-03 a      1234     0    50     1     9
 -1.0418729413177688E-01 a      1235     0    50     1    10
 -1.9086602463870150E-01 a      1236     0    50     1    11
 -1.1238915898986715E-01 a      1237     0    50     1    12
 -1.0792887221639959E-01 a      1238     0    50     1    13
 -1.8425633962793769E-01 a      1239     0    50     1    14
 -1.0436820384727205E-01 a      1240     0    50     1    15
  1.2989169434602391E-01 a      1241     0    50     1    16
  2.7881001800471226E-03 a      1242     0    50     1    17
 -1.4829456652778011E-01 a      1243     0    50     1    18
 -1.7594377637666184E-01 a      1244     0    50     1    19
  1.3319468848142407E-01 a      1245     0    50     1    20
 -1.4131808335283275E-01 a      1246     0    50     1    21
  6.5896376573827256E-02 a      1247     0    50     1    22
  3.3956325949874494E-02 a      1248     0    50     1    23
 -8.5789970743944260E-02 a      1249     0    50     1    24
 -1.4983894770271494E-01 a      1250     0    50     1    25
  1.4713261410912351E-01 a      1251     0    51     1     1
 -1.2539859073615048E-01 a      1252     0    51     1     2
  3.9240712196570209E-02 a      1253     0    51     1     3
 -1.0875223812854193E-01 a      1254     0    51     1     4
  2.2044090093683455E-01 a      1255     0    51     1     5
  1.2056168714170817E-02 a      1256     0    51     1     6
 -7.1570432096471764E-02 a      1257     0    51     1     7
  1.6884787091772174E-01 a      1258     0    51     1     8
  2.2503604605083047E-01 a      1259     0    51     1     9
  7.8059360222647534E-02 a      1260     0    51     1    10
 -3.0357576390201485E-01 a      1261     0    51     1    11
 -9.2114246850557316E-02 a      1262     0    51     1    12
 -2.2614275269364423E-01 a      1263     0    51     1    13
 -8.6422916141933953E-02 a      1264     0    51     1    14
 -1.4022731574596362E-01 a      1265     0    51     1    15
 -1.0470619796725988E-01 a      1266     0    51     1    16
 -3.5645827945758129E-03 a      1267     0    51     1    17
  1.0790523329218585E-01 a      1268     0    51     1    18
  7.3551147064727387E-02 a      1269     0    51     1    19
  3.8418418236866862E-02 a      1270     0    51     1    20
  1.2992899437132785E-01 a      1271     0    51     1    21
  1.1639238212197428E-01 a      1272     0    51     1    22
 -1.2387497369406161E-01 a      1273     0    51     1    23
  2.5392596432029468E-02 a      1274     0    51     1    24
  1.9453328774702930E-01 a      1275     0    51     1    25
  1.3941467519702194E-01 a      1276     0    52     1     1
  1.1601608296605695E-01 a      1277     0    52     1     2
 -3.1498558015579614E-01 a      1278     0    52     1     3
  4.5137615128012579E-02 a      1279     0    52     1     4
  2.8774808786171019E-01 a      1280     0    52     1     5
  3.7743875172929153E-02 a      1281     0    52     1     6
  2.9528637230955784E-01 a      1282     0    52     1     7
  1.2280486180875311E-01 a      1283     0    52     1     8
  1.6088643848053280E-01 a      1284     0    52     1     9
 -1.4232739117952972E-01 a      1285     0    52     1    10
  1.6808956844336145E-01 a      1286     0    52     1    11
  1.5417348015008911E-01 a      1287     0    52     1    12
  1.6026161180048765E-01 a      1288     0    52     1    13
  2.9653069640096241E-02 a      1289     0    52     1    14
 -2.1977721491211902E-01 a      1290     0    52     1    15
  4.7660188128393378E-02 a      1291     0    52     1    16
 -7.9180965535586248E-02 a      1292     0    52     1    17
 -3.5611400751319711E-01 a      1293     0    52     1    18
  3.1018423936643596E-02 a      1294     0    52     1    19
  6.1800212267551585E-02 a      1295     0    52     1    20
 -1.5958095094277691E-01 a      1296     0    52     1    21
  7.6547192554856841E-02 a      1297     0    52     1    22
 -1.6392360764407224E-01 a      1298     0    52     1    23
  2.0077088170798865E-01 a      1299     0    52     1    24
 -1.0738123228525524E-01 a      1300     0    52     1    25
  6.5617711132103962E-02 a      1301     0    53     1     1
 -2.3221369944526593E-01 a      1302     0    53     1     2
  1.2872436178709690E-01 a      1303     0    53     1     3
  4.7736572761430521E-02 a      1304     0    53     1     4
  3.9334691636415398E-02 a      1305     0    53     1     5
  7.2717247492863568E-02 a      1306     0    53     1     6
 -1.3513669073843732E-01 a      1307     0    53     1     7
 -1.7864070365286158E-02 a      1308     0    53     1     8
 -6.5073464192830735E-02 a      1309     0    53     1     9
 -2.3666916345752245E-01 a      1310     0    53     1    10
 -6.0968583905019864E-02 a      1311     0    53     1    11
 -5.8822423429553530E-02 a      1312     0    53     1    12
  5.3566521436437677E-02 a      1313     0    53     1    13
  2.6639344284400422E-02 a      1314     0    53     1    14
  3.5126378224695838E-02 a      1315     0    53     1    15
  2.3593104537361215E-03 a      1316     0    53     1    16
  7.8505606237777165E-02 a      1317     0    53     1    17
 -4.2295935496036850E-02 a      1318     0    53     1    18
 -4.7060086516454942E-02 a      1319     0    53     1    19
 -1.1574026215610825E-01 a      1320     0    53     1    20
  5.6839347183228153E-02 a      1321     0    53     1    21
 -4.2271392630045562E-02 a      1322     0    53     1    22
  5.5059276059385924E-02 a      1323     0    53     1    23
  5.6778937123129820E-02 a      1324     0    53     1    24
  4.4847848090576119E-02 a      1325     0    53     1    25
 -8.6252491810582518E-02 a      1326     0    54     1     1
 -5.8732892331701203E-02 a      1327     0    54     1     2
  3.0997285186382187E-02 a      1328     0    54     1     3
  3.0923066230316366E-02 a      1329     0    54     1     4
 -1.5850317232652661E-01 a      1330     0    54     1     5
 -1.0545453163204214E-01 a      1331     0    54     1     6
  8.6362578623452035E-03 a      1332     0    54     1     7
 -4.2104627722813169E-02 a      1333     0    54     1     8
 -6.4639340789054756E-02 a      1334     0    54     1     9
  3.5157049271584473E-01 a      1335     0    54     1    10
 -1.9556156782267655E-02 a      1336     0    54     1    11
  1.5208982423221182E-01 a      1337     0    54     1    12
 -2.0042073933287868E-01 a      1338     0    54     1    13
 -9.2006349789172173E-02 a      1339     0    54     1    14
 -1.7444829711132956E-01 a      1340     0    54     1    15
 -1.3803722072800875E-01 a      1341     0    54     1    16
 -7.0399211222065244E-02 a      1342     0    54     1    17
  1.3518206809337049E-01 a      1343     0    54     1    18
  9.5458968188954357E-02 a      1344     0    54     1    19
  5.0304874842009182E-03 a      1345     0    54     1    20
  1.3224668331038059E-01 a      1346     0    54     1    21
  1.9571456551705505E-02 a      1347     0    54     1    22
 -5.3426025620370896E-02 a      1348     0    54     1    23
 -4.5783292220953134E-03 a      1349     0    54     1    24
 -3.7751207967411896E-02 a      1350     0    54     1    25
  1.1034355997346605E-01 a      1351     0    55     1     1
  1.0100085193480546E-01 a      1352     0    55     1     2
  6.3924112231249483E-02 a      1353     0    55     1     3
 -2.2499934552676132E-01 a      1354     0    55     1     4
  1.4026166309973440E-01 a      1355     0    55     1     5
 -1.1626302541000134E-01 a      1356     0    55     1     6
 -5.1927637762644641E-02 a      1357     0    55     1     7
 -2.3189036951336939E-01 a      1358     0    55     1     8
 -1.8047596087067089E-02 a      1359     0    55     1     9
  1.8684815748104228E-01 a      1360     0    55     1    10
  2.9534756631364126E-03 a      1361     0    55     1    11
  2.7033189178943134E-01 a      1362     0    55     1    12
  1.9703981924716554E-01 a      1363     0    55     1    13
  1.1206726041826491E-01 a      1364     0    55     1    14
 -1.4729676737216416E-01 a      1365     0    55     1    15
 -2.8932979674019959E-02 a      1366     0    55     1    16
 -1.8115923997653208E-03 a      1367     0    55     1    17
  6.0841544356277595E-02 a      1368     0    55     1    18
  6.2995917274003499E-02 a      1369     0    55     1    19
 -4.2982579693595473E-02 a      1370     0    55     1    20
  6.6736742131564636E-02 a      1371     0    55     1    21
  1.5185665303048185E-01 a      1372     0    55     1    22
  5.9798197681994701E-02 a      1373     0    55     1    23
  7.0142749082081415E-02 a      1374     0    55     1    24
 -8.3149247750862899E-03 a      1375     0    55     1    25
 -9.3742304111126121E-02 a      1376     0    56     1     1
  1.2163264882019119E-01 a      1377     0    56     1     2
 -7.9853843680792916E-02 a      1378     0    56     1     3
  9.4019243828547816E-02 a      1379     0    56     1     4
 -6.5817032407251910E-02 a      1380     0    56     1     5
  2.0796076658677689E-02 a      1381     0    56     1     6
  2.7427314770548428E-01 a      1382     0    56     1     7
 -2.5731682161061920E-01 a      1383     0    56     1     8
  1.2132741731353418E-01 a      1384     0    56     1     9
  1.1552784619184092E-01 a      1385     0    56     1    10
 -9.7139102440980701E-02 a      1386     0    56     1    11
 -6.0998952953006981E-02 a      1387     0    56     1    12
  7.2047010543634063E-02 a      1388     0    56     1    13
 -4.9026679642513414E-02 a      1389     0    56     1    14
  1.4606883430029766E-01 a      1390     0    56     1    15
  8.7548135886470653E-03 a      1391     0    56     1    16
 -1.6906419375338291E-02 a      1392     0    56     1    17
  1.3337581619002378E-02 a      1393     0    56     1    18
 -9.1175097016031742E-02 a      1394     0    56     1    19
  1.7592623778821376E-01 a      1395     0    56     1    20
 -1.5968665901092774E-01 a      1396     0    56     1    21
 -3.1273243819875968E-01 a      1397     0    56     1    22
 -3.6461135393399471E-02 a      1398     0    56     1    23
  6.2853269656717420E-02 a      1399     0    56     1    24
  1.7343009135413640E-01 a      1400     0    56     1    25
  3.2521832327080349E-02 a      1401     0    57     1     1
  4.3695393076731662E-02 a      1402     0    57     1     2
  1.8497918144589209E-01 a      1403     0    57     1     3
  3.0002997527919850E-01 a      1404     0    57     1     4
  1.4288528105660522E-01 a      1405     0    57     1     5
 -3.7380826687366933E-02 a      1406     0    57     1     6
 -1.6633681424014404E-01 a      1407     0    57     1     7
 -5.8303660970463545E-03 a      1408     0    57     1     8
 -3.2184066669398784E-02 a      1409     0    57     1     9
  7.4052847854511147E-02 a      1410     0    57     1    10
 -1.1551583877113149E-01 a      1411     0    57     1    11
 -2.8907017135122465E-02 a      1412     0    57     1    12
 -9.1349423480597033E-02 a      1413     0    57     1    13
 -5.8787983393601605E-02 a      1414     0    57     1    14
 -2.5184512032737333E-01 a      1415     0    57     1    15
  7.8666048952427473E-03 a      1416     0    57     1    16
  8.8159610397179261E-02 a      1417     0    57     1    17
  8.7770659375135132E-02 a      1418     0    57     1    18
 -2.4203813557171522E-01 a      1419     0    57     1    19
  2.0771826398606748E-02 a      1420     0    57     1    20
 -3.8091313123781616E-04 a      1421     0    57     1    21
  4.0295663629017271E-02 a      1422     0    57     1    22
 -4.8340085111519611E-02 a      1423     0    57     1    23
  9.2792363009063766E-02 a      1424     0    57     1    24
  5.6796201956941079E-02 a      1425     0    57     1    25
  6.2416650921660800E-02 a      1426     0    58     1     1
 -7.9886093341773975E-02 a      1427     0    58     1     2
  2.1631267980912271E-02 a      1428     0    58     1     3
  2.9332720293464041E-02 a      1429     0    58     1     4
  2.1621839772024964E-01 a      1430     0    58     1     5
 -6.9028181873096561E-02 a      1431     0    58     1     6
  9.7812486624848285E-03 a      1432     0    58     1     7
 -1.1027562848695846E-01 a      1433     0    58     1     8
  1.3396609236507245E-01 a      1434     0    58     1     9
  2.5152086861197037E-01 a      1435     0    58     1    10
  1.2995500539404178E-01 a      1436     0    58     1    11
  6.9694108127166463E-03 a      1437     0    58     1    12
 -5.6774398276582864E-02 a      1438     0    58     1    13
  1.6163777146633768E-02 a      1439     0    58     1    14
 -3.6796494646467059E-02 a      1440     0    58     1    15
 -2.5295132198708660E-03 a      1441     0    58     1    16
  1.2880219067090781E-01 a      1442     0    58     1    17
  1.1226806549514375E-01 a      1443     0    58     1    18
  1.8079358533082943E-01 a      1444     0    58     1    19
 -3.1284952257971754E-01 a      1445     0    58     1    20
  1.8468954685867980E-01 a      1446     0    58     1    21
 -1.2271244453633802E-01 a      1447     0    58     1    22
 -2.9552036937291325E-02 a      1448     0    58     1    23
 -5.5632986081004671E-02 a      1449     0    58     1    24
  1.7631911137189815E-01 a      1450     0    58     1    25
 -3.4504822787157284E-03 a      1451     0    59     1     1
  1.3603927099450547E-01 a      1452     0    59     1     2
  1.2874245795439726E-01 a      1453     0    59     1     3
 -9.5137974549922687E-03 a      1454     0    59     1     4
 -1.6683084398296594E-01 a      1455     0    59     1     5
  1.1895401873437990E-01 a      1456     0    59     1     6
  1.6165303453637458E-01 a      1457     0    59     1     7
  1.1725886285447130E-01 a      1458     0    59     1     8
 -4.9712820711332290E-02 a      1459     0    59     1     9
 -2.0198945955351366E-01 a      1460     0    59     1    10
 -2.0474100677217544E-01 a      1461     0    59     1    11
  2.2530647869628184E-01 a      1462     0    59     1    12
  1.6436177477531910E-02 a      1463     0    59     1    13
  7.2694824617983655E-02 a      1464     0    59     1    14
  2.4871287289808877E-01 a      1465     0    59     1    15
  2.6807816192566010E-03 a      1466     0    59     1    16
 -7.3570242549793344E-02 a      1467     0    59     1    17
 -2.5081462493221851E-02 a      1468     0    59     1    18
 -2.0434289523785740E-01 a      1469     0    59     1    19
  1.1846293746330316E-01 a      1470     0    59     1    20
  1.2043769222398483E-02 a      1471     0    59     1    21
  1.9954868156179726E-02 a      1472     0    59     1    22
  8.9525809431605238E-04 a      1473     0    59     1    23
 -1.1670337305571669E-01 a      1474     0    59     1    24
 -1.7429624670964866E-01 a      1475     0    59     1    25
 -1.0793670017498178E-01 a      1476     0    60     1     1
 -1.6942785149472706E-01 a      1477     0    60     1     2
 -1.2448961968461228E-01 a      1478     0    60     1     3
  1.2703907742882961E-01 a      1479     0    60     1     4
  1.4008339976388270E-02 a      1480     0    60     1     5
  8.5604874243259091E-02 a      1481     0    60     1     6
  2.5461963589587150E-01 a      1482     0    60     1     7
 -6.2233778294039255E-02 a      1483     0    60     1     8
  6.0814545657419367E-02 a      1484     0    60     1     9
 -1.9522740975781942E-02 a      1485     0    60     1    10
  1.2945918182871852E-01 a      1486     0    60     1    11
  1.2907935447826502E-01 a      1487     0    60     1    12
 -8.5907383753372160E-02 a      1488     0    60     1    13
  1.5167359986808726E-01 a      1489     0    60     1    14
  1.3514889142328462E-01 a      1490     0    60     1    15
  8.1387054229517378E-02 a      1491     0    60     1    16
  1.7219827682423836E-01 a      1492     0    60     1    17
  8.9753330116412011E-02 a      1493     0    60     1    18
  4.6926300482767573E-02 a      1494     0    60     1    19
 -1.1725683871080290E-01 a      1495     0    60     1    20
 -1.0082479674434469E-01 a      1496     0    60     1    21
 -1.3575956546363990E-01 a      1497     0    60     1    22
 -5.4393259322813782E-02 a      1498     0    60     1    23
  1.1374126507948715E-01 a      1499     0    60     1    24
  9.5490171523464201E-02 a      1500     0    60     1    25
 -1.1915136435252127E-01 a      1501     0    61     1     1
 -1.0493111731453642E-01 a      1502     0    61     1     2
  8.7502887197708629E-02 a      1503     0    61     1     3
 -2.1265931700007407E-01 a      1504     0    61     1     4
 -4.4505713694235095E-02 a      1505     0    61     1     5
  2.5442911603538398E-02 a      1506     0    61     1     6
 -2.9221420931953793E-02 a      1507     0    61     1     7
  9.7260926733633713E-04 a      1508     0    61     1     8
 -9.1317921854269721E-02 a      1509     0    61     1     9
  4.1516119754110355E-02 a      1510     0    61     1    10
 -3.8485480343687289E-02 a      1511     0    61     1    11
  6.9036302576547665E-02 a      1512     0    61     1    12
 -3.3583694696845706E-01 a      1513     0    61     1    13
  1.0206922084581625E-01 a      1514     0    61     1    14
 -2.3182683851302766E-01 a      1515     0    61     1    15
 -5.7442541364183856E-02 a      1516     0    61     1    16
 -4.4750472200080396E-02 a      1517     0    61     1    17
 -4.0630302412220168E-02 a      1518     0    61     1    18
  4.8778294116978017E-02 a      1519     0    61     1    19
  1.3485501705893574E-01 a      1520     0    61     1    20
 -6.6699822089940713E-02 a      1521     0    61     1    21
  1.3830319794110035E-01 a      1522     0    61     1    22
  5.6673386620996892E-02 a      1523     0    61     1    23
 -4.6956198397383256E-02 a      1524     0    61     1    24
 -4.2905742372413590E-02 a      1525     0    61     1    25
  7.5271925140304799E-02 a      1526     0    62     1     1
  7.4725810967350176E-02 a      1527     0    62     1     2
  7.4331088842025855E-02 a      1528     0    62     1     3
  2.5609044345440368E-01 a      1529     0    62     1     4
 -1.0521751888830984E-01 a      1530     0    62     1     5
  1.0525500086794991E-01 a      1531     0    62     1     6
 -1.7670865214946965E-01 a      1532     0    62     1     7
 -3.4018640836190030E-02 a      1533     0    62     1     8
 -4.4810591269497498E-02 a      1534     0    62     1     9
 -3.0288352505043337E-01 a      1535     0    62     1    10
  5.3848833317783527E-02 a      1536     0    62     1    11
 -2.0170527107021899E-02 a      1537     0    62     1    12
 -6.4736178410119818E-02 a      1538     0    62     1    13
  1.9838087768766423E-02 a      1539     0    62     1    14
 -4.5660940053823360E-02 a      1540     0    62     1    15
 -4.4854085688091627E-02 a      1541     0    62     1    16
  3.8025220156208135E-02 a      1542     0    62     1    17
  1.6962674084046081E-01 a      1543     0    62     1    18
 -1.8756691732701131E-01 a      1544     0    62     1    19
 -7.8836092946757363E-02 a      1545     0    62     1    20
  6.2355564948924219E-02 a      1546     0    62     1    21
 -1.3135638643555653E-01 a      1547     0    62     1    22
 -2.9971326726143794E-02 a      1548     0    62     1    23
  6.3671373981645199E-02 a      1549     0    62     1    24
 -1.3224705567014688E-02 a      1550     0    62     1    25
  3.8220917093737219E-02 a      1551     0    63     1     1
  1.5641377867795691E-02 a      1552     0    63     1     2
 -2.5888752554528240E-02 a      1553     0    63     1     3
  4.5379667260456592E-02 a      1554     0    63     1     4
 -9.2739843561914698E-02 a      1555     0    63     1     5
 -1.5220791670853553E-01 a      1556     0    63     1     6
  3.4697540512968604E-02 a      1557     0    63     1     7
  3.1428156502086572E-02 a      1558     0    63     1     8
 -5.8895308559654752E-03 a      1559     0    63     1     9
  9.5921023353243595E-02 a      1560     0    63     1    10
 -8.5912558901108278E-03 a      1561     0    63     1    11
 -1.3015422129773521E-01 a      1562     0    63     1    12
  1.8165643620566399E-01 a      1563     0    63     1    13
  6.3129950227956852E-02 a      1564     0    63     1    14
 -4.7077229306981784E-03 a      1565     0    63     1    15
 -4.9339228309398873E-02 a      1566     0    63     1    16
 -7.8800679916388450E-03 a      1567     0    63     1    17
  2.2207145784629210E-02 a      1568     0    63     1    18
 -1.0789015702144942E-02 a      1569     0    63     1    19
  8.7847289502355153E-02 a      1570     0    63     1    20
 -2.9893035922321169E-02 a      1571     0    63     1    21
 -1.2155461094081205E-01 a      1572     0    63     1    22
 -1.8660818584625899E-02 a      1573     0    63     1    23
  2.3992931798972335E-02 a      1574     0    63     1    24
 -1.5498095239566892E-02 a      1575     0    63     1    25
  2.3504618528210572E-01 a      1576     0    64     1     1
  1.4664756825414887E-01 a      1577     0    64     1     2
  7.7253801015296789E-02 a      1578     0    64     1     3
 -1.6870727731767507E-01 a      1579     0    64     1     4
 -1.1048841515097860E-01 a      1580     0    64     1     5
 -1.8029445743740918E-01 a      1581     0    64     1     6
  9.0925614775689584E-02 a      1582     0    64     1     7
 -2.5055634373796751E-02 a      1583     0    64     1     8
 -3.7294840775290827E-02 a      1584     0    64     1     9
  7.5744165463064988E-03 a      1585     0    64     1    10
 -2.9891607816056463E-02 a      1586     0    64     1    11
  2.3286197102744516E-01 a      1587     0    64     1    12
 -1.0473304156704068E-01 a      1588     0    64     1    13
  5.5577993542572895E-02 a      1589     0    64     1    14
  1.2710953492192721E-02 a      1590     0    64     1    15
 -1.0996452244028060E-01 a      1591     0    64     1    16
  6.1675485051779153E-02 a      1592     0    64     1    17
  4.8788031419990142E-02 a      1593     0    64     1    18
  1.4696742333243867E-01 a      1594     0    64     1    19
  1.0901860027371733E-01 a      1595     0    64     1    20
  2.4062257790884037E-03 a      1596     0    64     1    21
 -1.1178094389532797E-01 a      1597     0    64     1    22
  4.2385773040357656E-02 a      1598     0    64     1    23
  2.8112869196369687E-02 a      1599     0    64     1    24
 -1.7180543526414838E-02 a      1600     0    64     1    25
 -2.1394163290461721E-02 a      1601     0    65     1     1
  2.7007030691529366E-01 a      1602     0    65     1     2
 -2.0146339651132467E-01 a      1603     0    65     1     3
  5.5631319574058355E-02 a      1604     0    65     1     4
 -2.7714347168913311E-02 a      1605     0    65     1     5
 -1.7659577434033166E-02 a      1606     0    65     1     6
  1.1383908909309647E-02 a      1607     0    65     1     7
  2.1619623567180810E-02 a      1608     0    65     1     8
 -6.9473620537907885E-02 a      1609     0    65     1     9
  9.3587802988999533E-02 a      1610     0    65     1    10
  3.6904873498077154E-02 a      1611     0    65     1    11
  1.1048957519921354E-01 a      1612     0    65     1    12
 -1.3288425193161967E-02 a      1613     0    65     1    13
 -4.2281128907923772E-02 a      1614     0    65     1    14
 -6.8439046364489720E-02 a      1615     0    65     1    15
  1.1624289532211103E-01 a      1616     0    65     1    16
 -8.8539276939108656E-03 a      1617     0    65     1    17
 -1.7841668328249438E-01 a      1618     0    65     1    18
  1.5395515521371725E-01 a      1619     0    65     1    19
  1.1066117449146066E-01 a      1620     0    65     1    20
 -3.5961500377279465E-02 a      1621     0    65     1    21
  4.1791486098862136E-02 a      1622     0    65     1    22
  3.0982674051956986E-02 a      1623     0    65     1    23
