################################################################################
# Neural network connection values (weights and biases).
################################################################################
# Col  Name       Description
################################################################################
# 1    connection Neural network connection value.
# 2    t          Connection type (a = weight, b = bias).
# 3    index      Index enumerating weights.
# 4    l_s        Starting point layer (end point layer for biases).
# 5    n_s        Starting point neuron in starting layer (end point neuron for biases).
# 6    l_e        End point layer.
# 7    n_e        End point neuron in end layer.
################################################################################
#                      1 2         3     4     5     6     7
#             connection t     index   l_s   n_s   l_e   n_e
############################################################
  3.6914936635314206E-02 a         1     0     1     1     1
 -5.1982205044207412E-02 a         2     0     1     1     2
 -1.2384511826709797E-01 a         3     0     1     1     3
 -1.8179869229095239E-01 a         4     0     1     1     4
  5.0804669174198715E-02 a         5     0     1     1     5
  3.7318693878697995E-01 a         6     0     1     1     6
 -2.5518851048423508E-01 a         7     0     1     1     7
  1.5211774196663158E-01 a         8     0     1     1     8
  4.1907869613125148E-01 a         9     0     1     1     9
 -1.9723780894593510E-02 a        10     0     1     1    10
 -3.0409373472788114E-02 a        11     0     1     1    11
 -1.1056944306167463E-01 a        12     0     1     1    12
  4.3832703909139924E-02 a        13     0     1     1    13
 -2.8825919054384069E-03 a        14     0     1     1    14
 -2.9390578132559836E-01 a        15     0     1     1    15
  4.7415720071510237E-02 a        16     0     1     1    16
 -1.6651137004300143E-01 a        17     0     1     1    17
 -2.1953931502774623E-02 a        18     0     1     1    18
 -1.0121092412107109E-01 a        19     0     1     1    19
  2.0975429409469136E-02 a        20     0     1     1    20
  7.7499635930248084E-02 a        21     0     1     1    21
  1.2873301735935422E-01 a        22     0     1     1    22
 -6.4863278091734811E-02 a        23     0     1     1    23
  6.0530869538273080E-02 a        24     0     1     1    24
  3.6658009615342955E-02 a        25     0     1     1    25
 -7.7983374547768131E-02 a        26     0     2     1     1
 -1.8968173447039011E-01 a        27     0     2     1     2
  1.8933458796821440E-01 a        28     0     2     1     3
  3.8003078736908377E-02 a        29     0     2     1     4
 -2.3124035685605773E-01 a        30     0     2     1     5
  1.2418404032938912E-01 a        31     0     2     1     6
  1.0397893574548463E-02 a        32     0     2     1     7
 -7.5638492782336850E-02 a        33     0     2     1     8
 -4.1832944066232412E-02 a        34     0     2     1     9
 -1.6641633973119324E-01 a        35     0     2     1    10
 -3.8908913020733626E-02 a        36     0     2     1    11
 -2.0454104681468582E-01 a        37     0     2     1    12
 -7.9333801054797884E-02 a        38     0     2     1    13
 -2.7603894331802342E-01 a        39     0     2     1    14
  2.3799267474081953E-01 a        40     0     2     1    15
 -1.4329305528129685E-02 a        41     0     2     1    16
  3.3987217714039863E-01 a        42     0     2     1    17
  2.9315779823472925E-02 a        43     0     2     1    18
  4.6661903266719554E-02 a        44     0     2     1    19
 -6.7067966965545872E-02 a        45     0     2     1    20
  1.1865110164274375E-02 a        46     0     2     1    21
  1.4629865897927613E-01 a        47     0     2     1    22
 -1.0044449185072143E-01 a        48     0     2     1    23
  4.4045318792634040E-03 a        49     0     2     1    24
  1.8206954601751792E-02 a        50     0     2     1    25
  1.2224199547977313E-01 a        51     0     3     1     1
 -1.8670641465224092E-01 a        52     0     3     1     2
 -9.6798747600658167E-02 a        53     0     3     1     3
  2.5831896308278628E-02 a        54     0     3     1     4
  1.5293373840736514E-02 a        55     0     3     1     5
  1.9192239228068328E-02 a        56     0     3     1     6
  5.2292727354142546E-02 a        57     0     3     1     7
  1.2924518689350023E-01 a        58     0     3     1     8
  3.7030341176237921E-02 a        59     0     3     1     9
  4.3948833336219012E-01 a        60     0     3     1    10
  1.8910668451848869E-01 a        61     0     3     1    11
  7.7381589696567291E-02 a        62     0     3     1    12
  1.1623783721899933E-01 a        63     0     3     1    13
  3.5351398959846060E-03 a        64     0     3     1    14
 -2.4195599573178811E-01 a        65     0     3     1    15
 -1.9566007960365364E-01 a        66     0     3     1    16
  9.0343511257938228E-02 a        67     0     3     1    17
  5.0480445702929623E-02 a        68     0     3     1    18
 -8.5956804271829890E-02 a        69     0     3     1    19
 -5.1608295027256161E-02 a        70     0     3     1    20
  2.0434863468867340E-01 a        71     0     3     1    21
  7.0368787290749718E-02 a        72     0     3     1    22
 -4.3421020678799258E-02 a        73     0     3     1    23
 -8.6596526277464159E-03 a        74     0     3     1    24
  1.5555651980903770E-01 a        75     0     3     1    25
 -1.8472988692873715E-01 a        76     0     4     1     1
  1.6009519011041026E-01 a        77     0     4     1     2
  2.0747014774277153E-01 a        78     0     4     1     3
 -6.2578841443704125E-02 a        79     0     4     1     4
 -1.3434627373102523E-01 a        80     0     4     1     5
  7.5647661996033261E-02 a        81     0     4     1     6
 -2.5448484118412074E-01 a        82     0     4     1     7
  7.4383362506313866E-03 a        83     0     4     1     8
  1.4413002545853354E-01 a        84     0     4     1     9
 -4.6008874250406213E-03 a        85     0     4     1    10
 -2.2201790838079188E-02 a        86     0     4     1    11
  1.5858965022281316E-01 a        87     0     4     1    12
 -7.3265799266246157E-02 a        88     0     4     1    13
  1.0764979862110528E-01 a        89     0     4     1    14
 -1.4566246869460506E-01 a        90     0     4     1    15
 -1.8491627347667089E-01 a        91     0     4     1    16
  1.1717883307491302E-01 a        92     0     4     1    17
 -1.9009415428057352E-01 a        93     0     4     1    18
  2.2200836263564680E-01 a        94     0     4     1    19
 -1.3847227554983996E-01 a        95     0     4     1    20
 -1.3690182943136234E-01 a        96     0     4     1    21
 -3.2520488490685390E-01 a        97     0     4     1    22
  3.9813876010257661E-02 a        98     0     4     1    23
  1.1747170874934215E-01 a        99     0     4     1    24
 -9.4100960980328399E-02 a       100     0     4     1    25
  9.0686436993332634E-02 a       101     0     5     1     1
 -1.3784467597286348E-01 a       102     0     5     1     2
  2.8485726777387033E-01 a       103     0     5     1     3
  5.9677193033014758E-03 a       104     0     5     1     4
  1.8561043333061791E-01 a       105     0     5     1     5
  3.2862257789259158E-01 a       106     0     5     1     6
  1.0465565257986097E-01 a       107     0     5     1     7
 -4.7697134044874086E-02 a       108     0     5     1     8
 -3.4726480606152410E-02 a       109     0     5     1     9
 -5.0353270387046560E-02 a       110     0     5     1    10
 -2.1261312005062705E-01 a       111     0     5     1    11
  6.2131396120222768E-02 a       112     0     5     1    12
  6.8813374977141573E-02 a       113     0     5     1    13
 -3.1200356824525943E-02 a       114     0     5     1    14
  3.5827086009119291E-01 a       115     0     5     1    15
 -7.7650358750949527E-02 a       116     0     5     1    16
  2.4970208082298138E-02 a       117     0     5     1    17
 -2.0313682881910333E-01 a       118     0     5     1    18
 -3.7995915766651643E-02 a       119     0     5     1    19
  3.4764305706563287E-01 a       120     0     5     1    20
  1.2731472350219836E-01 a       121     0     5     1    21
 -1.6433174593540448E-02 a       122     0     5     1    22
  3.2997620669946187E-02 a       123     0     5     1    23
  3.7447669423993760E-02 a       124     0     5     1    24
 -1.2496357124185628E-01 a       125     0     5     1    25
  2.3976651366489818E-01 a       126     0     6     1     1
  2.4271622998216742E-02 a       127     0     6     1     2
 -3.6999375714831945E-02 a       128     0     6     1     3
 -1.1824599898998304E-01 a       129     0     6     1     4
  9.1625505411060921E-05 a       130     0     6     1     5
  7.4396410556081288E-02 a       131     0     6     1     6
  1.5319429990189684E-02 a       132     0     6     1     7
  1.5700896818661442E-01 a       133     0     6     1     8
  1.3315577731401945E-01 a       134     0     6     1     9
  1.6121112515737022E-02 a       135     0     6     1    10
  2.5273268980801250E-01 a       136     0     6     1    11
  1.0369545058051713E-01 a       137     0     6     1    12
  1.7569642216291462E-01 a       138     0     6     1    13
 -2.9331061475896612E-02 a       139     0     6     1    14
  2.3625150826816085E-01 a       140     0     6     1    15
 -6.7111833253611858E-03 a       141     0     6     1    16
  2.3848310323981473E-01 a       142     0     6     1    17
 -9.8382551496317361E-02 a       143     0     6     1    18
  1.2036823029476762E-01 a       144     0     6     1    19
  8.4867256823330767E-02 a       145     0     6     1    20
 -1.0408422437800861E-01 a       146     0     6     1    21
 -1.5353285525847282E-01 a       147     0     6     1    22
 -1.3553214333207897E-01 a       148     0     6     1    23
  2.2718515078105486E-01 a       149     0     6     1    24
 -2.4572946269727666E-01 a       150     0     6     1    25
 -2.1928915072865443E-01 a       151     0     7     1     1
  1.0224418048173085E-01 a       152     0     7     1     2
  1.3174709612133795E-01 a       153     0     7     1     3
  1.2319901920133509E-01 a       154     0     7     1     4
 -7.2522992912816386E-02 a       155     0     7     1     5
  1.3638524371161123E-01 a       156     0     7     1     6
  5.5453190105376152E-02 a       157     0     7     1     7
  1.7328047529396334E-01 a       158     0     7     1     8
 -1.6363167489953395E-01 a       159     0     7     1     9
 -7.6819526165248092E-02 a       160     0     7     1    10
  2.0951917365257083E-01 a       161     0     7     1    11
 -2.2105778697988232E-01 a       162     0     7     1    12
 -3.0711490900215244E-01 a       163     0     7     1    13
  6.8305390769130420E-02 a       164     0     7     1    14
 -5.4917912741469843E-02 a       165     0     7     1    15
  9.3505277863607350E-02 a       166     0     7     1    16
  1.1238163653410236E-02 a       167     0     7     1    17
 -1.2159455552113813E-01 a       168     0     7     1    18
 -6.1445855478459092E-02 a       169     0     7     1    19
  1.5045162250637652E-02 a       170     0     7     1    20
 -1.6541833488306298E-01 a       171     0     7     1    21
 -1.1306313764614205E-01 a       172     0     7     1    22
  1.1981344962050129E-01 a       173     0     7     1    23
  2.1871798370276925E-02 a       174     0     7     1    24
  1.9526301786757277E-02 a       175     0     7     1    25
 -1.3659362821895860E-01 a       176     0     8     1     1
 -1.3055235084585354E-02 a       177     0     8     1     2
 -8.7021335317899406E-02 a       178     0     8     1     3
 -1.7245926540493079E-02 a       179     0     8     1     4
 -1.7464133457303510E-01 a       180     0     8     1     5
  1.1390362583728299E-01 a       181     0     8     1     6
  2.6167855739028772E-01 a       182     0     8     1     7
  9.8333278771110325E-02 a       183     0     8     1     8
 -1.3090112984920826E-01 a       184     0     8     1     9
 -1.9894582775964878E-01 a       185     0     8     1    10
 -9.2847998896886816E-02 a       186     0     8     1    11
  1.0303016616526468E-01 a       187     0     8     1    12
  7.0359178235309017E-02 a       188     0     8     1    13
  2.7098876140589262E-01 a       189     0     8     1    14
  1.1287793211108664E-01 a       190     0     8     1    15
 -1.6107818470765461E-01 a       191     0     8     1    16
  1.5786001052035165E-01 a       192     0     8     1    17
  6.7493557753506295E-02 a       193     0     8     1    18
  1.6276474674366440E-01 a       194     0     8     1    19
  6.5294755035310834E-02 a       195     0     8     1    20
 -5.0649740541850334E-02 a       196     0     8     1    21
  1.4234843087983526E-01 a       197     0     8     1    22
 -3.1752995232702141E-02 a       198     0     8     1    23
  8.6517415206968373E-02 a       199     0     8     1    24
  1.0457922703640107E-01 a       200     0     8     1    25
  2.4893382984606183E-01 a       201     0     9     1     1
 -4.0699757115972141E-01 a       202     0     9     1     2
  1.5679869060746893E-01 a       203     0     9     1     3
 -3.5808931222260504E-01 a       204     0     9     1     4
  4.2879795088072886E-01 a       205     0     9     1     5
 -2.0075555334877021E-01 a       206     0     9     1     6
 -1.4728250517828462E-01 a       207     0     9     1     7
 -6.1668882480752585E-02 a       208     0     9     1     8
 -4.5488203244232334E-02 a       209     0     9     1     9
 -5.6996732273389632E-02 a       210     0     9     1    10
  4.5866148629485147E-02 a       211     0     9     1    11
  1.2331416843929544E-01 a       212     0     9     1    12
  3.8180645127892748E-01 a       213     0     9     1    13
 -4.8587682020994928E-03 a       214     0     9     1    14
 -8.3958763233860353E-02 a       215     0     9     1    15
  3.1930159544606221E-02 a       216     0     9     1    16
  2.8638609783531005E-01 a       217     0     9     1    17
 -1.3219239698130689E-01 a       218     0     9     1    18
 -3.1295378980491734E-01 a       219     0     9     1    19
  3.3457211790184332E-01 a       220     0     9     1    20
  7.8001427036090573E-02 a       221     0     9     1    21
 -2.0958087349995810E-01 a       222     0     9     1    22
  3.3209873920145677E-01 a       223     0     9     1    23
 -5.1133055985881047E-03 a       224     0     9     1    24
  1.8586054697478932E-01 a       225     0     9     1    25
 -2.8400048569571962E-01 a       226     0    10     1     1
 -2.0470025025867304E-02 a       227     0    10     1     2
  3.5951545515439130E-02 a       228     0    10     1     3
  2.4542820160212556E-01 a       229     0    10     1     4
 -3.6327790124309367E-01 a       230     0    10     1     5
 -1.5956074931524161E-01 a       231     0    10     1     6
 -8.8777687014405179E-02 a       232     0    10     1     7
 -5.2431970939521934E-02 a       233     0    10     1     8
 -1.0851053664446042E-01 a       234     0    10     1     9
  1.0619963072479063E-01 a       235     0    10     1    10
  1.3799678002636193E-01 a       236     0    10     1    11
  1.3347523253548471E-01 a       237     0    10     1    12
 -1.0916477249173506E-01 a       238     0    10     1    13
  1.6751000265534230E-01 a       239     0    10     1    14
 -1.8912981413275382E-01 a       240     0    10     1    15
  5.9872203274079126E-02 a       241     0    10     1    16
 -1.3478831788726695E-01 a       242     0    10     1    17
  1.1357831829376645E-01 a       243     0    10     1    18
  2.2821389291005745E-02 a       244     0    10     1    19
 -2.4690481104924744E-01 a       245     0    10     1    20
  7.4549777652829566E-02 a       246     0    10     1    21
  3.2798508647715798E-03 a       247     0    10     1    22
 -1.1566167342246080E-01 a       248     0    10     1    23
  5.7172496547525264E-02 a       249     0    10     1    24
  3.0846323823771091E-02 a       250     0    10     1    25
 -9.9654625955533319E-03 a       251     0    11     1     1
  6.2794712149190746E-02 a       252     0    11     1     2
  9.0560196080363732E-03 a       253     0    11     1     3
 -2.1009957803952439E-01 a       254     0    11     1     4
  2.0608493000267508E-01 a       255     0    11     1     5
  2.9318696277068546E-01 a       256     0    11     1     6
 -2.5625694273032174E-02 a       257     0    11     1     7
 -1.7660738669542198E-01 a       258     0    11     1     8
  1.0963419409128802E-02 a       259     0    11     1     9
 -4.7651021250601472E-02 a       260     0    11     1    10
 -1.1263343866044365E-01 a       261     0    11     1    11
  1.6501293099439093E-01 a       262     0    11     1    12
  2.6762284151016924E-01 a       263     0    11     1    13
  1.3007883140948026E-01 a       264     0    11     1    14
 -8.3858547412480527E-02 a       265     0    11     1    15
 -2.9896869776070384E-01 a       266     0    11     1    16
  3.4392406848941587E-01 a       267     0    11     1    17
  9.3304033260577873E-02 a       268     0    11     1    18
  1.1868606813753223E-01 a       269     0    11     1    19
  8.4305808973863847E-02 a       270     0    11     1    20
 -1.2674658427366606E-01 a       271     0    11     1    21
  2.4505861515228181E-01 a       272     0    11     1    22
  9.0391274352371362E-02 a       273     0    11     1    23
  4.0473694421704905E-02 a       274     0    11     1    24
  3.7769775887562035E-03 a       275     0    11     1    25
  2.3369950120897953E-01 a       276     0    12     1     1
 -1.0006571174254875E-01 a       277     0    12     1     2
 -2.2357612597045169E-02 a       278     0    12     1     3
 -7.0194885998080256E-02 a       279     0    12     1     4
 -5.5656385584248444E-02 a       280     0    12     1     5
  3.7977094806239237E-03 a       281     0    12     1     6
 -1.5937950826550218E-01 a       282     0    12     1     7
  9.8320051508955966E-02 a       283     0    12     1     8
  2.2064463633213044E-01 a       284     0    12     1     9
 -1.5607107267997439E-02 a       285     0    12     1    10
 -3.0491020471699515E-01 a       286     0    12     1    11
 -2.3199541054619188E-01 a       287     0    12     1    12
 -2.9152755292699800E-01 a       288     0    12     1    13
 -1.9284895245684641E-01 a       289     0    12     1    14
 -8.0498643702409861E-02 a       290     0    12     1    15
 -1.6603718946657570E-01 a       291     0    12     1    16
  9.3745289540250798E-02 a       292     0    12     1    17
 -8.1332584205623518E-02 a       293     0    12     1    18
  1.1873304469313772E-01 a       294     0    12     1    19
  2.7265158887466223E-01 a       295     0    12     1    20
 -2.2893336944643281E-01 a       296     0    12     1    21
  7.5428997232071776E-02 a       297     0    12     1    22
 -6.1911911741676706E-02 a       298     0    12     1    23
 -1.8545859115798927E-01 a       299     0    12     1    24
  7.4599542606942307E-02 a       300     0    12     1    25
  4.3009867256909071E-02 a       301     0    13     1     1
 -1.7109916892481888E-01 a       302     0    13     1     2
  1.9847294897643664E-01 a       303     0    13     1     3
 -7.4201897368505937E-02 a       304     0    13     1     4
  3.4419795820038201E-01 a       305     0    13     1     5
  3.5732090159337399E-02 a       306     0    13     1     6
  2.5622278445646240E-01 a       307     0    13     1     7
  1.7324606670165044E-01 a       308     0    13     1     8
  2.9489807412629598E-03 a       309     0    13     1     9
  1.4811083286829280E-01 a       310     0    13     1    10
 -1.1756329175539354E-01 a       311     0    13     1    11
 -1.3782522059124561E-01 a       312     0    13     1    12
  4.1215533198097121E-01 a       313     0    13     1    13
  1.0301404445384998E-01 a       314     0    13     1    14
  3.3244273237187910E-01 a       315     0    13     1    15
 -3.1037517768924483E-01 a       316     0    13     1    16
  1.0654304853840647E-01 a       317     0    13     1    17
 -8.1400778600195678E-02 a       318     0    13     1    18
  1.4984648748268679E-02 a       319     0    13     1    19
  2.5899545432949733E-01 a       320     0    13     1    20
  1.7361928041825947E-01 a       321     0    13     1    21
  2.1997091541900371E-01 a       322     0    13     1    22
  1.2401209410304354E-01 a       323     0    13     1    23
  4.7320172846837510E-02 a       324     0    13     1    24
 -6.7546879567194018E-02 a       325     0    13     1    25
  2.8005287033557941E-01 a       326     0    14     1     1
  2.0277602955774215E-01 a       327     0    14     1     2
  2.5909221763783358E-01 a       328     0    14     1     3
  7.7673289305082757E-02 a       329     0    14     1     4
 -4.2337611053921892E-01 a       330     0    14     1     5
 -4.2008118208901338E-02 a       331     0    14     1     6
  2.7587641854528552E-02 a       332     0    14     1     7
 -5.9279072220076987E-02 a       333     0    14     1     8
 -5.5366506582956838E-02 a       334     0    14     1     9
  1.0960498306354914E-01 a       335     0    14     1    10
 -8.8956209605933853E-02 a       336     0    14     1    11
 -1.2843098170685369E-01 a       337     0    14     1    12
 -2.2012252043057556E-01 a       338     0    14     1    13
 -1.1024463519941496E-01 a       339     0    14     1    14
 -3.5260694034604695E-01 a       340     0    14     1    15
 -2.0113390246296239E-01 a       341     0    14     1    16
  4.2070439387037507E-02 a       342     0    14     1    17
 -7.6742428070319668E-02 a       343     0    14     1    18
  1.6685307631003174E-01 a       344     0    14     1    19
 -1.5028419442728250E-01 a       345     0    14     1    20
  1.0836265116915383E-01 a       346     0    14     1    21
 -1.1043139342394480E-01 a       347     0    14     1    22
 -6.2067974971251544E-03 a       348     0    14     1    23
 -1.3270741842234909E-01 a       349     0    14     1    24
  6.3160034510531454E-02 a       350     0    14     1    25
  7.0418724262916996E-02 a       351     0    15     1     1
 -1.3618111058839849E-01 a       352     0    15     1     2
  1.0633656397156545E-01 a       353     0    15     1     3
  1.6118227103817226E-01 a       354     0    15     1     4
  1.5553204921816699E-01 a       355     0    15     1     5
 -1.1666765057103910E-01 a       356     0    15     1     6
  3.0054637321474903E-01 a       357     0    15     1     7
  1.2979247053184706E-01 a       358     0    15     1     8
  3.7522939481872276E-02 a       359     0    15     1     9
 -2.4555842243160633E-01 a       360     0    15     1    10
 -5.4087919737611331E-02 a       361     0    15     1    11
 -1.5434820859290266E-01 a       362     0    15     1    12
  2.5963677865967799E-01 a       363     0    15     1    13
  1.3723153524915080E-01 a       364     0    15     1    14
  6.0497627739019899E-02 a       365     0    15     1    15
 -2.1075685364274946E-01 a       366     0    15     1    16
  1.7008151736780330E-01 a       367     0    15     1    17
 -2.0225393964031316E-01 a       368     0    15     1    18
 -2.1818832009137543E-01 a       369     0    15     1    19
  1.4122470115731431E-01 a       370     0    15     1    20
  3.2699326170200671E-01 a       371     0    15     1    21
  5.8911200098805259E-02 a       372     0    15     1    22
  2.1020197949804620E-01 a       373     0    15     1    23
  1.0865938779393038E-01 a       374     0    15     1    24
  3.5576396148291368E-02 a       375     0    15     1    25
 -1.0510717256197616E-01 a       376     0    16     1     1
 -1.5436984427611661E-01 a       377     0    16     1     2
  6.2125569812083767E-02 a       378     0    16     1     3
  1.7313903607560796E-01 a       379     0    16     1     4
 -1.1709840770305310E-01 a       380     0    16     1     5
 -5.5787166550333146E-02 a       381     0    16     1     6
 -6.4687919326521043E-02 a       382     0    16     1     7
 -1.4667963526268621E-01 a       383     0    16     1     8
 -1.0761181002476425E-01 a       384     0    16     1     9
  1.2217512390322803E-01 a       385     0    16     1    10
 -2.9546934297497507E-01 a       386     0    16     1    11
  5.4132068385820749E-02 a       387     0    16     1    12
  8.0001320737650913E-02 a       388     0    16     1    13
  6.2922865671423984E-03 a       389     0    16     1    14
  2.1803018958459447E-01 a       390     0    16     1    15
  1.4362961658788279E-01 a       391     0    16     1    16
  1.3812317624083392E-02 a       392     0    16     1    17
 -1.0371106133134737E-01 a       393     0    16     1    18
 -1.3153622039558141E-01 a       394     0    16     1    19
 -9.8393200067695294E-02 a       395     0    16     1    20
  1.9913262737400445E-01 a       396     0    16     1    21
  1.1010167218989800E-01 a       397     0    16     1    22
 -1.2509673839647836E-01 a       398     0    16     1    23
  5.9340289659533280E-02 a       399     0    16     1    24
 -1.9070300600421422E-01 a       400     0    16     1    25
  3.7210968478644724E-01 a       401     0    17     1     1
  2.3051170587820708E-02 a       402     0    17     1     2
  5.7603089115709250E-01 a       403     0    17     1     3
 -4.3247407551805103E-02 a       404     0    17     1     4
  3.1344147401173872E-01 a       405     0    17     1     5
 -2.1816454850710931E-01 a       406     0    17     1     6
  5.1271326123896299E-01 a       407     0    17     1     7
 -1.1332076117984430E-01 a       408     0    17     1     8
 -3.1006868980667707E-01 a       409     0    17     1     9
 -1.7672247529729598E-01 a       410     0    17     1    10
 -2.3508807089355141E-02 a       411     0    17     1    11
 -7.2984953020659341E-02 a       412     0    17     1    12
  3.5975287969261377E-01 a       413     0    17     1    13
 -1.9629462763663014E-01 a       414     0    17     1    14
  4.2925752481289592E-01 a       415     0    17     1    15
 -4.4617526051476408E-01 a       416     0    17     1    16
  3.0020640564021633E-01 a       417     0    17     1    17
  1.2798352317226305E-01 a       418     0    17     1    18
 -1.1427180819459157E-01 a       419     0    17     1    19
  2.7626073433757625E-01 a       420     0    17     1    20
 -5.9059456943968358E-02 a       421     0    17     1    21
 -1.3740531867033183E-03 a       422     0    17     1    22
 -4.1899861370812204E-02 a       423     0    17     1    23
  1.2744375528350060E-01 a       424     0    17     1    24
  9.3307502451344376E-03 a       425     0    17     1    25
 -1.6847504565810770E-01 a       426     0    18     1     1
  4.7479072179680087E-02 a       427     0    18     1     2
  7.9717771191934503E-02 a       428     0    18     1     3
  1.6144951905527960E-01 a       429     0    18     1     4
  1.1058785714844836E-02 a       430     0    18     1     5
  8.9623937278110161E-02 a       431     0    18     1     6
 -1.6969043380582502E-01 a       432     0    18     1     7
  3.5148272002310799E-01 a       433     0    18     1     8
  3.8615142130042068E-01 a       434     0    18     1     9
  2.3106735808569365E-01 a       435     0    18     1    10
 -1.3508028809467201E-01 a       436     0    18     1    11
  2.6681386307411037E-01 a       437     0    18     1    12
 -2.2775564216785150E-02 a       438     0    18     1    13
  7.7936732952039456E-02 a       439     0    18     1    14
 -2.7897927519130772E-01 a       440     0    18     1    15
 -2.5842346243116726E-01 a       441     0    18     1    16
 -5.0461160395198004E-02 a       442     0    18     1    17
  1.6006170315041816E-02 a       443     0    18     1    18
  1.4088249074327458E-01 a       444     0    18     1    19
  9.9454631851249600E-02 a       445     0    18     1    20
 -6.0819377195738711E-02 a       446     0    18     1    21
 -2.2430801427378244E-01 a       447     0    18     1    22
  3.8002264963913263E-02 a       448     0    18     1    23
  1.6252118763004086E-01 a       449     0    18     1    24
 -7.0652759202235849E-02 a       450     0    18     1    25
 -4.8778155091313252E-02 a       451     0    19     1     1
 -5.1542251881221454E-02 a       452     0    19     1     2
  2.3505852273055966E-01 a       453     0    19     1     3
 -7.9560532909653897E-02 a       454     0    19     1     4
  2.1554417040981333E-01 a       455     0    19     1     5
 -1.4686224391329580E-01 a       456     0    19     1     6
  2.2321739564059159E-01 a       457     0    19     1     7
  7.7417683217586297E-02 a       458     0    19     1     8
 -3.2206125029091137E-01 a       459     0    19     1     9
  1.8858857574285201E-01 a       460     0    19     1    10
 -7.1367803540621375E-02 a       461     0    19     1    11
  1.4044581033260362E-01 a       462     0    19     1    12
  1.7045124743347617E-01 a       463     0    19     1    13
  2.9017598820578477E-01 a       464     0    19     1    14
  2.0009419190779071E-01 a       465     0    19     1    15
  5.9244849749653467E-02 a       466     0    19     1    16
  7.2853693203530759E-02 a       467     0    19     1    17
  3.5146898029457457E-01 a       468     0    19     1    18
 -2.0809656937935217E-01 a       469     0    19     1    19
  7.9549634513158524E-02 a       470     0    19     1    20
 -7.7133657305109890E-02 a       471     0    19     1    21
  1.4502701121604625E-01 a       472     0    19     1    22
  1.5305254806910229E-01 a       473     0    19     1    23
 -1.1916788111871307E-01 a       474     0    19     1    24
  7.3963894054940388E-02 a       475     0    19     1    25
 -5.4841486119448821E-02 a       476     0    20     1     1
  1.8086154837013549E-01 a       477     0    20     1     2
 -2.4384999068703739E-01 a       478     0    20     1     3
  5.2642117354823777E-02 a       479     0    20     1     4
  2.1320751311013073E-01 a       480     0    20     1     5
 -6.0938767441317522E-02 a       481     0    20     1     6
  5.5219594829126341E-02 a       482     0    20     1     7
  6.9968659377455736E-02 a       483     0    20     1     8
  3.0322306888423062E-01 a       484     0    20     1     9
 -1.1325878715791143E-01 a       485     0    20     1    10
  6.1716115388834994E-02 a       486     0    20     1    11
  2.3948882521530629E-02 a       487     0    20     1    12
  4.8245397712001398E-02 a       488     0    20     1    13
 -2.2663374674219547E-01 a       489     0    20     1    14
 -2.7209594851706165E-01 a       490     0    20     1    15
  1.4248657773530196E-01 a       491     0    20     1    16
 -7.9453723684533961E-02 a       492     0    20     1    17
  2.0853201713117794E-01 a       493     0    20     1    18
  1.4392324777761398E-01 a       494     0    20     1    19
 -2.5697105969598583E-01 a       495     0    20     1    20
 -3.8816659721783942E-02 a       496     0    20     1    21
 -8.2509908026285841E-02 a       497     0    20     1    22
 -1.4203307614454225E-01 a       498     0    20     1    23
 -1.6429093448902202E-02 a       499     0    20     1    24
  2.7853192818049810E-01 a       500     0    20     1    25
 -2.0567036196982763E-01 a       501     0    21     1     1
 -5.7603103426300512E-02 a       502     0    21     1     2
  5.5488042761412198E-02 a       503     0    21     1     3
  2.3262059434037211E-02 a       504     0    21     1     4
 -1.5961611886277119E-01 a       505     0    21     1     5
 -2.4811299716052401E-01 a       506     0    21     1     6
 -5.2632635371229232E-02 a       507     0    21     1     7
  1.0961108319214248E-02 a       508     0    21     1     8
 -1.2534991866107473E-01 a       509     0    21     1     9
  5.0730935115856204E-02 a       510     0    21     1    10
 -2.2560465550983658E-01 a       511     0    21     1    11
  2.5098045321307944E-01 a       512     0    21     1    12
  8.5071972003332511E-02 a       513     0    21     1    13
  9.5134497492334227E-02 a       514     0    21     1    14
 -1.1374726017396983E-01 a       515     0    21     1    15
 -1.5115416145458815E-01 a       516     0    21     1    16
  1.4930483611514833E-01 a       517     0    21     1    17
 -2.0605925377040712E-02 a       518     0    21     1    18
 -1.2023111428743070E-01 a       519     0    21     1    19
 -3.9455854714735512E-02 a       520     0    21     1    20
  3.2288127341665189E-02 a       521     0    21     1    21
  1.5592375983638956E-01 a       522     0    21     1    22
  1.5874113359226716E-01 a       523     0    21     1    23
 -3.6833650213894883E-02 a       524     0    21     1    24
  1.3829896453505652E-01 a       525     0    21     1    25
  6.6253678575426606E-02 a       526     0    22     1     1
 -3.1629431249585510E-01 a       527     0    22     1     2
 -2.0336100769278806E-01 a       528     0    22     1     3
  6.3774527291692321E-02 a       529     0    22     1     4
 -9.8379216623588325E-02 a       530     0    22     1     5
 -5.6245520525224593E-02 a       531     0    22     1     6
 -2.2262729334880971E-01 a       532     0    22     1     7
  2.0437626882512716E-02 a       533     0    22     1     8
  2.3994280624058928E-01 a       534     0    22     1     9
  1.5522066904902407E-01 a       535     0    22     1    10
 -1.0532251793197883E-01 a       536     0    22     1    11
 -1.5007534568593203E-01 a       537     0    22     1    12
 -3.1416240849050975E-01 a       538     0    22     1    13
  9.7155249420516579E-02 a       539     0    22     1    14
 -3.2042198366314928E-01 a       540     0    22     1    15
  2.3046245421216348E-03 a       541     0    22     1    16
 -1.8933402028747319E-02 a       542     0    22     1    17
 -7.2494814854168976E-02 a       543     0    22     1    18
  1.7998604842475291E-01 a       544     0    22     1    19
 -2.3298259316274858E-01 a       545     0    22     1    20
  1.0458585719777731E-03 a       546     0    22     1    21
 -2.9865248105730813E-01 a       547     0    22     1    22
 -1.9125813249075130E-01 a       548     0    22     1    23
 -2.5528724036404854E-01 a       549     0    22     1    24
  1.8097375961222396E-02 a       550     0    22     1    25
  2.1584675016706256E-02 a       551     0    23     1     1
 -9.9355226119895251E-02 a       552     0    23     1     2
  4.5050292532855668E-01 a       553     0    23     1     3
 -3.1803127066155766E-03 a       554     0    23     1     4
  1.4035992449277265E-01 a       555     0    23     1     5
 -4.6207809777514833E-02 a       556     0    23     1     6
  4.0937492053877078E-01 a       557     0    23     1     7
  1.2779153055214598E-01 a       558     0    23     1     8
 -6.4175815226059710E-03 a       559     0    23     1     9
  9.3425481270877089E-02 a       560     0    23     1    10
 -2.7771090610668646E-02 a       561     0    23     1    11
 -1.8771532611413227E-01 a       562     0    23     1    12
  1.9158035728764708E-01 a       563     0    23     1    13
  2.1990118674803794E-01 a       564     0    23     1    14
  1.7912902586734591E-01 a       565     0    23     1    15
 -2.1406603178669253E-01 a       566     0    23     1    16
  3.4964497082069522E-02 a       567     0    23     1    17
 -1.7737839239986319E-01 a       568     0    23     1    18
  3.4067534901331180E-02 a       569     0    23     1    19
  2.2726978667592912E-01 a       570     0    23     1    20
  1.5546447713759162E-01 a       571     0    23     1    21
  1.0166474778113921E-01 a       572     0    23     1    22
  4.7505273926113985E-02 a       573     0    23     1    23
 -1.8577816723113295E-02 a       574     0    23     1    24
 -3.7465227858113272E-02 a       575     0    23     1    25
 -5.1140858046583797E-02 a       576     0    24     1     1
 -1.8850095525329974E-01 a       577     0    24     1     2
  6.9112700953431708E-02 a       578     0    24     1     3
  8.2921001056476207E-02 a       579     0    24     1     4
  3.4811304918600694E-01 a       580     0    24     1     5
  1.1331845184769704E-01 a       581     0    24     1     6
 -2.7561030253209851E-01 a       582     0    24     1     7
  3.7270676022992610E-02 a       583     0    24     1     8
  5.7544821935579082E-02 a       584     0    24     1     9
 -2.4609794444974676E-02 a       585     0    24     1    10
 -2.7396111315397892E-01 a       586     0    24     1    11
  1.8483166489619243E-01 a       587     0    24     1    12
 -2.7978037221817714E-01 a       588     0    24     1    13
  2.4154504857646936E-01 a       589     0    24     1    14
 -2.9957392291847668E-01 a       590     0    24     1    15
  2.5650192328691107E-01 a       591     0    24     1    16
 -3.7009192854767406E-02 a       592     0    24     1    17
 -2.4507850510578216E-01 a       593     0    24     1    18
  1.4288025803188878E-01 a       594     0    24     1    19
  1.9392023371886513E-01 a       595     0    24     1    20
 -2.6387556783895889E-02 a       596     0    24     1    21
  7.5924499868444961E-03 a       597     0    24     1    22
  5.4952543312704757E-02 a       598     0    24     1    23
  1.5751556793568483E-01 a       599     0    24     1    24
  6.5588053650215373E-03 a       600     0    24     1    25
  9.7827770847173284E-02 a       601     0    25     1     1
  1.0748673682188822E-01 a       602     0    25     1     2
  2.0548829582324482E-01 a       603     0    25     1     3
  1.5399037535624222E-01 a       604     0    25     1     4
  1.1751501273335839E-01 a       605     0    25     1     5
  1.7872006571174940E-02 a       606     0    25     1     6
  5.1718872557861761E-01 a       607     0    25     1     7
  6.8628820340636165E-02 a       608     0    25     1     8
 -2.4104379230325707E-01 a       609     0    25     1     9
 -1.4092047059606244E-01 a       610     0    25     1    10
 -1.7776374517826776E-01 a       611     0    25     1    11
 -2.2866504683997899E-01 a       612     0    25     1    12
  3.0086922382404624E-01 a       613     0    25     1    13
  4.2862290300881033E-02 a       614     0    25     1    14
  3.3787426082287564E-01 a       615     0    25     1    15
  7.1075158707635575E-02 a       616     0    25     1    16
 -2.6089064459139187E-02 a       617     0    25     1    17
  1.7855963439525221E-01 a       618     0    25     1    18
  1.1411177700874685E-01 a       619     0    25     1    19
  1.5230398838205936E-01 a       620     0    25     1    20
  9.1610682858054335E-02 a       621     0    25     1    21
  1.8413601548730583E-02 a       622     0    25     1    22
 -2.6127411115387239E-01 a       623     0    25     1    23
 -5.4120176820219655E-02 a       624     0    25     1    24
  1.9258917607883866E-01 a       625     0    25     1    25
 -4.3188854753972918E-02 a       626     0    26     1     1
 -1.3319320105080959E-02 a       627     0    26     1     2
 -1.0968646290027673E-01 a       628     0    26     1     3
 -3.3500492905351842E-02 a       629     0    26     1     4
 -2.7676632190057181E-03 a       630     0    26     1     5
  1.1370875797177815E-01 a       631     0    26     1     6
  1.3694056326160551E-02 a       632     0    26     1     7
  1.3297623870726813E-01 a       633     0    26     1     8
  2.6173951917769767E-01 a       634     0    26     1     9
  6.8330806794690835E-02 a       635     0    26     1    10
 -1.4166480988609903E-01 a       636     0    26     1    11
 -1.7022992496530071E-01 a       637     0    26     1    12
 -7.6493509829755724E-02 a       638     0    26     1    13
 -8.0381052502008443E-02 a       639     0    26     1    14
 -4.1910905139215596E-02 a       640     0    26     1    15
 -2.3572265235061138E-01 a       641     0    26     1    16
 -9.5605763372778527E-02 a       642     0    26     1    17
  4.8351832025792636E-02 a       643     0    26     1    18
 -1.0233773741506537E-01 a       644     0    26     1    19
  1.7698247772729234E-01 a       645     0    26     1    20
 -1.4531964501823159E-02 a       646     0    26     1    21
 -4.9065023029942090E-02 a       647     0    26     1    22
  7.5114572125079160E-02 a       648     0    26     1    23
  5.3944680478233524E-02 a       649     0    26     1    24
 -4.4976918336154796E-02 a       650     0    26     1    25
  1.5671669374398668E-02 a       651     0    27     1     1
 -1.9306503275326667E-01 a       652     0    27     1     2
 -5.8861442006168267E-02 a       653     0    27     1     3
  7.9915947463307907E-02 a       654     0    27     1     4
 -2.2413870504285966E-02 a       655     0    27     1     5
 -1.8588808645138150E-01 a       656     0    27     1     6
  3.8722343407186256E-02 a       657     0    27     1     7
  1.1547740935599314E-01 a       658     0    27     1     8
 -2.6527307693752195E-02 a       659     0    27     1     9
 -6.2482645921697319E-02 a       660     0    27     1    10
 -8.8215688329611342E-03 a       661     0    27     1    11
  2.6137894178832122E-01 a       662     0    27     1    12
  3.7205087482968996E-02 a       663     0    27     1    13
  6.6101689645174946E-02 a       664     0    27     1    14
  1.3291103683556066E-01 a       665     0    27     1    15
 -7.2282997169532390E-02 a       666     0    27     1    16
  3.5256086921960861E-02 a       667     0    27     1    17
  1.4847470838775392E-01 a       668     0    27     1    18
 -7.4722963169280537E-02 a       669     0    27     1    19
 -2.2870870670469758E-02 a       670     0    27     1    20
  7.4814571754910408E-02 a       671     0    27     1    21
 -3.9187812027634647E-02 a       672     0    27     1    22
  2.0681101635323933E-02 a       673     0    27     1    23
  4.1164969928467299E-02 a       674     0    27     1    24
 -8.9887758956347458E-02 a       675     0    27     1    25
  7.8269510926993521E-03 a       676     0    28     1     1
 -2.7867659242645809E-01 a       677     0    28     1     2
 -5.5572161733566314E-02 a       678     0    28     1     3
 -1.2218755039875501E-01 a       679     0    28     1     4
  4.0354506113782475E-02 a       680     0    28     1     5
 -2.0127435635649110E-01 a       681     0    28     1     6
 -5.7359199078905868E-02 a       682     0    28     1     7
  1.1065018108361168E-02 a       683     0    28     1     8
  3.3890649781219730E-02 a       684     0    28     1     9
  1.7176435306457241E-01 a       685     0    28     1    10
 -1.8456350802703234E-01 a       686     0    28     1    11
  5.5560396952232763E-02 a       687     0    28     1    12
  2.2052951147050678E-02 a       688     0    28     1    13
  2.5861177560063564E-01 a       689     0    28     1    14
 -3.2566473736058871E-01 a       690     0    28     1    15
 -1.1048148354317362E-01 a       691     0    28     1    16
  1.5953609197125074E-01 a       692     0    28     1    17
 -7.3150469278289554E-02 a       693     0    28     1    18
  5.7537082844628391E-02 a       694     0    28     1    19
  4.6081509722721396E-02 a       695     0    28     1    20
 -1.8859797385686924E-01 a       696     0    28     1    21
 -1.4662323030947488E-01 a       697     0    28     1    22
  1.2138512555552894E-01 a       698     0    28     1    23
 -1.5218503963911735E-02 a       699     0    28     1    24
  8.0666793230139699E-03 a       700     0    28     1    25
 -1.6857783002114315E-01 a       701     0    29     1     1
  3.9055758378266928E-02 a       702     0    29     1     2
  6.2482913653830005E-02 a       703     0    29     1     3
  7.6606208907970569E-02 a       704     0    29     1     4
 -1.8859082152392589E-01 a       705     0    29     1     5
 -1.7002955860325450E-01 a       706     0    29     1     6
 -4.5934828435992531E-02 a       707     0    29     1     7
  2.4148701082366417E-02 a       708     0    29     1     8
 -2.6357220482398158E-01 a       709     0    29     1     9
 -1.9922389643086819E-03 a       710     0    29     1    10
 -2.1103149478963890E-01 a       711     0    29     1    11
  2.1566254057998149E-01 a       712     0    29     1    12
  3.4036099228268640E-02 a       713     0    29     1    13
  4.2475657468114157E-03 a       714     0    29     1    14
 -1.8549108404522335E-01 a       715     0    29     1    15
  1.0485428669565872E-01 a       716     0    29     1    16
 -1.6002165540093586E-03 a       717     0    29     1    17
  1.3609328767915796E-01 a       718     0    29     1    18
  2.0304240922998266E-02 a       719     0    29     1    19
 -6.3608310802953885E-02 a       720     0    29     1    20
  1.6424985972747049E-02 a       721     0    29     1    21
 -2.7530227361241937E-02 a       722     0    29     1    22
  6.8409819748501674E-02 a       723     0    29     1    23
 -1.8659306878834925E-02 a       724     0    29     1    24
  1.1148232429139152E-01 a       725     0    29     1    25
  3.1011807305138830E-02 a       726     0    30     1     1
  2.0287462867306549E-02 a       727     0    30     1     2
 -1.0749207617523772E-01 a       728     0    30     1     3
  1.2683196307227593E-02 a       729     0    30     1     4
 -2.3900856887749549E-02 a       730     0    30     1     5
 -2.0548521170034645E-01 a       731     0    30     1     6
 -1.3399343435157063E-01 a       732     0    30     1     7
  1.0986928218148194E-01 a       733     0    30     1     8
  3.5117562533201524E-01 a       734     0    30     1     9
  3.2534882145675698E-01 a       735     0    30     1    10
  1.4392960218891343E-01 a       736     0    30     1    11
  3.3770130245773911E-02 a       737     0    30     1    12
 -1.3088051068304618E-01 a       738     0    30     1    13
  3.8863891617633872E-02 a       739     0    30     1    14
 -2.4841190501630650E-01 a       740     0    30     1    15
 -5.3138633516093894E-02 a       741     0    30     1    16
 -9.5189399442411574E-02 a       742     0    30     1    17
 -2.4064670585294171E-02 a       743     0    30     1    18
 -1.8284362624930783E-01 a       744     0    30     1    19
 -8.4246847576406741E-02 a       745     0    30     1    20
 -2.2787433549037273E-01 a       746     0    30     1    21
 -2.4017288639021772E-01 a       747     0    30     1    22
  8.6399871394133784E-02 a       748     0    30     1    23
 -2.0221463897408085E-01 a       749     0    30     1    24
  4.1195317716184530E-02 a       750     0    30     1    25
 -1.2948787977005070E-02 a       751     0    31     1     1
  2.6950624999933348E-01 a       752     0    31     1     2
  1.9508698548682646E-01 a       753     0    31     1     3
 -6.0569865549432852E-03 a       754     0    31     1     4
  6.4503597658917833E-02 a       755     0    31     1     5
 -4.9705257074911587E-02 a       756     0    31     1     6
  1.5773017248890014E-01 a       757     0    31     1     7
 -1.6465167349681439E-01 a       758     0    31     1     8
 -9.5736493850582527E-02 a       759     0    31     1     9
 -7.9386963758427603E-02 a       760     0    31     1    10
 -1.1814723520870082E-01 a       761     0    31     1    11
 -7.4930984969066847E-02 a       762     0    31     1    12
  7.1868204024171586E-02 a       763     0    31     1    13
  1.1905997775952407E-01 a       764     0    31     1    14
  1.4859368349995955E-01 a       765     0    31     1    15
  2.7489167304560438E-02 a       766     0    31     1    16
  5.9267093889578092E-02 a       767     0    31     1    17
  5.2214656042628399E-02 a       768     0    31     1    18
  6.3210122428658824E-02 a       769     0    31     1    19
  6.3771180511204270E-02 a       770     0    31     1    20
 -2.5414367759941582E-02 a       771     0    31     1    21
  5.5101809201811860E-02 a       772     0    31     1    22
 -2.4197107860609493E-01 a       773     0    31     1    23
 -1.0671304240678223E-01 a       774     0    31     1    24
  1.0851742352410651E-01 a       775     0    31     1    25
 -1.5378196002966041E-01 a       776     0    32     1     1
 -2.7536823100033421E-02 a       777     0    32     1     2
 -5.5673987312694379E-02 a       778     0    32     1     3
  2.3075786129687090E-03 a       779     0    32     1     4
 -3.4285725532199474E-01 a       780     0    32     1     5
  9.0908297360711904E-02 a       781     0    32     1     6
 -1.5636493524431713E-01 a       782     0    32     1     7
  1.4443077260916025E-02 a       783     0    32     1     8
  2.1159794494318931E-01 a       784     0    32     1     9
  5.6596010958133450E-02 a       785     0    32     1    10
 -1.4250365175903051E-01 a       786     0    32     1    11
 -1.5541574001188585E-01 a       787     0    32     1    12
 -1.8134583547889993E-01 a       788     0    32     1    13
 -2.0354435932864906E-01 a       789     0    32     1    14
  6.3902020874055956E-02 a       790     0    32     1    15
 -5.8982586953049393E-02 a       791     0    32     1    16
  1.1068194423991728E-01 a       792     0    32     1    17
 -1.4278866584374764E-01 a       793     0    32     1    18
  3.3554076279154604E-02 a       794     0    32     1    19
 -2.7356829250138964E-02 a       795     0    32     1    20
  1.9908181736795089E-01 a       796     0    32     1    21
 -5.6981738950833381E-02 a       797     0    32     1    22
 -1.1837198720089192E-02 a       798     0    32     1    23
  1.2226661918655865E-02 a       799     0    32     1    24
 -2.8428480744654171E-02 a       800     0    32     1    25
  8.2953884416328894E-02 a       801     0    33     1     1
 -6.7254781168242768E-03 a       802     0    33     1     2
  8.1169726098881165E-02 a       803     0    33     1     3
  2.3057473941119526E-03 a       804     0    33     1     4
  1.3837099582272877E-01 a       805     0    33     1     5
 -7.4670937642241655E-02 a       806     0    33     1     6
  1.1573814091137631E-01 a       807     0    33     1     7
 -2.8598727771522850E-02 a       808     0    33     1     8
  9.3803573855356544E-03 a       809     0    33     1     9
 -2.8504952472716949E-01 a       810     0    33     1    10
 -9.2461374259036000E-02 a       811     0    33     1    11
 -3.5778982276773431E-02 a       812     0    33     1    12
  8.1415270103363524E-02 a       813     0    33     1    13
 -8.2994545476116205E-03 a       814     0    33     1    14
  1.1889589884998894E-01 a       815     0    33     1    15
 -1.2460064331635361E-01 a       816     0    33     1    16
 -1.1626066316495177E-01 a       817     0    33     1    17
 -3.6381388307525834E-03 a       818     0    33     1    18
  1.0309828819344413E-01 a       819     0    33     1    19
  3.3362864544790406E-02 a       820     0    33     1    20
 -1.6231737981370573E-01 a       821     0    33     1    21
  1.1003887535968553E-01 a       822     0    33     1    22
  6.4551496028853086E-02 a       823     0    33     1    23
 -1.3959508027213385E-01 a       824     0    33     1    24
  2.4093006247200765E-03 a       825     0    33     1    25
 -4.5598541733957783E-02 a       826     0    34     1     1
 -2.0573024804368273E-01 a       827     0    34     1     2
 -4.9609768107281342E-02 a       828     0    34     1     3
 -7.2124785598489574E-02 a       829     0    34     1     4
 -2.2009036681517699E-02 a       830     0    34     1     5
 -4.7608607601425608E-02 a       831     0    34     1     6
  1.9131512363860449E-02 a       832     0    34     1     7
  3.6360920095021086E-02 a       833     0    34     1     8
  2.2469076908434757E-01 a       834     0    34     1     9
  8.7871982951663721E-02 a       835     0    34     1    10
 -1.3977158408931870E-01 a       836     0    34     1    11
  2.6332884856785010E-03 a       837     0    34     1    12
 -5.0550439702471382E-02 a       838     0    34     1    13
  2.3198066261378028E-01 a       839     0    34     1    14
 -1.8380535331568418E-01 a       840     0    34     1    15
 -1.6755055310104666E-02 a       841     0    34     1    16
  1.2613417600693108E-01 a       842     0    34     1    17
 -1.1530872830641417E-01 a       843     0    34     1    18
 -1.0676557790661106E-01 a       844     0    34     1    19
  1.5390970904017365E-01 a       845     0    34     1    20
  2.6123487582806432E-01 a       846     0    34     1    21
  9.7527394524602906E-02 a       847     0    34     1    22
  1.5003936705505647E-01 a       848     0    34     1    23
 -5.5443213109384612E-03 a       849     0    34     1    24
 -1.5386048086044421E-01 a       850     0    34     1    25
 -2.4852460064853858E-02 a       851     0    35     1     1
 -1.4452401127408679E-01 a       852     0    35     1     2
 -4.3193363475467978E-03 a       853     0    35     1     3
  7.8964842997400989E-02 a       854     0    35     1     4
 -3.5762972303729934E-01 a       855     0    35     1     5
 -4.2015332181094392E-02 a       856     0    35     1     6
 -1.3981315343694940E-02 a       857     0    35     1     7
  1.3898138332280713E-01 a       858     0    35     1     8
 -1.8019374962528009E-01 a       859     0    35     1     9
 -1.0590655771273763E-01 a       860     0    35     1    10
 -1.7115835085033523E-01 a       861     0    35     1    11
  4.9908151530237456E-02 a       862     0    35     1    12
  8.0516897859860728E-02 a       863     0    35     1    13
 -1.4400455545008350E-01 a       864     0    35     1    14
 -9.5383373302152630E-02 a       865     0    35     1    15
 -8.5066678560987517E-03 a       866     0    35     1    16
 -9.3660432141951869E-02 a       867     0    35     1    17
 -7.0299226805059295E-04 a       868     0    35     1    18
  1.1305274826195054E-01 a       869     0    35     1    19
 -9.0071452557826032E-02 a       870     0    35     1    20
 -1.0634860916127790E-01 a       871     0    35     1    21
  1.5615764468558516E-02 a       872     0    35     1    22
  8.7535882562024783E-02 a       873     0    35     1    23
  5.3457083157488226E-02 a       874     0    35     1    24
  2.1280521340373348E-02 a       875     0    35     1    25
  1.0357928572816853E-01 a       876     0    36     1     1
 -1.2602427124231441E-01 a       877     0    36     1     2
 -9.5243466767941376E-02 a       878     0    36     1     3
  3.1453723359592525E-02 a       879     0    36     1     4
 -7.0570758460947638E-02 a       880     0    36     1     5
 -4.1024424313148559E-02 a       881     0    36     1     6
 -2.4156096037219237E-02 a       882     0    36     1     7
  1.0791365343845419E-01 a       883     0    36     1     8
  2.3348249126897806E-02 a       884     0    36     1     9
  1.2415326287292146E-01 a       885     0    36     1    10
 -4.0608301203490332E-01 a       886     0    36     1    11
  1.4201744510844047E-01 a       887     0    36     1    12
 -6.5154216539892437E-02 a       888     0    36     1    13
 -1.6252956146361788E-01 a       889     0    36     1    14
  3.8882465341419557E-02 a       890     0    36     1    15
  7.8119842369011580E-02 a       891     0    36     1    16
  5.8697611040301099E-02 a       892     0    36     1    17
 -3.4598097964127557E-02 a       893     0    36     1    18
  3.0112547752668811E-01 a       894     0    36     1    19
  7.8176568837987293E-02 a       895     0    36     1    20
  7.4326676115139365E-02 a       896     0    36     1    21
  1.3018633358666412E-01 a       897     0    36     1    22
 -1.1239515080661577E-01 a       898     0    36     1    23
  6.7905037505820678E-02 a       899     0    36     1    24
 -2.7603564180330751E-02 a       900     0    36     1    25
 -7.9416148564732655E-02 a       901     0    37     1     1
 -6.5424470869578769E-02 a       902     0    37     1     2
 -1.3502451552286299E-01 a       903     0    37     1     3
  8.0065122083247481E-02 a       904     0    37     1     4
 -1.8420160093697766E-01 a       905     0    37     1     5
 -7.2766681195941207E-02 a       906     0    37     1     6
  8.8169319350217532E-02 a       907     0    37     1     7
  2.3866751833959876E-01 a       908     0    37     1     8
 -8.9304403172118531E-04 a       909     0    37     1     9
  6.8134140800701334E-02 a       910     0    37     1    10
 -3.2144620444052024E-01 a       911     0    37     1    11
 -2.5753508618026878E-02 a       912     0    37     1    12
  4.9186486755855539E-02 a       913     0    37     1    13
  2.3730646829280569E-01 a       914     0    37     1    14
 -2.0416158370302856E-01 a       915     0    37     1    15
  5.5811105792079978E-02 a       916     0    37     1    16
 -1.2199655836914577E-01 a       917     0    37     1    17
  1.6507059444151369E-02 a       918     0    37     1    18
  1.0168790205753028E-01 a       919     0    37     1    19
  6.8563233193399853E-02 a       920     0    37     1    20
  1.1489866041061422E-01 a       921     0    37     1    21
 -1.1449088180156725E-01 a       922     0    37     1    22
  1.0387878189705427E-01 a       923     0    37     1    23
 -1.9193950695124595E-01 a       924     0    37     1    24
  1.8471428271679413E-01 a       925     0    37     1    25
  7.2699454915287648E-02 a       926     0    38     1     1
 -8.5233341939267848E-02 a       927     0    38     1     2
 -6.5661631923837949E-02 a       928     0    38     1     3
  1.8026332125449390E-02 a       929     0    38     1     4
 -1.7432642946165205E-01 a       930     0    38     1     5
  6.1621603594660526E-02 a       931     0    38     1     6
 -6.3343838459627641E-02 a       932     0    38     1     7
  7.0753190314093120E-02 a       933     0    38     1     8
  1.2388687377806780E-01 a       934     0    38     1     9
  3.8441143349740851E-02 a       935     0    38     1    10
 -3.0620377972102503E-02 a       936     0    38     1    11
 -7.4829767783071030E-02 a       937     0    38     1    12
 -6.9431312624973790E-02 a       938     0    38     1    13
 -8.4767281561639762E-02 a       939     0    38     1    14
  1.4367722295598764E-01 a       940     0    38     1    15
 -1.2335112860030899E-01 a       941     0    38     1    16
  2.2551198698593608E-02 a       942     0    38     1    17
  4.4071534033174970E-03 a       943     0    38     1    18
 -2.4613355697740018E-02 a       944     0    38     1    19
 -3.7303366525655773E-02 a       945     0    38     1    20
 -9.2848326729203526E-02 a       946     0    38     1    21
 -7.7421093563924681E-02 a       947     0    38     1    22
 -1.5050239401655516E-01 a       948     0    38     1    23
  4.7931495601528568E-02 a       949     0    38     1    24
 -4.7659437404912137E-02 a       950     0    38     1    25
 -5.6756907458727870E-02 a       951     0    39     1     1
  4.5404359398148561E-02 a       952     0    39     1     2
  1.8038672306254688E-01 a       953     0    39     1     3
 -6.0702165081044833E-02 a       954     0    39     1     4
  1.2538857845787790E-01 a       955     0    39     1     5
 -2.3062910408417731E-01 a       956     0    39     1     6
  1.5545968659963202E-01 a       957     0    39     1     7
  5.0268934348433936E-02 a       958     0    39     1     8
 -1.6738881727652177E-01 a       959     0    39     1     9
  1.6985621141248386E-01 a       960     0    39     1    10
  1.5205033697319603E-01 a       961     0    39     1    11
  1.5575407088953680E-01 a       962     0    39     1    12
  2.4173666691152729E-02 a       963     0    39     1    13
  2.8195394180257852E-02 a       964     0    39     1    14
 -1.2370642984822747E-02 a       965     0    39     1    15
  1.2060614441196382E-01 a       966     0    39     1    16
  6.1659871815452703E-02 a       967     0    39     1    17
  1.3219142453059565E-01 a       968     0    39     1    18
 -2.0464175750106700E-01 a       969     0    39     1    19
  2.9206711604630547E-02 a       970     0    39     1    20
  1.4925260542932789E-01 a       971     0    39     1    21
 -8.5492772359476540E-02 a       972     0    39     1    22
  2.0006817988025161E-02 a       973     0    39     1    23
 -2.0465123166355705E-02 a       974     0    39     1    24
 -3.8866859961283820E-02 a       975     0    39     1    25
 -2.5017087460578073E-02 a       976     0    40     1     1
  1.2653851037766214E-01 a       977     0    40     1     2
  3.1572592041109911E-02 a       978     0    40     1     3
 -2.7461941776223700E-02 a       979     0    40     1     4
  1.5180843729699003E-01 a       980     0    40     1     5
 -2.5696759595562990E-01 a       981     0    40     1     6
 -2.2553326702593642E-03 a       982     0    40     1     7
 -6.5337594279945385E-02 a       983     0    40     1     8
 -2.8264291282002179E-02 a       984     0    40     1     9
 -9.6070079640041203E-02 a       985     0    40     1    10
  1.2097811222505894E-02 a       986     0    40     1    11
  2.6726645885605543E-01 a       987     0    40     1    12
  5.1585092344247796E-02 a       988     0    40     1    13
  3.2942119399568724E-02 a       989     0    40     1    14
 -1.6097767927981146E-01 a       990     0    40     1    15
 -3.3840475964689212E-02 a       991     0    40     1    16
  2.1152738267657643E-02 a       992     0    40     1    17
  6.4480518412574558E-02 a       993     0    40     1    18
 -2.3515169204946992E-01 a       994     0    40     1    19
 -7.9053231012284883E-02 a       995     0    40     1    20
 -4.3927559255756372E-02 a       996     0    40     1    21
 -1.2570891494952294E-01 a       997     0    40     1    22
 -7.6387429869137685E-02 a       998     0    40     1    23
 -5.8097546643278136E-03 a       999     0    40     1    24
 -6.9247290211506843E-02 a      1000     0    40     1    25
 -3.5187554568264712E-01 a      1001     0    41     1     1
 -4.0423388022451396E-03 a      1002     0    41     1     2
  2.8214259511331891E-01 a      1003     0    41     1     3
  2.6547525182785997E-02 a      1004     0    41     1     4
  9.2185539880926565E-02 a      1005     0    41     1     5
 -1.8370665287951179E-01 a      1006     0    41     1     6
  4.0808358027987185E-02 a      1007     0    41     1     7
  3.1422073346597351E-01 a      1008     0    41     1     8
  4.5774401258444945E-02 a      1009     0    41     1     9
 -1.9177388730155773E-01 a      1010     0    41     1    10
 -1.3006893180771575E-01 a      1011     0    41     1    11
 -2.6939326861414703E-04 a      1012     0    41     1    12
 -2.2724269449596901E-01 a      1013     0    41     1    13
 -1.8062655222831081E-01 a      1014     0    41     1    14
  2.1351194862188644E-01 a      1015     0    41     1    15
 -3.6948495437606921E-02 a      1016     0    41     1    16
 -3.6328664122955562E-01 a      1017     0    41     1    17
  2.0309087346923646E-01 a      1018     0    41     1    18
 -3.9632353554315748E-02 a      1019     0    41     1    19
 -5.3758639842904896E-02 a      1020     0    41     1    20
 -7.3773913297972796E-02 a      1021     0    41     1    21
 -4.0582424297768233E-01 a      1022     0    41     1    22
  1.5845186870129130E-01 a      1023     0    41     1    23
  3.9804493568796461E-03 a      1024     0    41     1    24
 -2.7943054575763598E-01 a      1025     0    41     1    25
  2.7223211886615251E-02 a      1026     0    42     1     1
 -8.9356904642984625E-02 a      1027     0    42     1     2
 -6.3101634372780227E-02 a      1028     0    42     1     3
 -4.1151731913846280E-02 a      1029     0    42     1     4
  3.1675791330705028E-01 a      1030     0    42     1     5
  1.7372826195268143E-02 a      1031     0    42     1     6
 -1.3868855205886080E-01 a      1032     0    42     1     7
 -1.2959191413345802E-01 a      1033     0    42     1     8
  2.2127478204766812E-01 a      1034     0    42     1     9
  1.8036238602266477E-01 a      1035     0    42     1    10
  3.1860584692323002E-02 a      1036     0    42     1    11
  3.3320986856348794E-01 a      1037     0    42     1    12
  1.7469753808055155E-01 a      1038     0    42     1    13
  8.5705712278406107E-04 a      1039     0    42     1    14
 -1.6860430166664378E-01 a      1040     0    42     1    15
  1.7229915706957758E-02 a      1041     0    42     1    16
  1.1914179602243916E-01 a      1042     0    42     1    17
 -2.8079423398541509E-01 a      1043     0    42     1    18
  3.5769201172597562E-02 a      1044     0    42     1    19
  1.8189249302440758E-01 a      1045     0    42     1    20
 -5.8644144820707757E-03 a      1046     0    42     1    21
 -1.9516350451738381E-02 a      1047     0    42     1    22
 -1.3007922009949821E-01 a      1048     0    42     1    23
 -6.0861327085968649E-02 a      1049     0    42     1    24
  2.7875413178618608E-01 a      1050     0    42     1    25
 -4.0868705442766648E-02 a      1051     0    43     1     1
  2.5005651028842807E-02 a      1052     0    43     1     2
  6.3258400280915006E-02 a      1053     0    43     1     3
 -2.2933456597113966E-01 a      1054     0    43     1     4
  1.6427765690518334E-01 a      1055     0    43     1     5
  1.3448756943192268E-02 a      1056     0    43     1     6
 -8.2828048616133035E-02 a      1057     0    43     1     7
 -1.6565966049833507E-02 a      1058     0    43     1     8
 -5.9904856874800516E-02 a      1059     0    43     1     9
  1.8621318781426283E-01 a      1060     0    43     1    10
  2.4067040087461130E-02 a      1061     0    43     1    11
  1.0205580583427366E-01 a      1062     0    43     1    12
 -4.5214973654251575E-02 a      1063     0    43     1    13
 -5.1616386707345627E-02 a      1064     0    43     1    14
  2.5515502950826480E-01 a      1065     0    43     1    15
 -1.1201507643980800E-01 a      1066     0    43     1    16
  1.8691807341974568E-02 a      1067     0    43     1    17
 -2.3994969664781606E-02 a      1068     0    43     1    18
  1.7418987549371492E-01 a      1069     0    43     1    19
 -9.5228061759041818E-02 a      1070     0    43     1    20
 -1.8429866122417748E-01 a      1071     0    43     1    21
 -3.8198947415941570E-01 a      1072     0    43     1    22
 -5.4805488101864065E-02 a      1073     0    43     1    23
 -2.7717170554993658E-02 a      1074     0    43     1    24
 -3.9264034224440264E-01 a      1075     0    43     1    25
  5.5846880328304004E-02 a      1076     0    44     1     1
  1.3277541526068089E-02 a      1077     0    44     1     2
 -2.2733126526328115E-01 a      1078     0    44     1     3
  4.5957748179685766E-02 a      1079     0    44     1     4
 -8.6537979849751825E-02 a      1080     0    44     1     5
 -6.7279518947091803E-04 a      1081     0    44     1     6
  2.5219199421323592E-02 a      1082     0    44     1     7
  1.9995072111659157E-01 a      1083     0    44     1     8
 -5.9238995165657525E-02 a      1084     0    44     1     9
  1.5348160127143134E-01 a      1085     0    44     1    10
  1.1594486899136680E-01 a      1086     0    44     1    11
  1.4419575453499615E-02 a      1087     0    44     1    12
 -2.4341603781905478E-03 a      1088     0    44     1    13
  3.4098546852330040E-02 a      1089     0    44     1    14
 -5.6661321098083368E-02 a      1090     0    44     1    15
 -2.5133213206922489E-01 a      1091     0    44     1    16
 -8.1101350343204232E-02 a      1092     0    44     1    17
 -1.5731345039798528E-01 a      1093     0    44     1    18
 -1.1159873155396523E-01 a      1094     0    44     1    19
 -4.8144619369869662E-02 a      1095     0    44     1    20
 -2.6204751934530540E-01 a      1096     0    44     1    21
  1.2090032935723641E-01 a      1097     0    44     1    22
  2.9189524219025670E-01 a      1098     0    44     1    23
 -1.7961970428202836E-01 a      1099     0    44     1    24
 -2.2571897671661543E-02 a      1100     0    44     1    25
 -1.0403565091053313E-01 a      1101     0    45     1     1
  4.0868848528294158E-02 a      1102     0    45     1     2
 -1.4224840230737740E-01 a      1103     0    45     1     3
 -7.2103407440170464E-02 a      1104     0    45     1     4
  3.3176337087765913E-02 a      1105     0    45     1     5
  8.4429140571806727E-02 a      1106     0    45     1     6
  7.9884860266849239E-02 a      1107     0    45     1     7
  7.3705471877492157E-02 a      1108     0    45     1     8
  9.5018673731056630E-02 a      1109     0    45     1     9
 -8.2314446404142844E-02 a      1110     0    45     1    10
  1.9678454811122733E-02 a      1111     0    45     1    11
  2.5671353687265190E-02 a      1112     0    45     1    12
 -1.8982441549907275E-02 a      1113     0    45     1    13
  1.5227048575425209E-01 a      1114     0    45     1    14
 -2.4678137698623667E-01 a      1115     0    45     1    15
  4.5309060256489793E-02 a      1116     0    45     1    16
 -2.8947691724506658E-01 a      1117     0    45     1    17
  1.1859128328538830E-01 a      1118     0    45     1    18
 -9.2659620268841184E-02 a      1119     0    45     1    19
 -1.0925363789680874E-01 a      1120     0    45     1    20
  9.2172359756450314E-02 a      1121     0    45     1    21
 -3.0707000253471187E-02 a      1122     0    45     1    22
  2.8370519874905059E-01 a      1123     0    45     1    23
 -1.6650844689062483E-01 a      1124     0    45     1    24
  4.3474318500757045E-02 a      1125     0    45     1    25
  2.5123631670721934E-03 a      1126     0    46     1     1
 -1.5825759461348729E-01 a      1127     0    46     1     2
  4.4253862070652593E-02 a      1128     0    46     1     3
 -6.6020891450314242E-02 a      1129     0    46     1     4
 -3.3519144755968128E-01 a      1130     0    46     1     5
  6.1165938263004135E-02 a      1131     0    46     1     6
 -9.9574808956329586E-02 a      1132     0    46     1     7
  2.7806456803054644E-02 a      1133     0    46     1     8
  9.9463823834336329E-02 a      1134     0    46     1     9
 -2.0569916288679538E-01 a      1135     0    46     1    10
 -1.6834704321326058E-01 a      1136     0    46     1    11
 -3.7255975871698593E-01 a      1137     0    46     1    12
 -4.5096583520192447E-02 a      1138     0    46     1    13
 -1.2448668354359288E-01 a      1139     0    46     1    14
 -2.8761856610027331E-01 a      1140     0    46     1    15
  3.0822930560853995E-01 a      1141     0    46     1    16
 -3.6559360992126921E-01 a      1142     0    46     1    17
  2.7623155569360121E-02 a      1143     0    46     1    18
 -2.2838189781569757E-01 a      1144     0    46     1    19
  2.1585524489775446E-01 a      1145     0    46     1    20
 -1.8221234715103671E-01 a      1146     0    46     1    21
  1.1278001546446864E-01 a      1147     0    46     1    22
  1.2347782454846057E-01 a      1148     0    46     1    23
  2.8238786323493824E-02 a      1149     0    46     1    24
  1.3279142319344064E-01 a      1150     0    46     1    25
 -1.2180398795465128E-01 a      1151     0    47     1     1
  1.8473701579033067E-01 a      1152     0    47     1     2
  1.9450180042271664E-01 a      1153     0    47     1     3
  6.7929033941968059E-02 a      1154     0    47     1     4
 -1.7061401653493566E-01 a      1155     0    47     1     5
  1.2672306582974996E-01 a      1156     0    47     1     6
  2.4376372605084598E-01 a      1157     0    47     1     7
 -3.7990962104398021E-02 a      1158     0    47     1     8
 -1.2862794138995068E-01 a      1159     0    47     1     9
  1.2632775499946375E-02 a      1160     0    47     1    10
 -1.1683712533918512E-01 a      1161     0    47     1    11
 -2.0873213693420226E-01 a      1162     0    47     1    12
  1.0257237377464778E-01 a      1163     0    47     1    13
  1.8416326731929892E-02 a      1164     0    47     1    14
  1.3429673305214274E-01 a      1165     0    47     1    15
 -1.5354685702184255E-02 a      1166     0    47     1    16
 -1.8947479881033630E-01 a      1167     0    47     1    17
  1.8098062453290265E-01 a      1168     0    47     1    18
 -1.5416985834175823E-01 a      1169     0    47     1    19
 -1.2990496105894725E-01 a      1170     0    47     1    20
 -5.7615034518057710E-02 a      1171     0    47     1    21
 -4.9588800166258197E-02 a      1172     0    47     1    22
 -1.3397257832310414E-01 a      1173     0    47     1    23
  1.0410156887610568E-01 a      1174     0    47     1    24
  1.0730222018240765E-01 a      1175     0    47     1    25
 -2.6171375490652241E-03 a      1176     0    48     1     1
 -8.1440539288997374E-02 a      1177     0    48     1     2
  9.8958660336391252E-02 a      1178     0    48     1     3
  1.2543383449393580E-01 a      1179     0    48     1     4
 -2.8689376810936790E-01 a      1180     0    48     1     5
 -1.1825195372802308E-02 a      1181     0    48     1     6
  1.2552010624526641E-01 a      1182     0    48     1     7
  7.3579438573120798E-02 a      1183     0    48     1     8
 -2.7954970613274605E-01 a      1184     0    48     1     9
  8.8946991058249672E-02 a      1185     0    48     1    10
  1.3238890783845493E-02 a      1186     0    48     1    11
 -1.6606380586470937E-01 a      1187     0    48     1    12
 -3.0947186691626792E-02 a      1188     0    48     1    13
 -7.0192927359767482E-02 a      1189     0    48     1    14
  9.4102934050077705E-02 a      1190     0    48     1    15
 -1.6231098170525649E-01 a      1191     0    48     1    16
  8.7967836682171036E-02 a      1192     0    48     1    17
 -1.8430174301679150E-01 a      1193     0    48     1    18
  2.0493714937781286E-02 a      1194     0    48     1    19
  1.9025035686355779E-01 a      1195     0    48     1    20
  1.3461794750339343E-01 a      1196     0    48     1    21
 -2.8117182624099415E-02 a      1197     0    48     1    22
 -1.4058829343864010E-01 a      1198     0    48     1    23
  9.4593271493806960E-02 a      1199     0    48     1    24
 -1.0832049148419763E-01 a      1200     0    48     1    25
  3.5773824847675099E-02 a      1201     0    49     1     1
  3.6564847611667096E-02 a      1202     0    49     1     2
 -9.1912664887381701E-02 a      1203     0    49     1     3
 -8.8902411588646021E-03 a      1204     0    49     1     4
  8.0170417947713887E-02 a      1205     0    49     1     5
 -1.2782570228129955E-01 a      1206     0    49     1     6
 -1.0132212960349146E-02 a      1207     0    49     1     7
 -4.4787640240471896E-02 a      1208     0    49     1     8
  1.5083083374604987E-04 a      1209     0    49     1     9
 -2.5532833453482445E-01 a      1210     0    49     1    10
 -9.1940261944876159E-02 a      1211     0    49     1    11
  1.3048801302647725E-01 a      1212     0    49     1    12
  7.0201320695296290E-02 a      1213     0    49     1    13
  1.5114422545960823E-01 a      1214     0    49     1    14
  1.3986082622302912E-01 a      1215     0    49     1    15
  1.7551219681299124E-01 a      1216     0    49     1    16
  9.3828537071419985E-02 a      1217     0    49     1    17
 -7.5614265915594558E-02 a      1218     0    49     1    18
  2.8909390944858526E-01 a      1219     0    49     1    19
  2.9378028868640445E-02 a      1220     0    49     1    20
 -9.5095944847067432E-02 a      1221     0    49     1    21
  7.9904112838550229E-02 a      1222     0    49     1    22
  2.8503711180888867E-02 a      1223     0    49     1    23
  1.6752192567672308E-01 a      1224     0    49     1    24
 -2.1251651158648639E-02 a      1225     0    49     1    25
  9.2711219171270672E-03 a      1226     0    50     1     1
 -4.0544308147019460E-02 a      1227     0    50     1     2
  1.6856915736914804E-01 a      1228     0    50     1     3
 -2.9821579354893615E-02 a      1229     0    50     1     4
 -2.9842121975790431E-01 a      1230     0    50     1     5
 -1.4324535152281126E-01 a      1231     0    50     1     6
 -1.6239061397901967E-02 a      1232     0    50     1     7
  3.4493700619968190E-02 a      1233     0    50     1     8
  6.9687150391818026E-02 a      1234     0    50     1     9
  2.3238454596685762E-01 a      1235     0    50     1    10
  3.5526248346051795E-02 a      1236     0    50     1    11
 -6.5597016901181070E-03 a      1237     0    50     1    12
 -9.1006299985737407E-02 a      1238     0    50     1    13
  7.4989676060185043E-02 a      1239     0    50     1    14
  2.0729790937093084E-01 a      1240     0    50     1    15
 -1.2209983121406519E-01 a      1241     0    50     1    16
 -1.5671466553878219E-01 a      1242     0    50     1    17
  4.2743847994983477E-03 a      1243     0    50     1    18
  9.6390395614581084E-02 a      1244     0    50     1    19
  7.6283754626586417E-02 a      1245     0    50     1    20
 -1.7960357383494641E-01 a      1246     0    50     1    21
 -1.5038465800509399E-01 a      1247     0    50     1    22
 -6.8816638433314078E-02 a      1248     0    50     1    23
  1.1576258989725378E-01 a      1249     0    50     1    24
 -5.4997073956842869E-02 a      1250     0    50     1    25
  2.0815486115283743E-01 a      1251     0    51     1     1
 -1.2371596313495013E-01 a      1252     0    51     1     2
  2.1320274181118271E-01 a      1253     0    51     1     3
  7.4866692489895040E-03 a      1254     0    51     1     4
 -1.2183147593483237E-02 a      1255     0    51     1     5
 -1.4406897158746840E-01 a      1256     0    51     1     6
  5.1392479799378783E-02 a      1257     0    51     1     7
  2.5138718391871506E-01 a      1258     0    51     1     8
  1.2337900929670476E-01 a      1259     0    51     1     9
 -7.1546083753868853E-02 a      1260     0    51     1    10
 -1.9262878884242651E-01 a      1261     0    51     1    11
  3.8701051454494477E-02 a      1262     0    51     1    12
  5.9902413988667039E-02 a      1263     0    51     1    13
 -1.1174022868627884E-01 a      1264     0    51     1    14
  1.6860051588134486E-01 a      1265     0    51     1    15
  1.8383684704916944E-01 a      1266     0    51     1    16
  1.6719042053626226E-01 a      1267     0    51     1    17
 -3.3079584791953359E-01 a      1268     0    51     1    18
  3.0386430088020001E-03 a      1269     0    51     1    19
  2.2170954490790554E-01 a      1270     0    51     1    20
 -1.3642858354441378E-01 a      1271     0    51     1    21
 -7.0163718852382220E-02 a      1272     0    51     1    22
  1.2277126757785428E-01 a      1273     0    51     1    23
  1.8301602561800007E-01 a      1274     0    51     1    24
 -1.3677293153946848E-01 a      1275     0    51     1    25
 -1.4641493007690073E-01 a      1276     0    52     1     1
  1.4162853356089852E-01 a      1277     0    52     1     2
 -3.6096552364040779E-01 a      1278     0    52     1     3
  4.8224248711279741E-02 a      1279     0    52     1     4
 -4.5836681147563690E-01 a      1280     0    52     1     5
 -3.1484132916263768E-01 a      1281     0    52     1     6
 -1.5037788903147481E-01 a      1282     0    52     1     7
 -2.3461328840786552E-01 a      1283     0    52     1     8
 -7.1573022617809276E-02 a      1284     0    52     1     9
  1.9196713451856939E-01 a      1285     0    52     1    10
  5.0961546514262636E-02 a      1286     0    52     1    11
  3.2581564241604188E-02 a      1287     0    52     1    12
 -7.5219277793281705E-02 a      1288     0    52     1    13
 -1.1830055855895907E-01 a      1289     0    52     1    14
  1.8845264902194292E-01 a      1290     0    52     1    15
  1.6069246129711845E-01 a      1291     0    52     1    16
 -1.5269708385377684E-01 a      1292     0    52     1    17
  2.2958086602080782E-01 a      1293     0    52     1    18
  2.4044858493626919E-01 a      1294     0    52     1    19
 -2.4247091352652594E-01 a      1295     0    52     1    20
  5.2840357418363652E-03 a      1296     0    52     1    21
  4.2038659711988330E-01 a      1297     0    52     1    22
 -2.0360750771190755E-01 a      1298     0    52     1    23
 -7.4990751118108712E-02 a      1299     0    52     1    24
  2.8070623919991439E-01 a      1300     0    52     1    25
  2.0637388018457226E-01 a      1301     0    53     1     1
 -3.5132952995898782E-02 a      1302     0    53     1     2
 -8.6466121653445780E-03 a      1303     0    53     1     3
  7.8835971502880478E-02 a      1304     0    53     1     4
 -7.1783933676087177E-03 a      1305     0    53     1     5
 -1.8056416216189228E-01 a      1306     0    53     1     6
  1.3332126546778407E-02 a      1307     0    53     1     7
  1.7807689582328015E-01 a      1308     0    53     1     8
 -4.6491133729845105E-02 a      1309     0    53     1     9
  1.2349472770432011E-01 a      1310     0    53     1    10
  1.1773381604695060E-01 a      1311     0    53     1    11
  1.9931331420960646E-01 a      1312     0    53     1    12
 -4.2486193146982106E-02 a      1313     0    53     1    13
  9.2127889500797172E-02 a      1314     0    53     1    14
  6.5524601247198028E-02 a      1315     0    53     1    15
  1.2066358727534848E-01 a      1316     0    53     1    16
 -1.6741464261524969E-01 a      1317     0    53     1    17
 -1.3344499007701741E-02 a      1318     0    53     1    18
 -8.8602795935816478E-02 a      1319     0    53     1    19
  6.3610030680197341E-02 a      1320     0    53     1    20
  9.5457314516088312E-02 a      1321     0    53     1    21
  8.3638079850188146E-02 a      1322     0    53     1    22
  4.0026666083527673E-02 a      1323     0    53     1    23
 -3.7958705086024377E-02 a      1324     0    53     1    24
 -7.5683423560615540E-03 a      1325     0    53     1    25
  1.0436816970582843E-01 a      1326     0    54     1     1
  5.5049550275508320E-02 a      1327     0    54     1     2
 -1.1704789018506456E-01 a      1328     0    54     1     3
  1.0164180024774631E-01 a      1329     0    54     1     4
  1.9035756310283819E-01 a      1330     0    54     1     5
 -8.6966867538616155E-02 a      1331     0    54     1     6
  6.3885879325356373E-02 a      1332     0    54     1     7
 -7.7791540450664567E-02 a      1333     0    54     1     8
 -1.1317371387911977E-01 a      1334     0    54     1     9
  5.0598692891018641E-02 a      1335     0    54     1    10
 -5.2751039656317118E-02 a      1336     0    54     1    11
 -2.1475716912961162E-01 a      1337     0    54     1    12
 -4.3812123338551445E-02 a      1338     0    54     1    13
 -1.5737865223845313E-01 a      1339     0    54     1    14
  1.1768724598304192E-01 a      1340     0    54     1    15
  1.1860434611991795E-01 a      1341     0    54     1    16
 -1.5301984577681388E-01 a      1342     0    54     1    17
  2.2098343158704245E-01 a      1343     0    54     1    18
  2.2143351515243781E-01 a      1344     0    54     1    19
  5.9925729282973281E-02 a      1345     0    54     1    20
 -1.1525332972280283E-01 a      1346     0    54     1    21
 -1.6982626993982256E-01 a      1347     0    54     1    22
  1.0616379546446293E-01 a      1348     0    54     1    23
  1.3465045711157042E-01 a      1349     0    54     1    24
  8.7905568049724589E-02 a      1350     0    54     1    25
  5.1690974905564173E-02 a      1351     0    55     1     1
 -5.1708516227871745E-02 a      1352     0    55     1     2
  6.6350815233719856E-02 a      1353     0    55     1     3
 -1.1576529868621316E-01 a      1354     0    55     1     4
 -1.7907121210251190E-01 a      1355     0    55     1     5
  1.8304690969027751E-01 a      1356     0    55     1     6
 -8.8226979638503199E-03 a      1357     0    55     1     7
  6.9515232209073158E-02 a      1358     0    55     1     8
  5.9539455749628836E-02 a      1359     0    55     1     9
  2.0861323949586455E-01 a      1360     0    55     1    10
  2.2299278945416878E-01 a      1361     0    55     1    11
 -3.5390115552416546E-01 a      1362     0    55     1    12
  5.9964276734579096E-02 a      1363     0    55     1    13
 -2.0170142715417685E-02 a      1364     0    55     1    14
 -7.5299134614093252E-02 a      1365     0    55     1    15
 -7.3451259911162345E-02 a      1366     0    55     1    16
  1.0812659972949558E-01 a      1367     0    55     1    17
 -1.0256139550557601E-01 a      1368     0    55     1    18
 -2.9340254796696687E-02 a      1369     0    55     1    19
  1.8996740176571333E-01 a      1370     0    55     1    20
  2.4691302047781755E-01 a      1371     0    55     1    21
  7.6773566316543668E-02 a      1372     0    55     1    22
 -7.4691357585622686E-03 a      1373     0    55     1    23
  1.3253466493936997E-01 a      1374     0    55     1    24
 -6.5659957420305851E-02 a      1375     0    55     1    25
  1.4923944151668331E-01 a      1376     0    56     1     1
 -1.0284714648570338E-01 a      1377     0    56     1     2
 -1.3998255468395923E-01 a      1378     0    56     1     3
 -1.0252562717549178E-02 a      1379     0    56     1     4
 -2.5598242673252808E-01 a      1380     0    56     1     5
  1.3243713041868607E-01 a      1381     0    56     1     6
  2.4727854845778895E-02 a      1382     0    56     1     7
 -9.9061627391056534E-02 a      1383     0    56     1     8
  2.2927034983174173E-02 a      1384     0    56     1     9
  8.0523840074346181E-02 a      1385     0    56     1    10
 -7.6549669863095568E-02 a      1386     0    56     1    11
  1.2493332649392476E-01 a      1387     0    56     1    12
 -2.7181241367224416E-02 a      1388     0    56     1    13
 -8.9299749509427748E-02 a      1389     0    56     1    14
 -1.1520610487218627E-02 a      1390     0    56     1    15
 -2.2953364279820976E-02 a      1391     0    56     1    16
 -1.0711667011381331E-02 a      1392     0    56     1    17
 -1.1548413923089525E-01 a      1393     0    56     1    18
 -2.2376727412905781E-01 a      1394     0    56     1    19
 -6.4773803609397178E-03 a      1395     0    56     1    20
  4.9768914089511923E-02 a      1396     0    56     1    21
  1.3382193073554027E-01 a      1397     0    56     1    22
  2.1774859485939886E-02 a      1398     0    56     1    23
 -1.9945245017394844E-01 a      1399     0    56     1    24
  1.7356410001882208E-01 a      1400     0    56     1    25
 -4.6704537462883576E-02 a      1401     0    57     1     1
  3.3663409715950582E-02 a      1402     0    57     1     2
  6.6123089383547801E-02 a      1403     0    57     1     3
  1.4202942763056497E-01 a      1404     0    57     1     4
 -8.7876139591048272E-02 a      1405     0    57     1     5
  1.7849622748530350E-01 a      1406     0    57     1     6
 -9.5081754054020685E-03 a      1407     0    57     1     7
 -2.4275443697166529E-01 a      1408     0    57     1     8
 -1.2139777018622998E-01 a      1409     0    57     1     9
  8.3067419606099369E-02 a      1410     0    57     1    10
 -1.5897046689217961E-01 a      1411     0    57     1    11
  1.0469797923769358E-01 a      1412     0    57     1    12
  5.7994594937508512E-02 a      1413     0    57     1    13
  1.8705810904154968E-01 a      1414     0    57     1    14
  5.9523560980949096E-02 a      1415     0    57     1    15
 -2.6894363702164786E-01 a      1416     0    57     1    16
  1.0003086144345558E-01 a      1417     0    57     1    17
  1.3715999701076937E-02 a      1418     0    57     1    18
  1.5302571177838112E-01 a      1419     0    57     1    19
  1.8890261382940707E-01 a      1420     0    57     1    20
 -1.7395831189554919E-01 a      1421     0    57     1    21
  4.3637824877805105E-02 a      1422     0    57     1    22
 -2.2011155384574119E-01 a      1423     0    57     1    23
 -2.1075289198572225E-01 a      1424     0    57     1    24
 -9.1031288926946966E-02 a      1425     0    57     1    25
  3.6864325324573316E-02 a      1426     0    58     1     1
 -1.9543481565523935E-02 a      1427     0    58     1     2
 -9.8083749882582991E-02 a      1428     0    58     1     3
 -2.5266039679168018E-01 a      1429     0    58     1     4
  1.3947916503613450E-01 a      1430     0    58     1     5
 -2.4679981662393886E-02 a      1431     0    58     1     6
 -1.4658328103705881E-01 a      1432     0    58     1     7
  1.3365399230537706E-01 a      1433     0    58     1     8
 -1.5692531980630894E-01 a      1434     0    58     1     9
 -1.7370792510859736E-02 a      1435     0    58     1    10
 -1.4685924577550041E-01 a      1436     0    58     1    11
  2.5682083261960015E-01 a      1437     0    58     1    12
  5.1981516647256157E-02 a      1438     0    58     1    13
 -1.2849433301136570E-01 a      1439     0    58     1    14
 -1.6369062819912547E-01 a      1440     0    58     1    15
 -1.4073587983063679E-01 a      1441     0    58     1    16
 -1.8992544454537427E-01 a      1442     0    58     1    17
  2.3843627918570950E-01 a      1443     0    58     1    18
  2.3975266740895559E-02 a      1444     0    58     1    19
 -1.8980673043174720E-01 a      1445     0    58     1    20
 -9.2051236768512623E-02 a      1446     0    58     1    21
 -2.0792479801006711E-01 a      1447     0    58     1    22
  7.8956255250574536E-02 a      1448     0    58     1    23
  5.7576137960676760E-02 a      1449     0    58     1    24
 -6.0136682454341187E-02 a      1450     0    58     1    25
  1.6711015582104657E-01 a      1451     0    59     1     1
 -2.6137000506241681E-01 a      1452     0    59     1     2
  1.7611528887533745E-01 a      1453     0    59     1     3
 -1.7487750444055369E-01 a      1454     0    59     1     4
 -8.2801621289675609E-02 a      1455     0    59     1     5
 -9.7892853351214573E-02 a      1456     0    59     1     6
 -1.2574411097698099E-01 a      1457     0    59     1     7
 -5.0568031074496797E-02 a      1458     0    59     1     8
 -1.4106086456188080E-01 a      1459     0    59     1     9
 -2.1446257401198937E-01 a      1460     0    59     1    10
  2.0937036850661170E-01 a      1461     0    59     1    11
  3.8314637576013257E-02 a      1462     0    59     1    12
  7.4756055482508688E-02 a      1463     0    59     1    13
  7.0666293595550225E-02 a      1464     0    59     1    14
 -9.9705647966260788E-02 a      1465     0    59     1    15
 -1.2001900111553464E-01 a      1466     0    59     1    16
 -1.0584285682834736E-01 a      1467     0    59     1    17
 -9.9858510925097468E-02 a      1468     0    59     1    18
  3.2594697422540275E-01 a      1469     0    59     1    19
 -2.1089069230386615E-01 a      1470     0    59     1    20
  1.8896492594641712E-01 a      1471     0    59     1    21
 -1.3859418720344741E-01 a      1472     0    59     1    22
  2.5517683019181153E-02 a      1473     0    59     1    23
 -2.0542202014540983E-01 a      1474     0    59     1    24
 -2.4485959138127944E-01 a      1475     0    59     1    25
  6.1778126026433212E-02 a      1476     0    60     1     1
  1.1296921322926365E-01 a      1477     0    60     1     2
 -2.3397964118602571E-01 a      1478     0    60     1     3
  1.5531024380780139E-02 a      1479     0    60     1     4
  2.1200044231135934E-01 a      1480     0    60     1     5
  2.4292966542073961E-02 a      1481     0    60     1     6
  1.2629695692715967E-01 a      1482     0    60     1     7
 -7.8327418082094410E-02 a      1483     0    60     1     8
 -1.3374136114783053E-01 a      1484     0    60     1     9
 -1.9545652522408324E-01 a      1485     0    60     1    10
 -1.3583139192601107E-01 a      1486     0    60     1    11
  2.3133910154811213E-03 a      1487     0    60     1    12
  1.5150896014093176E-01 a      1488     0    60     1    13
 -1.9734745030005746E-01 a      1489     0    60     1    14
  1.3934671010516211E-01 a      1490     0    60     1    15
 -2.0083020807639279E-01 a      1491     0    60     1    16
 -1.5352604493249856E-02 a      1492     0    60     1    17
  1.2953096540415604E-01 a      1493     0    60     1    18
 -2.1745385255158664E-01 a      1494     0    60     1    19
 -2.3646116447935708E-01 a      1495     0    60     1    20
  1.1575938776766381E-01 a      1496     0    60     1    21
  1.4156145446935836E-01 a      1497     0    60     1    22
 -9.0005056659045249E-03 a      1498     0    60     1    23
 -1.4738043176803478E-01 a      1499     0    60     1    24
 -2.2279389290714893E-02 a      1500     0    60     1    25
 -6.4292742677428211E-02 a      1501     0    61     1     1
  1.6903921377620612E-01 a      1502     0    61     1     2
 -3.4974697680135031E-02 a      1503     0    61     1     3
  1.5799275366874424E-01 a      1504     0    61     1     4
 -9.7721229461928044E-02 a      1505     0    61     1     5
  6.2300476940090527E-02 a      1506     0    61     1     6
  6.5276549773927023E-02 a      1507     0    61     1     7
  6.3114043724082164E-02 a      1508     0    61     1     8
  1.0268242050329458E-01 a      1509     0    61     1     9
  4.6202307606542037E-02 a      1510     0    61     1    10
 -2.5850280808968989E-01 a      1511     0    61     1    11
 -2.0616215490802214E-01 a      1512     0    61     1    12
 -7.5461765957528751E-02 a      1513     0    61     1    13
  1.0037566095108089E-01 a      1514     0    61     1    14
  1.2194163674205501E-02 a      1515     0    61     1    15
  9.7562693956813745E-02 a      1516     0    61     1    16
  4.7920914145854428E-02 a      1517     0    61     1    17
 -3.8095824193881724E-02 a      1518     0    61     1    18
 -2.9193384559228985E-01 a      1519     0    61     1    19
 -1.2411288447575852E-01 a      1520     0    61     1    20
 -1.1833409861576036E-01 a      1521     0    61     1    21
  4.7302160589523197E-02 a      1522     0    61     1    22
  3.3648572931837838E-02 a      1523     0    61     1    23
  2.5074586189453241E-02 a      1524     0    61     1    24
 -4.6559208188657927E-02 a      1525     0    61     1    25
 -8.0021713750771620E-02 a      1526     0    62     1     1
 -1.2031258243983778E-01 a      1527     0    62     1     2
 -2.2654408849679977E-01 a      1528     0    62     1     3
 -1.9568254758877215E-01 a      1529     0    62     1     4
 -7.5789108299241362E-02 a      1530     0    62     1     5
  4.1216643205595940E-02 a      1531     0    62     1     6
 -1.4494449363846018E-01 a      1532     0    62     1     7
 -9.1669965630267011E-02 a      1533     0    62     1     8
 -3.0220521991007065E-01 a      1534     0    62     1     9
 -5.1441171758273493E-02 a      1535     0    62     1    10
 -2.5780048493555996E-01 a      1536     0    62     1    11
  1.2396864070493133E-01 a      1537     0    62     1    12
  8.6237148343282347E-02 a      1538     0    62     1    13
 -2.2078691975637069E-02 a      1539     0    62     1    14
 -1.4141148531366917E-02 a      1540     0    62     1    15
 -1.3978561255224703E-01 a      1541     0    62     1    16
  1.5481927721467645E-01 a      1542     0    62     1    17
 -1.7219386013636304E-01 a      1543     0    62     1    18
  3.3970995089033604E-02 a      1544     0    62     1    19
  5.5610488095012713E-02 a      1545     0    62     1    20
  2.2688548726875285E-01 a      1546     0    62     1    21
  6.5429635013722884E-02 a      1547     0    62     1    22
 -6.8403699026176337E-02 a      1548     0    62     1    23
 -9.8000811236093194E-02 a      1549     0    62     1    24
  4.0305099735796068E-01 a      1550     0    62     1    25
  1.5739413887150201E-02 a      1551     0    63     1     1
  5.4969355157127892E-02 a      1552     0    63     1     2
  3.4667497469607483E-02 a      1553     0    63     1     3
 -1.7654885707842131E-02 a      1554     0    63     1     4
 -2.0769810948679458E-02 a      1555     0    63     1     5
 -2.2823834388763931E-01 a      1556     0    63     1     6
  1.9159287333167831E-02 a      1557     0    63     1     7
  5.3681277402033482E-02 a      1558     0    63     1     8
  8.0650882036051932E-02 a      1559     0    63     1     9
 -9.7988395908515206E-03 a      1560     0    63     1    10
 -1.9234668761080623E-01 a      1561     0    63     1    11
 -9.2277977739268057E-03 a      1562     0    63     1    12
 -5.7266928651397743E-02 a      1563     0    63     1    13
 -1.0590967339127479E-01 a      1564     0    63     1    14
  1.2699874377313858E-01 a      1565     0    63     1    15
 -5.1635292631828970E-02 a      1566     0    63     1    16
  1.6981809160038386E-01 a      1567     0    63     1    17
 -7.4300274486155879E-02 a      1568     0    63     1    18
 -1.7650993175642682E-01 a      1569     0    63     1    19
 -1.2202238717957180E-01 a      1570     0    63     1    20
  6.2662166871698760E-02 a      1571     0    63     1    21
 -8.1453006488226065E-02 a      1572     0    63     1    22
 -1.4089103328263908E-01 a      1573     0    63     1    23
 -1.0899245632994974E-01 a      1574     0    63     1    24
 -1.3958409350500933E-01 a      1575     0    63     1    25
 -7.0317564767523918E-02 a      1576     0    64     1     1
  8.1396183577576123E-02 a      1577     0    64     1     2
  3.8175625211616979E-02 a      1578     0    64     1     3
  2.2113147910259583E-02 a      1579     0    64     1     4
  3.2246088913599751E-02 a      1580     0    64     1     5
  4.0140475862908989E-02 a      1581     0    64     1     6
  8.3423320175262175E-02 a      1582     0    64     1     7
 -3.1545545185687758E-02 a      1583     0    64     1     8
 -3.7725105451311629E-02 a      1584     0    64     1     9
  3.2470740835785433E-01 a      1585     0    64     1    10
  4.3910877186368082E-02 a      1586     0    64     1    11
 -2.6311745148670085E-01 a      1587     0    64     1    12
  5.7656262097782823E-02 a      1588     0    64     1    13
 -1.1095634317884559E-01 a      1589     0    64     1    14
  4.3488411742577733E-02 a      1590     0    64     1    15
 -4.0773595478611001E-02 a      1591     0    64     1    16
  1.4956364708309902E-01 a      1592     0    64     1    17
 -3.9620229540298212E-03 a      1593     0    64     1    18
  1.3796617619055729E-01 a      1594     0    64     1    19
  1.2258539450709469E-02 a      1595     0    64     1    20
  4.6380405928375848E-02 a      1596     0    64     1    21
  8.8874536448751484E-02 a      1597     0    64     1    22
 -9.3658368436582169E-03 a      1598     0    64     1    23
  1.0015538762337457E-01 a      1599     0    64     1    24
  1.7059460145082547E-01 a      1600     0    64     1    25
  7.5892255300410619E-02 a      1601     0    65     1     1
  2.8429851650043481E-01 a      1602     0    65     1     2
 -4.6901320625614994E-02 a      1603     0    65     1     3
  5.4511455179328240E-02 a      1604     0    65     1     4
  4.5082928926203125E-01 a      1605     0    65     1     5
  4.1239911731604266E-03 a      1606     0    65     1     6
  1.2708895133499373E-01 a      1607     0    65     1     7
 -3.7117475889108492E-02 a      1608     0    65     1     8
  2.6006402038817455E-01 a      1609     0    65     1     9
  2.1799743909718267E-01 a      1610     0    65     1    10
 -5.2187112442638517E-02 a      1611     0    65     1    11
 -2.3538416152827077E-01 a      1612     0    65     1    12
 -1.2118392044946852E-01 a      1613     0    65     1    13
 -7.0923521472484291E-02 a      1614     0    65     1    14
 -9.7756271779223303E-02 a      1615     0    65     1    15
 -6.0182038022022558E-02 a      1616     0    65     1    16
 -1.2464737123561036E-01 a      1617     0    65     1    17
  2.2601300602118449E-01 a      1618     0    65     1    18
 -1.9453379435921170E-01 a      1619     0    65     1    19
 -9.0197040235685269E-02 a      1620     0    65     1    20
 -2.3804007447582532E-02 a      1621     0    65     1    21
 -1.3290320148860840E-01 a      1622     0    65     1    22
 -2.1832726631347117E-02 a      1623     0    65     1    23
