################################################################################
# Neural network connection values (weights and biases).
################################################################################
# Col  Name       Description
################################################################################
# 1    connection Neural network connection value.
# 2    t          Connection type (a = weight, b = bias).
# 3    index      Index enumerating weights.
# 4    l_s        Starting point layer (end point layer for biases).
# 5    n_s        Starting point neuron in starting layer (end point neuron for biases).
# 6    l_e        End point layer.
# 7    n_e        End point neuron in end layer.
################################################################################
#                      1 2         3     4     5     6     7
#             connection t     index   l_s   n_s   l_e   n_e
############################################################
 -1.6340534854093459E-02 a         1     0     1     1     1
  2.5346267849989924E-02 a         2     0     1     1     2
 -5.3712140655181831E-02 a         3     0     1     1     3
  7.9247312849630394E-02 a         4     0     1     1     4
 -3.1968506441429650E-02 a         5     0     1     1     5
  2.1410108246778689E-01 a         6     0     1     1     6
  2.2295640400137193E-01 a         7     0     1     1     7
  1.0857079477543555E-01 a         8     0     1     1     8
 -4.2821302540597544E-02 a         9     0     1     1     9
  4.9012102110323939E-02 a        10     0     1     1    10
  4.1804752746091889E-01 a        11     0     1     1    11
  1.6797854577662050E-01 a        12     0     1     1    12
  1.0775225118855201E-01 a        13     0     1     1    13
 -7.1895690552728000E-02 a        14     0     1     1    14
  2.0418169967916601E-02 a        15     0     1     1    15
 -1.5933720075199137E-01 a        16     0     1     1    16
  2.7581034580715807E-01 a        17     0     1     1    17
 -1.0509357758044544E-01 a        18     0     1     1    18
  4.1977524754424241E-02 a        19     0     1     1    19
  2.7798879187894676E-01 a        20     0     1     1    20
 -1.1632000730892499E-01 a        21     0     1     1    21
  2.0693124234376059E-01 a        22     0     1     1    22
  1.5146737166933313E-01 a        23     0     1     1    23
  2.0621023379583334E-01 a        24     0     1     1    24
 -1.9455771884302678E-01 a        25     0     1     1    25
  4.4575844973071786E-02 a        26     0     2     1     1
 -1.9330471821578293E-01 a        27     0     2     1     2
  1.2145487189911515E-01 a        28     0     2     1     3
 -4.7501959753525204E-02 a        29     0     2     1     4
  1.5164685961117773E-02 a        30     0     2     1     5
 -1.3049902011239928E-01 a        31     0     2     1     6
  9.1379587306218341E-02 a        32     0     2     1     7
 -1.5848412684467780E-01 a        33     0     2     1     8
  4.6883329812157384E-02 a        34     0     2     1     9
 -2.0832301534013481E-01 a        35     0     2     1    10
 -8.1875800701911375E-02 a        36     0     2     1    11
  2.4972413149108988E-02 a        37     0     2     1    12
 -3.1752290776756306E-03 a        38     0     2     1    13
  2.9280724367776845E-01 a        39     0     2     1    14
  1.6064345546112122E-01 a        40     0     2     1    15
  3.1650376919154628E-02 a        41     0     2     1    16
  1.0585544800282716E-01 a        42     0     2     1    17
  2.9491728248453239E-02 a        43     0     2     1    18
 -1.8904442464348286E-02 a        44     0     2     1    19
  1.9852579929397776E-01 a        45     0     2     1    20
 -8.0620244133925656E-02 a        46     0     2     1    21
 -2.1450391116662883E-02 a        47     0     2     1    22
  3.8272226469267853E-02 a        48     0     2     1    23
 -2.4276184069414077E-04 a        49     0     2     1    24
 -2.8054140775978176E-02 a        50     0     2     1    25
  2.1542327665651581E-01 a        51     0     3     1     1
  2.5566366983730926E-01 a        52     0     3     1     2
 -1.8343421458319581E-01 a        53     0     3     1     3
  8.4166942085587240E-02 a        54     0     3     1     4
  1.9423302289950036E-02 a        55     0     3     1     5
  6.5886955215369580E-02 a        56     0     3     1     6
 -1.0299751386868991E-01 a        57     0     3     1     7
  2.2491966993901621E-01 a        58     0     3     1     8
 -6.5372087978947738E-02 a        59     0     3     1     9
 -9.6034912847609774E-02 a        60     0     3     1    10
 -2.2724894379751552E-02 a        61     0     3     1    11
 -4.5002648141719899E-02 a        62     0     3     1    12
 -6.2670856071077204E-03 a        63     0     3     1    13
 -1.1387729914848660E-01 a        64     0     3     1    14
  1.1575145935463188E-01 a        65     0     3     1    15
 -6.3352620980039492E-02 a        66     0     3     1    16
 -7.0158726437979685E-02 a        67     0     3     1    17
  4.0135520362777462E-02 a        68     0     3     1    18
 -2.3619312161520034E-01 a        69     0     3     1    19
 -1.7311393351109672E-01 a        70     0     3     1    20
  1.2171746371429011E-01 a        71     0     3     1    21
 -1.1518671510402834E-01 a        72     0     3     1    22
 -1.8275475178271477E-02 a        73     0     3     1    23
  2.6807600988820030E-01 a        74     0     3     1    24
  6.2102073035741688E-02 a        75     0     3     1    25
  3.3357317216856905E-02 a        76     0     4     1     1
  1.5067702611427136E-01 a        77     0     4     1     2
 -1.4577447997969484E-01 a        78     0     4     1     3
 -4.4296394723388997E-02 a        79     0     4     1     4
 -9.9694887363410527E-04 a        80     0     4     1     5
 -2.0949006952367197E-01 a        81     0     4     1     6
 -4.0100281763423479E-02 a        82     0     4     1     7
  7.7451988467640370E-02 a        83     0     4     1     8
  2.1817778147063693E-01 a        84     0     4     1     9
 -6.9593318004425642E-02 a        85     0     4     1    10
  2.5660565622942177E-01 a        86     0     4     1    11
 -3.2742796523053327E-02 a        87     0     4     1    12
 -1.1462381886398619E-01 a        88     0     4     1    13
  1.2489320112263119E-01 a        89     0     4     1    14
  1.9223606565495943E-01 a        90     0     4     1    15
  9.9761333646526298E-02 a        91     0     4     1    16
  5.0566293466884175E-02 a        92     0     4     1    17
  2.2435850048616760E-02 a        93     0     4     1    18
 -4.5517691547224655E-03 a        94     0     4     1    19
 -8.3905850329001830E-02 a        95     0     4     1    20
  8.4810633186449859E-03 a        96     0     4     1    21
 -2.5836264174960039E-01 a        97     0     4     1    22
  1.0906464874863235E-01 a        98     0     4     1    23
 -9.5364583414201554E-03 a        99     0     4     1    24
 -1.0591426989295104E-01 a       100     0     4     1    25
 -1.3886364928617292E-01 a       101     0     5     1     1
  1.2963003149808090E-02 a       102     0     5     1     2
 -1.9410030900934502E-01 a       103     0     5     1     3
 -8.1183806942100312E-02 a       104     0     5     1     4
  1.6176691437339583E-01 a       105     0     5     1     5
 -5.9684102572961070E-02 a       106     0     5     1     6
  1.1195878317472156E-01 a       107     0     5     1     7
 -4.7708864880046664E-01 a       108     0     5     1     8
 -6.7085918721475638E-02 a       109     0     5     1     9
 -1.9936130620167578E-01 a       110     0     5     1    10
 -1.3002554545821893E-01 a       111     0     5     1    11
 -6.3121749581537157E-01 a       112     0     5     1    12
 -2.1248836531175597E-01 a       113     0     5     1    13
  3.3520701526940845E-02 a       114     0     5     1    14
  2.2925808251657756E-01 a       115     0     5     1    15
  1.7807828922796248E-01 a       116     0     5     1    16
  3.4191633554383524E-02 a       117     0     5     1    17
  5.8235497920897217E-01 a       118     0     5     1    18
  1.2054952232602884E-01 a       119     0     5     1    19
  1.5894638732026159E-01 a       120     0     5     1    20
 -5.3223685377475904E-01 a       121     0     5     1    21
  4.4965093207613832E-01 a       122     0     5     1    22
 -3.5438341200598100E-01 a       123     0     5     1    23
  2.6252300074877849E-01 a       124     0     5     1    24
 -1.8089950997549128E-01 a       125     0     5     1    25
  5.1476868377943852E-02 a       126     0     6     1     1
  1.8500643438950312E-01 a       127     0     6     1     2
 -3.7843990480220864E-02 a       128     0     6     1     3
  7.6986997369440271E-02 a       129     0     6     1     4
 -2.7158576713837847E-02 a       130     0     6     1     5
  8.2663045686620432E-02 a       131     0     6     1     6
 -1.0985372275048705E-01 a       132     0     6     1     7
  2.4362054690203550E-01 a       133     0     6     1     8
 -6.6576188734187969E-02 a       134     0     6     1     9
  2.8696726793572080E-01 a       135     0     6     1    10
  1.6802738065734493E-01 a       136     0     6     1    11
 -6.5911271503584279E-02 a       137     0     6     1    12
 -1.4433704277452269E-01 a       138     0     6     1    13
  2.7459359634161618E-02 a       139     0     6     1    14
 -4.9339398916498529E-02 a       140     0     6     1    15
  9.1218597821839012E-02 a       141     0     6     1    16
 -5.9149554207192596E-02 a       142     0     6     1    17
 -1.8026221484033253E-01 a       143     0     6     1    18
  4.0183786659046636E-02 a       144     0     6     1    19
 -8.1106591653810789E-02 a       145     0     6     1    20
  1.3077297441833241E-01 a       146     0     6     1    21
  5.9477697941364965E-03 a       147     0     6     1    22
 -1.3795532399019353E-01 a       148     0     6     1    23
 -5.5796603182660449E-02 a       149     0     6     1    24
  4.0219056407694943E-02 a       150     0     6     1    25
 -2.1877166369009560E-01 a       151     0     7     1     1
  1.6013693341671770E-01 a       152     0     7     1     2
 -1.7110767848894237E-01 a       153     0     7     1     3
  2.3422633115190137E-02 a       154     0     7     1     4
  4.6756777987670584E-02 a       155     0     7     1     5
 -2.3724105273911358E-02 a       156     0     7     1     6
 -1.4229549135274250E-01 a       157     0     7     1     7
 -1.8953542959282638E-01 a       158     0     7     1     8
  2.4561679992672369E-01 a       159     0     7     1     9
  1.6773451182141230E-01 a       160     0     7     1    10
  2.0087953256076127E-01 a       161     0     7     1    11
  1.4358390921085024E-01 a       162     0     7     1    12
 -1.2066217805039155E-01 a       163     0     7     1    13
 -1.7623162447094698E-01 a       164     0     7     1    14
 -1.1702480547273707E-01 a       165     0     7     1    15
  3.3648041080482520E-02 a       166     0     7     1    16
  1.8616973135756684E-01 a       167     0     7     1    17
  3.7246960774687136E-02 a       168     0     7     1    18
 -2.1379811189613444E-03 a       169     0     7     1    19
  1.1889855773825164E-01 a       170     0     7     1    20
 -2.5992944655486927E-01 a       171     0     7     1    21
 -1.4843111928958694E-01 a       172     0     7     1    22
 -1.9979275927771400E-01 a       173     0     7     1    23
 -2.3058515910310989E-01 a       174     0     7     1    24
 -1.2990606564999510E-01 a       175     0     7     1    25
  1.3947933783442187E-01 a       176     0     8     1     1
  8.5712037913028422E-02 a       177     0     8     1     2
  1.2959136818617523E-01 a       178     0     8     1     3
 -2.0080048972513184E-01 a       179     0     8     1     4
  1.4182833339170633E-01 a       180     0     8     1     5
  2.4299223951161320E-01 a       181     0     8     1     6
 -1.3258447253947614E-01 a       182     0     8     1     7
 -7.3145360550961824E-02 a       183     0     8     1     8
 -2.2949384824665627E-02 a       184     0     8     1     9
  1.7966509862309400E-02 a       185     0     8     1    10
 -4.2092493550413237E-02 a       186     0     8     1    11
  4.3522798000921355E-02 a       187     0     8     1    12
  1.1333728033907799E-01 a       188     0     8     1    13
 -2.2399870712142642E-02 a       189     0     8     1    14
 -2.1279519655407236E-01 a       190     0     8     1    15
 -2.7631638093282818E-01 a       191     0     8     1    16
  2.3713054379944182E-01 a       192     0     8     1    17
 -1.3415615691175814E-01 a       193     0     8     1    18
 -1.4677142425381476E-01 a       194     0     8     1    19
  1.4934539314558282E-02 a       195     0     8     1    20
  2.2620920167880862E-01 a       196     0     8     1    21
  1.1854578640288628E-01 a       197     0     8     1    22
 -1.8412596722719060E-01 a       198     0     8     1    23
  2.4325433387923909E-02 a       199     0     8     1    24
  1.2527232921189269E-01 a       200     0     8     1    25
 -1.3416702447843093E-01 a       201     0     9     1     1
  1.1695912449103261E-01 a       202     0     9     1     2
  9.4573360916690927E-02 a       203     0     9     1     3
 -1.8653337478287543E-01 a       204     0     9     1     4
 -7.3136087122100624E-02 a       205     0     9     1     5
  3.6366594156326461E-02 a       206     0     9     1     6
  2.2582178652923371E-01 a       207     0     9     1     7
 -1.4366731727935601E-02 a       208     0     9     1     8
 -2.6649047259395753E-01 a       209     0     9     1     9
 -1.1817650042387579E-01 a       210     0     9     1    10
  3.4620396302881784E-01 a       211     0     9     1    11
 -3.5503536765879244E-02 a       212     0     9     1    12
  9.0475078987332841E-02 a       213     0     9     1    13
  1.1451395213705731E-01 a       214     0     9     1    14
 -1.6612906865086727E-01 a       215     0     9     1    15
  6.6761527333032575E-02 a       216     0     9     1    16
  3.4774190648282072E-01 a       217     0     9     1    17
 -6.6491590878952581E-02 a       218     0     9     1    18
 -7.4021408963477725E-02 a       219     0     9     1    19
  8.7957794350704596E-02 a       220     0     9     1    20
 -1.0937721974362664E-01 a       221     0     9     1    21
  1.1923265763413102E-02 a       222     0     9     1    22
  2.3392364077407193E-01 a       223     0     9     1    23
 -4.0452462054814909E-03 a       224     0     9     1    24
 -4.9899578027450670E-05 a       225     0     9     1    25
  1.8829906565574423E-03 a       226     0    10     1     1
 -1.6138648309317194E-01 a       227     0    10     1     2
 -4.5890349157238018E-02 a       228     0    10     1     3
  1.7904577436938410E-01 a       229     0    10     1     4
  2.3070700233220812E-01 a       230     0    10     1     5
 -3.7507327659032394E-03 a       231     0    10     1     6
 -1.3370672099229547E-01 a       232     0    10     1     7
 -1.2551445986562687E-01 a       233     0    10     1     8
 -7.9549626108574564E-02 a       234     0    10     1     9
 -1.3131329845478654E-01 a       235     0    10     1    10
 -1.7672399282120760E-01 a       236     0    10     1    11
  3.1706411860959703E-02 a       237     0    10     1    12
  1.1545624015941915E-01 a       238     0    10     1    13
 -3.3780102498735298E-01 a       239     0    10     1    14
 -3.1533527208748059E-02 a       240     0    10     1    15
 -1.4879220237352939E-01 a       241     0    10     1    16
 -2.2486297261962254E-01 a       242     0    10     1    17
  2.6520791804773760E-02 a       243     0    10     1    18
 -1.8877739867390855E-02 a       244     0    10     1    19
 -1.6640751311860557E-02 a       245     0    10     1    20
 -1.0250135114861342E-01 a       246     0    10     1    21
  7.6442390550812728E-02 a       247     0    10     1    22
 -6.6206465653384115E-04 a       248     0    10     1    23
  1.7735194790035765E-02 a       249     0    10     1    24
  5.9058526792166340E-02 a       250     0    10     1    25
 -1.9493446482152660E-01 a       251     0    11     1     1
 -1.0302411471590103E-01 a       252     0    11     1     2
  1.3101283788864795E-01 a       253     0    11     1     3
  1.4401220092750047E-01 a       254     0    11     1     4
  1.1253467999532031E-01 a       255     0    11     1     5
 -6.1633247095019085E-02 a       256     0    11     1     6
 -1.6669991914594010E-01 a       257     0    11     1     7
 -1.1882956175119570E-01 a       258     0    11     1     8
  1.4800355350638258E-01 a       259     0    11     1     9
 -1.1791395619310181E-01 a       260     0    11     1    10
  1.6155134806919905E-01 a       261     0    11     1    11
 -4.4467651948753367E-01 a       262     0    11     1    12
 -9.8523583416059324E-02 a       263     0    11     1    13
  4.2810332739671225E-03 a       264     0    11     1    14
  4.2331932781997539E-02 a       265     0    11     1    15
  1.0594466908522907E-01 a       266     0    11     1    16
 -8.4680417150613599E-02 a       267     0    11     1    17
  2.9822643081256869E-02 a       268     0    11     1    18
  1.3994575561167893E-01 a       269     0    11     1    19
  4.5472994994743041E-02 a       270     0    11     1    20
 -2.9801641241411003E-01 a       271     0    11     1    21
  7.5224430526566313E-02 a       272     0    11     1    22
  2.1308297932527229E-01 a       273     0    11     1    23
  9.5437572557922151E-02 a       274     0    11     1    24
 -4.3381820862839100E-02 a       275     0    11     1    25
 -5.5682148958887470E-02 a       276     0    12     1     1
  1.9126936700285303E-02 a       277     0    12     1     2
 -1.3783245904714844E-01 a       278     0    12     1     3
  1.4321024027375634E-01 a       279     0    12     1     4
 -1.3442634041373977E-01 a       280     0    12     1     5
 -6.0346654450609036E-02 a       281     0    12     1     6
  1.6309896245767441E-01 a       282     0    12     1     7
  1.1278370239128607E-01 a       283     0    12     1     8
  1.1382577168648648E-01 a       284     0    12     1     9
 -2.4391867405604342E-01 a       285     0    12     1    10
 -8.7432763129517962E-02 a       286     0    12     1    11
 -1.1582196876666384E-01 a       287     0    12     1    12
 -1.6058711868092344E-02 a       288     0    12     1    13
  1.2584889146970976E-01 a       289     0    12     1    14
  8.0596604511585859E-02 a       290     0    12     1    15
  1.3934513634334550E-01 a       291     0    12     1    16
 -1.8051004363297907E-01 a       292     0    12     1    17
  6.2651855304666507E-02 a       293     0    12     1    18
 -3.3616510646982137E-02 a       294     0    12     1    19
 -1.2665878848158632E-01 a       295     0    12     1    20
 -5.5694357392130862E-02 a       296     0    12     1    21
  1.7409579093395355E-01 a       297     0    12     1    22
 -1.6090566136138357E-01 a       298     0    12     1    23
  1.3898807253699461E-01 a       299     0    12     1    24
 -1.0994530004224717E-01 a       300     0    12     1    25
  4.4146926607166548E-01 a       301     0    13     1     1
  2.8813717032651026E-01 a       302     0    13     1     2
 -3.6079030245167448E-01 a       303     0    13     1     3
 -9.4981643053556011E-02 a       304     0    13     1     4
  1.5774112369991364E-01 a       305     0    13     1     5
  9.8138193452031938E-02 a       306     0    13     1     6
  2.9058573783948516E-01 a       307     0    13     1     7
  1.0551503810128532E-01 a       308     0    13     1     8
  1.1182941059687820E-01 a       309     0    13     1     9
  2.0246981298353467E-01 a       310     0    13     1    10
 -1.3728608699244021E-01 a       311     0    13     1    11
 -2.6606603152541397E-01 a       312     0    13     1    12
  1.3290599109082779E-01 a       313     0    13     1    13
 -4.1561806117093127E-02 a       314     0    13     1    14
  1.1251337176654588E-01 a       315     0    13     1    15
  3.0975116587760038E-01 a       316     0    13     1    16
 -7.4943796951479499E-02 a       317     0    13     1    17
  4.0484217011268292E-01 a       318     0    13     1    18
  9.7148848524887893E-02 a       319     0    13     1    19
 -1.9745015433046714E-01 a       320     0    13     1    20
 -5.2155673733408500E-02 a       321     0    13     1    21
  3.3169825400140535E-01 a       322     0    13     1    22
  2.4385084980755558E-02 a       323     0    13     1    23
  1.8444319215856431E-01 a       324     0    13     1    24
 -6.0882421976386852E-02 a       325     0    13     1    25
  2.3842982466705243E-01 a       326     0    14     1     1
  8.3440769584272406E-02 a       327     0    14     1     2
 -4.0584872960870329E-02 a       328     0    14     1     3
 -1.8299653439371313E-01 a       329     0    14     1     4
 -6.4923265122690352E-02 a       330     0    14     1     5
 -6.8656324043337130E-02 a       331     0    14     1     6
 -3.0733365963187279E-02 a       332     0    14     1     7
 -1.8718630990788124E-01 a       333     0    14     1     8
  1.5889888560513124E-01 a       334     0    14     1     9
 -1.5767947176951116E-01 a       335     0    14     1    10
 -1.0268429098676719E-01 a       336     0    14     1    11
  1.4016818789013796E-02 a       337     0    14     1    12
  6.1296847571258584E-02 a       338     0    14     1    13
 -8.5971205437810977E-02 a       339     0    14     1    14
 -1.1117151467668374E-01 a       340     0    14     1    15
 -1.1294096175911021E-01 a       341     0    14     1    16
  1.2990438907173357E-01 a       342     0    14     1    17
  2.9144317075678550E-02 a       343     0    14     1    18
  1.1753028081838414E-01 a       344     0    14     1    19
  3.5587540343338775E-02 a       345     0    14     1    20
  2.0409521106608181E-01 a       346     0    14     1    21
 -1.0378458102203596E-01 a       347     0    14     1    22
 -2.3386000994942063E-01 a       348     0    14     1    23
 -3.1238232931065417E-02 a       349     0    14     1    24
  1.1947299443199005E-01 a       350     0    14     1    25
 -5.8911911354201499E-02 a       351     0    15     1     1
 -1.3616002596554791E-01 a       352     0    15     1     2
  3.4002673116823666E-02 a       353     0    15     1     3
  9.1453911837253613E-02 a       354     0    15     1     4
 -3.3334830838943996E-01 a       355     0    15     1     5
 -1.4287657563270681E-01 a       356     0    15     1     6
 -1.1994900067026706E-02 a       357     0    15     1     7
 -1.4947672701458586E-01 a       358     0    15     1     8
 -2.3333388003301719E-01 a       359     0    15     1     9
  2.5843458428604551E-02 a       360     0    15     1    10
 -7.2742597052708260E-02 a       361     0    15     1    11
 -4.6492068916701105E-03 a       362     0    15     1    12
 -7.4576105651641522E-02 a       363     0    15     1    13
 -2.0634701614729037E-01 a       364     0    15     1    14
 -8.5592318480484597E-02 a       365     0    15     1    15
 -4.2514911543812546E-02 a       366     0    15     1    16
  2.7443331819572753E-01 a       367     0    15     1    17
 -7.1384304281279190E-02 a       368     0    15     1    18
  1.0718548615029497E-01 a       369     0    15     1    19
 -3.1155644646915096E-03 a       370     0    15     1    20
 -2.7178452567272565E-01 a       371     0    15     1    21
  5.9326101998045534E-02 a       372     0    15     1    22
 -3.1338468457487688E-02 a       373     0    15     1    23
  8.1151012109812931E-02 a       374     0    15     1    24
 -8.6938587826009842E-02 a       375     0    15     1    25
  1.6402598048851755E-01 a       376     0    16     1     1
 -1.7000555296344214E-01 a       377     0    16     1     2
  1.0290632377565256E-01 a       378     0    16     1     3
 -7.3119745100631586E-02 a       379     0    16     1     4
  2.9118404312546831E-01 a       380     0    16     1     5
 -1.2787713274344992E-01 a       381     0    16     1     6
  5.7104816030002802E-02 a       382     0    16     1     7
 -2.3268101351522935E-01 a       383     0    16     1     8
  1.2576880240788182E-01 a       384     0    16     1     9
 -1.6344354357759050E-01 a       385     0    16     1    10
  1.6022890599802894E-01 a       386     0    16     1    11
  3.3766698826389182E-03 a       387     0    16     1    12
 -2.6549207323867496E-01 a       388     0    16     1    13
 -2.1316344682074256E-01 a       389     0    16     1    14
 -1.5437498014421752E-01 a       390     0    16     1    15
 -2.3899830454639917E-01 a       391     0    16     1    16
  1.2819538518664336E-01 a       392     0    16     1    17
  3.0894399532966601E-02 a       393     0    16     1    18
  4.9650071546714164E-02 a       394     0    16     1    19
 -1.0284413462145509E-01 a       395     0    16     1    20
  7.0076313406027520E-03 a       396     0    16     1    21
 -2.5602261642356533E-01 a       397     0    16     1    22
  3.5004060558297282E-03 a       398     0    16     1    23
 -6.2300801658570937E-02 a       399     0    16     1    24
  1.7898819054523564E-03 a       400     0    16     1    25
 -3.1959969723046133E-01 a       401     0    17     1     1
  7.1867212273583017E-02 a       402     0    17     1     2
  2.6623682689934570E-02 a       403     0    17     1     3
  5.4662963063558979E-02 a       404     0    17     1     4
 -3.1997742615444258E-01 a       405     0    17     1     5
  3.3902716303240189E-02 a       406     0    17     1     6
 -1.5696078876799233E-02 a       407     0    17     1     7
  1.0320650376113435E-01 a       408     0    17     1     8
 -1.7662100958743193E-01 a       409     0    17     1     9
 -1.2209047717336396E-01 a       410     0    17     1    10
  8.9300893235232617E-02 a       411     0    17     1    11
 -5.1850773411525400E-02 a       412     0    17     1    12
 -3.3823802044138529E-01 a       413     0    17     1    13
  1.7656942751174032E-01 a       414     0    17     1    14
 -2.2180248029237398E-01 a       415     0    17     1    15
  4.0381304845528522E-02 a       416     0    17     1    16
  4.9257634472253647E-01 a       417     0    17     1    17
 -2.4855873085795444E-02 a       418     0    17     1    18
 -1.8489810357413408E-01 a       419     0    17     1    19
  1.2984485641973409E-01 a       420     0    17     1    20
 -1.8994392170290955E-01 a       421     0    17     1    21
  1.3003448746500915E-01 a       422     0    17     1    22
  3.8564938732196752E-01 a       423     0    17     1    23
 -4.0676131032623436E-02 a       424     0    17     1    24
 -8.5880524088933971E-02 a       425     0    17     1    25
 -2.4144389850849449E-02 a       426     0    18     1     1
 -1.2296505072177856E-01 a       427     0    18     1     2
 -5.7113994663001093E-02 a       428     0    18     1     3
  5.9100400916574203E-02 a       429     0    18     1     4
 -7.0206459545229430E-02 a       430     0    18     1     5
  1.6655009827773154E-01 a       431     0    18     1     6
 -2.4169479308797073E-01 a       432     0    18     1     7
  2.0095867616536676E-02 a       433     0    18     1     8
  1.4072890998439319E-01 a       434     0    18     1     9
  8.8466598484080436E-02 a       435     0    18     1    10
 -1.0505319226659679E-01 a       436     0    18     1    11
  1.2202671281171683E-02 a       437     0    18     1    12
  1.6257164234582586E-01 a       438     0    18     1    13
 -9.3790695689602688E-02 a       439     0    18     1    14
  3.0721997456142491E-01 a       440     0    18     1    15
 -1.0543205253722555E-01 a       441     0    18     1    16
 -2.3861886197933643E-01 a       442     0    18     1    17
 -2.3480032811196566E-01 a       443     0    18     1    18
  7.5754761465175119E-03 a       444     0    18     1    19
  1.8709730018221632E-01 a       445     0    18     1    20
  1.8768232532472229E-01 a       446     0    18     1    21
  1.6180092220083458E-01 a       447     0    18     1    22
 -1.8907808759697198E-01 a       448     0    18     1    23
 -1.2287784709312112E-01 a       449     0    18     1    24
 -1.7779149001360026E-01 a       450     0    18     1    25
  5.5434521338249290E-02 a       451     0    19     1     1
 -2.0162886214551398E-01 a       452     0    19     1     2
  1.0863974371849854E-01 a       453     0    19     1     3
 -2.2241055482984289E-03 a       454     0    19     1     4
  1.3917970292271656E-01 a       455     0    19     1     5
 -7.7120335503186338E-02 a       456     0    19     1     6
  1.9194060118332846E-02 a       457     0    19     1     7
 -1.1206578925277963E-01 a       458     0    19     1     8
  1.6758892186525334E-01 a       459     0    19     1     9
 -4.8455628358336271E-02 a       460     0    19     1    10
  2.5789989017825499E-01 a       461     0    19     1    11
 -2.2171572738852163E-01 a       462     0    19     1    12
 -1.7721440102954453E-01 a       463     0    19     1    13
 -1.4089730145549284E-01 a       464     0    19     1    14
  8.5876401177817252E-02 a       465     0    19     1    15
  1.2103836577441784E-01 a       466     0    19     1    16
 -1.3934191270590451E-02 a       467     0    19     1    17
  2.5500811687385261E-01 a       468     0    19     1    18
  2.1545797987712273E-01 a       469     0    19     1    19
 -5.5526481160317727E-02 a       470     0    19     1    20
 -2.4728971153831172E-01 a       471     0    19     1    21
  2.4596618484936144E-02 a       472     0    19     1    22
  1.2122549437078360E-01 a       473     0    19     1    23
  1.1866925873449737E-01 a       474     0    19     1    24
 -1.2132243896123895E-01 a       475     0    19     1    25
  7.9999517183094462E-02 a       476     0    20     1     1
  8.3986977888747830E-02 a       477     0    20     1     2
 -1.5938592806313992E-01 a       478     0    20     1     3
 -7.5288536540160239E-02 a       479     0    20     1     4
  6.9410212469449902E-04 a       480     0    20     1     5
  1.4789896794906429E-01 a       481     0    20     1     6
  1.4135263877223417E-01 a       482     0    20     1     7
  4.4694244253310637E-02 a       483     0    20     1     8
 -4.3949583801916048E-02 a       484     0    20     1     9
  1.8671574341825581E-01 a       485     0    20     1    10
  1.7534500166224729E-01 a       486     0    20     1    11
  4.0608800955824462E-02 a       487     0    20     1    12
  1.1475825799262190E-02 a       488     0    20     1    13
  1.0729760491668218E-01 a       489     0    20     1    14
 -2.1743827274577566E-02 a       490     0    20     1    15
  2.5219865316824486E-01 a       491     0    20     1    16
  9.3391465770959414E-02 a       492     0    20     1    17
 -1.5028529428289790E-02 a       493     0    20     1    18
 -1.0927249174887019E-01 a       494     0    20     1    19
 -5.0763269369780220E-02 a       495     0    20     1    20
 -7.4383482879838800E-02 a       496     0    20     1    21
  8.6706095510506634E-02 a       497     0    20     1    22
 -4.3344096736404891E-01 a       498     0    20     1    23
 -2.0545574237513783E-02 a       499     0    20     1    24
 -2.3350195152207806E-02 a       500     0    20     1    25
  4.1732529266633644E-01 a       501     0    21     1     1
  4.4594240726095191E-02 a       502     0    21     1     2
 -1.2416009043750352E-01 a       503     0    21     1     3
 -4.4358272162768428E-02 a       504     0    21     1     4
  2.8473470968108990E-02 a       505     0    21     1     5
 -3.6660069329666770E-02 a       506     0    21     1     6
  1.2239789230162092E-01 a       507     0    21     1     7
 -5.1354523615532909E-02 a       508     0    21     1     8
 -4.8602077771894063E-02 a       509     0    21     1     9
 -2.1205520806295347E-01 a       510     0    21     1    10
 -3.4845084600327307E-02 a       511     0    21     1    11
 -1.8841986838995347E-02 a       512     0    21     1    12
 -7.0084596155129741E-02 a       513     0    21     1    13
  7.3565255542647036E-03 a       514     0    21     1    14
 -2.6273126442637910E-02 a       515     0    21     1    15
  1.4144006047078986E-01 a       516     0    21     1    16
  1.1674144281505489E-01 a       517     0    21     1    17
  1.7636747786334367E-01 a       518     0    21     1    18
  2.7722378573576029E-01 a       519     0    21     1    19
 -2.3904553324934422E-01 a       520     0    21     1    20
  1.8427898839291853E-02 a       521     0    21     1    21
  3.1347989431401790E-01 a       522     0    21     1    22
  1.6603093590321447E-01 a       523     0    21     1    23
 -3.3641398451572935E-02 a       524     0    21     1    24
 -4.8068233878768379E-02 a       525     0    21     1    25
 -1.4377624378180182E-01 a       526     0    22     1     1
 -1.2420875090517372E-01 a       527     0    22     1     2
 -1.9557104242057890E-02 a       528     0    22     1     3
 -1.7479962821862843E-01 a       529     0    22     1     4
  1.6206331430073972E-01 a       530     0    22     1     5
  2.7173748701373571E-02 a       531     0    22     1     6
  1.2630097565430234E-01 a       532     0    22     1     7
 -2.4675228639142924E-01 a       533     0    22     1     8
  9.5692184432811647E-02 a       534     0    22     1     9
  2.1682544358705969E-01 a       535     0    22     1    10
 -1.7183519228524360E-01 a       536     0    22     1    11
  1.4657619993518159E-01 a       537     0    22     1    12
  6.1944028712497892E-02 a       538     0    22     1    13
  1.0247798760409875E-03 a       539     0    22     1    14
 -2.7780677412521582E-01 a       540     0    22     1    15
 -2.3889220812068276E-01 a       541     0    22     1    16
 -1.6356990239745842E-01 a       542     0    22     1    17
  1.6878820836019454E-02 a       543     0    22     1    18
 -8.3047179059441256E-02 a       544     0    22     1    19
 -7.9323725360804051E-02 a       545     0    22     1    20
  1.1692573641666101E-01 a       546     0    22     1    21
 -2.0240470408442074E-01 a       547     0    22     1    22
 -2.8387474303051208E-01 a       548     0    22     1    23
  1.2154318664770655E-01 a       549     0    22     1    24
  8.1346463046279474E-02 a       550     0    22     1    25
 -6.0874627034238640E-02 a       551     0    23     1     1
 -7.7279164267882320E-03 a       552     0    23     1     2
 -6.8991212913887688E-04 a       553     0    23     1     3
  1.4328236959970578E-01 a       554     0    23     1     4
 -5.4563876820385382E-02 a       555     0    23     1     5
 -6.5420674561752101E-02 a       556     0    23     1     6
 -5.8397527560461335E-02 a       557     0    23     1     7
  5.1924599515442128E-02 a       558     0    23     1     8
 -1.7931423404556701E-01 a       559     0    23     1     9
 -5.6744427338622616E-02 a       560     0    23     1    10
  1.9916604119937682E-02 a       561     0    23     1    11
 -6.6669184125280223E-02 a       562     0    23     1    12
 -9.2151519286752553E-02 a       563     0    23     1    13
 -9.2575169480525674E-03 a       564     0    23     1    14
 -1.1389166894546567E-01 a       565     0    23     1    15
  4.3432176641365347E-03 a       566     0    23     1    16
  1.6850575495899112E-01 a       567     0    23     1    17
 -1.4408054315601931E-01 a       568     0    23     1    18
  3.3712094504308364E-02 a       569     0    23     1    19
 -1.5086383937830769E-01 a       570     0    23     1    20
 -1.2826281941564732E-01 a       571     0    23     1    21
  2.1973664060837111E-01 a       572     0    23     1    22
  5.4250551350026613E-02 a       573     0    23     1    23
  8.9893564335450579E-02 a       574     0    23     1    24
  3.5422150058469042E-02 a       575     0    23     1    25
 -9.7459004843150603E-03 a       576     0    24     1     1
 -1.6173525227039739E-01 a       577     0    24     1     2
  1.0060682186142893E-01 a       578     0    24     1     3
 -1.5859074779606389E-01 a       579     0    24     1     4
  1.6902984517762618E-01 a       580     0    24     1     5
 -4.3473099722695842E-02 a       581     0    24     1     6
 -2.1103081875518372E-02 a       582     0    24     1     7
 -1.0999682181806521E-01 a       583     0    24     1     8
  1.6069214361108736E-01 a       584     0    24     1     9
 -1.4086434978438442E-01 a       585     0    24     1    10
 -4.4527453216708637E-03 a       586     0    24     1    11
 -1.2250094184976226E-01 a       587     0    24     1    12
 -1.7365852705279466E-01 a       588     0    24     1    13
 -8.5479780134742160E-03 a       589     0    24     1    14
  3.9797040881519932E-02 a       590     0    24     1    15
 -1.9132017631813425E-01 a       591     0    24     1    16
 -1.7140077259375780E-01 a       592     0    24     1    17
  3.9814193479419037E-02 a       593     0    24     1    18
 -1.1121057692143624E-01 a       594     0    24     1    19
 -2.2620224865711769E-01 a       595     0    24     1    20
 -5.4442474928292343E-02 a       596     0    24     1    21
 -8.2778867822149632E-02 a       597     0    24     1    22
 -2.0656269437355354E-01 a       598     0    24     1    23
  5.7978559378674528E-02 a       599     0    24     1    24
 -9.6579296246872476E-02 a       600     0    24     1    25
  1.5204125757821955E-02 a       601     0    25     1     1
  2.2186996803803427E-01 a       602     0    25     1     2
 -1.9047336277687482E-02 a       603     0    25     1     3
  1.6820071207874160E-01 a       604     0    25     1     4
 -1.1009345158907170E-01 a       605     0    25     1     5
 -6.6656100477085214E-02 a       606     0    25     1     6
 -4.2220880571451042E-02 a       607     0    25     1     7
  1.9434626797492469E-01 a       608     0    25     1     8
 -1.0261212614788046E-02 a       609     0    25     1     9
 -1.8667671979392281E-01 a       610     0    25     1    10
  8.0900272590449948E-02 a       611     0    25     1    11
 -9.8220008303631454E-03 a       612     0    25     1    12
  1.2336644769382679E-01 a       613     0    25     1    13
 -7.1172393408891102E-02 a       614     0    25     1    14
 -2.8644867634698705E-03 a       615     0    25     1    15
 -7.8500011182678103E-02 a       616     0    25     1    16
 -1.9755737828978703E-01 a       617     0    25     1    17
  3.1937766209584606E-02 a       618     0    25     1    18
  9.5489612084655139E-03 a       619     0    25     1    19
  1.4383909892016261E-01 a       620     0    25     1    20
 -1.5109963291145623E-01 a       621     0    25     1    21
 -6.6232910941786821E-02 a       622     0    25     1    22
  2.1149908741794485E-01 a       623     0    25     1    23
  4.2069432669263808E-02 a       624     0    25     1    24
  3.6832151197177004E-02 a       625     0    25     1    25
 -1.3276220795076579E-01 a       626     0    26     1     1
 -1.5461555189573400E-01 a       627     0    26     1     2
  4.8889472120362570E-02 a       628     0    26     1     3
 -6.6309955635553058E-02 a       629     0    26     1     4
  3.5986916552627417E-02 a       630     0    26     1     5
  1.3994727261996137E-01 a       631     0    26     1     6
 -5.6598017434830165E-02 a       632     0    26     1     7
  2.1580258777224945E-01 a       633     0    26     1     8
 -4.8483904072813243E-02 a       634     0    26     1     9
  1.6649089134135631E-01 a       635     0    26     1    10
  1.2735617771070702E-02 a       636     0    26     1    11
 -9.6457795959329462E-02 a       637     0    26     1    12
  3.2723630368972058E-02 a       638     0    26     1    13
  1.5988308404159457E-01 a       639     0    26     1    14
  1.4704723643837778E-01 a       640     0    26     1    15
  1.0972885071448496E-01 a       641     0    26     1    16
 -6.7561775808086325E-02 a       642     0    26     1    17
 -3.3299700744438387E-02 a       643     0    26     1    18
 -1.5022056102688583E-01 a       644     0    26     1    19
  5.1546615039276246E-02 a       645     0    26     1    20
  6.7979041487394143E-02 a       646     0    26     1    21
  1.9506516857256434E-02 a       647     0    26     1    22
 -1.9916401572886755E-01 a       648     0    26     1    23
 -2.1079065645618341E-02 a       649     0    26     1    24
 -7.8768026319878004E-02 a       650     0    26     1    25
  3.5414366341443709E-02 a       651     0    27     1     1
 -4.2395275461911568E-02 a       652     0    27     1     2
  1.1575811468797778E-01 a       653     0    27     1     3
 -1.6276168815106062E-01 a       654     0    27     1     4
  8.7277033823519132E-02 a       655     0    27     1     5
 -6.1395270888532499E-02 a       656     0    27     1     6
  8.0953982748653633E-02 a       657     0    27     1     7
 -1.2529055373274656E-03 a       658     0    27     1     8
  4.8253178252934147E-02 a       659     0    27     1     9
 -2.0129608177006497E-01 a       660     0    27     1    10
 -1.7400117002344017E-02 a       661     0    27     1    11
  1.0834553632716216E-01 a       662     0    27     1    12
  1.1485940294995042E-01 a       663     0    27     1    13
 -9.0921032713349212E-02 a       664     0    27     1    14
  1.6240078025984754E-02 a       665     0    27     1    15
 -6.0777715699501314E-02 a       666     0    27     1    16
  4.3381991565093134E-03 a       667     0    27     1    17
  1.7922405215147999E-01 a       668     0    27     1    18
  1.2707818229489867E-01 a       669     0    27     1    19
  6.5151147081113261E-02 a       670     0    27     1    20
 -8.6331087595873587E-02 a       671     0    27     1    21
  9.2980038790047861E-02 a       672     0    27     1    22
  9.8029024811932625E-02 a       673     0    27     1    23
 -2.0874316113824638E-02 a       674     0    27     1    24
 -2.8675982942095640E-02 a       675     0    27     1    25
 -1.1955507307370469E-01 a       676     0    28     1     1
 -2.1073087635699345E-01 a       677     0    28     1     2
  1.0598085641126408E-01 a       678     0    28     1     3
  1.7741313229985334E-01 a       679     0    28     1     4
 -3.7976016305726792E-02 a       680     0    28     1     5
 -2.3184000528354665E-02 a       681     0    28     1     6
  1.2739335631772009E-01 a       682     0    28     1     7
 -1.5280666519380476E-01 a       683     0    28     1     8
 -7.8962144360990652E-02 a       684     0    28     1     9
  1.8209112891902379E-01 a       685     0    28     1    10
  2.5615675990206328E-02 a       686     0    28     1    11
 -4.8132462917747400E-02 a       687     0    28     1    12
 -2.1371678585583795E-01 a       688     0    28     1    13
 -1.7943512719634180E-02 a       689     0    28     1    14
 -1.8942409378292455E-01 a       690     0    28     1    15
 -7.2358473624419065E-03 a       691     0    28     1    16
 -9.3713878870439271E-04 a       692     0    28     1    17
 -4.9775265211037575E-02 a       693     0    28     1    18
  5.3031249868073699E-02 a       694     0    28     1    19
  8.6733764143779965E-02 a       695     0    28     1    20
 -1.9638406462669799E-02 a       696     0    28     1    21
  6.7500907658198245E-02 a       697     0    28     1    22
 -1.5397457349254259E-01 a       698     0    28     1    23
 -3.9304041819232985E-02 a       699     0    28     1    24
 -6.1844025688471398E-03 a       700     0    28     1    25
  1.1554454425633495E-01 a       701     0    29     1     1
  1.4290774938397965E-01 a       702     0    29     1     2
  3.3082827751752142E-02 a       703     0    29     1     3
 -9.4071235198730022E-02 a       704     0    29     1     4
  9.5598636598230799E-02 a       705     0    29     1     5
 -1.4385995738270460E-01 a       706     0    29     1     6
  1.5394555455085375E-02 a       707     0    29     1     7
  1.4954713386405680E-01 a       708     0    29     1     8
 -7.6546789045353031E-02 a       709     0    29     1     9
 -1.9965179213584337E-02 a       710     0    29     1    10
 -5.1164289807748370E-02 a       711     0    29     1    11
 -1.5810015772283403E-03 a       712     0    29     1    12
  7.3749993967912958E-02 a       713     0    29     1    13
 -4.2181224322049529E-02 a       714     0    29     1    14
  6.0724585078103861E-02 a       715     0    29     1    15
  2.4043100306915882E-01 a       716     0    29     1    16
 -2.9896039930375925E-02 a       717     0    29     1    17
 -2.0033011046165036E-01 a       718     0    29     1    18
  1.0437915754746135E-01 a       719     0    29     1    19
 -8.7471185966024115E-02 a       720     0    29     1    20
 -1.0425824539501623E-01 a       721     0    29     1    21
 -2.1758304182199835E-03 a       722     0    29     1    22
  1.9357593291551553E-01 a       723     0    29     1    23
  7.9341185164139336E-02 a       724     0    29     1    24
  2.7470112172353973E-02 a       725     0    29     1    25
 -2.2807440215367619E-01 a       726     0    30     1     1
  1.2351167330434985E-02 a       727     0    30     1     2
 -1.3229220310600477E-02 a       728     0    30     1     3
  9.4320349066093587E-02 a       729     0    30     1     4
  1.5611135271092147E-01 a       730     0    30     1     5
 -3.2007284348776296E-02 a       731     0    30     1     6
 -1.8937252395051396E-02 a       732     0    30     1     7
 -2.2096971246470759E-01 a       733     0    30     1     8
  4.0468832664598955E-02 a       734     0    30     1     9
  1.7851416102680892E-01 a       735     0    30     1    10
 -5.0346519357888621E-02 a       736     0    30     1    11
  6.1884385988855102E-02 a       737     0    30     1    12
  3.1392491538751822E-02 a       738     0    30     1    13
 -1.6262142232802465E-01 a       739     0    30     1    14
 -6.2555561012713978E-02 a       740     0    30     1    15
 -9.2948337380899651E-02 a       741     0    30     1    16
  5.0654679454815513E-02 a       742     0    30     1    17
 -9.4335524062111376E-02 a       743     0    30     1    18
 -9.9302877715512022E-02 a       744     0    30     1    19
  6.4045293422513777E-02 a       745     0    30     1    20
 -1.7673030335196190E-02 a       746     0    30     1    21
 -5.4478738900887502E-02 a       747     0    30     1    22
 -1.7773540030280846E-01 a       748     0    30     1    23
  1.2655586317100739E-01 a       749     0    30     1    24
  4.4306624646127481E-02 a       750     0    30     1    25
 -6.4603213420739497E-03 a       751     0    31     1     1
  1.1334550461860651E-02 a       752     0    31     1     2
 -3.8517954247856548E-02 a       753     0    31     1     3
  3.5831254908100692E-02 a       754     0    31     1     4
 -1.3310991817751594E-01 a       755     0    31     1     5
 -3.8205234771023090E-02 a       756     0    31     1     6
 -6.1955291902648417E-02 a       757     0    31     1     7
  6.4649708902236203E-02 a       758     0    31     1     8
 -1.1208172109370615E-01 a       759     0    31     1     9
  1.3818617590328883E-01 a       760     0    31     1    10
  8.1637241030282970E-02 a       761     0    31     1    11
 -1.7211198270839276E-01 a       762     0    31     1    12
 -1.3797273536569413E-01 a       763     0    31     1    13
  1.3361880202376936E-01 a       764     0    31     1    14
  2.0746620842615154E-01 a       765     0    31     1    15
  1.0219100002608776E-01 a       766     0    31     1    16
  9.8733630454924545E-02 a       767     0    31     1    17
 -1.2302949523220313E-01 a       768     0    31     1    18
 -2.9218322612545880E-02 a       769     0    31     1    19
 -2.7209450350417205E-02 a       770     0    31     1    20
 -1.8622493260272464E-02 a       771     0    31     1    21
 -1.8523672136433269E-02 a       772     0    31     1    22
  6.6631605372695524E-02 a       773     0    31     1    23
  7.1180189572592090E-02 a       774     0    31     1    24
  2.7547079388438249E-02 a       775     0    31     1    25
 -1.2494476629005598E-01 a       776     0    32     1     1
 -3.1737657336436943E-02 a       777     0    32     1     2
  6.3788299015814592E-02 a       778     0    32     1     3
 -1.3698857502981079E-01 a       779     0    32     1     4
  7.5936990645854158E-02 a       780     0    32     1     5
 -1.6809118799552047E-02 a       781     0    32     1     6
 -1.1040610055475325E-01 a       782     0    32     1     7
  2.2723754511289367E-02 a       783     0    32     1     8
  1.1598453655505790E-02 a       784     0    32     1     9
 -1.1477922939294645E-02 a       785     0    32     1    10
 -3.9596958132006456E-02 a       786     0    32     1    11
 -4.4964444370653035E-02 a       787     0    32     1    12
  1.3367734231808140E-01 a       788     0    32     1    13
  5.4998867771927792E-02 a       789     0    32     1    14
  1.6300434710668124E-01 a       790     0    32     1    15
 -2.0305191956943993E-02 a       791     0    32     1    16
 -2.5195270402557004E-03 a       792     0    32     1    17
 -5.3433040751224577E-02 a       793     0    32     1    18
 -7.5029356913991083E-02 a       794     0    32     1    19
  5.1878909689874644E-02 a       795     0    32     1    20
 -1.2034975452138033E-01 a       796     0    32     1    21
  7.1545938905320225E-02 a       797     0    32     1    22
 -1.0968355494481938E-01 a       798     0    32     1    23
  1.1028995811772165E-01 a       799     0    32     1    24
 -3.3036148949332642E-02 a       800     0    32     1    25
 -3.3905487845607242E-02 a       801     0    33     1     1
 -1.4582163028442870E-02 a       802     0    33     1     2
  1.2061645030129286E-02 a       803     0    33     1     3
  2.5434663069175013E-02 a       804     0    33     1     4
 -6.0647679548950922E-02 a       805     0    33     1     5
  1.7910847220304019E-02 a       806     0    33     1     6
  2.6709962378032217E-02 a       807     0    33     1     7
 -5.3276321781844452E-02 a       808     0    33     1     8
 -7.8232369182422823E-02 a       809     0    33     1     9
 -5.5611221578880925E-02 a       810     0    33     1    10
 -2.3827352240916030E-02 a       811     0    33     1    11
  4.1292148976785160E-02 a       812     0    33     1    12
  3.5473845117982412E-02 a       813     0    33     1    13
  1.5445360458521482E-01 a       814     0    33     1    14
  1.7074162503803440E-02 a       815     0    33     1    15
 -2.7232805177553426E-02 a       816     0    33     1    16
  8.9872806289576675E-03 a       817     0    33     1    17
  5.0574028096720791E-02 a       818     0    33     1    18
  4.2064619020515295E-02 a       819     0    33     1    19
  7.5073510745349695E-02 a       820     0    33     1    20
 -3.0803506375270243E-02 a       821     0    33     1    21
  8.1535334696866135E-02 a       822     0    33     1    22
  4.5034346023368498E-02 a       823     0    33     1    23
 -8.9303106326153986E-02 a       824     0    33     1    24
  1.9585523787120484E-03 a       825     0    33     1    25
  5.4349771931643379E-02 a       826     0    34     1     1
  3.0293929029684363E-02 a       827     0    34     1     2
 -6.8300997429298099E-02 a       828     0    34     1     3
 -8.1369448248964929E-02 a       829     0    34     1     4
 -9.6686867254470038E-02 a       830     0    34     1     5
  1.1711434207693769E-01 a       831     0    34     1     6
 -5.0389487481140721E-02 a       832     0    34     1     7
  1.6178744034602818E-01 a       833     0    34     1     8
 -1.8623404892910207E-02 a       834     0    34     1     9
 -4.8036599551061404E-02 a       835     0    34     1    10
  3.5378428989253932E-02 a       836     0    34     1    11
  1.7309129386215195E-03 a       837     0    34     1    12
  2.9314603889393543E-02 a       838     0    34     1    13
 -5.3385146408263702E-02 a       839     0    34     1    14
  1.9230119269348776E-02 a       840     0    34     1    15
 -1.8966924867112649E-02 a       841     0    34     1    16
 -1.8773237063310085E-02 a       842     0    34     1    17
  1.1527463977857130E-01 a       843     0    34     1    18
 -1.2814293229791366E-02 a       844     0    34     1    19
 -5.2091032595947516E-02 a       845     0    34     1    20
  8.0163534367299186E-02 a       846     0    34     1    21
 -2.5917189183579999E-02 a       847     0    34     1    22
  4.3400272829348056E-03 a       848     0    34     1    23
  8.7874364684359663E-03 a       849     0    34     1    24
 -4.3148194979772909E-02 a       850     0    34     1    25
  5.0912485654277244E-02 a       851     0    35     1     1
  1.9236922605123514E-02 a       852     0    35     1     2
  5.0221686673346706E-02 a       853     0    35     1     3
 -2.0374859768118880E-02 a       854     0    35     1     4
  1.7688599097221502E-01 a       855     0    35     1     5
 -1.6955512856493334E-02 a       856     0    35     1     6
  5.7762037878223212E-02 a       857     0    35     1     7
 -7.0777998816294527E-02 a       858     0    35     1     8
  3.1220741786218392E-02 a       859     0    35     1     9
 -1.0135031367422467E-01 a       860     0    35     1    10
  1.6040144236678024E-02 a       861     0    35     1    11
  8.6169139144314719E-02 a       862     0    35     1    12
  2.7178134633369159E-02 a       863     0    35     1    13
  5.4071165500112345E-02 a       864     0    35     1    14
 -1.4137527795307336E-01 a       865     0    35     1    15
 -1.8397126620714806E-02 a       866     0    35     1    16
 -8.3833473684470763E-02 a       867     0    35     1    17
  1.0268916233463952E-01 a       868     0    35     1    18
  3.0591046129419267E-02 a       869     0    35     1    19
 -1.0324475707807257E-01 a       870     0    35     1    20
 -9.9969908546275049E-02 a       871     0    35     1    21
  9.0934991657245584E-02 a       872     0    35     1    22
 -8.7535945799267850E-02 a       873     0    35     1    23
 -1.1931267009792962E-01 a       874     0    35     1    24
  1.2199689733544969E-02 a       875     0    35     1    25
  4.8480555790990976E-02 a       876     0    36     1     1
 -2.3226050661312152E-02 a       877     0    36     1     2
  6.3454018997893630E-02 a       878     0    36     1     3
  1.1571017947478482E-02 a       879     0    36     1     4
 -4.4235644477527841E-02 a       880     0    36     1     5
 -6.5326516396868789E-02 a       881     0    36     1     6
  1.3406098322531709E-01 a       882     0    36     1     7
  5.6197751638302269E-02 a       883     0    36     1     8
 -8.2984611791698332E-02 a       884     0    36     1     9
  4.2092465501974492E-02 a       885     0    36     1    10
  6.4047845213241125E-02 a       886     0    36     1    11
  4.0532067616720596E-02 a       887     0    36     1    12
  2.0057069757934715E-02 a       888     0    36     1    13
 -2.8332903282269994E-01 a       889     0    36     1    14
 -9.6850226271807685E-02 a       890     0    36     1    15
 -5.4934630768856338E-02 a       891     0    36     1    16
  2.9885873375000604E-02 a       892     0    36     1    17
  4.5639965121369100E-02 a       893     0    36     1    18
  8.9143285604029857E-02 a       894     0    36     1    19
 -1.2088024190150930E-01 a       895     0    36     1    20
 -2.0533464957639490E-02 a       896     0    36     1    21
 -6.1261857405802263E-02 a       897     0    36     1    22
  4.4287958262368705E-02 a       898     0    36     1    23
  1.0492298243941388E-01 a       899     0    36     1    24
  1.5173362247364992E-02 a       900     0    36     1    25
  3.0688550922187020E-02 a       901     0    37     1     1
  4.5106693266916165E-04 a       902     0    37     1     2
  4.6551840250042241E-02 a       903     0    37     1     3
 -1.2812192102279891E-02 a       904     0    37     1     4
  2.2709439732788727E-02 a       905     0    37     1     5
 -4.8161624367015550E-02 a       906     0    37     1     6
 -1.6048208562527463E-02 a       907     0    37     1     7
  5.9551428480838088E-02 a       908     0    37     1     8
  8.8312220357578096E-03 a       909     0    37     1     9
  3.4969723528892674E-02 a       910     0    37     1    10
  1.9274190957076553E-02 a       911     0    37     1    11
 -3.1954044616955994E-02 a       912     0    37     1    12
 -2.1951643480470306E-02 a       913     0    37     1    13
  1.8396161869053733E-02 a       914     0    37     1    14
  2.5842907718032038E-02 a       915     0    37     1    15
  6.6246401381925349E-02 a       916     0    37     1    16
 -8.6070532965606752E-02 a       917     0    37     1    17
 -5.0508722231481777E-02 a       918     0    37     1    18
  3.6969976349065722E-02 a       919     0    37     1    19
 -5.1444241748783051E-02 a       920     0    37     1    20
 -9.1553905174046060E-02 a       921     0    37     1    21
 -1.4763559300436518E-02 a       922     0    37     1    22
  2.5859617150225275E-02 a       923     0    37     1    23
  9.7879063851624305E-03 a       924     0    37     1    24
  1.5196933573669028E-02 a       925     0    37     1    25
 -7.9647350659891855E-02 a       926     0    38     1     1
 -2.8012000422690638E-02 a       927     0    38     1     2
 -1.4253168481723631E-03 a       928     0    38     1     3
  1.6333455974903235E-02 a       929     0    38     1     4
  3.2686558395671000E-02 a       930     0    38     1     5
  4.9453424077791858E-04 a       931     0    38     1     6
 -9.0558971824500137E-03 a       932     0    38     1     7
 -1.0775445944685061E-01 a       933     0    38     1     8
 -9.6859428798194962E-03 a       934     0    38     1     9
  3.3590161170664455E-02 a       935     0    38     1    10
 -1.9160831413278699E-02 a       936     0    38     1    11
  4.3436275703024253E-02 a       937     0    38     1    12
  1.0303048026966058E-02 a       938     0    38     1    13
  7.6204823125811200E-02 a       939     0    38     1    14
 -3.1003879134682520E-02 a       940     0    38     1    15
 -4.9151834157085551E-02 a       941     0    38     1    16
  8.0395689360286460E-02 a       942     0    38     1    17
 -1.1495944594613455E-02 a       943     0    38     1    18
 -3.4178896848126167E-02 a       944     0    38     1    19
 -3.3012949425039136E-02 a       945     0    38     1    20
  5.1837513074487300E-03 a       946     0    38     1    21
  6.1442672114807168E-02 a       947     0    38     1    22
 -7.5401784857574081E-02 a       948     0    38     1    23
  3.5480819532078080E-02 a       949     0    38     1    24
 -7.8580280955166965E-03 a       950     0    38     1    25
  2.8962222959776004E-02 a       951     0    39     1     1
 -3.6195979536705364E-02 a       952     0    39     1     2
  3.3706664005545298E-02 a       953     0    39     1     3
 -2.1826287571389991E-02 a       954     0    39     1     4
 -1.8826790992372382E-02 a       955     0    39     1     5
 -6.7837832764400516E-02 a       956     0    39     1     6
 -8.9922588612477063E-03 a       957     0    39     1     7
  5.3857177664892779E-02 a       958     0    39     1     8
 -7.4604604767317118E-02 a       959     0    39     1     9
 -2.1498197682875538E-02 a       960     0    39     1    10
  8.8477050068191523E-02 a       961     0    39     1    11
 -8.8616040734809928E-02 a       962     0    39     1    12
 -1.8791085490195113E-02 a       963     0    39     1    13
 -3.6757179542407585E-02 a       964     0    39     1    14
  4.2826609898266914E-02 a       965     0    39     1    15
  4.4757190333409259E-03 a       966     0    39     1    16
  1.5553950889863229E-02 a       967     0    39     1    17
  5.5134223143773738E-04 a       968     0    39     1    18
  3.7931150632078421E-02 a       969     0    39     1    19
 -8.8455221961459118E-03 a       970     0    39     1    20
 -1.9995389151999790E-02 a       971     0    39     1    21
 -5.4321240819519730E-03 a       972     0    39     1    22
  4.5278589165720695E-02 a       973     0    39     1    23
  6.6052923959583690E-02 a       974     0    39     1    24
  9.9779994364550587E-04 a       975     0    39     1    25
 -8.3757572943133116E-02 a       976     0    40     1     1
 -7.4483156467962178E-02 a       977     0    40     1     2
  2.7244233614472691E-02 a       978     0    40     1     3
 -5.4574721576605518E-03 a       979     0    40     1     4
  5.4886014378420587E-03 a       980     0    40     1     5
  1.1818484916252557E-02 a       981     0    40     1     6
 -6.6473592192129699E-02 a       982     0    40     1     7
 -9.3898054565267425E-02 a       983     0    40     1     8
 -1.0988642787362861E-02 a       984     0    40     1     9
 -5.8723347789433056E-02 a       985     0    40     1    10
  1.7596326913842252E-03 a       986     0    40     1    11
 -1.7259410115137895E-02 a       987     0    40     1    12
 -1.0392380682282466E-02 a       988     0    40     1    13
  8.7952218705962121E-02 a       989     0    40     1    14
  3.9172779989262232E-02 a       990     0    40     1    15
 -6.2172148163459250E-02 a       991     0    40     1    16
  1.8672161730460598E-02 a       992     0    40     1    17
  1.9534892518291228E-02 a       993     0    40     1    18
 -1.0065436803926657E-02 a       994     0    40     1    19
  5.2301864082091420E-02 a       995     0    40     1    20
 -2.5753497902107222E-02 a       996     0    40     1    21
  6.8923885253642736E-02 a       997     0    40     1    22
 -1.2509475371490886E-01 a       998     0    40     1    23
  3.4990830830738624E-02 a       999     0    40     1    24
 -4.3347932987784957E-02 a      1000     0    40     1    25
 -1.8218766146887222E-02 a      1001     0    41     1     1
 -3.5695434625502065E-01 a      1002     0    41     1     2
 -7.0028517995111811E-02 a      1003     0    41     1     3
  3.8904941746082500E-01 a      1004     0    41     1     4
  1.0907221355334075E-02 a      1005     0    41     1     5
  1.0691579235564191E-01 a      1006     0    41     1     6
 -4.4984321181485803E-01 a      1007     0    41     1     7
  1.3350374149358047E-02 a      1008     0    41     1     8
 -5.3388277655543381E-02 a      1009     0    41     1     9
 -1.7794538446984645E-01 a      1010     0    41     1    10
 -2.6928947942764681E-01 a      1011     0    41     1    11
  3.5790212389278775E-01 a      1012     0    41     1    12
 -6.8151755394496111E-02 a      1013     0    41     1    13
  1.3197227060659683E-02 a      1014     0    41     1    14
 -1.6339656718854290E-01 a      1015     0    41     1    15
  1.0194059175345914E-01 a      1016     0    41     1    16
 -4.3504175557300448E-02 a      1017     0    41     1    17
 -5.2314417955158421E-01 a      1018     0    41     1    18
  3.5244148931759450E-01 a      1019     0    41     1    19
  5.6317112490717268E-02 a      1020     0    41     1    20
  4.3908804720227679E-01 a      1021     0    41     1    21
  1.4806526837751469E-01 a      1022     0    41     1    22
  3.2794495519669942E-01 a      1023     0    41     1    23
 -3.5601702820273723E-01 a      1024     0    41     1    24
  1.9851823970143326E-01 a      1025     0    41     1    25
 -2.6184827623512275E-01 a      1026     0    42     1     1
  1.8083231186064433E-01 a      1027     0    42     1     2
  2.5006822232397424E-01 a      1028     0    42     1     3
 -7.8604236366207683E-03 a      1029     0    42     1     4
 -2.8975347798299922E-01 a      1030     0    42     1     5
 -2.2287898959292088E-01 a      1031     0    42     1     6
 -2.0626293853884392E-01 a      1032     0    42     1     7
 -2.3214286230897907E-01 a      1033     0    42     1     8
 -2.9659498953290681E-01 a      1034     0    42     1     9
  2.0775830912423307E-01 a      1035     0    42     1    10
  3.0085239864008662E-01 a      1036     0    42     1    11
 -2.5361078800263592E-01 a      1037     0    42     1    12
 -5.3878589363023028E-03 a      1038     0    42     1    13
 -1.7205236701341550E-02 a      1039     0    42     1    14
 -5.2309621689962338E-01 a      1040     0    42     1    15
 -3.7294553907912414E-01 a      1041     0    42     1    16
  7.6479172024535760E-02 a      1042     0    42     1    17
  3.9156824160548598E-01 a      1043     0    42     1    18
 -3.7090751236447639E-01 a      1044     0    42     1    19
  2.8140861598244216E-01 a      1045     0    42     1    20
  7.6287933692826965E-02 a      1046     0    42     1    21
 -4.1409166238569488E-02 a      1047     0    42     1    22
 -4.7149267364058667E-01 a      1048     0    42     1    23
  3.4082026886068323E-01 a      1049     0    42     1    24
 -1.8933896049760385E-01 a      1050     0    42     1    25
 -9.4206620048984252E-02 a      1051     0    43     1     1
 -1.7137385489694908E-02 a      1052     0    43     1     2
 -1.9460975342745976E-01 a      1053     0    43     1     3
 -2.2916729576429226E-01 a      1054     0    43     1     4
  2.0262616108152554E-01 a      1055     0    43     1     5
  5.3497153114642253E-02 a      1056     0    43     1     6
 -7.6370964369434580E-02 a      1057     0    43     1     7
 -1.4281784128614505E-01 a      1058     0    43     1     8
  2.2725986011917834E-01 a      1059     0    43     1     9
 -2.3193300367252548E-01 a      1060     0    43     1    10
  1.9312821631043506E-01 a      1061     0    43     1    11
 -1.7094390891855757E-01 a      1062     0    43     1    12
  1.6900728683328567E-01 a      1063     0    43     1    13
  2.0770113302821022E-01 a      1064     0    43     1    14
 -7.8181093911939156E-02 a      1065     0    43     1    15
 -1.3363404260724118E-01 a      1066     0    43     1    16
 -2.2348002692533414E-01 a      1067     0    43     1    17
  1.4829182299034205E-01 a      1068     0    43     1    18
 -9.3518579355876416E-02 a      1069     0    43     1    19
 -3.1090286083591051E-01 a      1070     0    43     1    20
 -2.5767740626773672E-01 a      1071     0    43     1    21
  1.3065715162683339E-01 a      1072     0    43     1    22
 -2.9751666658577619E-01 a      1073     0    43     1    23
 -1.3760096749160525E-01 a      1074     0    43     1    24
  3.5588011240627611E-02 a      1075     0    43     1    25
 -1.5471760274757440E-02 a      1076     0    44     1     1
 -1.7888499923929996E-01 a      1077     0    44     1     2
  1.2390268037200498E-01 a      1078     0    44     1     3
  4.5817841636439594E-02 a      1079     0    44     1     4
 -9.8322430079661724E-02 a      1080     0    44     1     5
  6.0672067889768692E-02 a      1081     0    44     1     6
 -5.3849545162184577E-03 a      1082     0    44     1     7
  1.1703335464337912E-01 a      1083     0    44     1     8
 -1.2827772649652569E-01 a      1084     0    44     1     9
  8.3082545486547296E-02 a      1085     0    44     1    10
  6.7546842982761169E-03 a      1086     0    44     1    11
  1.1090534675491037E-01 a      1087     0    44     1    12
  1.0906930212778390E-01 a      1088     0    44     1    13
 -9.5535701838886170E-02 a      1089     0    44     1    14
 -2.2371067630164754E-01 a      1090     0    44     1    15
 -2.2505371531948226E-01 a      1091     0    44     1    16
 -8.8684195902408031E-02 a      1092     0    44     1    17
  2.3671388179730932E-01 a      1093     0    44     1    18
  5.3814122546050336E-02 a      1094     0    44     1    19
  3.3898829631808285E-02 a      1095     0    44     1    20
  1.0028188693232520E-01 a      1096     0    44     1    21
  2.1514875273029564E-02 a      1097     0    44     1    22
 -6.6523715886303028E-02 a      1098     0    44     1    23
  9.4019572797438569E-02 a      1099     0    44     1    24
  4.7754809077985523E-02 a      1100     0    44     1    25
  9.7968146192153049E-02 a      1101     0    45     1     1
  1.3801408642645060E-02 a      1102     0    45     1     2
 -3.2092434352310389E-01 a      1103     0    45     1     3
  1.4232564145582946E-01 a      1104     0    45     1     4
  1.3265741184535063E-01 a      1105     0    45     1     5
  1.4738583612452949E-01 a      1106     0    45     1     6
 -3.9496133562824061E-02 a      1107     0    45     1     7
  2.5468186967796673E-02 a      1108     0    45     1     8
  1.2081696777896311E-01 a      1109     0    45     1     9
 -1.6747036262842910E-02 a      1110     0    45     1    10
 -1.2354653751360814E-01 a      1111     0    45     1    11
  2.7963717700145263E-01 a      1112     0    45     1    12
 -4.7609030708050549E-03 a      1113     0    45     1    13
  1.0514956475629260E-01 a      1114     0    45     1    14
  2.3529778648676189E-01 a      1115     0    45     1    15
 -8.1083196933425125E-02 a      1116     0    45     1    16
 -3.1029285716084259E-01 a      1117     0    45     1    17
 -1.8465162631084991E-01 a      1118     0    45     1    18
  7.7889594386918226E-02 a      1119     0    45     1    19
  8.8512362912842556E-03 a      1120     0    45     1    20
 -2.3097050114977030E-01 a      1121     0    45     1    21
 -1.8357661215519325E-01 a      1122     0    45     1    22
  1.5976351768092317E-01 a      1123     0    45     1    23
 -1.4587709324333986E-01 a      1124     0    45     1    24
 -6.4555034120204316E-02 a      1125     0    45     1    25
 -1.7198289632421948E-01 a      1126     0    46     1     1
 -2.8992937952337861E-01 a      1127     0    46     1     2
  1.8629978616227466E-01 a      1128     0    46     1     3
 -4.9465581713801735E-02 a      1129     0    46     1     4
 -1.2332834861945501E-01 a      1130     0    46     1     5
 -7.5866135329411610E-02 a      1131     0    46     1     6
 -1.5522897966803201E-01 a      1132     0    46     1     7
 -2.0687807632059657E-01 a      1133     0    46     1     8
  8.4414792648424233E-02 a      1134     0    46     1     9
  8.4493169797608070E-02 a      1135     0    46     1    10
  1.0102923712486903E-01 a      1136     0    46     1    11
 -6.2820284962136850E-03 a      1137     0    46     1    12
  1.1872356185140269E-01 a      1138     0    46     1    13
  1.6614259238438522E-01 a      1139     0    46     1    14
 -1.8832573646990700E-01 a      1140     0    46     1    15
  2.0673260735747712E-02 a      1141     0    46     1    16
 -1.6785066098201910E-02 a      1142     0    46     1    17
 -7.5149898099123327E-02 a      1143     0    46     1    18
  9.1064613419196458E-02 a      1144     0    46     1    19
 -4.0168762561412920E-02 a      1145     0    46     1    20
 -8.9102135777587368E-02 a      1146     0    46     1    21
  2.2844578377597852E-01 a      1147     0    46     1    22
  2.2045365106736034E-02 a      1148     0    46     1    23
 -5.0235585744192783E-02 a      1149     0    46     1    24
  3.5595492851445913E-02 a      1150     0    46     1    25
 -1.2874388379484461E-01 a      1151     0    47     1     1
  8.9747354926263470E-02 a      1152     0    47     1     2
 -7.3471884457395290E-02 a      1153     0    47     1     3
 -1.1464355927517166E-01 a      1154     0    47     1     4
 -2.1520508541209547E-02 a      1155     0    47     1     5
  8.9926372506509769E-02 a      1156     0    47     1     6
 -1.9423181218839963E-01 a      1157     0    47     1     7
 -3.3299413278542987E-02 a      1158     0    47     1     8
 -8.1771086064061776E-02 a      1159     0    47     1     9
  6.3042466922120829E-02 a      1160     0    47     1    10
  2.9309457545206526E-02 a      1161     0    47     1    11
  1.6133949606393718E-02 a      1162     0    47     1    12
 -2.1639581189279800E-01 a      1163     0    47     1    13
  3.9076585979467122E-02 a      1164     0    47     1    14
  1.3751827718264623E-01 a      1165     0    47     1    15
  1.1452250561605680E-01 a      1166     0    47     1    16
 -7.0422908176306712E-02 a      1167     0    47     1    17
 -1.9583399713031202E-01 a      1168     0    47     1    18
 -5.5326409433350987E-02 a      1169     0    47     1    19
  1.3371245080444911E-03 a      1170     0    47     1    20
 -1.3759389597419318E-04 a      1171     0    47     1    21
  1.9822436320041346E-02 a      1172     0    47     1    22
 -4.3206152051358838E-02 a      1173     0    47     1    23
 -1.6604219533268193E-02 a      1174     0    47     1    24
 -1.7924261325277774E-01 a      1175     0    47     1    25
  7.1199427954835429E-02 a      1176     0    48     1     1
  1.0438542280017626E-01 a      1177     0    48     1     2
  2.9499434086736356E-02 a      1178     0    48     1     3
 -1.5448288574425095E-02 a      1179     0    48     1     4
 -2.5701469000423766E-01 a      1180     0    48     1     5
 -5.0931095860448493E-02 a      1181     0    48     1     6
 -6.8583778649832297E-02 a      1182     0    48     1     7
  3.1451434550713434E-02 a      1183     0    48     1     8
  1.7158012521312067E-02 a      1184     0    48     1     9
  5.4474706576767062E-02 a      1185     0    48     1    10
 -2.3982567384622271E-02 a      1186     0    48     1    11
 -1.6545678651183171E-01 a      1187     0    48     1    12
 -5.8730166972327288E-02 a      1188     0    48     1    13
  1.4657630405899705E-01 a      1189     0    48     1    14
  4.6050924561351396E-02 a      1190     0    48     1    15
  7.7181209809217388E-02 a      1191     0    48     1    16
  5.0773662271799511E-02 a      1192     0    48     1    17
 -2.9468418709813333E-02 a      1193     0    48     1    18
 -9.5145752009477919E-02 a      1194     0    48     1    19
  1.6324558277277582E-02 a      1195     0    48     1    20
 -3.5104173264026248E-02 a      1196     0    48     1    21
 -9.6212537922149869E-04 a      1197     0    48     1    22
 -6.8962591323473724E-02 a      1198     0    48     1    23
 -1.9444589050862309E-02 a      1199     0    48     1    24
  2.6234955966404013E-02 a      1200     0    48     1    25
  5.5378364554590026E-02 a      1201     0    49     1     1
  3.4926055924742183E-02 a      1202     0    49     1     2
  7.3855538967218977E-03 a      1203     0    49     1     3
 -3.9359230858066994E-02 a      1204     0    49     1     4
 -1.2679068985206512E-01 a      1205     0    49     1     5
  5.0002624221640743E-02 a      1206     0    49     1     6
 -3.5972986312859272E-02 a      1207     0    49     1     7
 -3.5750290163335391E-02 a      1208     0    49     1     8
  1.4975082112749608E-01 a      1209     0    49     1     9
  3.6501435095465634E-02 a      1210     0    49     1    10
  1.2052469084656567E-03 a      1211     0    49     1    11
 -1.4752182714477429E-02 a      1212     0    49     1    12
  1.7699877704149658E-01 a      1213     0    49     1    13
  1.6408094313998933E-01 a      1214     0    49     1    14
  5.6357381025828020E-03 a      1215     0    49     1    15
 -8.1065289746744873E-02 a      1216     0    49     1    16
  1.1258038516157731E-01 a      1217     0    49     1    17
  7.8003086731380247E-02 a      1218     0    49     1    18
 -5.3406308025005601E-02 a      1219     0    49     1    19
  5.7915334782202357E-02 a      1220     0    49     1    20
  6.9640651480029403E-02 a      1221     0    49     1    21
 -7.5012246273396949E-02 a      1222     0    49     1    22
  1.2852650576196461E-02 a      1223     0    49     1    23
 -1.2799228777030930E-01 a      1224     0    49     1    24
  6.9594462895746056E-02 a      1225     0    49     1    25
 -1.0450549502796076E-02 a      1226     0    50     1     1
  1.3345016814845964E-01 a      1227     0    50     1     2
 -8.5028136167488264E-02 a      1228     0    50     1     3
  2.7014018673240256E-02 a      1229     0    50     1     4
  3.4575135056235329E-02 a      1230     0    50     1     5
 -1.2851056890344900E-01 a      1231     0    50     1     6
  1.3672653381113109E-01 a      1232     0    50     1     7
 -7.8744444964561858E-02 a      1233     0    50     1     8
 -1.2060195792175162E-01 a      1234     0    50     1     9
  1.4947151190629934E-01 a      1235     0    50     1    10
  6.4578255082392497E-02 a      1236     0    50     1    11
 -8.5137318329675769E-03 a      1237     0    50     1    12
 -7.7910665651861506E-03 a      1238     0    50     1    13
  1.6146990278432075E-01 a      1239     0    50     1    14
 -7.2726751908018580E-03 a      1240     0    50     1    15
  1.8233211460850385E-01 a      1241     0    50     1    16
 -3.3129678631012577E-01 a      1242     0    50     1    17
  1.0702686623985115E-01 a      1243     0    50     1    18
 -1.5800392523474185E-01 a      1244     0    50     1    19
 -4.2889611646519270E-02 a      1245     0    50     1    20
  1.3190132338145127E-01 a      1246     0    50     1    21
 -2.8975525853020501E-01 a      1247     0    50     1    22
  1.1526016994742597E-01 a      1248     0    50     1    23
 -1.1892185506708906E-01 a      1249     0    50     1    24
 -7.4297125993382285E-02 a      1250     0    50     1    25
  1.3397721154076567E-01 a      1251     0    51     1     1
  1.0323507149217866E-01 a      1252     0    51     1     2
 -9.5594178282465997E-02 a      1253     0    51     1     3
 -3.3998344429119243E-01 a      1254     0    51     1     4
  1.0236926993023591E-01 a      1255     0    51     1     5
 -1.1758761908353986E-01 a      1256     0    51     1     6
 -1.8890199409229560E-02 a      1257     0    51     1     7
 -1.3653567936560002E-01 a      1258     0    51     1     8
  1.3437246959671548E-01 a      1259     0    51     1     9
  2.8568113592660194E-01 a      1260     0    51     1    10
 -6.4381240887763619E-02 a      1261     0    51     1    11
 -2.6769114048824189E-01 a      1262     0    51     1    12
  1.7280520800579757E-01 a      1263     0    51     1    13
 -1.6021197529096659E-01 a      1264     0    51     1    14
  2.0460511002516005E-01 a      1265     0    51     1    15
 -4.5580595832572221E-02 a      1266     0    51     1    16
 -3.7133918069810490E-01 a      1267     0    51     1    17
  4.1506670152427927E-01 a      1268     0    51     1    18
 -3.2790657129427490E-02 a      1269     0    51     1    19
 -2.6405463804997208E-02 a      1270     0    51     1    20
 -3.8230457501095316E-01 a      1271     0    51     1    21
 -1.7638706213118166E-01 a      1272     0    51     1    22
 -4.3754268416052494E-01 a      1273     0    51     1    23
  2.3786283139577868E-02 a      1274     0    51     1    24
 -4.9918216701856089E-02 a      1275     0    51     1    25
  1.7952239451547009E-01 a      1276     0    52     1     1
 -3.0442646962775138E-01 a      1277     0    52     1     2
  6.2235475844097714E-02 a      1278     0    52     1     3
  2.5820364945813457E-01 a      1279     0    52     1     4
  1.1254942610658274E-01 a      1280     0    52     1     5
  3.8575864816538896E-01 a      1281     0    52     1     6
  3.1522630318866185E-01 a      1282     0    52     1     7
  2.1049136977595323E-01 a      1283     0    52     1     8
 -1.8980119007552801E-01 a      1284     0    52     1     9
 -2.1890670614034871E-01 a      1285     0    52     1    10
 -8.8782379766493280E-03 a      1286     0    52     1    11
  9.6119968039945339E-02 a      1287     0    52     1    12
 -2.8823638427813464E-01 a      1288     0    52     1    13
  1.2156821187551110E-01 a      1289     0    52     1    14
  1.9293517278941671E-01 a      1290     0    52     1    15
 -7.3188532718574881E-02 a      1291     0    52     1    16
  4.2964540933898544E-02 a      1292     0    52     1    17
 -7.1428968249524416E-01 a      1293     0    52     1    18
  1.6888823273109868E-01 a      1294     0    52     1    19
 -1.1215606320849109E-01 a      1295     0    52     1    20
  3.2073282353658260E-03 a      1296     0    52     1    21
 -1.5802629773245924E-01 a      1297     0    52     1    22
  3.2594483455645229E-01 a      1298     0    52     1    23
  3.3766811274543590E-02 a      1299     0    52     1    24
 -4.0247046683364907E-01 a      1300     0    52     1    25
  1.8490411797189927E-02 a      1301     0    53     1     1
  1.6388487171984223E-01 a      1302     0    53     1     2
  1.7322688790740592E-01 a      1303     0    53     1     3
  2.5938610393505417E-02 a      1304     0    53     1     4
 -6.2835694305402215E-02 a      1305     0    53     1     5
 -1.4043661099463434E-01 a      1306     0    53     1     6
 -1.6983421121746825E-01 a      1307     0    53     1     7
  1.3974004148567734E-01 a      1308     0    53     1     8
 -3.2055240855403444E-01 a      1309     0    53     1     9
  8.0887195824083713E-02 a      1310     0    53     1    10
 -6.9810257360897271E-02 a      1311     0    53     1    11
  8.3134739619856891E-03 a      1312     0    53     1    12
 -7.1203120626104524E-02 a      1313     0    53     1    13
 -1.3550213662729134E-02 a      1314     0    53     1    14
  5.4823983308116532E-02 a      1315     0    53     1    15
  9.3696431731148958E-02 a      1316     0    53     1    16
  1.2476600974894270E-01 a      1317     0    53     1    17
 -5.7681773381498928E-02 a      1318     0    53     1    18
  1.7822086839046149E-02 a      1319     0    53     1    19
  1.7267525242559453E-01 a      1320     0    53     1    20
  1.3735341129157394E-01 a      1321     0    53     1    21
  6.6878308151977928E-02 a      1322     0    53     1    22
  1.6140166483316436E-02 a      1323     0    53     1    23
 -6.1637825403183577E-02 a      1324     0    53     1    24
 -1.4163065734692653E-02 a      1325     0    53     1    25
  1.0494991936308704E-01 a      1326     0    54     1     1
  8.3269660844138810E-02 a      1327     0    54     1     2
  2.6623026937453281E-01 a      1328     0    54     1     3
  2.1166424222467051E-01 a      1329     0    54     1     4
 -5.5088200972957468E-02 a      1330     0    54     1     5
 -2.6599606140044052E-01 a      1331     0    54     1     6
 -1.4608465588005562E-01 a      1332     0    54     1     7
  2.0924858190084294E-01 a      1333     0    54     1     8
 -4.2640018879369190E-02 a      1334     0    54     1     9
  2.0454919874886859E-02 a      1335     0    54     1    10
 -1.7348624173666016E-01 a      1336     0    54     1    11
 -1.6100032212715906E-01 a      1337     0    54     1    12
 -3.9489383949154890E-02 a      1338     0    54     1    13
  1.9705040145373380E-02 a      1339     0    54     1    14
  1.2312084675268466E-01 a      1340     0    54     1    15
 -1.9652920718687014E-01 a      1341     0    54     1    16
  2.0130467768451432E-01 a      1342     0    54     1    17
 -1.5527463048904885E-01 a      1343     0    54     1    18
 -1.0146000601610093E-01 a      1344     0    54     1    19
  7.9099715310823659E-02 a      1345     0    54     1    20
 -2.5982612669218780E-03 a      1346     0    54     1    21
  1.5474898664777789E-01 a      1347     0    54     1    22
  3.9060860129320635E-01 a      1348     0    54     1    23
  1.1303137687595187E-01 a      1349     0    54     1    24
 -1.6762620671633465E-03 a      1350     0    54     1    25
  1.8614409766706880E-01 a      1351     0    55     1     1
  2.1513877907463375E-01 a      1352     0    55     1     2
  2.4026821641214366E-01 a      1353     0    55     1     3
 -1.3685332062183550E-01 a      1354     0    55     1     4
 -2.6159360247439145E-01 a      1355     0    55     1     5
 -1.5559140003333827E-01 a      1356     0    55     1     6
  1.0954298866510476E-01 a      1357     0    55     1     7
  3.3175829351440589E-01 a      1358     0    55     1     8
  1.1025278470046233E-01 a      1359     0    55     1     9
  1.6156431853326861E-01 a      1360     0    55     1    10
  1.0558358145524734E-01 a      1361     0    55     1    11
 -3.6400817859848927E-01 a      1362     0    55     1    12
  3.0357599506016474E-02 a      1363     0    55     1    13
  2.8424422532580674E-03 a      1364     0    55     1    14
 -1.7492482388388805E-01 a      1365     0    55     1    15
  2.5423705599528812E-01 a      1366     0    55     1    16
  2.6902604244488987E-01 a      1367     0    55     1    17
  2.6449743587940766E-01 a      1368     0    55     1    18
 -1.6568898147450542E-01 a      1369     0    55     1    19
 -1.4754297119552068E-01 a      1370     0    55     1    20
  1.5105280192036211E-01 a      1371     0    55     1    21
  2.2580514826765288E-01 a      1372     0    55     1    22
 -2.9910097669934816E-02 a      1373     0    55     1    23
  5.5711678121370546E-02 a      1374     0    55     1    24
  3.4901564559373210E-01 a      1375     0    55     1    25
 -1.1244405844568339E-01 a      1376     0    56     1     1
  2.3796293614898600E-02 a      1377     0    56     1     2
 -6.8863313050020289E-02 a      1378     0    56     1     3
 -2.4148239090169180E-01 a      1379     0    56     1     4
  1.1489064251791582E-01 a      1380     0    56     1     5
  1.6772118099477876E-01 a      1381     0    56     1     6
  4.9782912048921220E-02 a      1382     0    56     1     7
 -8.9710268631790574E-02 a      1383     0    56     1     8
  1.6660147263332190E-01 a      1384     0    56     1     9
 -7.6131067663012184E-02 a      1385     0    56     1    10
 -2.0847186926940078E-01 a      1386     0    56     1    11
  4.1749839032216386E-02 a      1387     0    56     1    12
  8.2282809126407702E-02 a      1388     0    56     1    13
 -1.8245546748567679E-01 a      1389     0    56     1    14
 -1.6283877401164149E-01 a      1390     0    56     1    15
 -2.0983201687967089E-02 a      1391     0    56     1    16
 -1.7399879022676909E-02 a      1392     0    56     1    17
  1.2056358981338776E-01 a      1393     0    56     1    18
  1.3057171072121387E-01 a      1394     0    56     1    19
  5.3184141302696400E-02 a      1395     0    56     1    20
 -1.1497667559487496E-01 a      1396     0    56     1    21
 -1.3762736120427206E-02 a      1397     0    56     1    22
  2.1828807228023517E-01 a      1398     0    56     1    23
 -1.8157327262514794E-01 a      1399     0    56     1    24
 -1.0896622822189425E-01 a      1400     0    56     1    25
  1.4365627085894678E-01 a      1401     0    57     1     1
  1.0171298468493287E-01 a      1402     0    57     1     2
 -7.0168239475902866E-02 a      1403     0    57     1     3
  1.3864943388038511E-01 a      1404     0    57     1     4
  4.8798058768933880E-02 a      1405     0    57     1     5
 -7.7901937010328992E-02 a      1406     0    57     1     6
  1.6154651026194258E-01 a      1407     0    57     1     7
 -1.0415393244875186E-01 a      1408     0    57     1     8
  8.3992741166267787E-02 a      1409     0    57     1     9
 -1.1215943209690121E-01 a      1410     0    57     1    10
  4.2053638353564932E-02 a      1411     0    57     1    11
 -1.3546586655435555E-01 a      1412     0    57     1    12
  1.4160479910418328E-01 a      1413     0    57     1    13
  1.7289379503486298E-02 a      1414     0    57     1    14
  3.6411027139719783E-02 a      1415     0    57     1    15
  8.3859379328467737E-02 a      1416     0    57     1    16
  3.1796370584773753E-01 a      1417     0    57     1    17
  1.6258120475709781E-01 a      1418     0    57     1    18
 -7.5861361665238325E-02 a      1419     0    57     1    19
 -5.7708369877859525E-03 a      1420     0    57     1    20
  3.2392906677691923E-02 a      1421     0    57     1    21
 -5.9139647918689288E-02 a      1422     0    57     1    22
 -2.2993429770511373E-02 a      1423     0    57     1    23
 -1.6350072237913224E-01 a      1424     0    57     1    24
  2.5124925104754459E-01 a      1425     0    57     1    25
 -2.2156421326005640E-01 a      1426     0    58     1     1
  6.3286009287562561E-02 a      1427     0    58     1     2
  4.7349437923943236E-02 a      1428     0    58     1     3
 -3.4893205413838620E-02 a      1429     0    58     1     4
  2.3585006827250721E-01 a      1430     0    58     1     5
  2.6162734915585104E-02 a      1431     0    58     1     6
 -1.9286644146408301E-02 a      1432     0    58     1     7
 -1.2994492037566507E-01 a      1433     0    58     1     8
 -1.1999454048012975E-01 a      1434     0    58     1     9
 -2.5143573004108449E-01 a      1435     0    58     1    10
  1.5198527662272796E-02 a      1436     0    58     1    11
  2.1596200357580156E-01 a      1437     0    58     1    12
 -8.6264647983898754E-02 a      1438     0    58     1    13
  5.6036098726678724E-02 a      1439     0    58     1    14
  3.1570400069416436E-02 a      1440     0    58     1    15
 -7.5453872012480369E-02 a      1441     0    58     1    16
 -6.5277614394495601E-02 a      1442     0    58     1    17
  1.5505121022138660E-01 a      1443     0    58     1    18
 -7.2787839562427851E-03 a      1444     0    58     1    19
 -2.3074520268081344E-01 a      1445     0    58     1    20
 -1.6646255615769553E-01 a      1446     0    58     1    21
 -3.3733943326825916E-02 a      1447     0    58     1    22
 -8.3702188671369804E-02 a      1448     0    58     1    23
 -1.0469978240117404E-01 a      1449     0    58     1    24
 -6.9122234193394583E-02 a      1450     0    58     1    25
 -1.1127155445024881E-01 a      1451     0    59     1     1
 -1.3453485761732886E-01 a      1452     0    59     1     2
 -4.9434095004174623E-02 a      1453     0    59     1     3
 -7.1141346746500370E-02 a      1454     0    59     1     4
  7.7960298206862191E-02 a      1455     0    59     1     5
  6.6246959358342017E-02 a      1456     0    59     1     6
 -4.9734068525705995E-04 a      1457     0    59     1     7
  9.4432284474969624E-02 a      1458     0    59     1     8
 -1.9641750451163301E-01 a      1459     0    59     1     9
  2.8496916326475361E-02 a      1460     0    59     1    10
 -8.4965637308523426E-02 a      1461     0    59     1    11
  6.8910640482408803E-02 a      1462     0    59     1    12
 -2.0617553932870547E-01 a      1463     0    59     1    13
  7.7075824877072166E-02 a      1464     0    59     1    14
 -5.1061542715414687E-02 a      1465     0    59     1    15
  4.2654693402381316E-02 a      1466     0    59     1    16
 -2.1527681048349231E-01 a      1467     0    59     1    17
 -5.9282944269448880E-03 a      1468     0    59     1    18
  8.9803178180167670E-02 a      1469     0    59     1    19
 -3.2019945475212613E-02 a      1470     0    59     1    20
  3.4190944787401284E-02 a      1471     0    59     1    21
  1.6925891494468651E-01 a      1472     0    59     1    22
  1.1519762052006952E-01 a      1473     0    59     1    23
 -7.7847297048280278E-02 a      1474     0    59     1    24
 -1.1701242254820539E-01 a      1475     0    59     1    25
 -8.7678776539822006E-02 a      1476     0    60     1     1
  1.0285634910976393E-02 a      1477     0    60     1     2
  8.3081055277190757E-02 a      1478     0    60     1     3
 -1.8190989007214300E-01 a      1479     0    60     1     4
  2.6774544356999112E-02 a      1480     0    60     1     5
  1.7926004638401441E-01 a      1481     0    60     1     6
  3.6683259602044105E-02 a      1482     0    60     1     7
 -1.4071102785468242E-01 a      1483     0    60     1     8
  4.1833682753647496E-02 a      1484     0    60     1     9
  1.2032703501258225E-02 a      1485     0    60     1    10
  1.9288416138960808E-03 a      1486     0    60     1    11
 -1.0156292935769473E-01 a      1487     0    60     1    12
 -1.6085664909056557E-01 a      1488     0    60     1    13
 -1.2800528719467721E-01 a      1489     0    60     1    14
  3.0912636780903435E-01 a      1490     0    60     1    15
  5.3869295516397034E-02 a      1491     0    60     1    16
  2.0706055515283173E-01 a      1492     0    60     1    17
 -8.7592984117766490E-02 a      1493     0    60     1    18
  2.4040432159712827E-01 a      1494     0    60     1    19
 -8.9205026159179357E-02 a      1495     0    60     1    20
  6.5603286045977954E-02 a      1496     0    60     1    21
  2.0229055563159504E-02 a      1497     0    60     1    22
 -2.6092514232248654E-01 a      1498     0    60     1    23
 -8.0128655023007297E-03 a      1499     0    60     1    24
  7.5798436882237960E-02 a      1500     0    60     1    25
  1.4001135851332143E-02 a      1501     0    61     1     1
  1.5087329311098416E-01 a      1502     0    61     1     2
  2.1411053338271466E-02 a      1503     0    61     1     3
  1.7151009608275411E-01 a      1504     0    61     1     4
  1.6078338489989644E-01 a      1505     0    61     1     5
 -3.1464819430297090E-03 a      1506     0    61     1     6
  1.8454431104227589E-01 a      1507     0    61     1     7
 -4.7954444787073981E-02 a      1508     0    61     1     8
  2.7302019157962854E-01 a      1509     0    61     1     9
 -6.8438357471030539E-02 a      1510     0    61     1    10
 -2.2219217766410570E-02 a      1511     0    61     1    11
  5.5301823144373929E-02 a      1512     0    61     1    12
  6.4925219535803047E-02 a      1513     0    61     1    13
 -1.3971823612510760E-02 a      1514     0    61     1    14
  2.5101377899324734E-01 a      1515     0    61     1    15
  1.1971458115939608E-01 a      1516     0    61     1    16
 -2.6252242073074999E-01 a      1517     0    61     1    17
  2.1133701029896479E-01 a      1518     0    61     1    18
  1.8659405825288610E-03 a      1519     0    61     1    19
  2.6114652751451145E-01 a      1520     0    61     1    20
  4.7406112844310698E-02 a      1521     0    61     1    21
  2.0515473959457170E-01 a      1522     0    61     1    22
  3.9667904320481888E-02 a      1523     0    61     1    23
 -1.1865317294958953E-01 a      1524     0    61     1    24
  2.8375268796987813E-01 a      1525     0    61     1    25
 -1.4441293945534489E-01 a      1526     0    62     1     1
 -5.8613615383739610E-02 a      1527     0    62     1     2
 -1.4539145717425672E-01 a      1528     0    62     1     3
 -1.6022176499021434E-01 a      1529     0    62     1     4
  3.2554040102430781E-01 a      1530     0    62     1     5
  9.4382262232524758E-02 a      1531     0    62     1     6
  3.5000385836714857E-03 a      1532     0    62     1     7
  8.7151145346129846E-02 a      1533     0    62     1     8
  1.4902787094627459E-01 a      1534     0    62     1     9
 -9.8965018656950801E-02 a      1535     0    62     1    10
  4.1828080265165712E-02 a      1536     0    62     1    11
 -1.4390631070284505E-02 a      1537     0    62     1    12
 -8.6890590282843488E-02 a      1538     0    62     1    13
 -1.1691255881353621E-01 a      1539     0    62     1    14
 -3.0513023959371131E-02 a      1540     0    62     1    15
 -1.5626827376854202E-01 a      1541     0    62     1    16
  7.6170519157344428E-03 a      1542     0    62     1    17
 -2.8274471435031234E-01 a      1543     0    62     1    18
 -5.2073043179334644E-02 a      1544     0    62     1    19
 -3.0013228982576196E-01 a      1545     0    62     1    20
  1.4402517421371541E-01 a      1546     0    62     1    21
 -4.3379427883033966E-01 a      1547     0    62     1    22
 -8.1181009585379507E-02 a      1548     0    62     1    23
  1.5692260184906681E-01 a      1549     0    62     1    24
 -3.5628454805877885E-01 a      1550     0    62     1    25
  2.4955094311746761E-02 a      1551     0    63     1     1
  8.3889259673421257E-02 a      1552     0    63     1     2
  2.0972783783522791E-01 a      1553     0    63     1     3
  1.3645911694493632E-01 a      1554     0    63     1     4
  1.9263708754025993E-01 a      1555     0    63     1     5
 -2.5810309718362390E-01 a      1556     0    63     1     6
  2.4666299523109773E-02 a      1557     0    63     1     7
  9.7608346493407744E-02 a      1558     0    63     1     8
 -2.6382388488946901E-01 a      1559     0    63     1     9
 -2.4822123296885742E-01 a      1560     0    63     1    10
  1.7470201306396101E-04 a      1561     0    63     1    11
 -1.0937664716168218E-02 a      1562     0    63     1    12
 -2.3212429635047421E-01 a      1563     0    63     1    13
  1.3179296005032271E-01 a      1564     0    63     1    14
  1.0369026464539328E-01 a      1565     0    63     1    15
  1.6564345304818018E-01 a      1566     0    63     1    16
  2.6726237247276116E-02 a      1567     0    63     1    17
 -9.1564918962189629E-02 a      1568     0    63     1    18
 -6.9274885634480743E-04 a      1569     0    63     1    19
  2.9034663719769860E-01 a      1570     0    63     1    20
  1.9889001008624244E-01 a      1571     0    63     1    21
 -1.0024894042976989E-01 a      1572     0    63     1    22
  1.9700402580897853E-02 a      1573     0    63     1    23
 -9.0035832092571447E-02 a      1574     0    63     1    24
  1.3116774246576143E-01 a      1575     0    63     1    25
 -6.8954195106762359E-02 a      1576     0    64     1     1
 -2.2425028349215878E-02 a      1577     0    64     1     2
 -2.0816447255338745E-02 a      1578     0    64     1     3
 -9.5545069617578124E-02 a      1579     0    64     1     4
 -1.3349665204395723E-02 a      1580     0    64     1     5
  2.7907800480591001E-02 a      1581     0    64     1     6
 -1.7876597700781527E-01 a      1582     0    64     1     7
  1.1651666707032543E-01 a      1583     0    64     1     8
 -3.0735985059888470E-02 a      1584     0    64     1     9
  9.4533802090650557E-02 a      1585     0    64     1    10
 -3.7509216323913790E-02 a      1586     0    64     1    11
  6.9859062864761835E-04 a      1587     0    64     1    12
  9.3544023826591782E-03 a      1588     0    64     1    13
  1.1367829833574614E-01 a      1589     0    64     1    14
  3.7371018223248197E-02 a      1590     0    64     1    15
 -7.2062214075863162E-02 a      1591     0    64     1    16
 -1.3660113876023100E-01 a      1592     0    64     1    17
 -6.4034963565854197E-02 a      1593     0    64     1    18
  3.2320834478653436E-02 a      1594     0    64     1    19
 -1.2537551750541129E-01 a      1595     0    64     1    20
 -1.7480659888179456E-01 a      1596     0    64     1    21
 -9.5512681153049811E-02 a      1597     0    64     1    22
  3.9954735982107782E-02 a      1598     0    64     1    23
  4.0353347128306925E-02 a      1599     0    64     1    24
 -1.1357388683643775E-01 a      1600     0    64     1    25
 -1.2303863370053003E-01 a      1601     0    65     1     1
 -7.7108564204313432E-02 a      1602     0    65     1     2
  1.3339468445962441E-01 a      1603     0    65     1     3
 -1.0953657087128457E-01 a      1604     0    65     1     4
  9.3046372925623899E-02 a      1605     0    65     1     5
 -8.3726174634664696E-02 a      1606     0    65     1     6
 -1.5855436413834075E-02 a      1607     0    65     1     7
  3.2207648814904635E-02 a      1608     0    65     1     8
 -1.1321178706823869E-01 a      1609     0    65     1     9
  8.7792092229678209E-02 a      1610     0    65     1    10
  3.8212173731691418E-02 a      1611     0    65     1    11
 -8.7730919518992548E-02 a      1612     0    65     1    12
  1.2126683324024407E-01 a      1613     0    65     1    13
  1.5373386949193490E-01 a      1614     0    65     1    14
  1.4788516797856482E-01 a      1615     0    65     1    15
  2.4228980506451853E-01 a      1616     0    65     1    16
 -2.6327629209149016E-02 a      1617     0    65     1    17
  3.3643141708437374E-03 a      1618     0    65     1    18
  8.4942305241900593E-02 a      1619     0    65     1    19
  9.9605183835252020E-02 a      1620     0    65     1    20
 -1.4102770360142355E-01 a      1621     0    65     1    21
  7.7525119297853134E-02 a      1622     0    65     1    22
  4.9145601482069069E-02 a      1623     0    65     1    23
