################################################################################
# Neural network connection values (weights and biases).
################################################################################
# Col  Name       Description
################################################################################
# 1    connection Neural network connection value.
# 2    t          Connection type (a = weight, b = bias).
# 3    index      Index enumerating weights.
# 4    l_s        Starting point layer (end point layer for biases).
# 5    n_s        Starting point neuron in starting layer (end point neuron for biases).
# 6    l_e        End point layer.
# 7    n_e        End point neuron in end layer.
################################################################################
#                      1 2         3     4     5     6     7
#             connection t     index   l_s   n_s   l_e   n_e
############################################################
  3.0575852065548492E-01 a         1     0     1     1     1
  1.9323691594037956E-01 a         2     0     1     1     2
 -4.5063862629387684E-02 a         3     0     1     1     3
 -2.9813476469723621E-01 a         4     0     1     1     4
 -1.2711899812933225E-01 a         5     0     1     1     5
  4.0962177012787138E-01 a         6     0     1     1     6
  1.7022626349544953E-01 a         7     0     1     1     7
  9.9813525297007627E-02 a         8     0     1     1     8
 -4.8626994646989502E-01 a         9     0     1     1     9
  4.1032905581319240E-01 a        10     0     1     1    10
 -1.5887302833693613E+00 a        11     0     1     1    11
  2.1125327159920063E-01 a        12     0     1     1    12
  2.7430298922926860E-01 a        13     0     1     1    13
  1.6046474444955600E-01 a        14     0     1     1    14
 -2.9624054775312880E-01 a        15     0     1     1    15
  2.9615038973323693E-03 a        16     0     1     1    16
  3.6167914753932223E-01 a        17     0     1     1    17
 -2.7949722469861920E-02 a        18     0     1     1    18
  1.5324787531265724E-01 a        19     0     1     1    19
 -2.3074077977868321E-01 a        20     0     1     1    20
  8.3095499773944204E-02 a        21     0     1     1    21
  1.1957052041237150E-02 a        22     0     1     1    22
 -2.3985234304023410E-03 a        23     0     1     1    23
 -2.3902754713558488E-01 a        24     0     1     1    24
 -4.3197751868078038E-01 a        25     0     1     1    25
 -3.7269847982355464E-01 a        26     0     2     1     1
  1.0915953290082767E-01 a        27     0     2     1     2
  7.3778892608070257E-01 a        28     0     2     1     3
 -7.1057958668053464E-02 a        29     0     2     1     4
 -5.4580545391298518E-01 a        30     0     2     1     5
 -1.4508039984748738E-01 a        31     0     2     1     6
 -8.8734103266194034E-02 a        32     0     2     1     7
 -1.5455097749643490E-01 a        33     0     2     1     8
 -3.3194497860595074E-01 a        34     0     2     1     9
 -7.9212134203111600E-02 a        35     0     2     1    10
  7.3445853021139207E-02 a        36     0     2     1    11
  2.5333111900233865E-02 a        37     0     2     1    12
  4.6239542195816975E-02 a        38     0     2     1    13
 -1.6478170712863185E-01 a        39     0     2     1    14
  1.9123032106077539E-01 a        40     0     2     1    15
 -6.3842986358365517E-01 a        41     0     2     1    16
 -3.7042143009258524E-02 a        42     0     2     1    17
  7.4334518402733130E-01 a        43     0     2     1    18
 -3.3421502948602416E-01 a        44     0     2     1    19
  1.5151677683293222E-01 a        45     0     2     1    20
 -8.7883026829874381E-02 a        46     0     2     1    21
  7.3133010134829690E-01 a        47     0     2     1    22
 -7.0434798762590789E-01 a        48     0     2     1    23
 -1.6047962440404251E-01 a        49     0     2     1    24
  2.4819607736863222E-01 a        50     0     2     1    25
 -6.6330968323092751E-02 a        51     0     3     1     1
  2.6144800027004400E-01 a        52     0     3     1     2
  5.5722707289172814E-02 a        53     0     3     1     3
  2.0433318726025839E-02 a        54     0     3     1     4
 -1.6948232774533764E-01 a        55     0     3     1     5
 -1.3513856868276181E-01 a        56     0     3     1     6
  9.1295119010146766E-02 a        57     0     3     1     7
 -8.9092270647688668E-02 a        58     0     3     1     8
 -1.5162118383820331E-01 a        59     0     3     1     9
 -1.2577254044787236E-02 a        60     0     3     1    10
 -1.1938820260866097E-01 a        61     0     3     1    11
  1.8763545192843911E-01 a        62     0     3     1    12
  3.9264196462920176E-02 a        63     0     3     1    13
 -1.9645610153661075E-01 a        64     0     3     1    14
 -1.6443701930258986E-01 a        65     0     3     1    15
 -2.1380735735248407E-01 a        66     0     3     1    16
 -6.9464035687352557E-02 a        67     0     3     1    17
  5.9412079119458498E-02 a        68     0     3     1    18
  2.1881858643536581E-01 a        69     0     3     1    19
  2.8914769432557408E-01 a        70     0     3     1    20
  2.2882846426743830E-01 a        71     0     3     1    21
 -3.9920230729475877E-02 a        72     0     3     1    22
 -2.0791768667157401E-01 a        73     0     3     1    23
 -1.7108382855385976E-01 a        74     0     3     1    24
  8.0279346318688036E-02 a        75     0     3     1    25
 -2.3130357541882102E-01 a        76     0     4     1     1
  1.4214176869263819E-02 a        77     0     4     1     2
 -1.7838107784763307E-01 a        78     0     4     1     3
 -1.4719200236063096E-01 a        79     0     4     1     4
  2.7865622253827471E-01 a        80     0     4     1     5
  9.2534713779540145E-02 a        81     0     4     1     6
 -8.6077325422485473E-02 a        82     0     4     1     7
 -1.4894921264925332E-01 a        83     0     4     1     8
  1.6450409968983185E-01 a        84     0     4     1     9
  9.6693618413957960E-02 a        85     0     4     1    10
  2.8565137607583935E-01 a        86     0     4     1    11
  7.4498507587744442E-02 a        87     0     4     1    12
  1.3321485149751497E-01 a        88     0     4     1    13
  3.6876639953664675E-01 a        89     0     4     1    14
  1.7088525439214308E-01 a        90     0     4     1    15
 -1.2432118366146054E-01 a        91     0     4     1    16
  1.5852887105736208E-01 a        92     0     4     1    17
  3.6665753687612564E-03 a        93     0     4     1    18
  1.9925636552337356E-01 a        94     0     4     1    19
 -3.2941345356719604E-01 a        95     0     4     1    20
 -5.1796110028016103E-02 a        96     0     4     1    21
  3.4134991379929219E-01 a        97     0     4     1    22
 -6.3690472982600114E-03 a        98     0     4     1    23
 -9.0411289159245695E-03 a        99     0     4     1    24
 -5.6905428655401408E-02 a       100     0     4     1    25
 -7.0291018148038217E-02 a       101     0     5     1     1
 -6.1287104364174345E-02 a       102     0     5     1     2
  3.0735741083203727E-01 a       103     0     5     1     3
  3.0298267070486423E-01 a       104     0     5     1     4
 -1.3475785764545922E-01 a       105     0     5     1     5
 -7.0744243739398693E-01 a       106     0     5     1     6
  2.0087888871895707E+00 a       107     0     5     1     7
  3.5425459115276406E-02 a       108     0     5     1     8
  4.3299798823975211E-01 a       109     0     5     1     9
 -4.2115326733800140E-01 a       110     0     5     1    10
  4.2483221483618061E-01 a       111     0     5     1    11
 -2.4353463912343240E-01 a       112     0     5     1    12
 -4.3860719864209124E-01 a       113     0     5     1    13
 -5.7540855301122552E-02 a       114     0     5     1    14
  5.8634416869875042E-02 a       115     0     5     1    15
  1.0432919264575556E-03 a       116     0     5     1    16
 -2.7731677326774529E-01 a       117     0     5     1    17
  7.5967309152493182E-02 a       118     0     5     1    18
  7.4626179967991046E-01 a       119     0     5     1    19
  4.9798343372000298E-01 a       120     0     5     1    20
 -5.9659371399161776E-01 a       121     0     5     1    21
 -3.7676610611765506E-02 a       122     0     5     1    22
 -3.7833429410484826E-01 a       123     0     5     1    23
 -5.2880364829909032E-01 a       124     0     5     1    24
  5.7713937301642548E-01 a       125     0     5     1    25
 -2.9132215802982186E-01 a       126     0     6     1     1
 -1.8624298153114030E-01 a       127     0     6     1     2
 -1.2382938704974467E-01 a       128     0     6     1     3
  6.6482848226616764E-02 a       129     0     6     1     4
  1.6583498428678756E+00 a       130     0     6     1     5
  8.6237277519045655E-02 a       131     0     6     1     6
 -2.1787226364944126E-01 a       132     0     6     1     7
  3.2304208637050519E-01 a       133     0     6     1     8
 -3.6870471326579646E-01 a       134     0     6     1     9
 -5.9086903995422024E-01 a       135     0     6     1    10
 -1.5323767646718373E-01 a       136     0     6     1    11
 -4.5975110520294259E-02 a       137     0     6     1    12
 -3.4002245360154454E-01 a       138     0     6     1    13
  8.0829026414532246E-01 a       139     0     6     1    14
 -1.7856382282520925E-01 a       140     0     6     1    15
  6.0813822456535660E-01 a       141     0     6     1    16
 -6.0382842324870054E-02 a       142     0     6     1    17
 -7.3540933542252704E-02 a       143     0     6     1    18
  1.0218238501308811E-01 a       144     0     6     1    19
 -7.7411196202765487E-02 a       145     0     6     1    20
 -6.5663349925810466E-01 a       146     0     6     1    21
 -4.7893231483223569E-01 a       147     0     6     1    22
  5.6358638276279305E-01 a       148     0     6     1    23
  3.7191400548763470E-01 a       149     0     6     1    24
 -7.0133450608730774E-02 a       150     0     6     1    25
  3.7760615358280208E-02 a       151     0     7     1     1
  1.0850970360278236E-01 a       152     0     7     1     2
 -1.7947743651082049E-01 a       153     0     7     1     3
  7.4195029770716167E-02 a       154     0     7     1     4
  5.3095861857890753E-02 a       155     0     7     1     5
 -9.9944044512236211E-03 a       156     0     7     1     6
  2.0172236582221420E-01 a       157     0     7     1     7
  7.5715597370713220E-02 a       158     0     7     1     8
 -2.5579095432829300E-02 a       159     0     7     1     9
  1.6536537777263313E-01 a       160     0     7     1    10
  9.5603547688481085E-03 a       161     0     7     1    11
 -1.2829925685399921E-01 a       162     0     7     1    12
 -2.1974171734985413E-02 a       163     0     7     1    13
 -7.3947294940816657E-02 a       164     0     7     1    14
 -8.4604777041804424E-03 a       165     0     7     1    15
  1.7269986767275397E-01 a       166     0     7     1    16
  1.9340985232332318E-02 a       167     0     7     1    17
  3.7683692033551736E-02 a       168     0     7     1    18
 -2.0542753021805968E-01 a       169     0     7     1    19
 -8.1937276562798700E-02 a       170     0     7     1    20
  1.3991114751618294E-01 a       171     0     7     1    21
  1.4094917986509231E-01 a       172     0     7     1    22
  2.2897577403964717E-01 a       173     0     7     1    23
  9.7457030099536004E-02 a       174     0     7     1    24
 -1.1707258735902362E-01 a       175     0     7     1    25
  1.5467799362322029E-01 a       176     0     8     1     1
  1.8172253595753632E-01 a       177     0     8     1     2
 -6.1352482864942756E-02 a       178     0     8     1     3
 -8.9883618077899019E-02 a       179     0     8     1     4
  2.9258666060756910E-01 a       180     0     8     1     5
 -8.0447411878918323E-02 a       181     0     8     1     6
  1.4946668866492743E-01 a       182     0     8     1     7
  9.4468991269953454E-05 a       183     0     8     1     8
 -1.3777378103409013E-01 a       184     0     8     1     9
  4.4740014376087718E-02 a       185     0     8     1    10
 -1.5556524177515105E-01 a       186     0     8     1    11
  2.0026249323172160E-01 a       187     0     8     1    12
 -1.7373694439511200E-01 a       188     0     8     1    13
  3.5211937241887409E-01 a       189     0     8     1    14
 -1.1715261551684109E-01 a       190     0     8     1    15
  2.9687704249598225E-03 a       191     0     8     1    16
 -5.6757955251971477E-02 a       192     0     8     1    17
 -4.8496592171382039E-02 a       193     0     8     1    18
 -1.9420380200169549E-01 a       194     0     8     1    19
  9.1086648682994889E-02 a       195     0     8     1    20
 -1.7523167709682583E-01 a       196     0     8     1    21
 -2.4120789460138720E-01 a       197     0     8     1    22
 -1.4833483998783268E-02 a       198     0     8     1    23
  3.2020413567109085E-01 a       199     0     8     1    24
  1.7082323425775262E-02 a       200     0     8     1    25
 -1.3819234113583923E-01 a       201     0     9     1     1
  5.9368177388353316E-01 a       202     0     9     1     2
 -1.5348558825719855E-01 a       203     0     9     1     3
 -4.6422038311073603E-02 a       204     0     9     1     4
 -5.8212418783379982E-01 a       205     0     9     1     5
  8.7734545844353196E-01 a       206     0     9     1     6
 -1.8162861613761783E+00 a       207     0     9     1     7
  9.4094912621473778E-02 a       208     0     9     1     8
 -3.9050274084893960E-01 a       209     0     9     1     9
 -9.0022409357642635E-02 a       210     0     9     1    10
  6.6652013837145763E-01 a       211     0     9     1    11
  3.0104707223029964E-02 a       212     0     9     1    12
  9.4724712211416928E-02 a       213     0     9     1    13
  2.6900475004300362E-01 a       214     0     9     1    14
 -3.6390018422366371E-01 a       215     0     9     1    15
 -1.6161771479976178E-01 a       216     0     9     1    16
 -5.8316807791631425E-03 a       217     0     9     1    17
 -3.1749802775163219E-02 a       218     0     9     1    18
 -9.9009960196040314E-01 a       219     0     9     1    19
  1.5307529775868994E-01 a       220     0     9     1    20
  3.0873451113884604E-01 a       221     0     9     1    21
 -4.1396886314597439E-02 a       222     0     9     1    22
  2.8032538049358308E-01 a       223     0     9     1    23
  8.5298831588382884E-01 a       224     0     9     1    24
 -4.3550812816512785E-01 a       225     0     9     1    25
  4.1279152742473235E-01 a       226     0    10     1     1
 -6.9420560953850546E-02 a       227     0    10     1     2
  1.5755100939436309E-01 a       228     0    10     1     3
  2.6490669287267621E-01 a       229     0    10     1     4
 -4.0714095421573360E-01 a       230     0    10     1     5
 -1.8190665681398469E-01 a       231     0    10     1     6
  8.9337797781534736E-02 a       232     0    10     1     7
 -2.5865463295653024E-01 a       233     0    10     1     8
 -2.0309509898698205E-01 a       234     0    10     1     9
  7.0260126378552668E-02 a       235     0    10     1    10
 -1.9745683540734249E-01 a       236     0    10     1    11
 -2.3745750870724289E-01 a       237     0    10     1    12
  3.5062200513113581E-02 a       238     0    10     1    13
  5.1438740545291239E-02 a       239     0    10     1    14
  4.9772286613346678E-02 a       240     0    10     1    15
  1.3033774518783917E-01 a       241     0    10     1    16
 -3.2994309691600948E-01 a       242     0    10     1    17
 -1.8391012230902892E-01 a       243     0    10     1    18
  3.9762920072157659E-01 a       244     0    10     1    19
 -3.7560986839914029E-01 a       245     0    10     1    20
  4.5554769646957614E-02 a       246     0    10     1    21
  2.1035850510398119E-01 a       247     0    10     1    22
  6.9652092114143416E-02 a       248     0    10     1    23
  8.7220359091519761E-02 a       249     0    10     1    24
 -4.0132443288016861E-01 a       250     0    10     1    25
 -8.3581421967171096E-02 a       251     0    11     1     1
  1.1230734344655283E-01 a       252     0    11     1     2
  4.1727058754755970E-02 a       253     0    11     1     3
 -1.5194839149074885E-01 a       254     0    11     1     4
 -3.3951216366849579E-01 a       255     0    11     1     5
  2.5809831904328184E-01 a       256     0    11     1     6
 -3.6015376115605478E-02 a       257     0    11     1     7
 -8.3630986869351456E-02 a       258     0    11     1     8
  2.1611725779671992E-01 a       259     0    11     1     9
 -2.7595085787637971E-02 a       260     0    11     1    10
  1.5459226075219407E-02 a       261     0    11     1    11
 -1.2123519164102248E-01 a       262     0    11     1    12
 -9.4540120486842988E-02 a       263     0    11     1    13
  1.9723345961330758E-02 a       264     0    11     1    14
  4.4984701573912343E-02 a       265     0    11     1    15
 -1.7708248751081790E-01 a       266     0    11     1    16
  1.1687867522066034E-03 a       267     0    11     1    17
 -2.4473664877070735E-02 a       268     0    11     1    18
 -1.9543744693860476E-01 a       269     0    11     1    19
  3.8874249381197670E-02 a       270     0    11     1    20
 -2.9367005679264502E-01 a       271     0    11     1    21
 -9.9239142406041661E-02 a       272     0    11     1    22
 -3.5895263117567959E-02 a       273     0    11     1    23
  6.9030987310825909E-02 a       274     0    11     1    24
  1.2928375167495809E-01 a       275     0    11     1    25
  9.4714354051998656E-02 a       276     0    12     1     1
 -6.7242411478195185E-03 a       277     0    12     1     2
 -7.0695565508529054E-02 a       278     0    12     1     3
 -8.3123461309094565E-02 a       279     0    12     1     4
 -2.5010448354378899E-02 a       280     0    12     1     5
 -2.4748806894952380E-01 a       281     0    12     1     6
 -6.8727726662971264E-02 a       282     0    12     1     7
 -2.7552595924820661E-01 a       283     0    12     1     8
 -3.1463330934858780E-01 a       284     0    12     1     9
  2.9207529950718344E-02 a       285     0    12     1    10
  3.9592606877994478E-02 a       286     0    12     1    11
 -1.4256926829546514E-02 a       287     0    12     1    12
 -4.5393369455698062E-03 a       288     0    12     1    13
  5.3468743186189528E-02 a       289     0    12     1    14
  2.9374406619463256E-01 a       290     0    12     1    15
 -4.3041827169809636E-02 a       291     0    12     1    16
  2.4357256652937367E-01 a       292     0    12     1    17
  1.3908839403983192E-01 a       293     0    12     1    18
  1.2570562832054838E-01 a       294     0    12     1    19
  5.0116523029867986E-02 a       295     0    12     1    20
 -6.3858681511205884E-02 a       296     0    12     1    21
 -5.7141158708563469E-02 a       297     0    12     1    22
  1.4039515793147242E-01 a       298     0    12     1    23
 -1.3210991173527839E-01 a       299     0    12     1    24
 -4.2432418697443040E-02 a       300     0    12     1    25
  2.4221541016735146E-01 a       301     0    13     1     1
  2.0230900576876062E-01 a       302     0    13     1     2
 -6.8968156608265344E-02 a       303     0    13     1     3
 -2.0088800903780499E-01 a       304     0    13     1     4
 -8.9738181186058502E-02 a       305     0    13     1     5
 -5.4153941210452772E-01 a       306     0    13     1     6
  1.8464878068926740E+00 a       307     0    13     1     7
  4.3124508815284124E-01 a       308     0    13     1     8
 -7.0585123888473475E-02 a       309     0    13     1     9
  9.7471339378755462E-02 a       310     0    13     1    10
 -4.6484357649987379E-01 a       311     0    13     1    11
 -2.2379923113544091E-03 a       312     0    13     1    12
  1.2385566533184530E-01 a       313     0    13     1    13
 -2.1859727290642086E-01 a       314     0    13     1    14
  2.0507224738800775E-01 a       315     0    13     1    15
 -4.4589366984646071E-02 a       316     0    13     1    16
 -1.3595970451046331E-02 a       317     0    13     1    17
  3.1440253605712942E-01 a       318     0    13     1    18
  5.5497488502791159E-01 a       319     0    13     1    19
 -3.3639188370056333E-01 a       320     0    13     1    20
 -1.9039483220350137E-01 a       321     0    13     1    21
  1.9150206194043654E-01 a       322     0    13     1    22
 -2.6727258013662636E-01 a       323     0    13     1    23
 -5.9788620595661723E-01 a       324     0    13     1    24
  2.5767680125230941E-01 a       325     0    13     1    25
 -3.0189870506855232E-01 a       326     0    14     1     1
 -3.3567034127841899E-01 a       327     0    14     1     2
 -3.5476887531921136E-01 a       328     0    14     1     3
 -2.5598313077202728E-01 a       329     0    14     1     4
  9.6763957262630457E-02 a       330     0    14     1     5
  2.6353905150579587E-02 a       331     0    14     1     6
 -1.9145720008468123E-01 a       332     0    14     1     7
 -1.4529656779684433E-01 a       333     0    14     1     8
 -1.0162604006150415E-01 a       334     0    14     1     9
 -2.5154598119633386E-04 a       335     0    14     1    10
 -6.8790174132979498E-02 a       336     0    14     1    11
  2.0469666897353098E-01 a       337     0    14     1    12
 -2.4458651164513273E-01 a       338     0    14     1    13
  3.1963906711654527E-01 a       339     0    14     1    14
  1.4426446939821672E-01 a       340     0    14     1    15
  1.3435774777165033E-01 a       341     0    14     1    16
  4.3922644023001817E-01 a       342     0    14     1    17
  2.5640279335566046E-01 a       343     0    14     1    18
 -1.2262174106887896E-01 a       344     0    14     1    19
  1.6340414845963028E-01 a       345     0    14     1    20
 -1.4846998069152481E-01 a       346     0    14     1    21
 -1.7857171104631303E-01 a       347     0    14     1    22
  5.7739685937966294E-02 a       348     0    14     1    23
  1.1752283184312268E-01 a       349     0    14     1    24
  1.3897502804748343E-01 a       350     0    14     1    25
 -1.4920962503483592E-01 a       351     0    15     1     1
  4.0903764647723773E-01 a       352     0    15     1     2
  1.1316138026340393E-02 a       353     0    15     1     3
 -1.1772410430645693E-01 a       354     0    15     1     4
  6.1829905639806275E-02 a       355     0    15     1     5
  3.7137164483015288E-02 a       356     0    15     1     6
  6.4791204738729721E-02 a       357     0    15     1     7
  2.5411193365950457E-01 a       358     0    15     1     8
  6.0857096249256379E-02 a       359     0    15     1     9
  5.5022514855470744E-02 a       360     0    15     1    10
  8.0476450784836145E-02 a       361     0    15     1    11
 -5.2822689064700779E-02 a       362     0    15     1    12
  3.0513034111906392E-02 a       363     0    15     1    13
 -1.4969648162216667E-01 a       364     0    15     1    14
 -1.5935117970977525E-01 a       365     0    15     1    15
 -1.7702263783109679E-01 a       366     0    15     1    16
  1.2370404159417792E-01 a       367     0    15     1    17
 -6.8593827375492744E-02 a       368     0    15     1    18
 -7.2490089464813168E-02 a       369     0    15     1    19
  1.0197513623489746E-01 a       370     0    15     1    20
  2.0075714067519707E-02 a       371     0    15     1    21
  9.8095227287762002E-02 a       372     0    15     1    22
 -1.7917853295923483E-01 a       373     0    15     1    23
 -2.0339546822262380E-02 a       374     0    15     1    24
 -6.2067096520937670E-02 a       375     0    15     1    25
 -8.1891706264964684E-02 a       376     0    16     1     1
 -2.0091870429732323E-01 a       377     0    16     1     2
 -1.7578505423524890E-02 a       378     0    16     1     3
 -9.0227096982737259E-02 a       379     0    16     1     4
  2.1662237372409793E-01 a       380     0    16     1     5
 -9.1681904167290953E-02 a       381     0    16     1     6
 -2.6047018908850739E-02 a       382     0    16     1     7
 -2.1711838162444369E-01 a       383     0    16     1     8
 -1.5026465535958680E-01 a       384     0    16     1     9
  8.2895648119928111E-02 a       385     0    16     1    10
  4.7283569873208912E-02 a       386     0    16     1    11
  5.9886595610642454E-02 a       387     0    16     1    12
 -9.9245198343221736E-02 a       388     0    16     1    13
  1.0640272510389465E-01 a       389     0    16     1    14
  1.2129307727353201E-02 a       390     0    16     1    15
  2.4353651154311753E-01 a       391     0    16     1    16
  1.4063258237198054E-01 a       392     0    16     1    17
 -1.2088941084358036E-01 a       393     0    16     1    18
 -2.4508855385588304E-02 a       394     0    16     1    19
 -2.6119548128285186E-01 a       395     0    16     1    20
 -8.0853811556830663E-02 a       396     0    16     1    21
  8.1948615278777080E-03 a       397     0    16     1    22
 -1.1229330038411663E-01 a       398     0    16     1    23
  5.5666844919210562E-02 a       399     0    16     1    24
  4.2925307644573696E-02 a       400     0    16     1    25
 -1.3859189373261105E-01 a       401     0    17     1     1
  4.4751526868748759E-01 a       402     0    17     1     2
  2.7879059104439702E-01 a       403     0    17     1     3
  2.2323473599599458E-01 a       404     0    17     1     4
 -4.0348041220653785E-01 a       405     0    17     1     5
  3.6360495027741430E-01 a       406     0    17     1     6
 -1.0294109569671297E+00 a       407     0    17     1     7
  3.7232870473012153E-01 a       408     0    17     1     8
 -1.2239392696161559E-01 a       409     0    17     1     9
  1.3277728312426737E-01 a       410     0    17     1    10
  4.8686376028620076E-01 a       411     0    17     1    11
 -1.1171743623536198E-01 a       412     0    17     1    12
 -1.3043355802182478E-03 a       413     0    17     1    13
  1.2452116593011082E-01 a       414     0    17     1    14
 -2.0341735827288354E-01 a       415     0    17     1    15
 -1.7082324896864823E-01 a       416     0    17     1    16
  1.1467870444474304E-01 a       417     0    17     1    17
 -6.4624501239179205E-02 a       418     0    17     1    18
 -4.0277168245627881E-01 a       419     0    17     1    19
  6.7203561951400015E-01 a       420     0    17     1    20
 -1.5295489354782201E-02 a       421     0    17     1    21
 -2.8102499185427321E-01 a       422     0    17     1    22
 -5.0945419215784549E-02 a       423     0    17     1    23
  4.4742419959589658E-01 a       424     0    17     1    24
 -1.8490558820859390E-01 a       425     0    17     1    25
  2.7777816331104999E-01 a       426     0    18     1     1
 -2.8531268283413563E-01 a       427     0    18     1     2
  1.0118385411599240E-01 a       428     0    18     1     3
  1.7931954163432592E-01 a       429     0    18     1     4
  3.5552159416261675E-01 a       430     0    18     1     5
 -2.1485991284046621E-01 a       431     0    18     1     6
  4.0193697688188118E-02 a       432     0    18     1     7
 -3.1360674567962732E-01 a       433     0    18     1     8
 -8.5460605132155101E-02 a       434     0    18     1     9
 -1.6371130051535596E-02 a       435     0    18     1    10
 -2.2392875581670771E-01 a       436     0    18     1    11
  3.8967381206389456E-02 a       437     0    18     1    12
  6.5895845774246745E-02 a       438     0    18     1    13
  5.8760365132001190E-02 a       439     0    18     1    14
  1.3469975228978384E-01 a       440     0    18     1    15
  3.5000566822533796E-01 a       441     0    18     1    16
 -1.9245622538375370E-01 a       442     0    18     1    17
 -3.0993763486286519E-01 a       443     0    18     1    18
  4.6597904872526763E-01 a       444     0    18     1    19
 -3.7407500903905455E-01 a       445     0    18     1    20
  8.4867099296477982E-02 a       446     0    18     1    21
  1.7709805720642446E-01 a       447     0    18     1    22
 -9.2421431987759428E-02 a       448     0    18     1    23
 -8.2984187247111887E-02 a       449     0    18     1    24
 -2.6668365947714762E-01 a       450     0    18     1    25
  2.3308135071639067E-02 a       451     0    19     1     1
 -1.4924559933077754E-02 a       452     0    19     1     2
 -1.3493149215810390E-05 a       453     0    19     1     3
 -1.4320573561843750E-01 a       454     0    19     1     4
 -1.0440048002992840E-01 a       455     0    19     1     5
 -8.2352867458135234E-02 a       456     0    19     1     6
  4.1080913483343496E-03 a       457     0    19     1     7
 -6.7641296324434691E-02 a       458     0    19     1     8
 -4.8990589728911439E-02 a       459     0    19     1     9
  8.5020299117253284E-02 a       460     0    19     1    10
  6.9563011229281130E-02 a       461     0    19     1    11
 -6.5830522849727943E-02 a       462     0    19     1    12
  2.4122869381312861E-02 a       463     0    19     1    13
 -6.4415437666940814E-02 a       464     0    19     1    14
  6.9095607621472113E-02 a       465     0    19     1    15
 -4.3043146192178278E-02 a       466     0    19     1    16
 -9.1510996452631721E-02 a       467     0    19     1    17
  1.9627294983902341E-01 a       468     0    19     1    18
 -1.6006686704283932E-01 a       469     0    19     1    19
 -5.0661563603015297E-02 a       470     0    19     1    20
  4.1748503819846794E-02 a       471     0    19     1    21
 -5.0660988015283286E-02 a       472     0    19     1    22
  7.3189245402072861E-02 a       473     0    19     1    23
 -2.7725681188181875E-03 a       474     0    19     1    24
  7.3521906170133516E-02 a       475     0    19     1    25
  1.4285894686467254E-01 a       476     0    20     1     1
  4.9495232513331690E-02 a       477     0    20     1     2
 -2.5995205537551438E-02 a       478     0    20     1     3
 -2.3520070513531326E-02 a       479     0    20     1     4
  1.0763679109789373E-01 a       480     0    20     1     5
 -7.9644736994408841E-02 a       481     0    20     1     6
 -1.0154825456309660E-03 a       482     0    20     1     7
 -1.8901693299373967E-01 a       483     0    20     1     8
  3.3520776944684208E-02 a       484     0    20     1     9
  7.1035918099267834E-02 a       485     0    20     1    10
 -1.7441804956161499E-02 a       486     0    20     1    11
  3.5279521513624346E-02 a       487     0    20     1    12
  1.1418600241881637E-02 a       488     0    20     1    13
  1.4837581327374519E-02 a       489     0    20     1    14
  2.4547039278819509E-02 a       490     0    20     1    15
 -1.4874587428306726E-01 a       491     0    20     1    16
 -1.5452394161694538E-01 a       492     0    20     1    17
  1.0097800154183566E-01 a       493     0    20     1    18
  5.1016287808260865E-03 a       494     0    20     1    19
  1.7198582214566527E-01 a       495     0    20     1    20
  5.3351261193613726E-02 a       496     0    20     1    21
 -4.2155326421443755E-02 a       497     0    20     1    22
  1.3165495011948802E-02 a       498     0    20     1    23
 -5.1048573421405799E-02 a       499     0    20     1    24
 -2.8521723403110249E-02 a       500     0    20     1    25
  1.9269193134175262E-02 a       501     0    21     1     1
  2.4266118001915721E-01 a       502     0    21     1     2
 -2.2193486840249557E-01 a       503     0    21     1     3
 -1.8452039724161798E-01 a       504     0    21     1     4
  1.0972285166744609E-01 a       505     0    21     1     5
 -5.5366290047964763E-02 a       506     0    21     1     6
  7.0160053404643186E-01 a       507     0    21     1     7
  3.0598411771639494E-01 a       508     0    21     1     8
 -2.8612507713257608E-02 a       509     0    21     1     9
 -1.2782703016101507E-01 a       510     0    21     1    10
 -8.9569047504637331E-02 a       511     0    21     1    11
 -3.2491652313694808E-01 a       512     0    21     1    12
  1.2475285887462116E-01 a       513     0    21     1    13
 -1.5861452412697707E-01 a       514     0    21     1    14
 -6.4689101402684870E-02 a       515     0    21     1    15
 -1.6595428216834215E-01 a       516     0    21     1    16
 -2.8498889807415706E-01 a       517     0    21     1    17
  1.3038867144371727E-01 a       518     0    21     1    18
  3.8509948388834259E-02 a       519     0    21     1    19
 -4.1640585769744365E-01 a       520     0    21     1    20
  1.2080472457534305E-03 a       521     0    21     1    21
  2.3186609878343506E-01 a       522     0    21     1    22
  1.1734588188940634E-01 a       523     0    21     1    23
 -2.4124482654801258E-01 a       524     0    21     1    24
  1.7322307905293019E-01 a       525     0    21     1    25
 -1.5859989635758163E-02 a       526     0    22     1     1
 -2.2957815840869938E-01 a       527     0    22     1     2
 -5.2436503928995633E-02 a       528     0    22     1     3
 -4.2311739105327192E-02 a       529     0    22     1     4
 -1.0909510307450074E-01 a       530     0    22     1     5
  2.1207161701119255E-02 a       531     0    22     1     6
 -1.3784573988705368E-01 a       532     0    22     1     7
 -3.5180768479957331E-01 a       533     0    22     1     8
  2.2607483631883110E-01 a       534     0    22     1     9
 -2.0387967277512042E-01 a       535     0    22     1    10
 -1.2689225897103407E-01 a       536     0    22     1    11
  4.1006893322654742E-01 a       537     0    22     1    12
 -3.3000058775796121E-01 a       538     0    22     1    13
  2.6667302821745670E-01 a       539     0    22     1    14
 -1.2362519639433865E-01 a       540     0    22     1    15
  3.6115045405466749E-03 a       541     0    22     1    16
  8.3470100106501188E-02 a       542     0    22     1    17
  1.2683397719961531E-01 a       543     0    22     1    18
 -1.1931239891900948E-01 a       544     0    22     1    19
  1.8061679462248859E-01 a       545     0    22     1    20
 -9.0439248374715023E-02 a       546     0    22     1    21
 -1.2077938974891365E-01 a       547     0    22     1    22
  1.3780289384851821E-01 a       548     0    22     1    23
  1.2831402659281316E-01 a       549     0    22     1    24
  5.5243570615900817E-03 a       550     0    22     1    25
 -1.0292189184946522E-01 a       551     0    23     1     1
  3.0881020657890657E-01 a       552     0    23     1     2
  7.0872101841813001E-02 a       553     0    23     1     3
 -1.3324161049484959E-02 a       554     0    23     1     4
 -4.1497101750622753E-02 a       555     0    23     1     5
  3.9558168188315285E-02 a       556     0    23     1     6
  4.7610981346578443E-02 a       557     0    23     1     7
  2.8190503096342939E-01 a       558     0    23     1     8
  6.4799095735162432E-02 a       559     0    23     1     9
  5.9300723750594204E-02 a       560     0    23     1    10
  7.2928334430651248E-02 a       561     0    23     1    11
 -1.9728166969806621E-01 a       562     0    23     1    12
 -3.0410978934721000E-02 a       563     0    23     1    13
 -6.2536551389230505E-02 a       564     0    23     1    14
 -1.1006781877534351E-01 a       565     0    23     1    15
 -1.7815623502545211E-01 a       566     0    23     1    16
  5.0347054934200823E-02 a       567     0    23     1    17
 -6.9133784315750638E-02 a       568     0    23     1    18
 -4.7517171814048520E-02 a       569     0    23     1    19
  1.4191519466257155E-01 a       570     0    23     1    20
 -6.1964573406741254E-02 a       571     0    23     1    21
 -1.6825263647006480E-02 a       572     0    23     1    22
 -5.8005458208740035E-02 a       573     0    23     1    23
 -7.5509944863746750E-02 a       574     0    23     1    24
  4.4118675368588524E-02 a       575     0    23     1    25
 -1.0138933541472411E-01 a       576     0    24     1     1
 -1.9847208151477294E-01 a       577     0    24     1     2
  4.8142921263030956E-02 a       578     0    24     1     3
 -5.6247719162682751E-02 a       579     0    24     1     4
  4.4156303961496619E-02 a       580     0    24     1     5
 -1.0341941208361394E-01 a       581     0    24     1     6
 -4.2389672075224941E-02 a       582     0    24     1     7
 -2.1910504534139152E-01 a       583     0    24     1     8
 -8.2007807840406025E-02 a       584     0    24     1     9
 -7.9762187246156052E-02 a       585     0    24     1    10
 -1.5269333852248906E-02 a       586     0    24     1    11
  8.1085971803846218E-02 a       587     0    24     1    12
 -1.6989617635434492E-01 a       588     0    24     1    13
  6.1278426649780116E-02 a       589     0    24     1    14
 -3.1802459533675567E-02 a       590     0    24     1    15
  1.2877669010012091E-01 a       591     0    24     1    16
  7.5669802701293448E-02 a       592     0    24     1    17
 -6.0102892373383121E-02 a       593     0    24     1    18
 -7.8742260917989207E-03 a       594     0    24     1    19
 -1.4277544751558713E-01 a       595     0    24     1    20
 -1.1889890064030265E-01 a       596     0    24     1    21
 -9.1371486075232135E-03 a       597     0    24     1    22
 -2.8244842011962243E-02 a       598     0    24     1    23
 -2.0594245297637787E-02 a       599     0    24     1    24
  3.3907083625662277E-02 a       600     0    24     1    25
 -5.8669347588830398E-02 a       601     0    25     1     1
  4.6940422430000781E-02 a       602     0    25     1     2
  1.8382737894687001E-01 a       603     0    25     1     3
  1.3196610335521561E-01 a       604     0    25     1     4
 -3.5272246708438931E-01 a       605     0    25     1     5
 -8.0740179876458859E-02 a       606     0    25     1     6
 -2.8667356283418033E-01 a       607     0    25     1     7
  2.3041808752285819E-01 a       608     0    25     1     8
 -2.0515451176443436E-01 a       609     0    25     1     9
  1.3105299272502346E-01 a       610     0    25     1    10
  1.6596125555236182E-01 a       611     0    25     1    11
  4.6042311108653700E-02 a       612     0    25     1    12
  4.5044992902745967E-02 a       613     0    25     1    13
  1.5506348309214713E-02 a       614     0    25     1    14
  7.1827949785705211E-02 a       615     0    25     1    15
  5.5140096055058957E-02 a       616     0    25     1    16
  1.8289131455196594E-01 a       617     0    25     1    17
 -1.5475671721709236E-02 a       618     0    25     1    18
 -5.4546816372047689E-02 a       619     0    25     1    19
  4.1390927253241261E-01 a       620     0    25     1    20
  7.2428227437138407E-02 a       621     0    25     1    21
 -2.0087215402480288E-01 a       622     0    25     1    22
 -8.9330039345385179E-02 a       623     0    25     1    23
  4.9405548674236896E-02 a       624     0    25     1    24
 -3.2376911656349816E-02 a       625     0    25     1    25
  4.0315171895944982E-02 a       626     0    26     1     1
 -1.6715532745962905E-01 a       627     0    26     1     2
  5.1328240364778836E-02 a       628     0    26     1     3
  5.5765774602370602E-02 a       629     0    26     1     4
  2.3330198242538389E-01 a       630     0    26     1     5
  1.3635755045235566E-02 a       631     0    26     1     6
  3.6769261281104436E-02 a       632     0    26     1     7
 -3.4950264059708924E-01 a       633     0    26     1     8
 -1.3899756866352191E-02 a       634     0    26     1     9
 -2.2729638112409540E-03 a       635     0    26     1    10
 -1.2621430433994255E-01 a       636     0    26     1    11
 -8.5453620589189080E-02 a       637     0    26     1    12
  1.5111361045695351E-01 a       638     0    26     1    13
 -3.7876650001034962E-03 a       639     0    26     1    14
  1.4386029070166637E-01 a       640     0    26     1    15
  3.5283573860083356E-01 a       641     0    26     1    16
  5.9411214756991404E-02 a       642     0    26     1    17
 -2.2542842744483463E-01 a       643     0    26     1    18
  1.5908260242619401E-01 a       644     0    26     1    19
 -1.5309154784708404E-01 a       645     0    26     1    20
 -1.8584840333751351E-02 a       646     0    26     1    21
  8.6305436722384235E-02 a       647     0    26     1    22
 -1.4250888805262621E-01 a       648     0    26     1    23
  4.3824835230540170E-02 a       649     0    26     1    24
 -9.0325625252647826E-02 a       650     0    26     1    25
 -1.5194800362684729E-02 a       651     0    27     1     1
 -7.7760089516803077E-02 a       652     0    27     1     2
 -3.8887115143325671E-02 a       653     0    27     1     3
 -5.3381566150953449E-02 a       654     0    27     1     4
  1.3242241361060550E-02 a       655     0    27     1     5
 -9.1669969821685474E-02 a       656     0    27     1     6
 -3.3466118154901296E-02 a       657     0    27     1     7
 -9.9642227415143322E-02 a       658     0    27     1     8
 -1.2925948786628452E-01 a       659     0    27     1     9
  5.6505456205658777E-02 a       660     0    27     1    10
  7.6168827087387342E-02 a       661     0    27     1    11
 -7.0797436491464735E-02 a       662     0    27     1    12
  6.2326680703946410E-02 a       663     0    27     1    13
 -5.9666423219758367E-02 a       664     0    27     1    14
  5.7571992254292596E-02 a       665     0    27     1    15
 -1.9970500428281506E-02 a       666     0    27     1    16
 -9.8602479778365906E-02 a       667     0    27     1    17
  1.1130114783939052E-01 a       668     0    27     1    18
 -8.4544977979110245E-02 a       669     0    27     1    19
 -6.7688993977655099E-02 a       670     0    27     1    20
  5.1661876289957435E-02 a       671     0    27     1    21
 -1.1161906509416734E-03 a       672     0    27     1    22
  4.4681795869596717E-02 a       673     0    27     1    23
 -5.3000359593857937E-03 a       674     0    27     1    24
  4.5770506678989333E-03 a       675     0    27     1    25
  1.8695702063522221E-01 a       676     0    28     1     1
  1.6803282178612072E-01 a       677     0    28     1     2
  1.9396773688674651E-02 a       678     0    28     1     3
  3.0826155675947466E-02 a       679     0    28     1     4
  8.5801288140661833E-02 a       680     0    28     1     5
  4.5893330002096361E-02 a       681     0    28     1     6
  4.3957828860960925E-02 a       682     0    28     1     7
  2.0764231416460381E-02 a       683     0    28     1     8
  9.6232324153396373E-02 a       684     0    28     1     9
  3.2178532655396878E-02 a       685     0    28     1    10
 -3.2904764788022844E-02 a       686     0    28     1    11
  6.8444797013693381E-03 a       687     0    28     1    12
  8.6544556870077269E-02 a       688     0    28     1    13
  7.5334465490347585E-02 a       689     0    28     1    14
 -4.4199912575915859E-03 a       690     0    28     1    15
 -4.9396429835224277E-02 a       691     0    28     1    16
 -6.8935628300646243E-02 a       692     0    28     1    17
  2.3848895724859830E-02 a       693     0    28     1    18
 -2.0541805811576531E-02 a       694     0    28     1    19
  9.4262206008623409E-02 a       695     0    28     1    20
  5.0265217726666873E-02 a       696     0    28     1    21
 -3.2540003358866199E-02 a       697     0    28     1    22
  3.3024295392520067E-03 a       698     0    28     1    23
  4.9872682878070958E-02 a       699     0    28     1    24
 -2.3250192631679521E-02 a       700     0    28     1    25
  2.9519549555539357E-02 a       701     0    29     1     1
  1.5328935364963020E-01 a       702     0    29     1     2
 -1.1847771633757591E-01 a       703     0    29     1     3
 -6.1233354082658883E-02 a       704     0    29     1     4
  1.7905648285081599E-01 a       705     0    29     1     5
  1.2859826543198355E-01 a       706     0    29     1     6
  1.9499400467504327E-01 a       707     0    29     1     7
  1.0107509011239567E-01 a       708     0    29     1     8
 -6.5147294214307150E-02 a       709     0    29     1     9
 -1.5331123989117434E-01 a       710     0    29     1    10
  1.4857384598790258E-01 a       711     0    29     1    11
 -2.4606497956843129E-01 a       712     0    29     1    12
  1.1649525926267677E-01 a       713     0    29     1    13
 -5.1851849479875527E-02 a       714     0    29     1    14
 -5.1798275098146759E-02 a       715     0    29     1    15
 -9.6942286497502944E-02 a       716     0    29     1    16
 -1.2006946201249070E-01 a       717     0    29     1    17
  1.1190242069770766E-01 a       718     0    29     1    18
 -1.4889726845307835E-01 a       719     0    29     1    19
 -2.9478874299918456E-01 a       720     0    29     1    20
  3.3708485505981899E-02 a       721     0    29     1    21
  9.7070130766645946E-02 a       722     0    29     1    22
  1.2183261556631081E-01 a       723     0    29     1    23
 -1.2088319849463163E-02 a       724     0    29     1    24
  1.2071752071841634E-01 a       725     0    29     1    25
  1.1856985364986043E-01 a       726     0    30     1     1
 -3.7699164522262019E-02 a       727     0    30     1     2
  1.0813812931622093E-02 a       728     0    30     1     3
  4.2614586566757706E-02 a       729     0    30     1     4
 -1.9096429394338491E-02 a       730     0    30     1     5
  4.9873412054561826E-02 a       731     0    30     1     6
 -3.6322090464801764E-03 a       732     0    30     1     7
 -1.3635134054234987E-01 a       733     0    30     1     8
  3.2865466106202551E-01 a       734     0    30     1     9
 -9.6383143336274013E-02 a       735     0    30     1    10
 -2.3665038029648303E-01 a       736     0    30     1    11
  3.5517360680202564E-01 a       737     0    30     1    12
 -2.8000077717134320E-01 a       738     0    30     1    13
  1.7255026986645039E-01 a       739     0    30     1    14
 -1.6580735426430371E-01 a       740     0    30     1    15
 -9.9881717244031915E-02 a       741     0    30     1    16
 -4.6867526665890377E-02 a       742     0    30     1    17
 -3.7323124078277550E-02 a       743     0    30     1    18
  9.0447463160842650E-02 a       744     0    30     1    19
  7.5447582688834072E-02 a       745     0    30     1    20
 -1.2314266446547557E-01 a       746     0    30     1    21
 -1.3098208537508784E-02 a       747     0    30     1    22
  8.9429041840391965E-02 a       748     0    30     1    23
  5.7297636571059178E-02 a       749     0    30     1    24
 -6.6001839171742377E-02 a       750     0    30     1    25
 -4.2636227040219736E-02 a       751     0    31     1     1
  1.8475948583762003E-01 a       752     0    31     1     2
  6.5619401596835991E-02 a       753     0    31     1     3
 -4.3419703769357623E-02 a       754     0    31     1     4
 -6.9301623995482578E-02 a       755     0    31     1     5
 -3.3258310469094020E-02 a       756     0    31     1     6
  2.0303590134095238E-02 a       757     0    31     1     7
  2.6233872692714577E-01 a       758     0    31     1     8
 -4.1653984281847696E-02 a       759     0    31     1     9
 -3.7919749202110685E-02 a       760     0    31     1    10
  7.2030452318555330E-02 a       761     0    31     1    11
 -8.4679608278938043E-02 a       762     0    31     1    12
  4.8902983708312857E-02 a       763     0    31     1    13
 -2.0482372650574084E-03 a       764     0    31     1    14
 -6.0397781542330838E-02 a       765     0    31     1    15
  1.1378643146615313E-02 a       766     0    31     1    16
  6.4632765870099487E-02 a       767     0    31     1    17
 -2.8583374220567555E-02 a       768     0    31     1    18
 -1.7743760773972158E-02 a       769     0    31     1    19
  6.3375114187128614E-02 a       770     0    31     1    20
 -2.5820280270881766E-02 a       771     0    31     1    21
 -2.5827732383118380E-02 a       772     0    31     1    22
 -8.5070413167059253E-02 a       773     0    31     1    23
 -5.0818176127585872E-02 a       774     0    31     1    24
  4.7988119435323634E-02 a       775     0    31     1    25
 -1.2782081453910624E-01 a       776     0    32     1     1
 -2.2003518701627758E-01 a       777     0    32     1     2
  3.9029376920460934E-02 a       778     0    32     1     3
 -1.8389870739444977E-02 a       779     0    32     1     4
  2.3736275492468239E-03 a       780     0    32     1     5
 -1.0618048761184473E-01 a       781     0    32     1     6
 -4.7762879055869525E-02 a       782     0    32     1     7
 -3.2760790834798503E-01 a       783     0    32     1     8
  5.8208950723877842E-02 a       784     0    32     1     9
 -9.3263110984363504E-02 a       785     0    32     1    10
 -7.1889515341979654E-02 a       786     0    32     1    11
  1.1268513093666756E-01 a       787     0    32     1    12
 -1.5218867072886519E-01 a       788     0    32     1    13
 -1.7151064763752850E-02 a       789     0    32     1    14
 -1.0957062595061177E-02 a       790     0    32     1    15
  1.5478078489569744E-01 a       791     0    32     1    16
  1.0066416365706070E-01 a       792     0    32     1    17
 -7.6733585600133603E-02 a       793     0    32     1    18
  3.8474354713382009E-02 a       794     0    32     1    19
 -8.0674501402581728E-02 a       795     0    32     1    20
 -1.0389866409908986E-01 a       796     0    32     1    21
  1.6785609857680329E-02 a       797     0    32     1    22
 -4.5995193777812866E-02 a       798     0    32     1    23
 -5.0635860695942170E-02 a       799     0    32     1    24
 -1.4499078541037132E-02 a       800     0    32     1    25
 -4.7854836439705797E-02 a       801     0    33     1     1
 -6.2543814472399741E-03 a       802     0    33     1     2
  4.7562553087059020E-02 a       803     0    33     1     3
  3.6047258966841862E-02 a       804     0    33     1     4
 -1.3558410419992237E-01 a       805     0    33     1     5
 -1.4150969985650966E-01 a       806     0    33     1     6
 -1.1340964968297988E-01 a       807     0    33     1     7
  1.9879920645240724E-02 a       808     0    33     1     8
 -4.6354763558061333E-02 a       809     0    33     1     9
  1.1492751246906709E-01 a       810     0    33     1    10
  4.6460256327143720E-03 a       811     0    33     1    11
 -7.5215310758283582E-02 a       812     0    33     1    12
 -1.4796436996365165E-02 a       813     0    33     1    13
 -1.2027499734533096E-02 a       814     0    33     1    14
  2.8922611176799961E-02 a       815     0    33     1    15
  3.6873607504954906E-03 a       816     0    33     1    16
 -2.5854492349481884E-02 a       817     0    33     1    17
 -2.5480006417687210E-03 a       818     0    33     1    18
  5.9713553921747708E-02 a       819     0    33     1    19
  1.7458915942730982E-01 a       820     0    33     1    20
  2.2622108653069205E-02 a       821     0    33     1    21
 -6.4177537435438609E-02 a       822     0    33     1    22
 -2.5590839260517001E-02 a       823     0    33     1    23
 -3.1435169359295058E-02 a       824     0    33     1    24
 -5.8198096430254379E-02 a       825     0    33     1    25
 -5.6882688662873458E-02 a       826     0    34     1     1
 -2.8207212891325589E-02 a       827     0    34     1     2
  2.4047175667969971E-02 a       828     0    34     1     3
 -4.0144933444958182E-02 a       829     0    34     1     4
  8.2078219370584848E-02 a       830     0    34     1     5
 -5.6458320830549878E-02 a       831     0    34     1     6
 -1.2963098627380537E-02 a       832     0    34     1     7
 -4.9983048058895758E-02 a       833     0    34     1     8
 -1.2132605023643304E-01 a       834     0    34     1     9
  9.3687368628024584E-02 a       835     0    34     1    10
  4.7758725435540848E-02 a       836     0    34     1    11
 -1.4806819621158784E-01 a       837     0    34     1    12
  1.0106181859388540E-01 a       838     0    34     1    13
 -6.2499183351321250E-02 a       839     0    34     1    14
  8.8997606067106966E-02 a       840     0    34     1    15
  8.5857939100949063E-02 a       841     0    34     1    16
  4.1153890072508942E-02 a       842     0    34     1    17
  4.2269271586702533E-03 a       843     0    34     1    18
 -4.1021826575830131E-02 a       844     0    34     1    19
 -3.1151815742102927E-02 a       845     0    34     1    20
  1.7936098610806684E-02 a       846     0    34     1    21
 -6.9734576057598162E-03 a       847     0    34     1    22
 -9.2500448155111645E-02 a       848     0    34     1    23
 -1.8176599577486012E-02 a       849     0    34     1    24
  1.8474007000524165E-02 a       850     0    34     1    25
  5.9861615661667193E-02 a       851     0    35     1     1
 -5.5988299176590740E-02 a       852     0    35     1     2
 -3.8393228931975935E-02 a       853     0    35     1     3
  5.2407522033215817E-02 a       854     0    35     1     4
  1.1069086430060521E-01 a       855     0    35     1     5
  6.1493433451848878E-02 a       856     0    35     1     6
 -2.2510601391631775E-03 a       857     0    35     1     7
 -1.3508692449140960E-01 a       858     0    35     1     8
  8.7154070863385322E-02 a       859     0    35     1     9
 -3.2909514226194594E-04 a       860     0    35     1    10
 -3.7816675922398103E-02 a       861     0    35     1    11
  8.7353802805953118E-02 a       862     0    35     1    12
 -3.5817453318873239E-02 a       863     0    35     1    13
 -1.1774008867719321E-02 a       864     0    35     1    14
  9.1643189463454112E-03 a       865     0    35     1    15
 -1.0530411131161498E-01 a       866     0    35     1    16
  6.6852759998258819E-03 a       867     0    35     1    17
  5.3838858956952711E-03 a       868     0    35     1    18
 -2.0035829804877111E-02 a       869     0    35     1    19
 -4.6588590221807280E-02 a       870     0    35     1    20
  8.3153068623922598E-03 a       871     0    35     1    21
  1.6255301928618304E-02 a       872     0    35     1    22
  6.6650311724793243E-02 a       873     0    35     1    23
  1.9171096103154501E-02 a       874     0    35     1    24
  1.9411522656391872E-02 a       875     0    35     1    25
  1.1403866231281160E-01 a       876     0    36     1     1
  1.2379373481113407E-01 a       877     0    36     1     2
 -2.5817814100137036E-02 a       878     0    36     1     3
 -1.0562528472737896E-02 a       879     0    36     1     4
  5.2003809879144894E-02 a       880     0    36     1     5
  6.1925444426187033E-02 a       881     0    36     1     6
  1.9178282390835931E-02 a       882     0    36     1     7
  1.9664640133466885E-01 a       883     0    36     1     8
 -2.5848354323206223E-02 a       884     0    36     1     9
  4.6212589485216900E-02 a       885     0    36     1    10
  3.3148612278441458E-02 a       886     0    36     1    11
 -3.3115667303559873E-02 a       887     0    36     1    12
  1.0299409671691652E-01 a       888     0    36     1    13
  4.5226824293642068E-02 a       889     0    36     1    14
 -8.7370298214482760E-03 a       890     0    36     1    15
 -1.4081164665409315E-01 a       891     0    36     1    16
 -4.4189186898045109E-02 a       892     0    36     1    17
  5.2923875022062611E-02 a       893     0    36     1    18
 -2.8808489668795401E-02 a       894     0    36     1    19
  2.6084466586641927E-02 a       895     0    36     1    20
  6.2896368231204952E-02 a       896     0    36     1    21
 -1.3412171052291066E-02 a       897     0    36     1    22
  9.6117906412612943E-03 a       898     0    36     1    23
  4.3040717347997227E-02 a       899     0    36     1    24
  3.0655592974388638E-02 a       900     0    36     1    25
  5.8471730110222664E-02 a       901     0    37     1     1
  3.5256466421873932E-02 a       902     0    37     1     2
 -3.9729632952019291E-02 a       903     0    37     1     3
  5.5399777251290204E-04 a       904     0    37     1     4
  6.6471469935364930E-02 a       905     0    37     1     5
  1.2021586357373477E-01 a       906     0    37     1     6
  4.1848677101365361E-02 a       907     0    37     1     7
  8.0633384733327026E-02 a       908     0    37     1     8
 -2.8990801428297640E-02 a       909     0    37     1     9
 -3.0717214685879717E-02 a       910     0    37     1    10
  6.5356215832056003E-02 a       911     0    37     1    11
  5.6811563390168116E-02 a       912     0    37     1    12
  5.8275834940404420E-02 a       913     0    37     1    13
  8.4848031121245709E-03 a       914     0    37     1    14
  1.8501824062519011E-02 a       915     0    37     1    15
 -5.2000557333708133E-02 a       916     0    37     1    16
  8.2967892284489614E-02 a       917     0    37     1    17
  3.3943504190734414E-02 a       918     0    37     1    18
 -7.0728953744240278E-02 a       919     0    37     1    19
 -1.0406358308339683E-01 a       920     0    37     1    20
  2.8584267081260262E-02 a       921     0    37     1    21
  1.7833433389211222E-02 a       922     0    37     1    22
  1.5720350863928444E-02 a       923     0    37     1    23
  4.2467935175884534E-02 a       924     0    37     1    24
  6.1220267942426597E-02 a       925     0    37     1    25
  7.0272021034231136E-02 a       926     0    38     1     1
 -4.2662465284595608E-02 a       927     0    38     1     2
 -1.0024654682259682E-02 a       928     0    38     1     3
  8.8534441320787208E-02 a       929     0    38     1     4
 -4.8412838213820544E-03 a       930     0    38     1     5
  1.3841151885588845E-01 a       931     0    38     1     6
  4.4291467353107974E-02 a       932     0    38     1     7
 -5.2952396060836175E-02 a       933     0    38     1     8
  1.6570683854024520E-01 a       934     0    38     1     9
 -1.1687321308203744E-01 a       935     0    38     1    10
 -1.3674876799583330E-01 a       936     0    38     1    11
  2.3644706007932864E-01 a       937     0    38     1    12
 -7.2508134800461380E-02 a       938     0    38     1    13
  6.9258732708659010E-02 a       939     0    38     1    14
 -4.2965588259865566E-02 a       940     0    38     1    15
  3.5235924361096731E-02 a       941     0    38     1    16
  4.4405645809059743E-02 a       942     0    38     1    17
 -9.6640054856851607E-02 a       943     0    38     1    18
  1.0389758814716406E-01 a       944     0    38     1    19
  2.4287886516852122E-03 a       945     0    38     1    20
 -4.2205170318356182E-02 a       946     0    38     1    21
  3.5762853279619873E-02 a       947     0    38     1    22
  5.5918587400708243E-02 a       948     0    38     1    23
  7.0379328111787598E-02 a       949     0    38     1    24
 -3.9163199298156842E-02 a       950     0    38     1    25
 -1.6190268044617886E-02 a       951     0    39     1     1
  8.7358923760512408E-02 a       952     0    39     1     2
  1.7245219295683147E-02 a       953     0    39     1     3
 -3.2322123572022084E-02 a       954     0    39     1     4
 -3.2608939605228753E-02 a       955     0    39     1     5
 -8.4286668511729557E-02 a       956     0    39     1     6
 -9.8510634198053747E-03 a       957     0    39     1     7
  9.4873582441870344E-02 a       958     0    39     1     8
 -1.0283745106356484E-01 a       959     0    39     1     9
  3.4598003585983840E-02 a       960     0    39     1    10
  7.5846934567348492E-02 a       961     0    39     1    11
 -1.4747983887096630E-01 a       962     0    39     1    12
  4.2719108604655637E-02 a       963     0    39     1    13
 -4.6833746564454767E-03 a       964     0    39     1    14
  8.0233801708619636E-03 a       965     0    39     1    15
 -2.9367363786764444E-05 a       966     0    39     1    16
 -1.5487064416422792E-02 a       967     0    39     1    17
  3.8328682512050370E-02 a       968     0    39     1    18
 -2.8036985107215438E-02 a       969     0    39     1    19
  1.4388707331145256E-02 a       970     0    39     1    20
  2.1374776307436488E-02 a       971     0    39     1    21
 -2.8182227322994569E-02 a       972     0    39     1    22
 -8.0533420090787844E-03 a       973     0    39     1    23
 -3.1245037358176818E-02 a       974     0    39     1    24
  1.6372302657241062E-02 a       975     0    39     1    25
 -1.6160340199138732E-02 a       976     0    40     1     1
 -1.5975388042177924E-02 a       977     0    40     1     2
  4.9631488602216958E-02 a       978     0    40     1     3
 -3.9501166757300032E-02 a       979     0    40     1     4
  5.2478456926945236E-02 a       980     0    40     1     5
 -7.8649696677712419E-02 a       981     0    40     1     6
  1.0855002146034838E-02 a       982     0    40     1     7
 -1.7000746300439928E-01 a       983     0    40     1     8
  8.0530300592241505E-02 a       984     0    40     1     9
 -3.4155881864577214E-02 a       985     0    40     1    10
 -2.6809460896642785E-02 a       986     0    40     1    11
  8.9507488476809796E-02 a       987     0    40     1    12
 -1.3289742038583560E-01 a       988     0    40     1    13
  1.0815445933543995E-02 a       989     0    40     1    14
 -4.0600431527737721E-02 a       990     0    40     1    15
  2.0278872440203058E-02 a       991     0    40     1    16
  2.7682219206831917E-02 a       992     0    40     1    17
 -4.3438140947872662E-02 a       993     0    40     1    18
  1.0513338733542576E-02 a       994     0    40     1    19
 -1.3200054491406385E-02 a       995     0    40     1    20
 -8.5805107532618149E-02 a       996     0    40     1    21
 -1.0795858836589832E-02 a       997     0    40     1    22
 -3.4381400692071865E-02 a       998     0    40     1    23
 -7.1311791299413660E-02 a       999     0    40     1    24
  1.3672987311714297E-03 a      1000     0    40     1    25
  2.1976891835263901E-01 a      1001     0    41     1     1
 -3.8869040643694885E-01 a      1002     0    41     1     2
  1.1686259516046354E-01 a      1003     0    41     1     3
 -6.4788074617094682E-02 a      1004     0    41     1     4
  8.3872789813388360E-02 a      1005     0    41     1     5
 -4.0495992867647257E-01 a      1006     0    41     1     6
 -1.7276366597341000E-01 a      1007     0    41     1     7
 -4.4155840097508159E-01 a      1008     0    41     1     8
 -6.6170114567782712E-02 a      1009     0    41     1     9
 -9.3944227211416584E-02 a      1010     0    41     1    10
 -2.6701611244157403E-01 a      1011     0    41     1    11
  1.2332434191432974E-01 a      1012     0    41     1    12
  3.0328825330821718E-01 a      1013     0    41     1    13
  1.9440361356709215E-01 a      1014     0    41     1    14
  1.4846610859559747E-01 a      1015     0    41     1    15
  1.2656775533567727E-01 a      1016     0    41     1    16
 -2.8288579241575557E-01 a      1017     0    41     1    17
  1.7385344705736883E-01 a      1018     0    41     1    18
 -3.0413750704518966E-01 a      1019     0    41     1    19
 -1.7700241349519849E-01 a      1020     0    41     1    20
  3.2443072341809132E-01 a      1021     0    41     1    21
 -1.7171108434642740E-01 a      1022     0    41     1    22
  6.1277505147719451E-03 a      1023     0    41     1    23
 -3.7918252721077500E-01 a      1024     0    41     1    24
  1.1020658234801274E-01 a      1025     0    41     1    25
 -4.3701754210841226E-01 a      1026     0    42     1     1
 -4.4002737087309046E-01 a      1027     0    42     1     2
 -1.6276222273315250E-01 a      1028     0    42     1     3
 -5.5603517241468614E-02 a      1029     0    42     1     4
  4.0129893594732774E-01 a      1030     0    42     1     5
  2.2201840863723052E-01 a      1031     0    42     1     6
  8.8599287572024454E-02 a      1032     0    42     1     7
  9.8642287287621433E-01 a      1033     0    42     1     8
 -3.2702950217204224E-01 a      1034     0    42     1     9
  1.1738448026702014E-01 a      1035     0    42     1    10
  1.8467440944261168E-01 a      1036     0    42     1    11
 -2.9367373243212602E-01 a      1037     0    42     1    12
  2.8470413251866132E-02 a      1038     0    42     1    13
  3.5364554550597049E-01 a      1039     0    42     1    14
 -9.8771053874551706E-02 a      1040     0    42     1    15
  3.7202761200050100E-01 a      1041     0    42     1    16
  2.7721849386497815E-01 a      1042     0    42     1    17
 -4.2120069200883514E-01 a      1043     0    42     1    18
  5.6876304783849374E-01 a      1044     0    42     1    19
  2.9362133911011529E-01 a      1045     0    42     1    20
 -3.2266271360155147E-01 a      1046     0    42     1    21
  1.5180101210845523E-01 a      1047     0    42     1    22
 -1.0170702070240112E-01 a      1048     0    42     1    23
  3.5487429404918297E-01 a      1049     0    42     1    24
  1.3653559088219985E-01 a      1050     0    42     1    25
  2.7574569968483769E-02 a      1051     0    43     1     1
 -2.1196589175399760E-01 a      1052     0    43     1     2
  8.2321313388948505E-02 a      1053     0    43     1     3
 -3.5058122228190247E-01 a      1054     0    43     1     4
  9.0266658222791507E-02 a      1055     0    43     1     5
 -6.9157924636868720E-02 a      1056     0    43     1     6
 -9.5044143521946733E-02 a      1057     0    43     1     7
 -1.3306265941144524E-01 a      1058     0    43     1     8
  1.0485992282560710E-01 a      1059     0    43     1     9
 -8.9293295837376357E-02 a      1060     0    43     1    10
 -1.6574148793124829E-01 a      1061     0    43     1    11
 -5.4649988723734687E-02 a      1062     0    43     1    12
  6.8120267672894017E-02 a      1063     0    43     1    13
  1.2411710067939950E-01 a      1064     0    43     1    14
  1.8435733573435500E-02 a      1065     0    43     1    15
 -3.5808066078099482E-01 a      1066     0    43     1    16
 -3.0441754359240031E-01 a      1067     0    43     1    17
 -6.5620808995532978E-02 a      1068     0    43     1    18
 -2.6638194698937190E-02 a      1069     0    43     1    19
 -2.0139232278574667E-01 a      1070     0    43     1    20
  1.1493134584152487E-01 a      1071     0    43     1    21
 -7.2170181804482175E-02 a      1072     0    43     1    22
  1.2914525792402504E-02 a      1073     0    43     1    23
 -2.8148333831290184E-01 a      1074     0    43     1    24
 -3.7552030006677076E-02 a      1075     0    43     1    25
 -7.1036378441024270E-02 a      1076     0    44     1     1
 -1.1578085290513035E-01 a      1077     0    44     1     2
  2.6362621873867503E-01 a      1078     0    44     1     3
  1.1317733466108609E-01 a      1079     0    44     1     4
  1.1113743446630693E-01 a      1080     0    44     1     5
 -1.4546450450174267E-01 a      1081     0    44     1     6
  2.0339369847551119E-02 a      1082     0    44     1     7
  1.8621474041827259E-02 a      1083     0    44     1     8
  1.2574520638584322E-01 a      1084     0    44     1     9
  6.0336654711249826E-02 a      1085     0    44     1    10
 -1.3629826665881789E-01 a      1086     0    44     1    11
 -7.4273972924815357E-02 a      1087     0    44     1    12
  6.7284866302494056E-02 a      1088     0    44     1    13
 -1.3429321648188475E-01 a      1089     0    44     1    14
  2.8990269727285984E-02 a      1090     0    44     1    15
  3.0377728353170586E-01 a      1091     0    44     1    16
  1.9747192979075584E-01 a      1092     0    44     1    17
 -4.3602592541767938E-05 a      1093     0    44     1    18
  3.1804506602454186E-01 a      1094     0    44     1    19
  1.1086241447278085E-01 a      1095     0    44     1    20
 -1.5934064265913737E-02 a      1096     0    44     1    21
 -7.0152296203830955E-02 a      1097     0    44     1    22
  2.5583895966771790E-02 a      1098     0    44     1    23
  1.0240649047495590E-01 a      1099     0    44     1    24
 -1.5556177516330702E-01 a      1100     0    44     1    25
 -1.1563049426409448E-01 a      1101     0    45     1     1
  1.3371796754243309E-01 a      1102     0    45     1     2
  3.5075172583599995E-01 a      1103     0    45     1     3
  9.3682232795323603E-02 a      1104     0    45     1     4
 -2.3678717646055375E-01 a      1105     0    45     1     5
 -1.0302256642700124E-01 a      1106     0    45     1     6
  2.6520015371987553E-02 a      1107     0    45     1     7
 -5.2602214436137984E-01 a      1108     0    45     1     8
  3.5501832347431461E-01 a      1109     0    45     1     9
  1.2337456263435159E-02 a      1110     0    45     1    10
  2.3276808883438810E-01 a      1111     0    45     1    11
  3.2401117188458667E-01 a      1112     0    45     1    12
  3.1123366361143255E-03 a      1113     0    45     1    13
 -7.1693549580823090E-01 a      1114     0    45     1    14
 -5.9457527303249588E-02 a      1115     0    45     1    15
 -1.9434810558084942E-01 a      1116     0    45     1    16
 -3.7829146469588543E-01 a      1117     0    45     1    17
  3.0104952381515754E-01 a      1118     0    45     1    18
 -4.2083633024727835E-01 a      1119     0    45     1    19
  8.1553429765231236E-02 a      1120     0    45     1    20
  3.4016099937319810E-01 a      1121     0    45     1    21
 -1.1645198453560698E-01 a      1122     0    45     1    22
 -2.9893122561729984E-01 a      1123     0    45     1    23
 -5.7547697183001167E-01 a      1124     0    45     1    24
  1.2883721123288081E-01 a      1125     0    45     1    25
  1.2061592056280153E-01 a      1126     0    46     1     1
 -1.9468616849763773E-01 a      1127     0    46     1     2
  1.2173728034522897E-01 a      1128     0    46     1     3
  1.4243574440891119E-01 a      1129     0    46     1     4
  1.5211316846928061E-01 a      1130     0    46     1     5
 -8.1476744286794855E-02 a      1131     0    46     1     6
  2.6690729535877918E-02 a      1132     0    46     1     7
  1.7787246289828140E-01 a      1133     0    46     1     8
 -1.7660779047511627E-01 a      1134     0    46     1     9
 -4.8035266399356603E-02 a      1135     0    46     1    10
  3.2687160328025475E-02 a      1136     0    46     1    11
  2.3042306689921016E-01 a      1137     0    46     1    12
  6.3365079048554568E-02 a      1138     0    46     1    13
  9.3508568334712012E-03 a      1139     0    46     1    14
  1.6890518118738502E-02 a      1140     0    46     1    15
  2.5797029963486784E-01 a      1141     0    46     1    16
  2.3659312318730899E-01 a      1142     0    46     1    17
 -1.4753244454843911E-01 a      1143     0    46     1    18
  1.5990090355055184E-01 a      1144     0    46     1    19
 -5.5824461413117456E-02 a      1145     0    46     1    20
 -8.8405857756410133E-02 a      1146     0    46     1    21
 -2.4928718219945811E-02 a      1147     0    46     1    22
 -2.5262772302815824E-03 a      1148     0    46     1    23
 -1.7413234305717250E-02 a      1149     0    46     1    24
  2.5603936849772638E-02 a      1150     0    46     1    25
  4.2654442049861976E-02 a      1151     0    47     1     1
 -1.9659486132150104E-02 a      1152     0    47     1     2
  1.8652441039512285E-01 a      1153     0    47     1     3
 -1.5429000129509216E-02 a      1154     0    47     1     4
  6.0999336388233370E-02 a      1155     0    47     1     5
 -3.6679239548187441E-03 a      1156     0    47     1     6
 -1.2151627968546692E-01 a      1157     0    47     1     7
 -2.3486395444401018E-01 a      1158     0    47     1     8
  3.0559925161255813E-01 a      1159     0    47     1     9
 -9.0179644043540466E-02 a      1160     0    47     1    10
  2.7113359565465012E-01 a      1161     0    47     1    11
  1.0768810141173348E-01 a      1162     0    47     1    12
  1.7968227228209871E-02 a      1163     0    47     1    13
 -1.7429961071124794E-02 a      1164     0    47     1    14
 -8.1634386905427805E-02 a      1165     0    47     1    15
 -5.3660254397258474E-02 a      1166     0    47     1    16
 -9.7541795337670614E-02 a      1167     0    47     1    17
  1.0002145984893010E-01 a      1168     0    47     1    18
 -4.1357437272004338E-01 a      1169     0    47     1    19
  9.7038775243353317E-02 a      1170     0    47     1    20
  1.0856290544704439E-01 a      1171     0    47     1    21
 -8.4210607563077209E-05 a      1172     0    47     1    22
 -2.3066871264384001E-01 a      1173     0    47     1    23
 -1.0681808331940758E-01 a      1174     0    47     1    24
 -6.1271372973392926E-02 a      1175     0    47     1    25
  9.5803714927477947E-03 a      1176     0    48     1     1
 -2.1722483975611377E-02 a      1177     0    48     1     2
 -6.4514649528082488E-02 a      1178     0    48     1     3
 -2.4814993232238510E-02 a      1179     0    48     1     4
  5.7299128842827146E-02 a      1180     0    48     1     5
  5.0113382379353699E-02 a      1181     0    48     1     6
 -4.9806239650743525E-04 a      1182     0    48     1     7
 -2.6211108190148626E-02 a      1183     0    48     1     8
  7.6874082721420239E-02 a      1184     0    48     1     9
 -1.0437139059612678E-01 a      1185     0    48     1    10
 -1.8855770794885363E-02 a      1186     0    48     1    11
 -1.0636638338705640E-01 a      1187     0    48     1    12
 -8.3232116798859657E-03 a      1188     0    48     1    13
  7.8639072072928959E-02 a      1189     0    48     1    14
 -2.0800357802365600E-02 a      1190     0    48     1    15
 -1.0598854928653352E-02 a      1191     0    48     1    16
 -8.9180716260293016E-02 a      1192     0    48     1    17
 -1.2143253240950465E-01 a      1193     0    48     1    18
  2.0795287155283070E-02 a      1194     0    48     1    19
  2.3737878086525849E-02 a      1195     0    48     1    20
  7.4033573627551429E-03 a      1196     0    48     1    21
  2.0416901631962119E-02 a      1197     0    48     1    22
  6.6512825010312970E-02 a      1198     0    48     1    23
 -6.7583389810642602E-02 a      1199     0    48     1    24
  3.9071881533005969E-02 a      1200     0    48     1    25
  4.3790796368552549E-02 a      1201     0    49     1     1
 -5.3217260233173441E-02 a      1202     0    49     1     2
  1.4043324315012734E-01 a      1203     0    49     1     3
 -4.9477733494278406E-02 a      1204     0    49     1     4
  6.2141798350168226E-02 a      1205     0    49     1     5
 -9.7171011198676997E-03 a      1206     0    49     1     6
 -8.7248442920550527E-03 a      1207     0    49     1     7
  9.0422422077585413E-02 a      1208     0    49     1     8
 -1.8186156627002573E-02 a      1209     0    49     1     9
  5.3014807148163479E-02 a      1210     0    49     1    10
 -1.7756156586680596E-01 a      1211     0    49     1    11
  4.8515666657123875E-02 a      1212     0    49     1    12
 -6.6008251165990933E-02 a      1213     0    49     1    13
 -8.3874817136628033E-02 a      1214     0    49     1    14
 -5.7395699524138673E-03 a      1215     0    49     1    15
 -8.4562763963451207E-02 a      1216     0    49     1    16
 -2.2467948266731308E-01 a      1217     0    49     1    17
 -9.7017284005266116E-03 a      1218     0    49     1    18
 -7.8430672921055350E-02 a      1219     0    49     1    19
 -1.8194951046934330E-01 a      1220     0    49     1    20
 -1.6192327170528492E-01 a      1221     0    49     1    21
 -4.4186768042103759E-02 a      1222     0    49     1    22
  2.2674279388283584E-02 a      1223     0    49     1    23
 -4.5408849690686419E-02 a      1224     0    49     1    24
 -7.8142154851462101E-02 a      1225     0    49     1    25
 -1.3706006909114396E-01 a      1226     0    50     1     1
  1.4919636307096679E-01 a      1227     0    50     1     2
  8.4374242601270535E-02 a      1228     0    50     1     3
  6.8834958480578662E-02 a      1229     0    50     1     4
  2.2821713850682476E-01 a      1230     0    50     1     5
 -1.8640251778399558E-01 a      1231     0    50     1     6
 -2.1068968613767219E-01 a      1232     0    50     1     7
 -1.0254450136172755E-01 a      1233     0    50     1     8
  8.8275256586133246E-03 a      1234     0    50     1     9
 -6.6607444269669606E-03 a      1235     0    50     1    10
 -1.5346982409987414E-01 a      1236     0    50     1    11
  3.6322405904265824E-02 a      1237     0    50     1    12
 -2.9286570293968927E-02 a      1238     0    50     1    13
 -1.9056979191467846E-01 a      1239     0    50     1    14
  2.6897421060120007E-02 a      1240     0    50     1    15
 -2.9019116357843433E-01 a      1241     0    50     1    16
  9.4126433938709689E-03 a      1242     0    50     1    17
  1.3736725764252883E-01 a      1243     0    50     1    18
  6.5578326048219171E-02 a      1244     0    50     1    19
 -1.1688507560571958E-01 a      1245     0    50     1    20
  7.3892712217111828E-02 a      1246     0    50     1    21
 -3.2752104038794048E-02 a      1247     0    50     1    22
  1.3112388500819142E-01 a      1248     0    50     1    23
  2.2972616371718477E-02 a      1249     0    50     1    24
 -1.3319961427207805E-01 a      1250     0    50     1    25
  1.6704368466195791E-02 a      1251     0    51     1     1
  4.4629021620241932E-01 a      1252     0    51     1     2
 -6.6046796054545512E-02 a      1253     0    51     1     3
  9.0646105631480511E-02 a      1254     0    51     1     4
 -2.2507249011608468E-01 a      1255     0    51     1     5
 -3.0054986051254968E-02 a      1256     0    51     1     6
 -2.7604993269459061E-01 a      1257     0    51     1     7
 -1.8145009632777037E-01 a      1258     0    51     1     8
 -1.0991078151596664E-01 a      1259     0    51     1     9
 -2.6655229427633781E-01 a      1260     0    51     1    10
  1.1161410579286335E-01 a      1261     0    51     1    11
  2.2440537854679479E-01 a      1262     0    51     1    12
  1.2357044781285154E-01 a      1263     0    51     1    13
 -3.0231661462623538E-01 a      1264     0    51     1    14
 -1.6695666131811110E-01 a      1265     0    51     1    15
  9.2917421089450822E-02 a      1266     0    51     1    16
  1.4959576097033137E-01 a      1267     0    51     1    17
 -3.2919787718003496E-02 a      1268     0    51     1    18
 -3.8260739775843361E-01 a      1269     0    51     1    19
  2.0273664455620530E-01 a      1270     0    51     1    20
 -3.7311063801990718E-01 a      1271     0    51     1    21
  1.6885468799183087E-01 a      1272     0    51     1    22
 -9.2400944894980158E-02 a      1273     0    51     1    23
  5.0998866456871339E-01 a      1274     0    51     1    24
 -2.7903921728025732E-01 a      1275     0    51     1    25
  1.6153040272331359E-01 a      1276     0    52     1     1
  1.5004350585416851E-01 a      1277     0    52     1     2
  4.4639983852907750E-01 a      1278     0    52     1     3
 -3.4818953756669208E-01 a      1279     0    52     1     4
  2.6183796969303397E-02 a      1280     0    52     1     5
  1.3386241930339425E-02 a      1281     0    52     1     6
  1.0264677541342673E+00 a      1282     0    52     1     7
 -9.0707822444394159E-01 a      1283     0    52     1     8
  8.5122295136623027E-01 a      1284     0    52     1     9
 -2.2020076190373394E-01 a      1285     0    52     1    10
 -3.1792081938500666E-01 a      1286     0    52     1    11
 -2.7280763433937788E-01 a      1287     0    52     1    12
 -3.8662498164103198E-01 a      1288     0    52     1    13
 -2.6683474084006781E-01 a      1289     0    52     1    14
  3.9094642632257098E-01 a      1290     0    52     1    15
 -3.3743240603901642E-01 a      1291     0    52     1    16
 -4.8159062921141221E-01 a      1292     0    52     1    17
  5.0739263959681036E-01 a      1293     0    52     1    18
  1.2249866998735865E+00 a      1294     0    52     1    19
 -1.1127549898946629E+00 a      1295     0    52     1    20
  2.5522099735907017E-01 a      1296     0    52     1    21
 -6.3408886451595636E-01 a      1297     0    52     1    22
  3.7090738361540754E-01 a      1298     0    52     1    23
 -9.6918793372251788E-01 a      1299     0    52     1    24
  2.8741254355005413E-01 a      1300     0    52     1    25
  8.4609050546870981E-03 a      1301     0    53     1     1
  2.5975910440132616E-01 a      1302     0    53     1     2
 -2.7484753461170497E-01 a      1303     0    53     1     3
  3.8946716814333322E-02 a      1304     0    53     1     4
 -3.4553876449376830E-01 a      1305     0    53     1     5
 -1.0407044624305729E-01 a      1306     0    53     1     6
 -2.1180629324151833E-02 a      1307     0    53     1     7
 -3.2329835135979333E-02 a      1308     0    53     1     8
 -2.0038165230106514E-01 a      1309     0    53     1     9
 -2.5198087570895190E-02 a      1310     0    53     1    10
  8.6808140227485439E-02 a      1311     0    53     1    11
  1.0151135627377871E-01 a      1312     0    53     1    12
 -6.0479189593233673E-02 a      1313     0    53     1    13
 -1.0996946609564375E-02 a      1314     0    53     1    14
  1.2441135034856925E-01 a      1315     0    53     1    15
  9.4773534196244152E-02 a      1316     0    53     1    16
  2.0947018211693474E-01 a      1317     0    53     1    17
  7.8973385558757964E-02 a      1318     0    53     1    18
 -8.2682061203172535E-02 a      1319     0    53     1    19
  8.5965371640362123E-02 a      1320     0    53     1    20
 -1.2890757599450611E-01 a      1321     0    53     1    21
  7.1034485575716941E-02 a      1322     0    53     1    22
  1.6746499724176443E-02 a      1323     0    53     1    23
  1.4442955362264545E-01 a      1324     0    53     1    24
 -3.6154745454964089E-02 a      1325     0    53     1    25
  9.3796091524822642E-02 a      1326     0    54     1     1
  9.1680279469388198E-02 a      1327     0    54     1     2
 -1.5202076121288233E-01 a      1328     0    54     1     3
  4.6934821019691764E-02 a      1329     0    54     1     4
 -6.8974034307336035E-02 a      1330     0    54     1     5
  1.3499202423145540E-01 a      1331     0    54     1     6
 -7.4996887055617818E-03 a      1332     0    54     1     7
 -1.9918742901812994E-01 a      1333     0    54     1     8
 -9.8609244056243828E-02 a      1334     0    54     1     9
 -2.1251592524468951E-01 a      1335     0    54     1    10
 -1.3628308047469062E-01 a      1336     0    54     1    11
  6.4285442619953198E-02 a      1337     0    54     1    12
  1.2522467432918935E-01 a      1338     0    54     1    13
 -1.1224294917456215E-03 a      1339     0    54     1    14
  1.2888244482118916E-01 a      1340     0    54     1    15
 -1.1820877846287901E-01 a      1341     0    54     1    16
  8.2325483076371067E-02 a      1342     0    54     1    17
 -5.1529545613977046E-02 a      1343     0    54     1    18
 -9.1430805654138577E-03 a      1344     0    54     1    19
 -2.5786844862023284E-01 a      1345     0    54     1    20
  5.1869701480406039E-02 a      1346     0    54     1    21
 -2.1934966091746107E-02 a      1347     0    54     1    22
  1.2817966417586643E-01 a      1348     0    54     1    23
  2.8850983348932182E-02 a      1349     0    54     1    24
  1.6540978513151205E-01 a      1350     0    54     1    25
  6.2630110869654060E-02 a      1351     0    55     1     1
  2.8147565759066567E-01 a      1352     0    55     1     2
 -3.5986425001730288E-01 a      1353     0    55     1     3
 -7.3910809407186973E-02 a      1354     0    55     1     4
 -1.2779352130587495E-02 a      1355     0    55     1     5
  2.3761273980155120E-01 a      1356     0    55     1     6
 -2.4410205171893939E-01 a      1357     0    55     1     7
  9.3941286204213093E-01 a      1358     0    55     1     8
 -1.7849545556197657E-01 a      1359     0    55     1     9
  1.5787035136734254E-02 a      1360     0    55     1    10
  8.2612658024558569E-02 a      1361     0    55     1    11
  1.0947588261030025E-01 a      1362     0    55     1    12
  1.6593701903432764E-01 a      1363     0    55     1    13
  3.0651797591319435E-01 a      1364     0    55     1    14
 -5.8629172008791329E-02 a      1365     0    55     1    15
 -1.0996335086996767E-01 a      1366     0    55     1    16
  3.3543800992870770E-01 a      1367     0    55     1    17
 -3.5206554610652335E-01 a      1368     0    55     1    18
 -2.7132527031136905E-01 a      1369     0    55     1    19
  3.0838090800787449E-01 a      1370     0    55     1    20
 -3.5069252201499736E-02 a      1371     0    55     1    21
  3.5376607182219644E-01 a      1372     0    55     1    22
 -4.0143584070765188E-02 a      1373     0    55     1    23
  4.1350279798894995E-01 a      1374     0    55     1    24
 -2.0396595498261372E-01 a      1375     0    55     1    25
 -7.0437159319571589E-03 a      1376     0    56     1     1
 -1.3351145134532655E-01 a      1377     0    56     1     2
 -3.8875065199250450E-02 a      1378     0    56     1     3
  1.8679591147982330E-01 a      1379     0    56     1     4
  9.0252936322978497E-02 a      1380     0    56     1     5
 -3.7754523509001839E-02 a      1381     0    56     1     6
  6.2976601906784849E-02 a      1382     0    56     1     7
  5.7089820445875010E-02 a      1383     0    56     1     8
  3.4904054847262680E-02 a      1384     0    56     1     9
  1.0662410680697450E-01 a      1385     0    56     1    10
 -1.3607985407941561E-01 a      1386     0    56     1    11
 -5.6959647987505663E-02 a      1387     0    56     1    12
 -6.5251960452512485E-03 a      1388     0    56     1    13
  1.7877996246984773E-01 a      1389     0    56     1    14
 -4.0612958960567443E-02 a      1390     0    56     1    15
 -6.1899437745341263E-02 a      1391     0    56     1    16
 -2.1423512922732016E-01 a      1392     0    56     1    17
  1.9455009191210712E-01 a      1393     0    56     1    18
  2.6107455550595648E-01 a      1394     0    56     1    19
  9.3178432943039236E-02 a      1395     0    56     1    20
  1.0883460095951700E-01 a      1396     0    56     1    21
 -5.8654336799025798E-02 a      1397     0    56     1    22
  6.0765364796988589E-02 a      1398     0    56     1    23
  2.1708402009635103E-02 a      1399     0    56     1    24
  1.2012193552047394E-01 a      1400     0    56     1    25
 -6.8307351558687696E-02 a      1401     0    57     1     1
  1.0329506549072025E-01 a      1402     0    57     1     2
 -2.0000062941939700E-01 a      1403     0    57     1     3
 -1.2747966669622271E-01 a      1404     0    57     1     4
 -1.2039344241636923E-01 a      1405     0    57     1     5
  1.7661617929409576E-01 a      1406     0    57     1     6
  9.8691184743969727E-03 a      1407     0    57     1     7
  1.8525316040743173E-01 a      1408     0    57     1     8
 -2.0249153642220830E-01 a      1409     0    57     1     9
  1.2585390236252872E-01 a      1410     0    57     1    10
  9.1681559390214620E-02 a      1411     0    57     1    11
 -6.6050852483460432E-02 a      1412     0    57     1    12
  3.2774813666339574E-02 a      1413     0    57     1    13
  5.9059169607108414E-02 a      1414     0    57     1    14
 -2.4418330972083919E-02 a      1415     0    57     1    15
 -4.6636481304070301E-03 a      1416     0    57     1    16
 -2.2093728283815339E-01 a      1417     0    57     1    17
 -3.1357316134762329E-02 a      1418     0    57     1    18
 -1.4851531259066186E-01 a      1419     0    57     1    19
  1.0847860961973628E-02 a      1420     0    57     1    20
 -6.1227441791947647E-02 a      1421     0    57     1    21
  1.0228200628529048E-01 a      1422     0    57     1    22
 -5.4812607066844231E-02 a      1423     0    57     1    23
  1.0182236008710102E-01 a      1424     0    57     1    24
 -2.6610815292183736E-03 a      1425     0    57     1    25
 -1.2063327866800110E-01 a      1426     0    58     1     1
  1.8036695802817948E-01 a      1427     0    58     1     2
  1.1684226824544680E-01 a      1428     0    58     1     3
 -6.1204397747233956E-02 a      1429     0    58     1     4
 -2.0676519909137847E-01 a      1430     0    58     1     5
 -1.6961819751345494E-01 a      1431     0    58     1     6
  1.4948577795288293E-02 a      1432     0    58     1     7
  4.1207728118075994E-03 a      1433     0    58     1     8
 -1.1023264994000090E-01 a      1434     0    58     1     9
  1.3251185906276283E-01 a      1435     0    58     1    10
  2.2766585795080875E-02 a      1436     0    58     1    11
 -6.3507481102230742E-02 a      1437     0    58     1    12
 -2.0439301674057411E-01 a      1438     0    58     1    13
 -1.4002320696392317E-01 a      1439     0    58     1    14
 -4.9416899733971328E-02 a      1440     0    58     1    15
 -1.5583910210804980E-01 a      1441     0    58     1    16
  3.4983488436405814E-02 a      1442     0    58     1    17
  1.7082740918764944E-01 a      1443     0    58     1    18
 -2.3277808475781200E-02 a      1444     0    58     1    19
 -4.6455326013422664E-02 a      1445     0    58     1    20
 -1.9690668037913214E-01 a      1446     0    58     1    21
 -7.1126140731496423E-02 a      1447     0    58     1    22
 -5.3893503722461406E-02 a      1448     0    58     1    23
 -3.6381237378686072E-02 a      1449     0    58     1    24
 -1.0353998106360980E-01 a      1450     0    58     1    25
  1.2808104912414339E-02 a      1451     0    59     1     1
  7.7384940979396424E-02 a      1452     0    59     1     2
 -1.3567536146941006E-01 a      1453     0    59     1     3
  1.0473237444304158E-01 a      1454     0    59     1     4
 -3.2131801755028527E-02 a      1455     0    59     1     5
 -1.4234878871917625E-01 a      1456     0    59     1     6
 -7.4662902655158694E-02 a      1457     0    59     1     7
  6.0994034207175786E-02 a      1458     0    59     1     8
 -1.5507462962589760E-01 a      1459     0    59     1     9
 -1.2810666801975093E-01 a      1460     0    59     1    10
  2.2136429979140659E-01 a      1461     0    59     1    11
 -1.7235943955058372E-03 a      1462     0    59     1    12
  1.8038546045360779E-01 a      1463     0    59     1    13
  1.3976622182495904E-01 a      1464     0    59     1    14
  4.9460955869601093E-02 a      1465     0    59     1    15
  2.0500736497978014E-01 a      1466     0    59     1    16
  1.4606016305873298E-01 a      1467     0    59     1    17
 -3.9492798082873164E-03 a      1468     0    59     1    18
  2.4445255181879408E-01 a      1469     0    59     1    19
  1.3224231823542304E-01 a      1470     0    59     1    20
  2.3434858401941644E-01 a      1471     0    59     1    21
  2.1939250106776598E-02 a      1472     0    59     1    22
 -6.1353465010415579E-03 a      1473     0    59     1    23
  2.6122791347841762E-02 a      1474     0    59     1    24
  5.4590733240806058E-02 a      1475     0    59     1    25
  1.9573430378296749E-01 a      1476     0    60     1     1
 -7.5840445012720206E-02 a      1477     0    60     1     2
 -3.0486761208013212E-02 a      1478     0    60     1     3
 -1.7585804735616373E-01 a      1479     0    60     1     4
 -2.7114244159294587E-01 a      1480     0    60     1     5
  2.4550797758163625E-02 a      1481     0    60     1     6
  1.8222190753191295E-01 a      1482     0    60     1     7
 -2.7581219209510323E-02 a      1483     0    60     1     8
 -6.7648335347056998E-02 a      1484     0    60     1     9
  2.4247509384680019E-01 a      1485     0    60     1    10
  2.5702348592024715E-01 a      1486     0    60     1    11
 -8.9749686519321248E-02 a      1487     0    60     1    12
 -1.0970938791337311E-02 a      1488     0    60     1    13
  1.8101526775544521E-01 a      1489     0    60     1    14
  8.0984378640599319E-02 a      1490     0    60     1    15
  1.1457501036039748E-01 a      1491     0    60     1    16
 -2.1955735483848760E-02 a      1492     0    60     1    17
 -3.5221393262567423E-02 a      1493     0    60     1    18
 -2.1648638279382082E-01 a      1494     0    60     1    19
  1.2142206938264141E-01 a      1495     0    60     1    20
  3.9142858471541343E-02 a      1496     0    60     1    21
 -3.7432562032559492E-02 a      1497     0    60     1    22
  1.8991419846112970E-02 a      1498     0    60     1    23
 -6.7455159695900008E-03 a      1499     0    60     1    24
  1.0551154903089599E-01 a      1500     0    60     1    25
  8.9090122742307744E-03 a      1501     0    61     1     1
  3.8061699851996804E-02 a      1502     0    61     1     2
  2.2071079459503061E-02 a      1503     0    61     1     3
  9.1290850298455961E-02 a      1504     0    61     1     4
  9.6198255870482821E-02 a      1505     0    61     1     5
  2.2598167656905872E-02 a      1506     0    61     1     6
 -1.0173297855426108E-01 a      1507     0    61     1     7
  1.3086382974129729E-01 a      1508     0    61     1     8
  1.7576264731322810E-01 a      1509     0    61     1     9
 -1.0615353403510068E-02 a      1510     0    61     1    10
 -1.1575014308799414E-01 a      1511     0    61     1    11
  2.4804363510391197E-01 a      1512     0    61     1    12
 -9.0485285252866782E-02 a      1513     0    61     1    13
 -1.9175452963823256E-01 a      1514     0    61     1    14
 -9.2588812810359578E-02 a      1515     0    61     1    15
 -1.2898219764123958E-01 a      1516     0    61     1    16
 -1.6126679365734950E-01 a      1517     0    61     1    17
 -2.4080831024889140E-02 a      1518     0    61     1    18
  6.5401802003027837E-02 a      1519     0    61     1    19
 -2.2812399215824630E-02 a      1520     0    61     1    20
  4.1481732292520675E-02 a      1521     0    61     1    21
  4.8881565679221278E-02 a      1522     0    61     1    22
  8.3052613676294879E-02 a      1523     0    61     1    23
  1.6034625067076928E-02 a      1524     0    61     1    24
 -1.8916346358663207E-02 a      1525     0    61     1    25
  9.1761578116699716E-02 a      1526     0    62     1     1
  2.6806081093758267E-02 a      1527     0    62     1     2
 -1.3796957008276295E-01 a      1528     0    62     1     3
 -1.1979749635128271E-01 a      1529     0    62     1     4
 -1.9091616850605331E-02 a      1530     0    62     1     5
 -3.9948926826977628E-02 a      1531     0    62     1     6
  1.5024492494102401E-01 a      1532     0    62     1     7
 -1.7072351737023475E-01 a      1533     0    62     1     8
  1.7646846067706651E-01 a      1534     0    62     1     9
 -9.7777618585405859E-02 a      1535     0    62     1    10
  1.3982157868753477E-02 a      1536     0    62     1    11
 -4.1716280766852559E-01 a      1537     0    62     1    12
  1.7816606286146625E-01 a      1538     0    62     1    13
  1.6780311502708214E-01 a      1539     0    62     1    14
  9.2902861259078859E-02 a      1540     0    62     1    15
 -8.5897983447798518E-02 a      1541     0    62     1    16
  2.5369127680030923E-01 a      1542     0    62     1    17
  5.1169672315951618E-02 a      1543     0    62     1    18
  1.2166162665711402E-01 a      1544     0    62     1    19
 -1.5638575672124094E-02 a      1545     0    62     1    20
  1.8619273952088775E-01 a      1546     0    62     1    21
  2.9490212488426891E-03 a      1547     0    62     1    22
  5.7245486899651973E-03 a      1548     0    62     1    23
 -1.1967259152212022E-01 a      1549     0    62     1    24
  5.5283202966410448E-02 a      1550     0    62     1    25
  1.4891489406335673E-01 a      1551     0    63     1     1
  1.0509625567453020E-01 a      1552     0    63     1     2
 -1.1874630374347164E-01 a      1553     0    63     1     3
  4.5488343621199797E-03 a      1554     0    63     1     4
 -3.8560358644443321E-02 a      1555     0    63     1     5
  1.9624012031976966E-02 a      1556     0    63     1     6
 -4.4070973828357771E-02 a      1557     0    63     1     7
 -8.3706614237191918E-02 a      1558     0    63     1     8
  1.2135032534358824E-01 a      1559     0    63     1     9
  2.6109213465176608E-02 a      1560     0    63     1    10
  1.0825792147079293E-01 a      1561     0    63     1    11
  1.3842772241788578E-01 a      1562     0    63     1    12
  2.8803371148282773E-02 a      1563     0    63     1    13
  5.7045723717322272E-03 a      1564     0    63     1    14
  6.8221242103368371E-02 a      1565     0    63     1    15
  2.5845696277813290E-01 a      1566     0    63     1    16
 -8.0755311245418460E-02 a      1567     0    63     1    17
  1.0910954846958940E-01 a      1568     0    63     1    18
 -1.1933175733858283E-01 a      1569     0    63     1    19
 -3.0331791011457224E-02 a      1570     0    63     1    20
  1.0776487234418192E-01 a      1571     0    63     1    21
  5.4162923956419140E-02 a      1572     0    63     1    22
  1.2679635744592249E-02 a      1573     0    63     1    23
  1.3282690406010225E-01 a      1574     0    63     1    24
 -2.2975710163359739E-02 a      1575     0    63     1    25
 -6.4977591659344025E-02 a      1576     0    64     1     1
 -4.0380497222229576E-02 a      1577     0    64     1     2
 -5.9507924822109350E-02 a      1578     0    64     1     3
 -5.4502619011196705E-02 a      1579     0    64     1     4
 -3.1910995755688863E-02 a      1580     0    64     1     5
  1.4855076389156133E-01 a      1581     0    64     1     6
  3.2334208070564932E-02 a      1582     0    64     1     7
  1.0610556622989939E-02 a      1583     0    64     1     8
  5.3449644246996220E-02 a      1584     0    64     1     9
 -1.3570750818199423E-01 a      1585     0    64     1    10
  2.1425608533737976E-02 a      1586     0    64     1    11
 -2.0292571717842888E-02 a      1587     0    64     1    12
 -3.2217956738253686E-02 a      1588     0    64     1    13
  4.9870881236182052E-02 a      1589     0    64     1    14
 -4.0568140469232093E-02 a      1590     0    64     1    15
  2.6696989330500772E-03 a      1591     0    64     1    16
 -1.8791903586116935E-02 a      1592     0    64     1    17
 -4.6951840827478636E-02 a      1593     0    64     1    18
  4.9381621583306411E-02 a      1594     0    64     1    19
 -1.7232524597701782E-01 a      1595     0    64     1    20
 -4.8888591133783403E-02 a      1596     0    64     1    21
  2.4074725875866676E-02 a      1597     0    64     1    22
  8.5641773405720614E-02 a      1598     0    64     1    23
 -6.9674272992917133E-02 a      1599     0    64     1    24
  8.1482364608243887E-02 a      1600     0    64     1    25
 -9.2722101103815305E-02 a      1601     0    65     1     1
  1.9452752674327070E-01 a      1602     0    65     1     2
  6.8827768118780691E-02 a      1603     0    65     1     3
 -1.8295526999445119E-01 a      1604     0    65     1     4
  1.6237701164068286E-01 a      1605     0    65     1     5
  9.5855599242049158E-02 a      1606     0    65     1     6
 -3.5883482194721553E-02 a      1607     0    65     1     7
  1.8695530032431343E-01 a      1608     0    65     1     8
  1.8804355143360062E-02 a      1609     0    65     1     9
 -3.1581656132581415E-01 a      1610     0    65     1    10
  1.6220582265236347E-01 a      1611     0    65     1    11
 -7.9851012612228933E-02 a      1612     0    65     1    12
  4.3693725897994216E-02 a      1613     0    65     1    13
  5.4177649915255817E-02 a      1614     0    65     1    14
 -6.3565196922848566E-02 a      1615     0    65     1    15
 -3.2636230327508828E-02 a      1616     0    65     1    16
  1.1987952344584500E-01 a      1617     0    65     1    17
 -2.8141389271729444E-01 a      1618     0    65     1    18
 -9.4573667636543735E-02 a      1619     0    65     1    19
 -1.1978873367945418E-02 a      1620     0    65     1    20
 -9.6522314505744250E-02 a      1621     0    65     1    21
  8.5396868139203552E-02 a      1622     0    65     1    22
 -1.0691284703623792E-01 a      1623     0    65     1    23
