################################################################################
# Neural network connection values (weights and biases).
################################################################################
# Col  Name       Description
################################################################################
# 1    connection Neural network connection value.
# 2    t          Connection type (a = weight, b = bias).
# 3    index      Index enumerating weights.
# 4    l_s        Starting point layer (end point layer for biases).
# 5    n_s        Starting point neuron in starting layer (end point neuron for biases).
# 6    l_e        End point layer.
# 7    n_e        End point neuron in end layer.
################################################################################
#                      1 2         3     4     5     6     7
#             connection t     index   l_s   n_s   l_e   n_e
############################################################
  3.4695299988277840E-02 a         1     0     1     1     1
 -1.1358577171448084E-01 a         2     0     1     1     2
 -6.3076712457073358E-02 a         3     0     1     1     3
  1.4695017726120807E-01 a         4     0     1     1     4
  2.1218483268195518E-02 a         5     0     1     1     5
 -1.5570586077044590E-01 a         6     0     1     1     6
 -8.2374553417059126E-02 a         7     0     1     1     7
 -1.7868091271424809E-02 a         8     0     1     1     8
 -1.3127417981044340E-01 a         9     0     1     1     9
  8.2393071907337187E-04 a        10     0     1     1    10
 -1.8905435741453609E-02 a        11     0     1     1    11
  6.8764487379036829E-02 a        12     0     1     1    12
 -5.9338847565812973E-02 a        13     0     1     1    13
  1.5590849461848122E-01 a        14     0     1     1    14
 -9.3601493880445252E-02 a        15     0     1     1    15
  8.0338920687153453E-02 a        16     0     1     1    16
  5.5788769779989193E-02 a        17     0     1     1    17
 -1.5843363945000605E-01 a        18     0     1     1    18
  4.6940666539731536E-02 a        19     0     1     1    19
 -1.4491177290125051E-01 a        20     0     1     1    20
  1.5793773790427595E-01 a        21     0     1     1    21
 -4.4434618920794131E-02 a        22     0     1     1    22
 -4.1693777182756318E-02 a        23     0     1     1    23
 -1.0874777800712276E-01 a        24     0     1     1    24
  4.5244271629984470E-02 a        25     0     1     1    25
 -6.9470354560581069E-03 a        26     0     2     1     1
 -1.1962735510453715E-01 a        27     0     2     1     2
  4.5230383857216269E-02 a        28     0     2     1     3
  1.9973920584571334E-01 a        29     0     2     1     4
 -5.2322123080868636E-02 a        30     0     2     1     5
 -4.8306528612687746E-03 a        31     0     2     1     6
 -9.0618109948230482E-02 a        32     0     2     1     7
  4.8027999317671467E-02 a        33     0     2     1     8
  2.9972005421509663E-02 a        34     0     2     1     9
  9.5425591967880460E-02 a        35     0     2     1    10
  1.4391365401693751E-01 a        36     0     2     1    11
 -7.3515167369586021E-02 a        37     0     2     1    12
  5.1644394624777289E-02 a        38     0     2     1    13
 -2.6808647229225623E-02 a        39     0     2     1    14
  7.8115425477413097E-02 a        40     0     2     1    15
  1.8492127507999342E-01 a        41     0     2     1    16
 -4.2353772062958393E-02 a        42     0     2     1    17
  9.3643526159239952E-03 a        43     0     2     1    18
 -8.2357231029833652E-02 a        44     0     2     1    19
  6.9954207677051697E-02 a        45     0     2     1    20
  1.4900985257399296E-01 a        46     0     2     1    21
 -1.2906443414286931E-01 a        47     0     2     1    22
 -1.0441431015513281E-01 a        48     0     2     1    23
 -2.0128781299424841E-02 a        49     0     2     1    24
 -1.2300797538122026E-01 a        50     0     2     1    25
 -9.6596493509860090E-02 a        51     0     3     1     1
  5.2832260942554207E-02 a        52     0     3     1     2
  1.6050173948671764E-01 a        53     0     3     1     3
 -7.1880032156385922E-03 a        54     0     3     1     4
  7.8604414664578820E-02 a        55     0     3     1     5
  4.0506028828617945E-02 a        56     0     3     1     6
  2.7281426443659018E-01 a        57     0     3     1     7
  1.0549899482276009E-01 a        58     0     3     1     8
  9.0981458926655767E-02 a        59     0     3     1     9
 -2.2214005316700552E-01 a        60     0     3     1    10
  3.9984531418091759E-02 a        61     0     3     1    11
 -1.2063596428792570E-01 a        62     0     3     1    12
  1.0950438416551612E-01 a        63     0     3     1    13
 -4.5675186489589924E-02 a        64     0     3     1    14
  1.9972068362878201E-01 a        65     0     3     1    15
  7.6222815473108205E-02 a        66     0     3     1    16
  7.8682489774047681E-02 a        67     0     3     1    17
 -8.3801513356509524E-02 a        68     0     3     1    18
 -3.6165259496376251E-02 a        69     0     3     1    19
 -1.7087455547658467E-01 a        70     0     3     1    20
 -1.1081292239446158E-01 a        71     0     3     1    21
  1.2751247380831612E-01 a        72     0     3     1    22
 -3.6706876529461419E-02 a        73     0     3     1    23
  4.5495870650885735E-02 a        74     0     3     1    24
 -2.4615904056435083E-02 a        75     0     3     1    25
  7.3787357418047012E-02 a        76     0     4     1     1
 -3.7593794439965346E-03 a        77     0     4     1     2
  9.7413783350124822E-02 a        78     0     4     1     3
 -4.4173700434594641E-02 a        79     0     4     1     4
 -1.7631624290371847E-01 a        80     0     4     1     5
 -6.9245337460227041E-02 a        81     0     4     1     6
 -1.9912612887943401E-01 a        82     0     4     1     7
  3.7186395316360317E-02 a        83     0     4     1     8
  6.5226139614433257E-02 a        84     0     4     1     9
 -3.2023073514710493E-01 a        85     0     4     1    10
  1.3989049066960343E-01 a        86     0     4     1    11
 -5.9348427162571278E-02 a        87     0     4     1    12
 -2.0468961092412702E-01 a        88     0     4     1    13
  1.3129293012523013E-01 a        89     0     4     1    14
  1.2061811606071571E-01 a        90     0     4     1    15
  1.7265002317858830E-01 a        91     0     4     1    16
 -2.0759033242465830E-01 a        92     0     4     1    17
 -5.8079942548163767E-02 a        93     0     4     1    18
 -1.4185989403102187E-02 a        94     0     4     1    19
 -1.2570750370230888E-02 a        95     0     4     1    20
  2.5563305446666118E-01 a        96     0     4     1    21
 -2.7395610532475062E-01 a        97     0     4     1    22
 -5.1782807237015276E-02 a        98     0     4     1    23
  9.2487438656089493E-02 a        99     0     4     1    24
  3.9039497897058170E-02 a       100     0     4     1    25
 -1.9135054785259603E-01 a       101     0     5     1     1
  1.2222083072778051E-01 a       102     0     5     1     2
 -2.2762658601200733E-02 a       103     0     5     1     3
 -1.2585950067774965E-01 a       104     0     5     1     4
  1.4157867012024786E-01 a       105     0     5     1     5
  8.4263574562280438E-02 a       106     0     5     1     6
  1.5089465747634889E-01 a       107     0     5     1     7
  1.8043165762209320E-02 a       108     0     5     1     8
 -1.7290577282698233E-01 a       109     0     5     1     9
  7.1517382535273670E-03 a       110     0     5     1    10
 -1.7580185689362537E-01 a       111     0     5     1    11
 -1.0592072085924281E-01 a       112     0     5     1    12
 -1.7679463566092182E-01 a       113     0     5     1    13
 -4.2827827250765997E-02 a       114     0     5     1    14
  1.0812770467346798E-01 a       115     0     5     1    15
  4.1732944936313042E-02 a       116     0     5     1    16
 -2.8867968562110874E-01 a       117     0     5     1    17
 -8.2448467519992429E-04 a       118     0     5     1    18
  9.6715814805847802E-02 a       119     0     5     1    19
 -1.4038977869742481E-02 a       120     0     5     1    20
  2.0041774122775979E-01 a       121     0     5     1    21
 -1.5815076589423299E-01 a       122     0     5     1    22
  1.2448608602057844E-01 a       123     0     5     1    23
  4.2959336986927672E-02 a       124     0     5     1    24
 -2.4803502388109975E-03 a       125     0     5     1    25
 -1.9846395764386554E-01 a       126     0     6     1     1
  1.7449898002180989E-01 a       127     0     6     1     2
 -2.4304817782255732E-02 a       128     0     6     1     3
 -2.6622763591677207E-01 a       129     0     6     1     4
 -2.4573162110026150E-02 a       130     0     6     1     5
 -1.2143953293537831E-01 a       131     0     6     1     6
  7.5573506732464699E-02 a       132     0     6     1     7
 -6.1424334937679556E-02 a       133     0     6     1     8
 -3.9550004221654833E-03 a       134     0     6     1     9
  9.0522934897264276E-02 a       135     0     6     1    10
 -1.0692349524747053E-02 a       136     0     6     1    11
  2.4505444351800015E-01 a       137     0     6     1    12
  1.1644634769896717E-01 a       138     0     6     1    13
  2.0091635186392384E-01 a       139     0     6     1    14
 -2.0322346714037726E-01 a       140     0     6     1    15
 -2.3833255462621047E-01 a       141     0     6     1    16
 -1.3077711885632970E-02 a       142     0     6     1    17
  1.7454612972063263E-01 a       143     0     6     1    18
 -6.9291706446900428E-03 a       144     0     6     1    19
 -8.1834145861275187E-02 a       145     0     6     1    20
 -1.9298956604230180E-01 a       146     0     6     1    21
  1.2706101602637104E-01 a       147     0     6     1    22
  2.0835990183921255E-01 a       148     0     6     1    23
  1.9350989174601158E-01 a       149     0     6     1    24
  1.3504005973000913E-01 a       150     0     6     1    25
  1.4933817982652478E-01 a       151     0     7     1     1
 -1.3107440155062655E-01 a       152     0     7     1     2
 -1.5470205678799226E-01 a       153     0     7     1     3
  9.7819199239777055E-02 a       154     0     7     1     4
 -1.9055695599361744E-01 a       155     0     7     1     5
  1.7520927263250163E-01 a       156     0     7     1     6
 -1.5495952052862205E-01 a       157     0     7     1     7
 -1.6786548691867467E-01 a       158     0     7     1     8
 -3.8437690335136206E-03 a       159     0     7     1     9
 -5.4064329062613721E-02 a       160     0     7     1    10
 -1.1161456919269584E-01 a       161     0     7     1    11
 -9.2084806287671336E-02 a       162     0     7     1    12
 -2.0595033031709183E-02 a       163     0     7     1    13
  2.0189192528960925E-01 a       164     0     7     1    14
 -5.4858097255207810E-03 a       165     0     7     1    15
  9.4917763260047271E-03 a       166     0     7     1    16
  2.6407264516699839E-02 a       167     0     7     1    17
 -8.8226831329474315E-02 a       168     0     7     1    18
  9.4696426761178547E-03 a       169     0     7     1    19
  7.7518895163635346E-02 a       170     0     7     1    20
  9.1955478986673628E-03 a       171     0     7     1    21
 -6.2176389966569497E-02 a       172     0     7     1    22
 -3.9304169926473474E-02 a       173     0     7     1    23
 -1.3714248985012120E-01 a       174     0     7     1    24
  1.3834719780954994E-02 a       175     0     7     1    25
 -6.4189346996040050E-02 a       176     0     8     1     1
  1.5373784306080646E-01 a       177     0     8     1     2
 -1.4765897101470379E-01 a       178     0     8     1     3
 -8.0793649093892542E-02 a       179     0     8     1     4
  3.2847145358099628E-01 a       180     0     8     1     5
 -2.2618860631036319E-01 a       181     0     8     1     6
 -2.0684294050598948E-02 a       182     0     8     1     7
  5.0925313606909724E-02 a       183     0     8     1     8
 -1.0729542875865762E-01 a       184     0     8     1     9
  9.3313955590824393E-02 a       185     0     8     1    10
 -3.5479887178802710E-02 a       186     0     8     1    11
  2.0119247715639621E-01 a       187     0     8     1    12
  7.4857197093440242E-02 a       188     0     8     1    13
 -1.9779608814746272E-01 a       189     0     8     1    14
  4.3536040312787565E-02 a       190     0     8     1    15
 -2.2214113999806451E-01 a       191     0     8     1    16
 -1.3655378656111331E-01 a       192     0     8     1    17
  6.2066595765558605E-02 a       193     0     8     1    18
  2.0108160721287055E-01 a       194     0     8     1    19
 -1.1667502059228309E-01 a       195     0     8     1    20
 -3.9310908062800382E-02 a       196     0     8     1    21
  7.9475163084629152E-02 a       197     0     8     1    22
  3.8254255797530258E-02 a       198     0     8     1    23
 -4.7991940137004044E-02 a       199     0     8     1    24
 -1.3081500663603765E-02 a       200     0     8     1    25
 -3.2153736230763914E-03 a       201     0     9     1     1
 -1.5184134527309168E-01 a       202     0     9     1     2
 -2.0117177953335436E-01 a       203     0     9     1     3
  3.2095060302936534E-01 a       204     0     9     1     4
  1.7370388108510301E-01 a       205     0     9     1     5
 -8.6563562033283428E-02 a       206     0     9     1     6
  3.9108099496485543E-01 a       207     0     9     1     7
 -2.0069096433472915E-02 a       208     0     9     1     8
 -4.4408528041725730E-02 a       209     0     9     1     9
  2.5267479277501959E-01 a       210     0     9     1    10
  1.3264673446273913E-02 a       211     0     9     1    11
  1.6184075309212537E-01 a       212     0     9     1    12
  4.2462902912254033E-02 a       213     0     9     1    13
  1.2571733483222863E-01 a       214     0     9     1    14
 -4.9962017158673711E-02 a       215     0     9     1    15
  3.1905920179264724E-01 a       216     0     9     1    16
 -2.7438391551582247E-01 a       217     0     9     1    17
 -2.2167331063286397E-01 a       218     0     9     1    18
 -1.6079640771115333E-01 a       219     0     9     1    19
 -1.3324493762220518E-01 a       220     0     9     1    20
 -2.1289291774597072E-02 a       221     0     9     1    21
  2.5041700008983625E-01 a       222     0     9     1    22
 -1.1191718093765386E-01 a       223     0     9     1    23
 -2.7584573601237433E-01 a       224     0     9     1    24
  8.9082028874166955E-02 a       225     0     9     1    25
  1.4831122241185202E-01 a       226     0    10     1     1
  1.1833218197259725E-01 a       227     0    10     1     2
 -1.1984504345495163E-01 a       228     0    10     1     3
 -1.7288829183218513E-01 a       229     0    10     1     4
 -1.1361825114614349E-01 a       230     0    10     1     5
  1.6870561820143199E-02 a       231     0    10     1     6
 -1.7132499725815178E-02 a       232     0    10     1     7
 -8.8269890435081783E-03 a       233     0    10     1     8
  2.2655884821639780E-01 a       234     0    10     1     9
  7.6262262109481574E-02 a       235     0    10     1    10
  2.6100871790977964E-01 a       236     0    10     1    11
 -1.8382104243363989E-01 a       237     0    10     1    12
 -7.3021604719827299E-02 a       238     0    10     1    13
 -1.4564402257835013E-01 a       239     0    10     1    14
  7.6230065556020368E-02 a       240     0    10     1    15
  1.3643084231882319E-01 a       241     0    10     1    16
  3.5052775520930241E-01 a       242     0    10     1    17
 -9.1681239761374558E-03 a       243     0    10     1    18
 -9.7610327914162826E-02 a       244     0    10     1    19
  1.1337021956065284E-01 a       245     0    10     1    20
 -4.5172715033714714E-02 a       246     0    10     1    21
 -9.6428337240772929E-03 a       247     0    10     1    22
 -1.0985457193861462E-02 a       248     0    10     1    23
 -2.2780959283016797E-01 a       249     0    10     1    24
  1.8386367292038966E-01 a       250     0    10     1    25
 -6.7858490859376092E-02 a       251     0    11     1     1
  1.4740378218260655E-01 a       252     0    11     1     2
  7.2927379742888246E-03 a       253     0    11     1     3
 -1.3443271150350963E-01 a       254     0    11     1     4
  1.4119489529910637E-01 a       255     0    11     1     5
  2.4183242449695999E-01 a       256     0    11     1     6
 -1.3268571087048675E-01 a       257     0    11     1     7
  5.7139569618018124E-02 a       258     0    11     1     8
 -1.6430035357619016E-01 a       259     0    11     1     9
  1.0107506877312853E-02 a       260     0    11     1    10
 -1.4003842974425107E-01 a       261     0    11     1    11
  3.5807161129681148E-01 a       262     0    11     1    12
  1.6851126821292009E-01 a       263     0    11     1    13
 -3.6249822620386493E-02 a       264     0    11     1    14
 -1.4675866198063753E-01 a       265     0    11     1    15
  1.4094551392679802E-02 a       266     0    11     1    16
 -1.9577169999236946E-01 a       267     0    11     1    17
 -4.4951866813944974E-02 a       268     0    11     1    18
  3.9471813784849926E-03 a       269     0    11     1    19
 -3.3267252931819397E-01 a       270     0    11     1    20
  1.8946169863576212E-01 a       271     0    11     1    21
 -1.0522466876159745E-01 a       272     0    11     1    22
 -9.1972188202704919E-02 a       273     0    11     1    23
  6.7168444990154827E-02 a       274     0    11     1    24
 -7.5701269065833687E-02 a       275     0    11     1    25
 -1.4859837543698981E-01 a       276     0    12     1     1
 -5.1464400690154188E-03 a       277     0    12     1     2
 -1.5008301720784761E-01 a       278     0    12     1     3
 -2.3251753735529346E-02 a       279     0    12     1     4
 -6.1115851435399521E-02 a       280     0    12     1     5
 -3.5023582107023482E-01 a       281     0    12     1     6
  3.9257229961936223E-02 a       282     0    12     1     7
  1.0811207753137352E-01 a       283     0    12     1     8
  1.8941598290156597E-01 a       284     0    12     1     9
 -2.7151507162248295E-01 a       285     0    12     1    10
 -2.1871086857456928E-01 a       286     0    12     1    11
 -4.9006348512189518E-02 a       287     0    12     1    12
  1.0554762996821941E-01 a       288     0    12     1    13
 -9.8260481256191703E-02 a       289     0    12     1    14
  3.1761072534782653E-01 a       290     0    12     1    15
  2.1655235290103605E-01 a       291     0    12     1    16
  1.3211372383649519E-01 a       292     0    12     1    17
 -7.7541480132173893E-02 a       293     0    12     1    18
 -2.8698628226031019E-03 a       294     0    12     1    19
 -7.5900847180077002E-02 a       295     0    12     1    20
  2.5210226846169369E-02 a       296     0    12     1    21
  3.6211566356239833E-01 a       297     0    12     1    22
 -1.8073851065384930E-01 a       298     0    12     1    23
 -1.4045220884794563E-01 a       299     0    12     1    24
  4.1376289447117152E-02 a       300     0    12     1    25
 -3.7865800200433369E-01 a       301     0    13     1     1
 -6.5130330098447348E-02 a       302     0    13     1     2
  2.4428633602257960E-02 a       303     0    13     1     3
  2.2699394985189666E-01 a       304     0    13     1     4
  1.5753465413821350E-02 a       305     0    13     1     5
  1.9873253557854367E-01 a       306     0    13     1     6
  6.1643479954796535E-02 a       307     0    13     1     7
 -4.3798222393901458E-02 a       308     0    13     1     8
  1.1169846338194432E-01 a       309     0    13     1     9
  8.4856649421026234E-02 a       310     0    13     1    10
 -1.6965236028168287E-01 a       311     0    13     1    11
 -1.3438544429708574E-01 a       312     0    13     1    12
 -1.6123372604546563E-01 a       313     0    13     1    13
  2.2225939398918518E-01 a       314     0    13     1    14
 -2.8238531954744339E-01 a       315     0    13     1    15
  1.5957006474074589E-01 a       316     0    13     1    16
 -1.4918103888391046E-01 a       317     0    13     1    17
 -1.8557917938692545E-01 a       318     0    13     1    18
  4.9622513010455602E-02 a       319     0    13     1    19
 -1.0758064137583689E-01 a       320     0    13     1    20
  1.3302662065108582E-02 a       321     0    13     1    21
 -5.4640349940536521E-02 a       322     0    13     1    22
 -8.3551319318703132E-02 a       323     0    13     1    23
 -2.8238412434494192E-01 a       324     0    13     1    24
 -7.7879972906252606E-02 a       325     0    13     1    25
 -2.7863577228459547E-02 a       326     0    14     1     1
 -7.1657126828373774E-02 a       327     0    14     1     2
  1.4351563867005163E-01 a       328     0    14     1     3
  2.5835523743884720E-02 a       329     0    14     1     4
 -3.4935532209347114E-02 a       330     0    14     1     5
  1.2882644295753773E-01 a       331     0    14     1     6
 -2.2015383321300483E-01 a       332     0    14     1     7
  1.2211014646423800E-01 a       333     0    14     1     8
 -1.6646063193149813E-01 a       334     0    14     1     9
 -4.8607513852029757E-02 a       335     0    14     1    10
 -2.0452282179697892E-01 a       336     0    14     1    11
  1.6413857564196060E-01 a       337     0    14     1    12
 -1.3098416247776912E-01 a       338     0    14     1    13
 -2.3243178685937081E-02 a       339     0    14     1    14
  5.0206352877659878E-02 a       340     0    14     1    15
  1.9861429860398506E-02 a       341     0    14     1    16
 -1.7615622317562796E-01 a       342     0    14     1    17
 -8.6431664643383269E-02 a       343     0    14     1    18
  1.9946266611546079E-01 a       344     0    14     1    19
 -1.9173742877663238E-01 a       345     0    14     1    20
 -2.1895307641012648E-01 a       346     0    14     1    21
  1.4876701060489031E-01 a       347     0    14     1    22
 -8.4953313644083414E-02 a       348     0    14     1    23
  1.8607196073779100E-01 a       349     0    14     1    24
 -2.4114887700928239E-01 a       350     0    14     1    25
 -1.4666783573264186E-01 a       351     0    15     1     1
  1.2528090844963244E-01 a       352     0    15     1     2
 -1.0810706297191446E-01 a       353     0    15     1     3
  3.0348570363926775E-01 a       354     0    15     1     4
  8.7919732534849394E-03 a       355     0    15     1     5
 -2.2535404261170344E-01 a       356     0    15     1     6
  1.4283002857969981E-01 a       357     0    15     1     7
 -8.3297039213031540E-02 a       358     0    15     1     8
 -7.7927497306971696E-02 a       359     0    15     1     9
 -6.8051430721806305E-02 a       360     0    15     1    10
  5.5749393179423234E-02 a       361     0    15     1    11
 -1.8347318781091188E-01 a       362     0    15     1    12
 -1.3001558132123822E-01 a       363     0    15     1    13
  1.9431373870966698E-01 a       364     0    15     1    14
 -1.4490854960820049E-01 a       365     0    15     1    15
  4.1319671186777679E-02 a       366     0    15     1    16
 -4.3742929976653644E-01 a       367     0    15     1    17
 -3.8253954040301512E-02 a       368     0    15     1    18
  2.2441381584753217E-01 a       369     0    15     1    19
  2.0253474708953240E-01 a       370     0    15     1    20
  4.1644999735847482E-01 a       371     0    15     1    21
 -7.2489809371549904E-02 a       372     0    15     1    22
  2.6046701267196293E-01 a       373     0    15     1    23
  9.0154571859265870E-02 a       374     0    15     1    24
  6.1828697386635795E-02 a       375     0    15     1    25
  2.3343165066258001E-01 a       376     0    16     1     1
  9.6057421322555212E-03 a       377     0    16     1     2
 -6.2959458084198327E-03 a       378     0    16     1     3
  1.3089799724833273E-01 a       379     0    16     1     4
  7.6263079122371832E-02 a       380     0    16     1     5
 -1.0432655498223155E-01 a       381     0    16     1     6
  1.7763473456146373E-01 a       382     0    16     1     7
  6.3685956740132402E-02 a       383     0    16     1     8
 -4.2129560691309670E-01 a       384     0    16     1     9
  2.7500027067847915E-01 a       385     0    16     1    10
  1.8417811102027903E-01 a       386     0    16     1    11
 -1.5297362523981239E-02 a       387     0    16     1    12
  1.2643910483776283E-01 a       388     0    16     1    13
  1.2087143613240847E-01 a       389     0    16     1    14
 -1.7528163666514565E-01 a       390     0    16     1    15
 -2.5783702853867713E-01 a       391     0    16     1    16
 -1.4418504881941427E-01 a       392     0    16     1    17
  2.3430667142851966E-01 a       393     0    16     1    18
 -2.2332495177866912E-01 a       394     0    16     1    19
  1.8871509732809592E-02 a       395     0    16     1    20
  1.6517780567908338E-01 a       396     0    16     1    21
  3.0904861446790988E-01 a       397     0    16     1    22
  1.2782026826733220E-01 a       398     0    16     1    23
  1.5316148975550174E-02 a       399     0    16     1    24
 -5.8265093442107100E-03 a       400     0    16     1    25
 -2.2657905957869398E-01 a       401     0    17     1     1
 -4.9865061314014296E-02 a       402     0    17     1     2
 -2.5599315368804215E-01 a       403     0    17     1     3
  2.5800575360816097E-01 a       404     0    17     1     4
  1.6424904167238366E-01 a       405     0    17     1     5
  6.3484407843893934E-02 a       406     0    17     1     6
  3.4972134788564563E-02 a       407     0    17     1     7
  1.6015586494244247E-01 a       408     0    17     1     8
  3.1727365180047473E-01 a       409     0    17     1     9
  2.1313206775915983E-01 a       410     0    17     1    10
 -7.8114673641789201E-02 a       411     0    17     1    11
  1.7829687431147045E-02 a       412     0    17     1    12
 -2.9698914532163410E-02 a       413     0    17     1    13
 -2.0367701714113046E-01 a       414     0    17     1    14
 -9.4990041901309996E-02 a       415     0    17     1    15
  8.0948034650403747E-02 a       416     0    17     1    16
 -5.0637104625378661E-02 a       417     0    17     1    17
 -1.1735875296739234E-01 a       418     0    17     1    18
  4.8169282112022246E-02 a       419     0    17     1    19
 -1.7536494136517783E-01 a       420     0    17     1    20
  6.4534019907114298E-02 a       421     0    17     1    21
  1.1350105868693820E-01 a       422     0    17     1    22
  7.4204525778539587E-02 a       423     0    17     1    23
 -2.5525090598114625E-01 a       424     0    17     1    24
  3.5352113953574620E-02 a       425     0    17     1    25
 -1.4522043860277337E-02 a       426     0    18     1     1
 -1.2126537393762692E-01 a       427     0    18     1     2
  9.6761497908378152E-02 a       428     0    18     1     3
 -1.1365924702615005E-01 a       429     0    18     1     4
 -2.4926039861855761E-02 a       430     0    18     1     5
 -7.2658838644640247E-02 a       431     0    18     1     6
  5.7234754465056582E-02 a       432     0    18     1     7
  1.9058408288687964E-01 a       433     0    18     1     8
 -2.4391115434236006E-02 a       434     0    18     1     9
 -6.9270371010658319E-02 a       435     0    18     1    10
  2.2672688880532299E-01 a       436     0    18     1    11
 -1.1302172273553496E-01 a       437     0    18     1    12
  9.7462341447778586E-02 a       438     0    18     1    13
  2.9806290288273390E-02 a       439     0    18     1    14
  1.9583681756464456E-02 a       440     0    18     1    15
  2.4899694978708309E-02 a       441     0    18     1    16
 -7.6632224492895890E-02 a       442     0    18     1    17
 -6.4855223165779685E-02 a       443     0    18     1    18
  9.1099960011712278E-02 a       444     0    18     1    19
  1.9522759613079047E-01 a       445     0    18     1    20
  8.0330262048806125E-02 a       446     0    18     1    21
 -4.2899043920518248E-01 a       447     0    18     1    22
  2.2806681025933107E-01 a       448     0    18     1    23
  2.1974493399348197E-01 a       449     0    18     1    24
  2.5072039456822171E-01 a       450     0    18     1    25
  4.1701420807129561E-02 a       451     0    19     1     1
 -2.4723685332939782E-01 a       452     0    19     1     2
 -1.1736932092179352E-01 a       453     0    19     1     3
 -5.6902395479179795E-02 a       454     0    19     1     4
 -2.1578709065499385E-02 a       455     0    19     1     5
  1.8123569433687561E-01 a       456     0    19     1     6
  1.0367870802672326E-01 a       457     0    19     1     7
  6.7331189659355839E-03 a       458     0    19     1     8
  2.0994309567145189E-01 a       459     0    19     1     9
  2.0254897805931504E-01 a       460     0    19     1    10
 -1.0029677413663182E-01 a       461     0    19     1    11
 -8.3436761095794468E-02 a       462     0    19     1    12
 -6.9179382399003092E-02 a       463     0    19     1    13
 -2.8522395518483390E-01 a       464     0    19     1    14
  1.5427784577189704E-01 a       465     0    19     1    15
  2.5413843257383644E-02 a       466     0    19     1    16
  1.4534177663317346E-01 a       467     0    19     1    17
  1.8969934974252264E-01 a       468     0    19     1    18
 -8.7469957389145800E-02 a       469     0    19     1    19
  1.1111565849328009E-01 a       470     0    19     1    20
  1.4541100012678182E-01 a       471     0    19     1    21
  2.5534394983673980E-01 a       472     0    19     1    22
 -2.7875516294465097E-01 a       473     0    19     1    23
 -3.1312164558474831E-01 a       474     0    19     1    24
  1.2033234316241109E-01 a       475     0    19     1    25
  1.3425891467824469E-01 a       476     0    20     1     1
  7.2865926864775707E-02 a       477     0    20     1     2
 -9.0631800291076051E-02 a       478     0    20     1     3
  1.6670213317836674E-01 a       479     0    20     1     4
 -1.5024680741764718E-01 a       480     0    20     1     5
 -1.7739104726073079E-01 a       481     0    20     1     6
 -2.5217917992426336E-01 a       482     0    20     1     7
 -1.2234601220863876E-01 a       483     0    20     1     8
  2.4283065902933339E-02 a       484     0    20     1     9
  1.4966270275526048E-02 a       485     0    20     1    10
 -7.9366745456694768E-02 a       486     0    20     1    11
  9.5999230155907431E-02 a       487     0    20     1    12
  1.5148727134310755E-01 a       488     0    20     1    13
  3.0282338204581205E-01 a       489     0    20     1    14
 -4.5442411288590896E-02 a       490     0    20     1    15
 -1.0769230916413283E-02 a       491     0    20     1    16
  1.0334248160934285E-01 a       492     0    20     1    17
 -1.1402645101791502E-02 a       493     0    20     1    18
 -7.2524416464933641E-02 a       494     0    20     1    19
  1.4144491849224178E-01 a       495     0    20     1    20
 -6.0711150499236852E-02 a       496     0    20     1    21
 -1.5677984279597060E-01 a       497     0    20     1    22
  1.4693660955567145E-01 a       498     0    20     1    23
  4.7477195247440276E-02 a       499     0    20     1    24
  8.2451012585849373E-02 a       500     0    20     1    25
 -1.7054101770190738E-01 a       501     0    21     1     1
 -1.1717874009698319E-01 a       502     0    21     1     2
  1.5314928605233369E-01 a       503     0    21     1     3
  1.7217735781634807E-02 a       504     0    21     1     4
 -8.4843755881647359E-02 a       505     0    21     1     5
  1.3854110704051636E-01 a       506     0    21     1     6
 -1.8547597531558663E-01 a       507     0    21     1     7
 -6.7835534889905957E-02 a       508     0    21     1     8
  9.4449448018558341E-02 a       509     0    21     1     9
  1.4069233073039752E-01 a       510     0    21     1    10
  2.9206688745700853E-02 a       511     0    21     1    11
  1.1298441949280701E-01 a       512     0    21     1    12
  1.2406617442936643E-01 a       513     0    21     1    13
  3.8312775971052392E-02 a       514     0    21     1    14
 -2.7814065244916730E-01 a       515     0    21     1    15
  9.2358679407582647E-02 a       516     0    21     1    16
 -1.1084095291243801E-01 a       517     0    21     1    17
 -1.7108222002394948E-02 a       518     0    21     1    18
 -5.2968024862604712E-02 a       519     0    21     1    19
 -5.0651785519123874E-02 a       520     0    21     1    20
  1.1913925819620801E-01 a       521     0    21     1    21
  2.0675200126820937E-02 a       522     0    21     1    22
 -1.6306220241699682E-01 a       523     0    21     1    23
 -6.4339025593321220E-02 a       524     0    21     1    24
  1.9374709851371321E-02 a       525     0    21     1    25
 -2.9073135828296775E-02 a       526     0    22     1     1
  8.5508353421488548E-02 a       527     0    22     1     2
 -1.6421615007125544E-02 a       528     0    22     1     3
 -3.5840050185382923E-02 a       529     0    22     1     4
 -1.6948376265962711E-01 a       530     0    22     1     5
 -6.2311147527434087E-02 a       531     0    22     1     6
 -4.6651435064441124E-02 a       532     0    22     1     7
  2.0689407791522976E-02 a       533     0    22     1     8
 -2.2363253483944745E-01 a       534     0    22     1     9
  2.7569925204870704E-01 a       535     0    22     1    10
  2.2103525549506614E-01 a       536     0    22     1    11
  1.8313471486414912E-01 a       537     0    22     1    12
 -1.2541386475592628E-01 a       538     0    22     1    13
  1.9064427029820891E-01 a       539     0    22     1    14
 -1.2594036937760705E-01 a       540     0    22     1    15
  2.1812196890553748E-01 a       541     0    22     1    16
  7.3207276371588997E-02 a       542     0    22     1    17
 -1.2815671886423471E-01 a       543     0    22     1    18
 -3.3176439456331129E-04 a       544     0    22     1    19
 -1.3058460880552411E-01 a       545     0    22     1    20
 -2.4287548627455102E-01 a       546     0    22     1    21
 -2.1166561359333005E-02 a       547     0    22     1    22
 -4.5965374374812878E-02 a       548     0    22     1    23
  6.3038856231324020E-02 a       549     0    22     1    24
 -1.2905130967761425E-01 a       550     0    22     1    25
 -2.9794158372889462E-01 a       551     0    23     1     1
  1.4636557975541070E-01 a       552     0    23     1     2
 -1.1444826377196624E-01 a       553     0    23     1     3
  1.3164523614935342E-01 a       554     0    23     1     4
  2.2383980245415355E-01 a       555     0    23     1     5
  2.7416074476289870E-01 a       556     0    23     1     6
  3.0389691148704160E-03 a       557     0    23     1     7
  1.4875716848134871E-01 a       558     0    23     1     8
 -1.7770492512145734E-02 a       559     0    23     1     9
 -2.2083114969349488E-01 a       560     0    23     1    10
 -7.6585951997341820E-02 a       561     0    23     1    11
  2.6570525332488537E-01 a       562     0    23     1    12
 -5.4665524674874511E-02 a       563     0    23     1    13
 -1.7487873708025833E-01 a       564     0    23     1    14
 -2.0022560580090460E-02 a       565     0    23     1    15
 -3.0204940155411468E-02 a       566     0    23     1    16
 -3.6179514062074614E-01 a       567     0    23     1    17
 -1.6238306916809997E-01 a       568     0    23     1    18
  6.5048297756296947E-02 a       569     0    23     1    19
 -8.7556837458735576E-02 a       570     0    23     1    20
 -2.4985805932162222E-02 a       571     0    23     1    21
  3.4723308308833500E-01 a       572     0    23     1    22
  9.3011578853146697E-03 a       573     0    23     1    23
 -1.5616983910966623E-01 a       574     0    23     1    24
 -4.8006451490531170E-02 a       575     0    23     1    25
  1.5709761571796485E-01 a       576     0    24     1     1
  6.3786597490066857E-03 a       577     0    24     1     2
 -4.5607916451383110E-02 a       578     0    24     1     3
 -7.4734975015089092E-02 a       579     0    24     1     4
 -3.1051000160487289E-02 a       580     0    24     1     5
 -1.2052109673112467E-01 a       581     0    24     1     6
  1.7094761913372758E-01 a       582     0    24     1     7
  1.1765294858260725E-01 a       583     0    24     1     8
 -1.1097715454653063E-01 a       584     0    24     1     9
 -7.9938307956779239E-02 a       585     0    24     1    10
  1.3718186722576733E-01 a       586     0    24     1    11
  8.8586627034819287E-02 a       587     0    24     1    12
 -2.9842336388639384E-01 a       588     0    24     1    13
 -4.5885536433564446E-02 a       589     0    24     1    14
 -2.8634000879160820E-02 a       590     0    24     1    15
  2.9795709942888454E-01 a       591     0    24     1    16
  8.3264165507093424E-02 a       592     0    24     1    17
 -2.0549346540783341E-02 a       593     0    24     1    18
 -5.0640666302502017E-03 a       594     0    24     1    19
 -1.4773546570340048E-02 a       595     0    24     1    20
 -3.9543050258420150E-02 a       596     0    24     1    21
 -9.6068308639496988E-02 a       597     0    24     1    22
 -5.6402572775277729E-02 a       598     0    24     1    23
 -1.3156038851409563E-01 a       599     0    24     1    24
 -2.8383679512849008E-01 a       600     0    24     1    25
 -1.2328078572685205E-01 a       601     0    25     1     1
  9.1220136336442520E-02 a       602     0    25     1     2
 -2.1548558084101241E-01 a       603     0    25     1     3
 -2.3762296129385001E-02 a       604     0    25     1     4
  2.1321172344649458E-01 a       605     0    25     1     5
 -5.1102655095363131E-02 a       606     0    25     1     6
  2.6678762642317775E-03 a       607     0    25     1     7
  1.1831333486443951E-01 a       608     0    25     1     8
  3.2950768425978960E-01 a       609     0    25     1     9
  2.2647924216174015E-01 a       610     0    25     1    10
  1.0238109802247033E-01 a       611     0    25     1    11
  3.3266648966275549E-02 a       612     0    25     1    12
  8.1211810337210449E-02 a       613     0    25     1    13
 -8.9686025785612702E-02 a       614     0    25     1    14
  9.6660673355290945E-03 a       615     0    25     1    15
  9.6523689564384965E-02 a       616     0    25     1    16
  1.1864953317755859E-01 a       617     0    25     1    17
  7.3957282128525828E-02 a       618     0    25     1    18
  1.7411511222386957E-02 a       619     0    25     1    19
 -7.0785048302417816E-02 a       620     0    25     1    20
  1.4311529493779729E-01 a       621     0    25     1    21
  3.9313626916306332E-01 a       622     0    25     1    22
  1.2996336066592101E-01 a       623     0    25     1    23
 -3.0933913587225459E-01 a       624     0    25     1    24
  8.7104306675126100E-02 a       625     0    25     1    25
 -6.0688043059056403E-02 a       626     0    26     1     1
 -9.1470994649033840E-02 a       627     0    26     1     2
  1.1779665286801261E-02 a       628     0    26     1     3
 -5.9557897141344233E-02 a       629     0    26     1     4
  1.1083237222203612E-01 a       630     0    26     1     5
  1.3294888770388499E-01 a       631     0    26     1     6
  1.4520600574289785E-01 a       632     0    26     1     7
  1.0158120234881875E-01 a       633     0    26     1     8
 -2.7018987409502548E-01 a       634     0    26     1     9
 -2.0823824758628838E-02 a       635     0    26     1    10
  7.5987642196939098E-02 a       636     0    26     1    11
  7.8411042158195931E-04 a       637     0    26     1    12
 -7.0821252778365915E-02 a       638     0    26     1    13
 -8.2599672901905563E-02 a       639     0    26     1    14
 -1.6171914029213249E-02 a       640     0    26     1    15
 -8.9313188205594959E-02 a       641     0    26     1    16
 -7.3386280218242214E-02 a       642     0    26     1    17
 -3.4546994468195147E-02 a       643     0    26     1    18
 -1.2439490513239716E-02 a       644     0    26     1    19
  9.2524953117751121E-02 a       645     0    26     1    20
  1.0291340857727684E-01 a       646     0    26     1    21
 -4.0609726035124596E-02 a       647     0    26     1    22
  8.5205298374530086E-02 a       648     0    26     1    23
  1.4495876789434381E-01 a       649     0    26     1    24
  1.3912504817336166E-01 a       650     0    26     1    25
  8.4608439562803284E-02 a       651     0    27     1     1
  1.4330236682479655E-01 a       652     0    27     1     2
  9.2199014319436692E-03 a       653     0    27     1     3
 -1.4682213207585958E-02 a       654     0    27     1     4
 -5.5182133822605291E-02 a       655     0    27     1     5
 -1.3268267722754535E-02 a       656     0    27     1     6
 -1.3797523209460760E-01 a       657     0    27     1     7
  5.3795364051116332E-02 a       658     0    27     1     8
  2.2360671301155863E-02 a       659     0    27     1     9
  7.8099881271657998E-02 a       660     0    27     1    10
  4.5834194608281094E-02 a       661     0    27     1    11
 -7.4335989061029228E-02 a       662     0    27     1    12
  1.3294093626861844E-01 a       663     0    27     1    13
  4.1242975106684142E-02 a       664     0    27     1    14
 -3.5452849543652236E-02 a       665     0    27     1    15
  3.3424345436229679E-02 a       666     0    27     1    16
 -9.3027325099062946E-02 a       667     0    27     1    17
  5.3641188588461758E-02 a       668     0    27     1    18
 -8.4557807215667358E-02 a       669     0    27     1    19
  1.4525968207172314E-02 a       670     0    27     1    20
  1.1035664238944079E-01 a       671     0    27     1    21
  5.4923739525794400E-02 a       672     0    27     1    22
  1.2194879248115645E-01 a       673     0    27     1    23
 -7.4030560720470526E-02 a       674     0    27     1    24
  6.2361646330344279E-02 a       675     0    27     1    25
 -7.3270178944785727E-02 a       676     0    28     1     1
  2.4093131822537187E-01 a       677     0    28     1     2
 -5.0157890215690249E-03 a       678     0    28     1     3
  8.3255879313944028E-02 a       679     0    28     1     4
  3.1939531465199546E-02 a       680     0    28     1     5
 -2.8215049683289483E-02 a       681     0    28     1     6
 -3.1384454346176711E-02 a       682     0    28     1     7
  2.7508741113030016E-02 a       683     0    28     1     8
  1.3587574300214482E-02 a       684     0    28     1     9
  5.4485975571240734E-02 a       685     0    28     1    10
 -3.2069943305246405E-03 a       686     0    28     1    11
  1.0633382065273475E-01 a       687     0    28     1    12
  2.1841107659080752E-01 a       688     0    28     1    13
  1.3862114262579750E-01 a       689     0    28     1    14
  1.3114698361318000E-01 a       690     0    28     1    15
 -1.6083204073186125E-01 a       691     0    28     1    16
 -4.3838135877588821E-02 a       692     0    28     1    17
  4.0339868978506770E-02 a       693     0    28     1    18
  7.4624486122033984E-02 a       694     0    28     1    19
  8.4830885003385162E-02 a       695     0    28     1    20
  1.1065810662779299E-01 a       696     0    28     1    21
 -1.2478811382207350E-01 a       697     0    28     1    22
 -6.9364763005839325E-02 a       698     0    28     1    23
  6.3102591208279601E-02 a       699     0    28     1    24
  1.8635879632237048E-01 a       700     0    28     1    25
 -2.5784784037170244E-01 a       701     0    29     1     1
 -1.8638884907372724E-01 a       702     0    29     1     2
 -2.6313512809142851E-02 a       703     0    29     1     3
  1.9187812927281424E-02 a       704     0    29     1     4
 -7.6512695578278183E-03 a       705     0    29     1     5
  4.1704481397753401E-02 a       706     0    29     1     6
 -2.8168197776758963E-01 a       707     0    29     1     7
 -2.0087963083940788E-01 a       708     0    29     1     8
  2.6789626950025536E-01 a       709     0    29     1     9
  1.3457049612245217E-01 a       710     0    29     1    10
  1.1794755713400280E-01 a       711     0    29     1    11
  1.7518174806160697E-01 a       712     0    29     1    12
  1.1889821744183225E-01 a       713     0    29     1    13
  1.9141493062392073E-02 a       714     0    29     1    14
 -1.5603375524966137E-01 a       715     0    29     1    15
  1.5641683293088529E-01 a       716     0    29     1    16
 -2.8853637039844393E-01 a       717     0    29     1    17
 -1.1249192869159860E-01 a       718     0    29     1    18
  1.4924491746136068E-02 a       719     0    29     1    19
 -6.8200098112949761E-02 a       720     0    29     1    20
 -1.9859995012425358E-01 a       721     0    29     1    21
  1.7947443081471992E-01 a       722     0    29     1    22
  2.7326970328200122E-02 a       723     0    29     1    23
  1.1859706223644519E-01 a       724     0    29     1    24
  1.3357079277615136E-01 a       725     0    29     1    25
 -2.3645085150922483E-02 a       726     0    30     1     1
  1.6947145277599801E-02 a       727     0    30     1     2
  1.1289551994894012E-01 a       728     0    30     1     3
  6.8332713608074427E-02 a       729     0    30     1     4
 -9.7993381373271141E-02 a       730     0    30     1     5
  1.5546149147715431E-02 a       731     0    30     1     6
 -4.8676819310107179E-02 a       732     0    30     1     7
  1.3405706721163983E-02 a       733     0    30     1     8
  4.4848815045886593E-02 a       734     0    30     1     9
  1.5503127368821304E-01 a       735     0    30     1    10
  1.6472690860388955E-01 a       736     0    30     1    11
 -7.5639138371043135E-02 a       737     0    30     1    12
 -1.4141631544420974E-01 a       738     0    30     1    13
  1.4487867163698492E-01 a       739     0    30     1    14
 -9.6139179959563587E-02 a       740     0    30     1    15
  2.0494014602235719E-01 a       741     0    30     1    16
  1.1765516015244126E-01 a       742     0    30     1    17
 -1.2545283494282491E-01 a       743     0    30     1    18
  1.2067483740455424E-01 a       744     0    30     1    19
  2.0562213891512682E-02 a       745     0    30     1    20
 -8.6238633177610588E-02 a       746     0    30     1    21
 -1.4552632613184821E-01 a       747     0    30     1    22
  4.6822065251644326E-02 a       748     0    30     1    23
 -1.2899280625892171E-01 a       749     0    30     1    24
  3.0946414224760359E-03 a       750     0    30     1    25
 -1.7082490420498983E-01 a       751     0    31     1     1
 -3.5709371500528392E-01 a       752     0    31     1     2
 -7.0749062348113928E-02 a       753     0    31     1     3
 -6.6175689666796208E-03 a       754     0    31     1     4
 -1.0153066645151446E-01 a       755     0    31     1     5
  6.3864917246806749E-02 a       756     0    31     1     6
  3.7525379274509163E-02 a       757     0    31     1     7
 -1.2005815465479310E-01 a       758     0    31     1     8
  1.5506398581564179E-01 a       759     0    31     1     9
  1.1335451165304107E-01 a       760     0    31     1    10
  1.0716072199082373E-01 a       761     0    31     1    11
  4.5900819412161731E-02 a       762     0    31     1    12
 -9.7251062901808794E-02 a       763     0    31     1    13
 -1.0534254669259248E-01 a       764     0    31     1    14
 -1.0279375930702331E-01 a       765     0    31     1    15
 -4.6818918268892118E-02 a       766     0    31     1    16
  8.4292736476981683E-02 a       767     0    31     1    17
  1.1894507296562226E-01 a       768     0    31     1    18
  4.1475848342420824E-02 a       769     0    31     1    19
 -6.5590843939997256E-02 a       770     0    31     1    20
  1.1171788358642312E-01 a       771     0    31     1    21
  3.3579072853918528E-02 a       772     0    31     1    22
 -2.1810138115681138E-01 a       773     0    31     1    23
 -6.8140521539593171E-02 a       774     0    31     1    24
  1.8718517109525767E-02 a       775     0    31     1    25
  2.0799768864098458E-01 a       776     0    32     1     1
 -1.0885241741041859E-01 a       777     0    32     1     2
  9.0550371185329159E-02 a       778     0    32     1     3
 -1.6713344722695572E-01 a       779     0    32     1     4
  4.6129384077877068E-02 a       780     0    32     1     5
  3.2353798004128992E-02 a       781     0    32     1     6
  8.6193452340004671E-03 a       782     0    32     1     7
 -1.6385973295598721E-01 a       783     0    32     1     8
 -1.0814486158521894E-01 a       784     0    32     1     9
 -2.4631037039011601E-02 a       785     0    32     1    10
  8.4044875706900890E-02 a       786     0    32     1    11
 -1.0859304477897551E-01 a       787     0    32     1    12
 -1.4217598121719843E-01 a       788     0    32     1    13
  1.0847138570394783E-01 a       789     0    32     1    14
  4.5719925207314598E-02 a       790     0    32     1    15
  1.1694696649736265E-01 a       791     0    32     1    16
 -1.1244218307781990E-01 a       792     0    32     1    17
  8.2146803898144605E-02 a       793     0    32     1    18
 -8.7597062516870230E-02 a       794     0    32     1    19
  1.4944462618046633E-01 a       795     0    32     1    20
 -1.4683090915201610E-01 a       796     0    32     1    21
 -4.9701058169933456E-02 a       797     0    32     1    22
  1.5455623849331263E-01 a       798     0    32     1    23
  6.0315912488015239E-03 a       799     0    32     1    24
  7.0967695080973225E-02 a       800     0    32     1    25
 -4.5433701497662096E-03 a       801     0    33     1     1
  4.6398895078113220E-02 a       802     0    33     1     2
  2.3649439177365401E-02 a       803     0    33     1     3
 -6.4508203693000643E-02 a       804     0    33     1     4
  1.5659104712292363E-01 a       805     0    33     1     5
  8.4436836478272617E-02 a       806     0    33     1     6
  1.1363756435519427E-01 a       807     0    33     1     7
  1.5399128777708385E-01 a       808     0    33     1     8
  5.5395498716291972E-02 a       809     0    33     1     9
  2.1038728618926986E-01 a       810     0    33     1    10
  1.4934022323533550E-01 a       811     0    33     1    11
  1.3123669621990346E-02 a       812     0    33     1    12
  8.5842256310684942E-02 a       813     0    33     1    13
 -3.7807658496949233E-02 a       814     0    33     1    14
 -1.3214437938860646E-01 a       815     0    33     1    15
  1.4489821172885342E-01 a       816     0    33     1    16
  1.8095385192286975E-01 a       817     0    33     1    17
  4.4159596898790718E-02 a       818     0    33     1    18
  8.9944059243500976E-02 a       819     0    33     1    19
  6.3433295278559426E-02 a       820     0    33     1    20
  2.4270795616239893E-01 a       821     0    33     1    21
 -4.8214535220292308E-02 a       822     0    33     1    22
  2.1040698668817200E-02 a       823     0    33     1    23
 -1.3192236046219666E-01 a       824     0    33     1    24
  4.3840960990000288E-02 a       825     0    33     1    25
 -5.2884504125116083E-02 a       826     0    34     1     1
 -8.0809491749245746E-02 a       827     0    34     1     2
 -3.4855844844722372E-02 a       828     0    34     1     3
 -8.4341621540960560E-02 a       829     0    34     1     4
  5.7240065503114237E-02 a       830     0    34     1     5
  2.3118083722782807E-02 a       831     0    34     1     6
  1.9227913791234616E-01 a       832     0    34     1     7
  8.6055358481529939E-02 a       833     0    34     1     8
 -2.4524191966445558E-01 a       834     0    34     1     9
  9.4420673687737211E-02 a       835     0    34     1    10
 -4.7929611534159818E-02 a       836     0    34     1    11
  7.9695992976188141E-03 a       837     0    34     1    12
  1.1663276690478484E-01 a       838     0    34     1    13
 -8.1513015376938308E-02 a       839     0    34     1    14
 -7.7903798247289879E-02 a       840     0    34     1    15
 -1.0397277326449283E-01 a       841     0    34     1    16
  8.8458182985493308E-02 a       842     0    34     1    17
  1.4618167825922644E-02 a       843     0    34     1    18
 -8.4151452394704424E-02 a       844     0    34     1    19
  9.2317999548321469E-02 a       845     0    34     1    20
  1.0113782304538592E-01 a       846     0    34     1    21
 -8.5912335156852621E-02 a       847     0    34     1    22
 -4.2476464486778553E-02 a       848     0    34     1    23
  1.1492392175537488E-02 a       849     0    34     1    24
 -1.4548966875666439E-02 a       850     0    34     1    25
  1.0557915936297474E-01 a       851     0    35     1     1
  4.2962834968053309E-01 a       852     0    35     1     2
  3.9966465597140136E-02 a       853     0    35     1     3
  5.3168683690943498E-02 a       854     0    35     1     4
 -6.6831808676668131E-02 a       855     0    35     1     5
 -1.3742597468317730E-01 a       856     0    35     1     6
 -1.0547655464324070E-01 a       857     0    35     1     7
  1.6313545673297475E-01 a       858     0    35     1     8
 -1.4084292915789456E-01 a       859     0    35     1     9
  1.5709996046817445E-01 a       860     0    35     1    10
  7.6646440506656463E-02 a       861     0    35     1    11
  1.6338552615255200E-01 a       862     0    35     1    12
 -1.1633083833081229E-01 a       863     0    35     1    13
  2.8040548562389085E-02 a       864     0    35     1    14
  1.5885061064992892E-02 a       865     0    35     1    15
  1.2157163943364847E-01 a       866     0    35     1    16
 -2.9284396163234097E-02 a       867     0    35     1    17
 -6.2755682308161887E-03 a       868     0    35     1    18
 -7.4373127161228542E-02 a       869     0    35     1    19
  1.2704846650878207E-01 a       870     0    35     1    20
 -1.1890572742924468E-01 a       871     0    35     1    21
 -9.6310199760345300E-02 a       872     0    35     1    22
  2.6935133246557197E-01 a       873     0    35     1    23
 -7.7754178455846798E-02 a       874     0    35     1    24
  8.9754630589400447E-02 a       875     0    35     1    25
 -8.6711225560640329E-02 a       876     0    36     1     1
  8.1656710828377763E-02 a       877     0    36     1     2
  2.5237468456200115E-02 a       878     0    36     1     3
  9.0320944196508726E-02 a       879     0    36     1     4
 -9.1136739032445277E-02 a       880     0    36     1     5
  6.7454320266228551E-02 a       881     0    36     1     6
 -1.7371243235790021E-01 a       882     0    36     1     7
  9.7309457466016339E-02 a       883     0    36     1     8
  7.8770457025886781E-02 a       884     0    36     1     9
  1.5503682461226777E-02 a       885     0    36     1    10
 -1.2222281538875446E-02 a       886     0    36     1    11
  8.1281084387957531E-02 a       887     0    36     1    12
  5.7462963808420094E-02 a       888     0    36     1    13
 -4.6213764640623274E-02 a       889     0    36     1    14
 -1.6043145131179187E-02 a       890     0    36     1    15
  1.8928344352500098E-02 a       891     0    36     1    16
  1.9920493596316091E-02 a       892     0    36     1    17
 -6.6506516712365890E-02 a       893     0    36     1    18
  6.4291452549099223E-02 a       894     0    36     1    19
 -1.7764586518340136E-01 a       895     0    36     1    20
  1.2166860346784571E-01 a       896     0    36     1    21
 -4.5398004406946538E-02 a       897     0    36     1    22
 -3.0491958594015826E-02 a       898     0    36     1    23
 -1.1712967043065677E-02 a       899     0    36     1    24
 -5.3988107066753450E-02 a       900     0    36     1    25
 -2.2791507903206581E-01 a       901     0    37     1     1
 -8.1891861134722424E-02 a       902     0    37     1     2
 -9.5787264981733899E-02 a       903     0    37     1     3
  6.7722829770632945E-02 a       904     0    37     1     4
 -3.1116243103893487E-03 a       905     0    37     1     5
  1.3565588134425746E-01 a       906     0    37     1     6
 -8.2100978416035184E-02 a       907     0    37     1     7
 -5.3450664287121676E-02 a       908     0    37     1     8
  2.4586138960344502E-02 a       909     0    37     1     9
  1.0670843123110549E-02 a       910     0    37     1    10
  9.3581372937115173E-02 a       911     0    37     1    11
  8.6484001091549453E-02 a       912     0    37     1    12
 -6.5163336040810385E-02 a       913     0    37     1    13
  3.7739258460935766E-02 a       914     0    37     1    14
 -7.5643657117991564E-02 a       915     0    37     1    15
  4.2480137576047648E-02 a       916     0    37     1    16
 -5.5425397028918549E-02 a       917     0    37     1    17
 -1.6022605209829516E-01 a       918     0    37     1    18
  7.9958912492593612E-02 a       919     0    37     1    19
 -1.2061448263393658E-01 a       920     0    37     1    20
 -8.8964745264854067E-02 a       921     0    37     1    21
  1.9642231304841129E-01 a       922     0    37     1    22
  2.0834335413058239E-02 a       923     0    37     1    23
 -1.1258240755102133E-02 a       924     0    37     1    24
  1.7160195005121923E-01 a       925     0    37     1    25
 -3.7726790644512266E-02 a       926     0    38     1     1
 -6.8751801512856967E-02 a       927     0    38     1     2
  1.5994613246483741E-03 a       928     0    38     1     3
  3.6179008588534199E-02 a       929     0    38     1     4
 -9.1138916420157201E-02 a       930     0    38     1     5
  1.2397511319922670E-02 a       931     0    38     1     6
 -8.9122450773742062E-02 a       932     0    38     1     7
  7.4121622651402208E-02 a       933     0    38     1     8
  1.4664411314957670E-01 a       934     0    38     1     9
  4.3963522544946995E-02 a       935     0    38     1    10
  1.0847377026774679E-01 a       936     0    38     1    11
  6.5821343084147129E-03 a       937     0    38     1    12
 -7.7024658999770082E-02 a       938     0    38     1    13
  1.2070007208034846E-01 a       939     0    38     1    14
 -7.0521155472715855E-02 a       940     0    38     1    15
  9.7722495354171421E-02 a       941     0    38     1    16
 -3.1801028494134985E-02 a       942     0    38     1    17
 -2.9351491078473246E-02 a       943     0    38     1    18
  1.0662926654876712E-02 a       944     0    38     1    19
 -2.9985165439761156E-03 a       945     0    38     1    20
 -1.6075173218830624E-01 a       946     0    38     1    21
  7.7891251636978243E-02 a       947     0    38     1    22
  9.5928497061146270E-02 a       948     0    38     1    23
  1.5166790247730712E-02 a       949     0    38     1    24
 -3.9866241833684552E-03 a       950     0    38     1    25
 -2.5960442698340733E-02 a       951     0    39     1     1
 -1.6220845021791641E-01 a       952     0    39     1     2
 -4.1775043966850289E-03 a       953     0    39     1     3
 -4.4305629353633129E-02 a       954     0    39     1     4
  6.3764883568563302E-02 a       955     0    39     1     5
  1.6067760767100475E-01 a       956     0    39     1     6
  9.1692892799344464E-02 a       957     0    39     1     7
 -1.0141840643243205E-01 a       958     0    39     1     8
  2.4411225147191146E-01 a       959     0    39     1     9
 -1.7819742996951732E-01 a       960     0    39     1    10
 -6.1178394348369171E-02 a       961     0    39     1    11
 -1.0615507617215439E-01 a       962     0    39     1    12
  8.6751345956688722E-02 a       963     0    39     1    13
  2.2890495468066398E-02 a       964     0    39     1    14
  1.1650514826291682E-01 a       965     0    39     1    15
 -1.0775216369910046E-01 a       966     0    39     1    16
 -1.1148843840906329E-01 a       967     0    39     1    17
  3.4945427421400645E-02 a       968     0    39     1    18
  1.0917365388125816E-01 a       969     0    39     1    19
 -8.6212863082433325E-03 a       970     0    39     1    20
 -6.1388224264736155E-02 a       971     0    39     1    21
  1.4313173395083834E-01 a       972     0    39     1    22
 -1.4880152890137199E-01 a       973     0    39     1    23
  2.0155204638951749E-02 a       974     0    39     1    24
  6.5201990724779224E-02 a       975     0    39     1    25
  4.4469651780995344E-02 a       976     0    40     1     1
 -2.9205644843454791E-02 a       977     0    40     1     2
 -5.0386540959330650E-02 a       978     0    40     1     3
 -5.0858108886846172E-02 a       979     0    40     1     4
  1.2370183489049189E-01 a       980     0    40     1     5
 -7.4150786273417021E-02 a       981     0    40     1     6
  1.1135430766184128E-01 a       982     0    40     1     7
  1.1934523185105933E-02 a       983     0    40     1     8
 -7.5895636903600516E-02 a       984     0    40     1     9
  2.9013859614864964E-02 a       985     0    40     1    10
  8.3607703816910763E-03 a       986     0    40     1    11
 -3.5177128875123233E-02 a       987     0    40     1    12
  8.1058477837020068E-02 a       988     0    40     1    13
  3.8446377669705087E-02 a       989     0    40     1    14
 -3.6970803579965003E-02 a       990     0    40     1    15
  6.9192216594608606E-03 a       991     0    40     1    16
 -4.6968343361515855E-02 a       992     0    40     1    17
  2.6859337865325135E-02 a       993     0    40     1    18
 -6.1637914353073711E-02 a       994     0    40     1    19
  7.1242517543075590E-02 a       995     0    40     1    20
 -8.0890090532044462E-02 a       996     0    40     1    21
 -1.8703372678020209E-02 a       997     0    40     1    22
 -4.0216386262388864E-03 a       998     0    40     1    23
  4.3554344826266786E-02 a       999     0    40     1    24
 -5.7723763371656224E-02 a      1000     0    40     1    25
 -5.9617437840721217E-02 a      1001     0    41     1     1
 -1.7820688080773639E-01 a      1002     0    41     1     2
  5.4926157108347702E-02 a      1003     0    41     1     3
 -1.8848395828688488E-01 a      1004     0    41     1     4
  4.2983035193876459E-02 a      1005     0    41     1     5
  1.1020152810648354E-02 a      1006     0    41     1     6
 -5.9780495726340976E-02 a      1007     0    41     1     7
 -2.6054040059361801E-02 a      1008     0    41     1     8
  1.4594453221174070E-01 a      1009     0    41     1     9
 -5.3122176344149096E-03 a      1010     0    41     1    10
  8.9631362287206029E-02 a      1011     0    41     1    11
  3.1340840286802724E-01 a      1012     0    41     1    12
  1.0492008064786043E-01 a      1013     0    41     1    13
  8.0611199201243676E-03 a      1014     0    41     1    14
  4.0958421262351379E-02 a      1015     0    41     1    15
  1.2399492469131625E-01 a      1016     0    41     1    16
 -1.3199560091226442E-01 a      1017     0    41     1    17
 -1.7991646950492723E-01 a      1018     0    41     1    18
  1.2363053088090473E-01 a      1019     0    41     1    19
 -3.6063281271745814E-03 a      1020     0    41     1    20
  2.6503683240168380E-01 a      1021     0    41     1    21
 -9.6532754810191475E-03 a      1022     0    41     1    22
  1.1160786645299363E-01 a      1023     0    41     1    23
  4.6441224009776502E-02 a      1024     0    41     1    24
  9.0115328145461929E-02 a      1025     0    41     1    25
  1.1192701210096992E-01 a      1026     0    42     1     1
 -2.0913097848046541E-01 a      1027     0    42     1     2
 -5.8337839292716673E-02 a      1028     0    42     1     3
  2.8034290627376934E-01 a      1029     0    42     1     4
 -8.1830866642638209E-02 a      1030     0    42     1     5
 -1.1832888613426241E-01 a      1031     0    42     1     6
  1.9696115047721015E-02 a      1032     0    42     1     7
 -2.3455954096553891E-01 a      1033     0    42     1     8
 -1.5947007696380369E-01 a      1034     0    42     1     9
  7.2387834106460311E-02 a      1035     0    42     1    10
 -5.9157251671310786E-02 a      1036     0    42     1    11
 -1.3821469414390544E-01 a      1037     0    42     1    12
 -1.9148369946151163E-02 a      1038     0    42     1    13
 -2.5351350318978776E-02 a      1039     0    42     1    14
  2.2849242894299782E-01 a      1040     0    42     1    15
  1.5661470136796471E-01 a      1041     0    42     1    16
 -1.1838995501343268E-01 a      1042     0    42     1    17
  1.3365253624861426E-01 a      1043     0    42     1    18
 -7.8641650627624862E-02 a      1044     0    42     1    19
  1.7195848805975264E-01 a      1045     0    42     1    20
 -1.0532000324241378E-01 a      1046     0    42     1    21
 -2.3942523192475487E-01 a      1047     0    42     1    22
  7.9565367365562988E-03 a      1048     0    42     1    23
 -2.3154043577780492E-01 a      1049     0    42     1    24
  1.3810139775109495E-01 a      1050     0    42     1    25
 -1.0375822118048988E-01 a      1051     0    43     1     1
  1.9163308786888819E-01 a      1052     0    43     1     2
 -6.9464925549611617E-02 a      1053     0    43     1     3
 -5.9262244818054290E-02 a      1054     0    43     1     4
 -7.1928526693246855E-02 a      1055     0    43     1     5
  2.3227315124280626E-01 a      1056     0    43     1     6
  1.9535537480941073E-01 a      1057     0    43     1     7
 -7.2621465334741286E-02 a      1058     0    43     1     8
  6.1240816394599079E-02 a      1059     0    43     1     9
 -1.9474781215298081E-02 a      1060     0    43     1    10
  9.3183983033832227E-02 a      1061     0    43     1    11
 -1.5571785652538023E-01 a      1062     0    43     1    12
  1.0947956811678011E-01 a      1063     0    43     1    13
 -1.1692329641349046E-02 a      1064     0    43     1    14
  1.0409252529735033E-01 a      1065     0    43     1    15
 -1.8263993754396076E-02 a      1066     0    43     1    16
  1.7622090325401968E-01 a      1067     0    43     1    17
  1.7851380001985464E-02 a      1068     0    43     1    18
 -4.7641020197157213E-02 a      1069     0    43     1    19
 -1.8309179409487411E-01 a      1070     0    43     1    20
  1.5186368840043746E-01 a      1071     0    43     1    21
  1.2652319957745772E-02 a      1072     0    43     1    22
  1.9545169324641221E-01 a      1073     0    43     1    23
 -1.0755736731785420E-01 a      1074     0    43     1    24
 -1.3678343085480685E-01 a      1075     0    43     1    25
 -3.0419653807848019E-02 a      1076     0    44     1     1
  1.1807488230471459E-01 a      1077     0    44     1     2
 -5.4749296484149564E-02 a      1078     0    44     1     3
  9.2318470016272691E-02 a      1079     0    44     1     4
  5.8304313071459619E-03 a      1080     0    44     1     5
 -1.8575886611434927E-01 a      1081     0    44     1     6
 -2.1545532375490217E-01 a      1082     0    44     1     7
  1.2032528040679495E-01 a      1083     0    44     1     8
  1.5849663277667808E-01 a      1084     0    44     1     9
  7.1661762470133256E-02 a      1085     0    44     1    10
 -1.0871013338641268E-02 a      1086     0    44     1    11
 -7.4784073444794652E-03 a      1087     0    44     1    12
 -3.5797951486917154E-02 a      1088     0    44     1    13
  6.9150458173029380E-02 a      1089     0    44     1    14
 -1.2457311739770895E-01 a      1090     0    44     1    15
 -2.0137026741413079E-02 a      1091     0    44     1    16
  1.6102260224029233E-01 a      1092     0    44     1    17
  7.5472476975825972E-02 a      1093     0    44     1    18
  1.2726980898147877E-01 a      1094     0    44     1    19
  1.3255405254394287E-01 a      1095     0    44     1    20
  7.6496406226162258E-02 a      1096     0    44     1    21
 -7.8173683446855075E-02 a      1097     0    44     1    22
  3.9918653064181409E-02 a      1098     0    44     1    23
  7.1037275510840742E-02 a      1099     0    44     1    24
 -1.8597841131916402E-02 a      1100     0    44     1    25
 -1.5713644535339058E-01 a      1101     0    45     1     1
  2.0563635154261248E-01 a      1102     0    45     1     2
  1.3053625491374335E-01 a      1103     0    45     1     3
 -2.1050550210813618E-02 a      1104     0    45     1     4
  6.9682539446089140E-02 a      1105     0    45     1     5
  1.5641262717632801E-01 a      1106     0    45     1     6
 -2.6901568883340615E-01 a      1107     0    45     1     7
 -1.2278213405278558E-01 a      1108     0    45     1     8
  1.5937195690420355E-01 a      1109     0    45     1     9
 -1.3402094909690578E-02 a      1110     0    45     1    10
  1.1265662194539558E-01 a      1111     0    45     1    11
 -1.8456765252480553E-01 a      1112     0    45     1    12
  1.1382589230189302E-01 a      1113     0    45     1    13
  1.1714046775031917E-01 a      1114     0    45     1    14
 -2.7170598697578499E-02 a      1115     0    45     1    15
  1.1440771832941554E-01 a      1116     0    45     1    16
  2.8466693173459728E-01 a      1117     0    45     1    17
 -1.1424164770207001E-01 a      1118     0    45     1    18
 -3.1460919914865000E-02 a      1119     0    45     1    19
 -1.3866672677255040E-01 a      1120     0    45     1    20
 -3.9409056640857906E-02 a      1121     0    45     1    21
 -2.3434879912462248E-01 a      1122     0    45     1    22
  2.1946573485870195E-02 a      1123     0    45     1    23
  1.3086180615499216E-01 a      1124     0    45     1    24
 -4.9103122999076501E-02 a      1125     0    45     1    25
  1.8174594353847655E-02 a      1126     0    46     1     1
 -1.8874581034733195E-01 a      1127     0    46     1     2
 -1.6468175681403258E-01 a      1128     0    46     1     3
 -2.2728244095593809E-02 a      1129     0    46     1     4
  9.4211624861408078E-02 a      1130     0    46     1     5
 -2.4275369371746396E-02 a      1131     0    46     1     6
 -3.8657797250630371E-02 a      1132     0    46     1     7
 -8.0714774838265502E-02 a      1133     0    46     1     8
 -6.2721404614817622E-02 a      1134     0    46     1     9
  1.5789466461057702E-01 a      1135     0    46     1    10
 -2.8562378758953771E-02 a      1136     0    46     1    11
  6.3456167175151776E-02 a      1137     0    46     1    12
  3.1975823493317468E-01 a      1138     0    46     1    13
  3.3605558136691943E-02 a      1139     0    46     1    14
 -9.5491078657793549E-02 a      1140     0    46     1    15
 -1.0305548532663902E-01 a      1141     0    46     1    16
 -7.9487956759833139E-02 a      1142     0    46     1    17
  1.3918629231836957E-01 a      1143     0    46     1    18
 -2.4312057604773823E-01 a      1144     0    46     1    19
 -7.0030282256739684E-02 a      1145     0    46     1    20
 -1.1507671075614146E-02 a      1146     0    46     1    21
  2.0293881770938500E-02 a      1147     0    46     1    22
 -8.4264300713680559E-03 a      1148     0    46     1    23
 -1.0673935417412614E-01 a      1149     0    46     1    24
  2.8417454613281025E-02 a      1150     0    46     1    25
 -3.1297351158194479E-02 a      1151     0    47     1     1
  1.6960632343087156E-01 a      1152     0    47     1     2
  3.5160058277743122E-03 a      1153     0    47     1     3
 -1.7560349556502616E-01 a      1154     0    47     1     4
  1.0002995457228668E-01 a      1155     0    47     1     5
  2.9036590760572073E-01 a      1156     0    47     1     6
  1.8270853749752883E-01 a      1157     0    47     1     7
 -9.9989738497453383E-05 a      1158     0    47     1     8
 -8.8223152004296840E-02 a      1159     0    47     1     9
 -4.3423158332615709E-02 a      1160     0    47     1    10
 -5.0403246563174679E-02 a      1161     0    47     1    11
  1.4638472475390854E-01 a      1162     0    47     1    12
  9.3336153920380374E-02 a      1163     0    47     1    13
 -5.6940098375652927E-02 a      1164     0    47     1    14
  5.1200222025383747E-02 a      1165     0    47     1    15
 -7.0159997006101690E-02 a      1166     0    47     1    16
 -1.2864627224092248E-01 a      1167     0    47     1    17
 -1.0792279936152113E-03 a      1168     0    47     1    18
 -9.6112371577432326E-02 a      1169     0    47     1    19
 -5.0030453219163128E-02 a      1170     0    47     1    20
  1.7735941039991196E-01 a      1171     0    47     1    21
  1.3144025142057178E-01 a      1172     0    47     1    22
 -2.6965698922596031E-02 a      1173     0    47     1    23
  3.2794516236474044E-02 a      1174     0    47     1    24
  7.5962855308772254E-02 a      1175     0    47     1    25
  6.0109973671736136E-02 a      1176     0    48     1     1
  4.3229139059201997E-02 a      1177     0    48     1     2
 -1.6980220736118737E-01 a      1178     0    48     1     3
 -1.1463173277074024E-01 a      1179     0    48     1     4
 -1.9115064441905000E-01 a      1180     0    48     1     5
 -1.9677943574225654E-01 a      1181     0    48     1     6
  6.6161425080145568E-03 a      1182     0    48     1     7
 -2.4564775931529045E-01 a      1183     0    48     1     8
 -7.3589109561450844E-02 a      1184     0    48     1     9
  1.5080858885407628E-01 a      1185     0    48     1    10
  1.2664133963161314E-01 a      1186     0    48     1    11
  8.4420730062172225E-02 a      1187     0    48     1    12
  1.4219941725700586E-01 a      1188     0    48     1    13
 -4.9602692877350862E-02 a      1189     0    48     1    14
  3.2134128046143927E-02 a      1190     0    48     1    15
  2.2319052179447744E-02 a      1191     0    48     1    16
  1.1302277213261916E-02 a      1192     0    48     1    17
 -1.1029261693638079E-01 a      1193     0    48     1    18
 -9.0289663570904607E-02 a      1194     0    48     1    19
 -1.9277811505692555E-01 a      1195     0    48     1    20
  2.1786442909508613E-01 a      1196     0    48     1    21
 -4.0621713963940514E-02 a      1197     0    48     1    22
 -5.7343915702038464E-02 a      1198     0    48     1    23
 -3.7452054937491014E-02 a      1199     0    48     1    24
 -1.7749370931830727E-01 a      1200     0    48     1    25
 -1.9370178342059990E-01 a      1201     0    49     1     1
  2.8704857859117656E-02 a      1202     0    49     1     2
 -1.0961050039817885E-01 a      1203     0    49     1     3
  2.2199154596711215E-01 a      1204     0    49     1     4
 -1.2279445651367038E-01 a      1205     0    49     1     5
 -1.1586334942940435E-01 a      1206     0    49     1     6
  7.5916051949471486E-02 a      1207     0    49     1     7
  7.6395935294438694E-02 a      1208     0    49     1     8
  1.7126231211893095E-01 a      1209     0    49     1     9
  1.6951730618482788E-01 a      1210     0    49     1    10
  2.2000842863608931E-02 a      1211     0    49     1    11
  2.1530295450981649E-01 a      1212     0    49     1    12
  1.2252066169901288E-02 a      1213     0    49     1    13
 -1.9500488274401206E-01 a      1214     0    49     1    14
 -1.5574119236379499E-01 a      1215     0    49     1    15
  1.0665803315736558E-01 a      1216     0    49     1    16
  5.2560341638924993E-02 a      1217     0    49     1    17
 -7.0982200233303122E-02 a      1218     0    49     1    18
  1.2182587610791690E-01 a      1219     0    49     1    19
 -1.5796564927722431E-01 a      1220     0    49     1    20
 -1.4756611104981462E-01 a      1221     0    49     1    21
 -2.5982484995121870E-02 a      1222     0    49     1    22
 -1.3124679123284919E-01 a      1223     0    49     1    23
  1.1010508320478321E-01 a      1224     0    49     1    24
 -1.8532145522296820E-01 a      1225     0    49     1    25
 -6.7940638191698891E-02 a      1226     0    50     1     1
 -1.5720603878472694E-01 a      1227     0    50     1     2
 -9.4954807584960430E-02 a      1228     0    50     1     3
 -2.1582878764489563E-01 a      1229     0    50     1     4
 -3.6896089580459708E-02 a      1230     0    50     1     5
  1.0327397900369131E-01 a      1231     0    50     1     6
  1.3268007977397134E-01 a      1232     0    50     1     7
  2.8740021194323334E-01 a      1233     0    50     1     8
  1.1701537484952815E-01 a      1234     0    50     1     9
  5.2508527862077388E-02 a      1235     0    50     1    10
  1.5825238557117066E-02 a      1236     0    50     1    11
 -1.9154311218909881E-01 a      1237     0    50     1    12
  1.0248266075303723E-01 a      1238     0    50     1    13
 -8.3791648912292072E-02 a      1239     0    50     1    14
  1.8242092400915030E-01 a      1240     0    50     1    15
  2.4363792998367512E-01 a      1241     0    50     1    16
  1.1375418254221209E-01 a      1242     0    50     1    17
 -1.0326077422497800E-02 a      1243     0    50     1    18
  3.4761100384294488E-02 a      1244     0    50     1    19
 -1.8805855358085575E-02 a      1245     0    50     1    20
  2.8197079387053237E-01 a      1246     0    50     1    21
  8.1349591459434739E-02 a      1247     0    50     1    22
 -1.3171476587124259E-01 a      1248     0    50     1    23
  2.0390941284616959E-01 a      1249     0    50     1    24
 -6.2628394348131930E-02 a      1250     0    50     1    25
 -1.1220171473311037E-01 a      1251     0    51     1     1
 -2.2467258926634920E-01 a      1252     0    51     1     2
 -2.7087665613021984E-02 a      1253     0    51     1     3
 -2.2264074834719202E-02 a      1254     0    51     1     4
  3.0785862583130697E-02 a      1255     0    51     1     5
  4.4937139015371989E-02 a      1256     0    51     1     6
 -4.5706553234111116E-02 a      1257     0    51     1     7
 -2.6393063145100159E-02 a      1258     0    51     1     8
 -1.4870559779771678E-02 a      1259     0    51     1     9
  3.4981260268289058E-02 a      1260     0    51     1    10
  6.6694896010905655E-02 a      1261     0    51     1    11
 -1.9465850901679557E-02 a      1262     0    51     1    12
 -3.3397532611137044E-02 a      1263     0    51     1    13
  2.3180861250125362E-01 a      1264     0    51     1    14
 -3.8180691685235375E-03 a      1265     0    51     1    15
  2.0831487886097558E-01 a      1266     0    51     1    16
 -1.1929467398486043E-01 a      1267     0    51     1    17
  3.0046567824856200E-02 a      1268     0    51     1    18
 -1.5427687000637146E-02 a      1269     0    51     1    19
  1.1255151628573028E-01 a      1270     0    51     1    20
  1.7957617131586501E-01 a      1271     0    51     1    21
  9.6051514063241097E-02 a      1272     0    51     1    22
  1.2826197619542598E-01 a      1273     0    51     1    23
  1.9432694725356064E-01 a      1274     0    51     1    24
  2.0455200952230615E-01 a      1275     0    51     1    25
  9.2409053054246737E-02 a      1276     0    52     1     1
  5.7951231729665278E-02 a      1277     0    52     1     2
  2.4084139820845435E-01 a      1278     0    52     1     3
 -3.2482274727597527E-01 a      1279     0    52     1     4
 -2.1914213450101538E-02 a      1280     0    52     1     5
 -8.8027993638220128E-02 a      1281     0    52     1     6
  2.1441388900378815E-02 a      1282     0    52     1     7
  1.1234137926573622E-02 a      1283     0    52     1     8
 -1.4770738565564284E-01 a      1284     0    52     1     9
  8.9204544259509910E-02 a      1285     0    52     1    10
  2.6953059628903436E-01 a      1286     0    52     1    11
  3.1569090489060321E-02 a      1287     0    52     1    12
  1.3101168611312851E-02 a      1288     0    52     1    13
 -2.8105382011682889E-01 a      1289     0    52     1    14
 -2.7536713685459213E-01 a      1290     0    52     1    15
 -4.0072537657663104E-01 a      1291     0    52     1    16
  2.1927968469229531E-01 a      1292     0    52     1    17
  3.2350384910734560E-02 a      1293     0    52     1    18
  2.9578476722067776E-02 a      1294     0    52     1    19
 -9.6135678895739263E-02 a      1295     0    52     1    20
  2.3612006381342776E-01 a      1296     0    52     1    21
  1.8438139542802207E-01 a      1297     0    52     1    22
 -4.2246470981012307E-02 a      1298     0    52     1    23
  2.9167749757167527E-01 a      1299     0    52     1    24
  4.3887904466736787E-02 a      1300     0    52     1    25
  4.4363252202807714E-02 a      1301     0    53     1     1
 -1.0863732443096234E-01 a      1302     0    53     1     2
  5.3153477063306240E-02 a      1303     0    53     1     3
  1.6636505684125849E-01 a      1304     0    53     1     4
 -1.7139901953226799E-01 a      1305     0    53     1     5
 -1.6227708830974696E-01 a      1306     0    53     1     6
  1.7137146282315169E-01 a      1307     0    53     1     7
  3.8449465288179406E-02 a      1308     0    53     1     8
  1.1825673743254728E-01 a      1309     0    53     1     9
  1.2698743840094462E-01 a      1310     0    53     1    10
  4.9377187279876299E-02 a      1311     0    53     1    11
  1.8978153957509672E-01 a      1312     0    53     1    12
 -1.5145209569262952E-01 a      1313     0    53     1    13
  1.8615345091620422E-01 a      1314     0    53     1    14
  1.4982965419508090E-01 a      1315     0    53     1    15
  7.1785044037104562E-02 a      1316     0    53     1    16
  2.7828804825912570E-02 a      1317     0    53     1    17
  3.3314587056509609E-02 a      1318     0    53     1    18
 -6.3049948086781937E-02 a      1319     0    53     1    19
  1.8697129366012538E-01 a      1320     0    53     1    20
 -3.9855125442042651E-03 a      1321     0    53     1    21
 -1.1377762367750720E-01 a      1322     0    53     1    22
 -1.8273604082000794E-01 a      1323     0    53     1    23
  6.3273279880753486E-02 a      1324     0    53     1    24
  8.8632087368737938E-03 a      1325     0    53     1    25
 -1.7327575261970113E-01 a      1326     0    54     1     1
 -3.3462532990896338E-01 a      1327     0    54     1     2
 -5.3006797881432095E-02 a      1328     0    54     1     3
 -2.4914212708383271E-01 a      1329     0    54     1     4
  7.1874646379386647E-02 a      1330     0    54     1     5
 -2.1939583920006070E-02 a      1331     0    54     1     6
  1.0111720795258136E-01 a      1332     0    54     1     7
 -3.5973891683260061E-02 a      1333     0    54     1     8
 -4.3741881591435730E-02 a      1334     0    54     1     9
  1.4781855918252929E-01 a      1335     0    54     1    10
  8.1245349597743932E-02 a      1336     0    54     1    11
  9.5944188765902202E-02 a      1337     0    54     1    12
  5.1935031583893461E-02 a      1338     0    54     1    13
 -3.0461699633645611E-01 a      1339     0    54     1    14
  1.5743983452132421E-02 a      1340     0    54     1    15
  8.9590924689393781E-02 a      1341     0    54     1    16
  3.5429608905791297E-02 a      1342     0    54     1    17
 -4.9745667405533558E-02 a      1343     0    54     1    18
 -3.5636869657871819E-03 a      1344     0    54     1    19
 -4.8346745440415430E-02 a      1345     0    54     1    20
 -1.4033322081733993E-01 a      1346     0    54     1    21
  3.5519973454979809E-01 a      1347     0    54     1    22
 -4.8574427885837580E-02 a      1348     0    54     1    23
  1.0968328501028773E-01 a      1349     0    54     1    24
  4.6026865885311671E-02 a      1350     0    54     1    25
  1.2986058049702642E-01 a      1351     0    55     1     1
  3.0572663893912846E-02 a      1352     0    55     1     2
  1.1101293244792293E-01 a      1353     0    55     1     3
  1.7207083873457751E-01 a      1354     0    55     1     4
  2.7556181282226228E-01 a      1355     0    55     1     5
  1.3039847961270057E-01 a      1356     0    55     1     6
  3.1112767006730449E-02 a      1357     0    55     1     7
  3.6655086846174509E-02 a      1358     0    55     1     8
  1.6095453863846462E-01 a      1359     0    55     1     9
  4.8156447636006634E-02 a      1360     0    55     1    10
 -2.7324946827478386E-01 a      1361     0    55     1    11
  5.6425318549387669E-02 a      1362     0    55     1    12
 -1.0819665420571180E-01 a      1363     0    55     1    13
  6.0833555165725112E-02 a      1364     0    55     1    14
 -1.0124200329251098E-01 a      1365     0    55     1    15
 -1.6997684479057470E-01 a      1366     0    55     1    16
 -1.2338590408207353E-01 a      1367     0    55     1    17
  2.5565076783871661E-02 a      1368     0    55     1    18
  1.3608145429376287E-01 a      1369     0    55     1    19
  1.9220083158475545E-01 a      1370     0    55     1    20
  6.3297143101377629E-03 a      1371     0    55     1    21
 -1.9578699058891560E-01 a      1372     0    55     1    22
  8.0322455936420470E-02 a      1373     0    55     1    23
 -3.7564380981306772E-01 a      1374     0    55     1    24
  8.6924790072274938E-02 a      1375     0    55     1    25
  1.9090839184453692E-01 a      1376     0    56     1     1
 -8.4099819796328523E-02 a      1377     0    56     1     2
  1.7885512802035466E-01 a      1378     0    56     1     3
 -3.4178543604837096E-02 a      1379     0    56     1     4
  1.0994595869134607E-02 a      1380     0    56     1     5
 -2.6975299596980429E-01 a      1381     0    56     1     6
  1.2883011869992131E-01 a      1382     0    56     1     7
 -1.6817219918447229E-01 a      1383     0    56     1     8
  4.5421393846707493E-02 a      1384     0    56     1     9
 -6.8518232261002687E-03 a      1385     0    56     1    10
 -6.1641557945599765E-02 a      1386     0    56     1    11
 -1.4359092867904849E-01 a      1387     0    56     1    12
 -3.0374242236688453E-02 a      1388     0    56     1    13
  9.6529987429837663E-02 a      1389     0    56     1    14
 -4.5414152409298338E-02 a      1390     0    56     1    15
  2.2724077492715616E-01 a      1391     0    56     1    16
  1.5487288114417488E-01 a      1392     0    56     1    17
 -1.4193727219969968E-01 a      1393     0    56     1    18
  1.4271651945027311E-01 a      1394     0    56     1    19
 -2.1653912877703388E-01 a      1395     0    56     1    20
  5.1334939193896000E-02 a      1396     0    56     1    21
  2.0216291402499493E-02 a      1397     0    56     1    22
 -1.7773134071481081E-01 a      1398     0    56     1    23
 -1.8809951025773566E-02 a      1399     0    56     1    24
  2.3292783894052130E-01 a      1400     0    56     1    25
 -8.0551480944133863E-02 a      1401     0    57     1     1
 -2.0432321835465989E-01 a      1402     0    57     1     2
  1.0636407814126565E-01 a      1403     0    57     1     3
  1.2659670088508279E-01 a      1404     0    57     1     4
 -1.2291975761398659E-01 a      1405     0    57     1     5
 -2.1419507514374381E-01 a      1406     0    57     1     6
 -1.5053958257429145E-01 a      1407     0    57     1     7
 -1.8886397062851060E-01 a      1408     0    57     1     8
  1.0494520197820921E-02 a      1409     0    57     1     9
  2.3544636819681222E-01 a      1410     0    57     1    10
  5.5197681366213988E-02 a      1411     0    57     1    11
 -1.9712449966460066E-01 a      1412     0    57     1    12
 -1.1007599924031185E-01 a      1413     0    57     1    13
  7.3496891722729107E-02 a      1414     0    57     1    14
 -1.7138749238943252E-01 a      1415     0    57     1    15
  1.6733786918515930E-02 a      1416     0    57     1    16
 -9.8405640147696261E-03 a      1417     0    57     1    17
 -5.3583865748710234E-02 a      1418     0    57     1    18
 -2.9330130540797177E-02 a      1419     0    57     1    19
  4.1333619356295384E-02 a      1420     0    57     1    20
 -5.0864591819084856E-02 a      1421     0    57     1    21
  2.4489439630100326E-01 a      1422     0    57     1    22
  6.5301517970572265E-02 a      1423     0    57     1    23
 -1.9088870346127601E-01 a      1424     0    57     1    24
 -4.2200531681273364E-02 a      1425     0    57     1    25
 -1.3453312082514526E-01 a      1426     0    58     1     1
 -1.0884507656318647E-01 a      1427     0    58     1     2
 -8.8635393311646049E-02 a      1428     0    58     1     3
  1.8075369831196661E-01 a      1429     0    58     1     4
 -5.2559496067244492E-02 a      1430     0    58     1     5
 -1.0941832200370204E-01 a      1431     0    58     1     6
 -2.0257860687374344E-02 a      1432     0    58     1     7
  1.7668637337410231E-01 a      1433     0    58     1     8
 -9.5349416524666358E-02 a      1434     0    58     1     9
  3.1614200435244523E-02 a      1435     0    58     1    10
 -2.2341280165870687E-03 a      1436     0    58     1    11
 -8.5816297519506923E-02 a      1437     0    58     1    12
 -1.0587397562940960E-01 a      1438     0    58     1    13
 -4.7509178967238178E-02 a      1439     0    58     1    14
 -6.7559119435984194E-02 a      1440     0    58     1    15
 -7.6908467493233424E-03 a      1441     0    58     1    16
 -2.0550071774038411E-01 a      1442     0    58     1    17
  8.2603419061663783E-02 a      1443     0    58     1    18
 -5.3088285853871077E-02 a      1444     0    58     1    19
  2.1758170034082422E-01 a      1445     0    58     1    20
  2.4448887776803341E-01 a      1446     0    58     1    21
  2.2467336558569528E-02 a      1447     0    58     1    22
  3.3493752223875378E-01 a      1448     0    58     1    23
 -7.7925009760144007E-02 a      1449     0    58     1    24
 -1.9547786403323872E-02 a      1450     0    58     1    25
  2.1070480106963135E-01 a      1451     0    59     1     1
 -6.3640053160154045E-02 a      1452     0    59     1     2
  1.7631868366683043E-01 a      1453     0    59     1     3
 -1.7755851898410993E-01 a      1454     0    59     1     4
  2.7275258727429802E-01 a      1455     0    59     1     5
  3.1918158379952544E-02 a      1456     0    59     1     6
 -1.6305164803773053E-01 a      1457     0    59     1     7
  6.7512342278431961E-02 a      1458     0    59     1     8
 -1.3133914122268306E-01 a      1459     0    59     1     9
 -1.9091911445690130E-01 a      1460     0    59     1    10
  5.2700478643342603E-02 a      1461     0    59     1    11
 -1.2297509593141003E-01 a      1462     0    59     1    12
 -4.6663499414623590E-02 a      1463     0    59     1    13
  2.1971460682883506E-01 a      1464     0    59     1    14
  1.4563738230411386E-02 a      1465     0    59     1    15
  2.7756435047130847E-02 a      1466     0    59     1    16
  1.8804884762940058E-01 a      1467     0    59     1    17
  3.5397487352960687E-02 a      1468     0    59     1    18
 -3.5494762791969159E-01 a      1469     0    59     1    19
  8.2966289100343135E-02 a      1470     0    59     1    20
 -2.5566979086765462E-01 a      1471     0    59     1    21
  9.6236828520921081E-02 a      1472     0    59     1    22
  3.0211800700658962E-02 a      1473     0    59     1    23
  1.7389447874336283E-02 a      1474     0    59     1    24
  1.0432697217240389E-01 a      1475     0    59     1    25
 -7.8629908043624352E-02 a      1476     0    60     1     1
  2.6506085923281264E-01 a      1477     0    60     1     2
  1.1562621901383499E-01 a      1478     0    60     1     3
  2.4397852851266093E-02 a      1479     0    60     1     4
 -1.5469699490554299E-02 a      1480     0    60     1     5
  3.9576031142189586E-03 a      1481     0    60     1     6
 -1.5805473812897891E-01 a      1482     0    60     1     7
 -3.5417540454776471E-02 a      1483     0    60     1     8
 -6.6123429510035400E-03 a      1484     0    60     1     9
 -1.8876470507828857E-01 a      1485     0    60     1    10
  2.5545043129682249E-01 a      1486     0    60     1    11
  1.4247520608784647E-01 a      1487     0    60     1    12
  1.4343591305247736E-02 a      1488     0    60     1    13
  2.7831063262153161E-01 a      1489     0    60     1    14
  7.4293860110827378E-02 a      1490     0    60     1    15
  1.8187085187674096E-01 a      1491     0    60     1    16
 -1.2212587442439769E-01 a      1492     0    60     1    17
  2.3065499044887286E-01 a      1493     0    60     1    18
 -7.5036034453343739E-02 a      1494     0    60     1    19
 -1.2702330549845348E-01 a      1495     0    60     1    20
  6.0768216651594939E-03 a      1496     0    60     1    21
  8.6665053241863896E-02 a      1497     0    60     1    22
  1.9168688720754317E-02 a      1498     0    60     1    23
 -3.2577726904628684E-01 a      1499     0    60     1    24
  6.2297586896834373E-02 a      1500     0    60     1    25
 -1.4271283796757925E-01 a      1501     0    61     1     1
 -9.8535498259323062E-02 a      1502     0    61     1     2
  3.8555398107326840E-02 a      1503     0    61     1     3
  3.7293512460552236E-02 a      1504     0    61     1     4
 -1.7479490237482137E-01 a      1505     0    61     1     5
  8.3191380486488165E-02 a      1506     0    61     1     6
 -1.0825752234114931E-01 a      1507     0    61     1     7
 -4.6393660929412113E-02 a      1508     0    61     1     8
  2.1940674056953047E-01 a      1509     0    61     1     9
  1.3339111058008302E-01 a      1510     0    61     1    10
  6.6963865051584054E-02 a      1511     0    61     1    11
 -7.4715124576634623E-02 a      1512     0    61     1    12
  6.3770418670058088E-02 a      1513     0    61     1    13
 -5.3973917724532840E-02 a      1514     0    61     1    14
  7.7089422586101687E-03 a      1515     0    61     1    15
 -6.5322951221640016E-03 a      1516     0    61     1    16
 -5.9177224427864772E-02 a      1517     0    61     1    17
  4.6001776997296198E-02 a      1518     0    61     1    18
  7.5294494390734185E-02 a      1519     0    61     1    19
  6.1835169300546874E-02 a      1520     0    61     1    20
 -1.0284546338435856E-01 a      1521     0    61     1    21
 -1.1205233942251121E-01 a      1522     0    61     1    22
  7.5771783284237460E-03 a      1523     0    61     1    23
  1.4128492329026773E-01 a      1524     0    61     1    24
  7.4057220836832444E-02 a      1525     0    61     1    25
  7.6979808859365964E-02 a      1526     0    62     1     1
 -4.3353891979383857E-02 a      1527     0    62     1     2
 -6.3629458342389464E-02 a      1528     0    62     1     3
  1.6228747153990333E-01 a      1529     0    62     1     4
 -2.1834463442015596E-02 a      1530     0    62     1     5
 -1.1660737061490889E-01 a      1531     0    62     1     6
 -1.9509763802366112E-01 a      1532     0    62     1     7
  8.3255979817741466E-02 a      1533     0    62     1     8
 -1.9516312062418414E-01 a      1534     0    62     1     9
 -3.7462409972322634E-02 a      1535     0    62     1    10
  9.6274834377212778E-02 a      1536     0    62     1    11
 -3.2649624512824387E-03 a      1537     0    62     1    12
  1.3644495735641424E-01 a      1538     0    62     1    13
  4.7927486404718660E-02 a      1539     0    62     1    14
 -1.5001974342698360E-01 a      1540     0    62     1    15
  1.1719399155725871E-01 a      1541     0    62     1    16
  1.3241290996247948E-01 a      1542     0    62     1    17
  5.4775643232561457E-03 a      1543     0    62     1    18
 -1.8086603670274498E-01 a      1544     0    62     1    19
  2.2938941337480964E-02 a      1545     0    62     1    20
  1.6673972211864882E-02 a      1546     0    62     1    21
  1.2993058091282247E-01 a      1547     0    62     1    22
 -8.8903258120710139E-03 a      1548     0    62     1    23
 -2.5709600427770063E-01 a      1549     0    62     1    24
 -1.0259114360698555E-01 a      1550     0    62     1    25
  5.8098481115217988E-02 a      1551     0    63     1     1
 -1.6288818175552566E-02 a      1552     0    63     1     2
  9.2708510717242190E-02 a      1553     0    63     1     3
 -7.4422581994747455E-04 a      1554     0    63     1     4
 -2.0046117945822624E-02 a      1555     0    63     1     5
  1.9253024540614661E-01 a      1556     0    63     1     6
  1.8668965166561940E-01 a      1557     0    63     1     7
 -1.2461147642928466E-01 a      1558     0    63     1     8
  1.0060989854032015E-01 a      1559     0    63     1     9
 -1.2191899280395029E-02 a      1560     0    63     1    10
  9.3891581620820751E-03 a      1561     0    63     1    11
  6.7033640158217764E-02 a      1562     0    63     1    12
 -7.8305785044507650E-02 a      1563     0    63     1    13
  3.2263065792379857E-02 a      1564     0    63     1    14
 -8.4900491323685476E-02 a      1565     0    63     1    15
  7.5965511774238230E-03 a      1566     0    63     1    16
 -5.1266959724300806E-03 a      1567     0    63     1    17
 -1.4556617509376667E-02 a      1568     0    63     1    18
  6.8768109593038806E-02 a      1569     0    63     1    19
  7.0098854120038925E-02 a      1570     0    63     1    20
 -1.5624164504054594E-01 a      1571     0    63     1    21
  1.1702395613437948E-01 a      1572     0    63     1    22
 -2.0700380047408271E-01 a      1573     0    63     1    23
  1.0238238057751606E-01 a      1574     0    63     1    24
  6.6651261859834610E-02 a      1575     0    63     1    25
 -1.4187502732742508E-02 a      1576     0    64     1     1
 -2.3255562285987442E-04 a      1577     0    64     1     2
  1.5798477788625714E-01 a      1578     0    64     1     3
 -2.4660913619617320E-01 a      1579     0    64     1     4
  1.3509220358198354E-01 a      1580     0    64     1     5
  2.5486418612101364E-01 a      1581     0    64     1     6
  2.0044419536186675E-01 a      1582     0    64     1     7
 -1.4383884451656737E-01 a      1583     0    64     1     8
  2.3212541553068584E-02 a      1584     0    64     1     9
  1.4448600588497568E-01 a      1585     0    64     1    10
 -1.8403507075126866E-02 a      1586     0    64     1    11
 -1.7944878953405075E-02 a      1587     0    64     1    12
 -1.0105664792807942E-01 a      1588     0    64     1    13
 -5.2719794209289884E-02 a      1589     0    64     1    14
 -1.1584609083638206E-01 a      1590     0    64     1    15
 -6.3796020290553292E-03 a      1591     0    64     1    16
  2.0582522669442058E-01 a      1592     0    64     1    17
  3.6710886404205036E-02 a      1593     0    64     1    18
  6.0016661273719046E-02 a      1594     0    64     1    19
  6.4216516251667063E-02 a      1595     0    64     1    20
  2.3203386217157410E-02 a      1596     0    64     1    21
 -2.5645029661311602E-01 a      1597     0    64     1    22
 -8.3694281758895248E-02 a      1598     0    64     1    23
 -3.6359340259307572E-02 a      1599     0    64     1    24
  1.3430706132372389E-01 a      1600     0    64     1    25
 -6.1140388746285954E-02 a      1601     0    65     1     1
 -6.5937131075257619E-03 a      1602     0    65     1     2
 -1.2551563410402217E-02 a      1603     0    65     1     3
 -4.7689710180091376E-02 a      1604     0    65     1     4
  1.0632923265090180E-01 a      1605     0    65     1     5
 -1.3533183286538061E-01 a      1606     0    65     1     6
  2.8618034564738509E-01 a      1607     0    65     1     7
  1.2967872357747516E-02 a      1608     0    65     1     8
  7.7552006689748515E-02 a      1609     0    65     1     9
  2.5022117111988812E-01 a      1610     0    65     1    10
  4.7216666786461206E-02 a      1611     0    65     1    11
  6.6736589830426907E-02 a      1612     0    65     1    12
 -3.7037210453784108E-02 a      1613     0    65     1    13
  5.7517201322644790E-02 a      1614     0    65     1    14
 -1.5661051153285294E-01 a      1615     0    65     1    15
 -6.2904231701796376E-02 a      1616     0    65     1    16
 -5.3347723913196213E-02 a      1617     0    65     1    17
  8.8126954404324928E-02 a      1618     0    65     1    18
  1.8641867492893698E-02 a      1619     0    65     1    19
  1.3581899076330731E-01 a      1620     0    65     1    20
  6.8742550031358554E-02 a      1621     0    65     1    21
 -9.1374763390378713E-02 a      1622     0    65     1    22
 -9.3309565036519701E-02 a      1623     0    65     1    23
