################################################################################
# Neural network connection values (weights and biases).
################################################################################
# Col  Name       Description
################################################################################
# 1    connection Neural network connection value.
# 2    t          Connection type (a = weight, b = bias).
# 3    index      Index enumerating weights.
# 4    l_s        Starting point layer (end point layer for biases).
# 5    n_s        Starting point neuron in starting layer (end point neuron for biases).
# 6    l_e        End point layer.
# 7    n_e        End point neuron in end layer.
################################################################################
#                      1 2         3     4     5     6     7
#             connection t     index   l_s   n_s   l_e   n_e
############################################################
 -2.1155787687391825E-01 a         1     0     1     1     1
 -5.2902332002142489E-03 a         2     0     1     1     2
  3.7916397399716542E-02 a         3     0     1     1     3
 -3.7100186378826949E-02 a         4     0     1     1     4
 -1.4243326806297668E-02 a         5     0     1     1     5
 -4.4788943392762771E-02 a         6     0     1     1     6
 -3.3906600673687060E-01 a         7     0     1     1     7
 -3.2563991488871048E-02 a         8     0     1     1     8
  3.6681320689772846E-02 a         9     0     1     1     9
 -1.5946485413929423E-01 a        10     0     1     1    10
  1.4067460817031774E-01 a        11     0     1     1    11
 -1.9365080360524692E-01 a        12     0     1     1    12
  5.6983082281341933E-02 a        13     0     1     1    13
 -1.4038456934560686E-01 a        14     0     1     1    14
 -1.6972046469265631E-01 a        15     0     1     1    15
  1.1421300054018114E-01 a        16     0     1     1    16
 -9.5293040628559894E-02 a        17     0     1     1    17
  1.1380740154547135E-01 a        18     0     1     1    18
  5.1124306402678558E-02 a        19     0     1     1    19
 -1.9392629513418805E-01 a        20     0     1     1    20
  1.4639542723689072E-01 a        21     0     1     1    21
  1.2699481828452103E-01 a        22     0     1     1    22
  2.5107051555184223E-01 a        23     0     1     1    23
 -3.1378231499804995E-02 a        24     0     1     1    24
  1.6438819147196851E-01 a        25     0     1     1    25
 -4.5059323518600064E-02 a        26     0     2     1     1
  3.4922908369180326E-03 a        27     0     2     1     2
 -6.6486870034819123E-02 a        28     0     2     1     3
  1.8191730183398117E-01 a        29     0     2     1     4
 -4.7121078829173171E-02 a        30     0     2     1     5
 -1.4012699001441251E-01 a        31     0     2     1     6
 -5.9378595673635140E-03 a        32     0     2     1     7
 -2.1802754641735292E-01 a        33     0     2     1     8
  8.3679920378567321E-02 a        34     0     2     1     9
 -7.3404789441673238E-02 a        35     0     2     1    10
 -1.6869837614111441E-01 a        36     0     2     1    11
 -7.8834869483686468E-02 a        37     0     2     1    12
 -6.6143778418891713E-02 a        38     0     2     1    13
  7.9772440335414169E-02 a        39     0     2     1    14
  1.6206930103781225E-01 a        40     0     2     1    15
  3.3796555309086332E-02 a        41     0     2     1    16
 -1.4309115241253692E-01 a        42     0     2     1    17
 -1.7148573211819149E-01 a        43     0     2     1    18
  2.0098919857843439E-01 a        44     0     2     1    19
  1.8103826960587793E-01 a        45     0     2     1    20
  1.9513987989648757E-01 a        46     0     2     1    21
 -1.6802621723960073E-02 a        47     0     2     1    22
  1.5204983899614966E-03 a        48     0     2     1    23
 -2.4726923674443682E-01 a        49     0     2     1    24
 -1.1446449454807218E-01 a        50     0     2     1    25
  2.1670609533044768E-01 a        51     0     3     1     1
  9.0181446881283614E-02 a        52     0     3     1     2
  1.1214933311493742E-01 a        53     0     3     1     3
 -2.4683089162477173E-01 a        54     0     3     1     4
  4.0109598695399269E-02 a        55     0     3     1     5
 -1.9881869751881470E-01 a        56     0     3     1     6
 -2.4103225826384120E-02 a        57     0     3     1     7
 -1.9489713831552249E-01 a        58     0     3     1     8
  1.1885553058013101E-01 a        59     0     3     1     9
  6.0096406430365498E-02 a        60     0     3     1    10
  4.5344417215800500E-02 a        61     0     3     1    11
 -1.2662958119073511E-01 a        62     0     3     1    12
  1.3652609973625277E-01 a        63     0     3     1    13
 -3.0134924917748568E-01 a        64     0     3     1    14
 -1.1778255662131831E-01 a        65     0     3     1    15
  1.0137480225276162E-01 a        66     0     3     1    16
 -1.0697494645411798E-01 a        67     0     3     1    17
  9.7815638316586420E-02 a        68     0     3     1    18
 -1.1932003996444280E-02 a        69     0     3     1    19
  6.0756119800179961E-02 a        70     0     3     1    20
 -1.1809886208365364E-01 a        71     0     3     1    21
 -4.6370758617697017E-02 a        72     0     3     1    22
 -4.8401428722971797E-02 a        73     0     3     1    23
 -2.7412761978487293E-01 a        74     0     3     1    24
 -3.6413526835988608E-01 a        75     0     3     1    25
 -1.2813873022687886E-01 a        76     0     4     1     1
 -1.8263296855918565E-01 a        77     0     4     1     2
 -1.1752316264863238E-01 a        78     0     4     1     3
  1.3660682088656166E-02 a        79     0     4     1     4
  1.9839025184068285E-01 a        80     0     4     1     5
 -2.2777840775346819E-01 a        81     0     4     1     6
 -1.8044942834746572E-01 a        82     0     4     1     7
  1.3159803269123987E-01 a        83     0     4     1     8
  1.9853231052772635E-01 a        84     0     4     1     9
 -4.4867644624460731E-02 a        85     0     4     1    10
 -2.2437839472567553E-01 a        86     0     4     1    11
  2.3467993496367001E-01 a        87     0     4     1    12
  7.5605819285914408E-02 a        88     0     4     1    13
  2.2165351027390567E-01 a        89     0     4     1    14
  4.4426768991766438E-02 a        90     0     4     1    15
 -2.2868549733094910E-02 a        91     0     4     1    16
 -2.4961775401224026E-01 a        92     0     4     1    17
 -1.7622105228574217E-01 a        93     0     4     1    18
 -1.9457357996645774E-02 a        94     0     4     1    19
  6.5704687242120058E-02 a        95     0     4     1    20
  2.5886509217400749E-01 a        96     0     4     1    21
 -1.4164497467048373E-01 a        97     0     4     1    22
 -5.0088813685537768E-02 a        98     0     4     1    23
 -9.4090776999615332E-03 a        99     0     4     1    24
 -4.5994567238842523E-04 a       100     0     4     1    25
 -2.9637174499668351E-01 a       101     0     5     1     1
  3.4478243657442009E-01 a       102     0     5     1     2
 -2.4630239867071760E-01 a       103     0     5     1     3
 -7.3932255434923072E-02 a       104     0     5     1     4
 -9.9212190360559280E-04 a       105     0     5     1     5
  2.4041239991065289E-01 a       106     0     5     1     6
 -5.4953947452102303E-02 a       107     0     5     1     7
 -1.6387663738935762E-01 a       108     0     5     1     8
 -1.9375410809085850E-01 a       109     0     5     1     9
 -1.5961338425088131E-01 a       110     0     5     1    10
  2.0524977291926322E-01 a       111     0     5     1    11
 -5.2850257136960961E-02 a       112     0     5     1    12
 -1.2455387332486642E-01 a       113     0     5     1    13
  1.8506695779261556E-01 a       114     0     5     1    14
  5.1618702407857715E-02 a       115     0     5     1    15
  4.4986884172526387E-02 a       116     0     5     1    16
  9.3455690043276723E-02 a       117     0     5     1    17
 -6.3312024231532771E-01 a       118     0     5     1    18
 -1.5012372310830896E-01 a       119     0     5     1    19
  1.1512039676574011E-01 a       120     0     5     1    20
 -2.2695873262903385E-01 a       121     0     5     1    21
 -6.4652817119555284E-02 a       122     0     5     1    22
 -8.0001352241693066E-02 a       123     0     5     1    23
  1.9806186529043010E-01 a       124     0     5     1    24
 -9.7938328391300983E-02 a       125     0     5     1    25
  2.5313717563836396E-01 a       126     0     6     1     1
 -3.0601625922374674E-02 a       127     0     6     1     2
 -6.7367730355874442E-02 a       128     0     6     1     3
  4.5695972579944975E-02 a       129     0     6     1     4
  8.0125158684283784E-02 a       130     0     6     1     5
  1.0237524124138023E-01 a       131     0     6     1     6
 -5.6263270956433201E-02 a       132     0     6     1     7
  2.4499579992080850E-01 a       133     0     6     1     8
 -1.0278271698222870E-01 a       134     0     6     1     9
 -1.3164701071037080E-01 a       135     0     6     1    10
 -1.9770098684027096E-01 a       136     0     6     1    11
  2.2386318519509513E-01 a       137     0     6     1    12
  1.6730364831772093E-01 a       138     0     6     1    13
  8.4225209093505310E-02 a       139     0     6     1    14
  9.3950037222842953E-02 a       140     0     6     1    15
 -1.6507812496103744E-01 a       141     0     6     1    16
  8.0308352219807713E-02 a       142     0     6     1    17
  1.6855440243011138E-01 a       143     0     6     1    18
 -1.9000414537036679E-02 a       144     0     6     1    19
 -2.2442161303362834E-01 a       145     0     6     1    20
 -1.5723646770745758E-01 a       146     0     6     1    21
 -2.3842098264723144E-01 a       147     0     6     1    22
  7.8032834450275354E-02 a       148     0     6     1    23
  7.6004663327548488E-02 a       149     0     6     1    24
  2.5733998643364636E-01 a       150     0     6     1    25
 -7.1694810723380770E-02 a       151     0     7     1     1
 -1.2340174738552474E-01 a       152     0     7     1     2
  1.1111824219645501E-01 a       153     0     7     1     3
 -4.6967643582708420E-02 a       154     0     7     1     4
 -6.8254101985057353E-02 a       155     0     7     1     5
  1.7595083686024346E-01 a       156     0     7     1     6
  1.4327710679321123E-01 a       157     0     7     1     7
  1.0060584990516794E-01 a       158     0     7     1     8
  2.8719613580148861E-02 a       159     0     7     1     9
 -1.1747418154280133E-02 a       160     0     7     1    10
  2.1798660911425932E-01 a       161     0     7     1    11
 -1.1569670032831583E-01 a       162     0     7     1    12
 -1.2441390807437244E-01 a       163     0     7     1    13
 -1.0226624413149857E-01 a       164     0     7     1    14
 -3.9688884132335088E-02 a       165     0     7     1    15
 -2.2256727367401449E-01 a       166     0     7     1    16
  2.6741720226531129E-01 a       167     0     7     1    17
 -6.8095372553935149E-02 a       168     0     7     1    18
 -4.1126810377637379E-02 a       169     0     7     1    19
 -2.3594503261866226E-01 a       170     0     7     1    20
 -1.8531777038980143E-01 a       171     0     7     1    21
  2.3099180054792207E-01 a       172     0     7     1    22
 -3.1537823564504817E-02 a       173     0     7     1    23
 -2.5192557108477898E-01 a       174     0     7     1    24
 -6.2481025036268623E-02 a       175     0     7     1    25
 -7.4590359018780292E-02 a       176     0     8     1     1
  2.6449516330023304E-01 a       177     0     8     1     2
  2.0666150449405332E-01 a       178     0     8     1     3
  2.9570273929527036E-01 a       179     0     8     1     4
 -1.9329424141792298E-01 a       180     0     8     1     5
  1.2572544682330772E-01 a       181     0     8     1     6
  3.0152674204996910E-01 a       182     0     8     1     7
  2.8741636710200871E-02 a       183     0     8     1     8
 -2.1236725058146333E-01 a       184     0     8     1     9
 -9.2470003505060096E-03 a       185     0     8     1    10
 -7.1988792309149896E-02 a       186     0     8     1    11
 -1.5822717169211623E-01 a       187     0     8     1    12
 -6.7086411117003628E-02 a       188     0     8     1    13
 -2.3808460369634277E-01 a       189     0     8     1    14
 -6.0081110839088521E-02 a       190     0     8     1    15
 -1.5134966721848028E-01 a       191     0     8     1    16
  2.5915185487592635E-01 a       192     0     8     1    17
  2.6726612690169116E-01 a       193     0     8     1    18
 -3.5305953765271424E-02 a       194     0     8     1    19
 -1.2231377656147488E-01 a       195     0     8     1    20
  1.1354670584628025E-01 a       196     0     8     1    21
  1.8114099011577317E-01 a       197     0     8     1    22
 -5.7503205500997870E-02 a       198     0     8     1    23
  7.7073763978321844E-02 a       199     0     8     1    24
  8.1672750881359559E-04 a       200     0     8     1    25
  6.9605130414823302E-02 a       201     0     9     1     1
  3.4846333154332476E-01 a       202     0     9     1     2
 -1.8538039244356666E-01 a       203     0     9     1     3
  1.8144116600891626E-02 a       204     0     9     1     4
 -1.0938476452058969E-01 a       205     0     9     1     5
 -1.0927084704876293E-01 a       206     0     9     1     6
  2.8987692357059912E-02 a       207     0     9     1     7
 -2.2881625813683440E-01 a       208     0     9     1     8
  1.7331445681947552E-01 a       209     0     9     1     9
 -3.6981948554119667E-02 a       210     0     9     1    10
  2.2936047844886082E-01 a       211     0     9     1    11
 -2.2039691220161473E-02 a       212     0     9     1    12
  9.6302503780726995E-02 a       213     0     9     1    13
  2.7742566355243897E-01 a       214     0     9     1    14
 -4.3877752265210498E-02 a       215     0     9     1    15
  2.4235088206114969E-01 a       216     0     9     1    16
 -8.7802021625642074E-02 a       217     0     9     1    17
 -1.5812326270964686E-01 a       218     0     9     1    18
 -2.9132598283984362E-01 a       219     0     9     1    19
 -2.3396622762038272E-02 a       220     0     9     1    20
 -4.8791054847384252E-01 a       221     0     9     1    21
  1.2056130415304626E-01 a       222     0     9     1    22
 -1.8459963553585176E-01 a       223     0     9     1    23
  3.4187753304935786E-01 a       224     0     9     1    24
  2.4425857995020017E-01 a       225     0     9     1    25
  1.3555646780477773E-01 a       226     0    10     1     1
  2.9534117126757145E-02 a       227     0    10     1     2
  1.2588699045448223E-01 a       228     0    10     1     3
 -2.0677723964072325E-01 a       229     0    10     1     4
  3.1418858816373560E-02 a       230     0    10     1     5
 -6.3856886968702824E-03 a       231     0    10     1     6
 -1.5788904630827182E-02 a       232     0    10     1     7
  9.4392924861807004E-02 a       233     0    10     1     8
  9.4052693415450819E-02 a       234     0    10     1     9
  1.3465790896692503E-01 a       235     0    10     1    10
  6.9229385645592334E-02 a       236     0    10     1    11
 -2.6582563530485746E-02 a       237     0    10     1    12
 -8.9895645135350741E-02 a       238     0    10     1    13
 -7.6809485957857596E-02 a       239     0    10     1    14
 -1.5226213514858533E-01 a       240     0    10     1    15
  1.3854400512359619E-01 a       241     0    10     1    16
  1.9505801355767450E-02 a       242     0    10     1    17
  2.7994365188747372E-01 a       243     0    10     1    18
 -1.5640270242057180E-01 a       244     0    10     1    19
 -1.2373702062323336E-01 a       245     0    10     1    20
  7.4918851918685539E-02 a       246     0    10     1    21
  5.5010155767429868E-02 a       247     0    10     1    22
 -1.9641937943450041E-01 a       248     0    10     1    23
  5.8834724048862468E-02 a       249     0    10     1    24
 -1.9880720703621360E-01 a       250     0    10     1    25
 -2.2412895833333457E-01 a       251     0    11     1     1
  2.3613722045216415E-01 a       252     0    11     1     2
 -4.2032958056295436E-02 a       253     0    11     1     3
 -1.4976306640924189E-01 a       254     0    11     1     4
  1.5156348509288556E-01 a       255     0    11     1     5
  1.0289559537464468E-01 a       256     0    11     1     6
  4.6684164589442190E-02 a       257     0    11     1     7
 -1.5994645752129819E-02 a       258     0    11     1     8
 -1.0731698908372850E-01 a       259     0    11     1     9
  2.5721940112550860E-02 a       260     0    11     1    10
  2.7508836524233631E-02 a       261     0    11     1    11
 -2.0781770977482003E-01 a       262     0    11     1    12
 -5.4014291070722795E-02 a       263     0    11     1    13
  1.2055357958128539E-01 a       264     0    11     1    14
  1.6763643520354043E-01 a       265     0    11     1    15
  3.3697342803045549E-01 a       266     0    11     1    16
 -2.5750270195296916E-02 a       267     0    11     1    17
 -1.6004325272254552E-01 a       268     0    11     1    18
 -8.8674498272645150E-03 a       269     0    11     1    19
  2.2541370151253001E-02 a       270     0    11     1    20
  1.2613932928546040E-01 a       271     0    11     1    21
 -6.2566257672138123E-02 a       272     0    11     1    22
  1.1565792793961659E-01 a       273     0    11     1    23
  1.3707364729660962E-01 a       274     0    11     1    24
 -9.6777374220097401E-03 a       275     0    11     1    25
  9.2368432756499405E-02 a       276     0    12     1     1
 -2.1787828729007197E-01 a       277     0    12     1     2
 -1.3149832582294943E-01 a       278     0    12     1     3
  3.1511649284138310E-04 a       279     0    12     1     4
  1.0633849755491373E-01 a       280     0    12     1     5
  1.5986758369057833E-02 a       281     0    12     1     6
 -1.0922432019905354E-01 a       282     0    12     1     7
 -5.9448255960927218E-02 a       283     0    12     1     8
  1.7816481343928869E-01 a       284     0    12     1     9
  5.4480316109093437E-02 a       285     0    12     1    10
  2.6404070692739984E-01 a       286     0    12     1    11
  2.3414752188311100E-01 a       287     0    12     1    12
 -7.7133917253242326E-02 a       288     0    12     1    13
 -6.1741596756243466E-02 a       289     0    12     1    14
  4.8324585455301730E-02 a       290     0    12     1    15
  1.7083232810110033E-01 a       291     0    12     1    16
 -1.5214901282522778E-01 a       292     0    12     1    17
 -1.6758912628882228E-01 a       293     0    12     1    18
  2.3920202096237450E-02 a       294     0    12     1    19
  1.2240647491869653E-02 a       295     0    12     1    20
  2.7327393945229816E-01 a       296     0    12     1    21
 -5.0023320919288961E-02 a       297     0    12     1    22
  2.3257044326738741E-02 a       298     0    12     1    23
 -8.7766986933864644E-02 a       299     0    12     1    24
 -2.0905025668797744E-01 a       300     0    12     1    25
 -3.6422047151888237E-01 a       301     0    13     1     1
  4.6957613430106659E-01 a       302     0    13     1     2
 -3.5873715868331428E-02 a       303     0    13     1     3
  4.0819706277567328E-02 a       304     0    13     1     4
  2.7104389938525797E-01 a       305     0    13     1     5
  1.2071787001329755E-01 a       306     0    13     1     6
 -3.1141599233170214E-01 a       307     0    13     1     7
 -1.8660250280261040E-01 a       308     0    13     1     8
 -3.5015990497434646E-02 a       309     0    13     1     9
 -2.0057207876305161E-01 a       310     0    13     1    10
 -1.1571176975111140E-01 a       311     0    13     1    11
  8.5123116813038663E-02 a       312     0    13     1    12
 -5.1085015918282117E-01 a       313     0    13     1    13
  5.4184564975539273E-01 a       314     0    13     1    14
 -5.9011186819042792E-02 a       315     0    13     1    15
 -3.2754401137497197E-01 a       316     0    13     1    16
 -1.9386499603168999E-02 a       317     0    13     1    17
 -3.6488467970741950E-01 a       318     0    13     1    18
 -2.4137544164994762E-01 a       319     0    13     1    19
 -2.1524566786859059E-01 a       320     0    13     1    20
 -1.7453456152752178E-01 a       321     0    13     1    21
  1.7483158732431112E-01 a       322     0    13     1    22
 -3.0294730744812154E-01 a       323     0    13     1    23
 -2.0221546853097175E-01 a       324     0    13     1    24
 -2.0340471891386888E-01 a       325     0    13     1    25
  1.3066603166322828E-02 a       326     0    14     1     1
 -9.4838419869995902E-02 a       327     0    14     1     2
  1.0704816929963841E-02 a       328     0    14     1     3
  1.1137814406966652E-01 a       329     0    14     1     4
 -1.5035958791925192E-02 a       330     0    14     1     5
 -3.9559937993410443E-01 a       331     0    14     1     6
  1.4891086501121598E-01 a       332     0    14     1     7
  1.1112522741957587E-01 a       333     0    14     1     8
  6.2917579272279811E-02 a       334     0    14     1     9
  1.9715092145749441E-01 a       335     0    14     1    10
 -8.5961909393214228E-02 a       336     0    14     1    11
  3.2471849626889271E-01 a       337     0    14     1    12
 -1.0450021883185606E-01 a       338     0    14     1    13
 -4.8330282625059548E-02 a       339     0    14     1    14
  1.8902610501322492E-01 a       340     0    14     1    15
  6.7515883879972038E-02 a       341     0    14     1    16
 -9.9111057598239211E-02 a       342     0    14     1    17
 -3.5253837142863072E-02 a       343     0    14     1    18
 -1.8531954444255299E-02 a       344     0    14     1    19
 -7.3459115252796359E-02 a       345     0    14     1    20
  1.9012061457291018E-02 a       346     0    14     1    21
 -1.2133816748900145E-01 a       347     0    14     1    22
  1.0671905619430229E-01 a       348     0    14     1    23
  9.6273737223692927E-03 a       349     0    14     1    24
 -8.7023871274403836E-02 a       350     0    14     1    25
 -9.6476098621103325E-03 a       351     0    15     1     1
  8.2261298203343811E-02 a       352     0    15     1     2
 -2.1460366598782119E-02 a       353     0    15     1     3
  1.9674479939840398E-03 a       354     0    15     1     4
 -5.3915031511069932E-02 a       355     0    15     1     5
 -3.3311770105097382E-01 a       356     0    15     1     6
 -6.4463624281047580E-03 a       357     0    15     1     7
 -3.3828036809569667E-01 a       358     0    15     1     8
  1.3015375319318923E-01 a       359     0    15     1     9
 -6.5436939220543430E-02 a       360     0    15     1    10
 -7.3390864961105362E-02 a       361     0    15     1    11
 -1.2749957516006563E-01 a       362     0    15     1    12
 -2.2317688712140840E-01 a       363     0    15     1    13
  2.3259150624625019E-01 a       364     0    15     1    14
 -2.5027651183818583E-01 a       365     0    15     1    15
  3.0999367482659368E-01 a       366     0    15     1    16
 -4.3633930963831863E-02 a       367     0    15     1    17
 -1.5392705510809912E-01 a       368     0    15     1    18
 -1.9021065716401439E-01 a       369     0    15     1    19
  1.6789253213491728E-01 a       370     0    15     1    20
 -2.3256933675484873E-02 a       371     0    15     1    21
  9.6847730039236871E-02 a       372     0    15     1    22
  3.8312235399225687E-02 a       373     0    15     1    23
 -1.7284968100245049E-01 a       374     0    15     1    24
  1.6623042251914424E-01 a       375     0    15     1    25
 -8.6478661548993548E-04 a       376     0    16     1     1
 -1.1387463004911563E-01 a       377     0    16     1     2
  5.1193860263826753E-02 a       378     0    16     1     3
 -4.2789309555783799E-02 a       379     0    16     1     4
 -2.6624942130623186E-01 a       380     0    16     1     5
 -8.9924492913011550E-02 a       381     0    16     1     6
 -1.6296426513221798E-01 a       382     0    16     1     7
 -2.5581933501897020E-01 a       383     0    16     1     8
 -2.0566758042965944E-01 a       384     0    16     1     9
 -1.3725436460141910E-02 a       385     0    16     1    10
  1.3804905650051116E-01 a       386     0    16     1    11
 -2.8461845507493777E-01 a       387     0    16     1    12
  1.6305300409388884E-01 a       388     0    16     1    13
 -1.1528581037570454E-01 a       389     0    16     1    14
 -1.3918497294544482E-01 a       390     0    16     1    15
 -1.2592038907131911E-01 a       391     0    16     1    16
 -2.4404834567981700E-02 a       392     0    16     1    17
  2.1879290743400415E-01 a       393     0    16     1    18
  2.2477899255973464E-02 a       394     0    16     1    19
  3.3277044244685937E-02 a       395     0    16     1    20
  1.8836778823247299E-01 a       396     0    16     1    21
 -1.8515144933216741E-02 a       397     0    16     1    22
  1.2681936418252956E-01 a       398     0    16     1    23
 -6.5703678434224783E-02 a       399     0    16     1    24
 -9.5069570807751400E-02 a       400     0    16     1    25
  1.5609922081687256E-02 a       401     0    17     1     1
  3.2257392988034506E-01 a       402     0    17     1     2
 -1.1898981369371783E-01 a       403     0    17     1     3
 -3.2131662194633653E-01 a       404     0    17     1     4
 -5.3956212554801063E-02 a       405     0    17     1     5
  2.5044907721114257E-02 a       406     0    17     1     6
 -1.8496475536460552E-01 a       407     0    17     1     7
 -1.9380800552904640E-01 a       408     0    17     1     8
  7.8932207426077955E-02 a       409     0    17     1     9
  1.4334524433374636E-02 a       410     0    17     1    10
 -2.1771513900187076E-01 a       411     0    17     1    11
  1.6018295865252774E-01 a       412     0    17     1    12
 -2.0487592252336212E-01 a       413     0    17     1    13
  6.0675091123694802E-01 a       414     0    17     1    14
  1.3662201287042655E-01 a       415     0    17     1    15
  1.1742048327119060E-01 a       416     0    17     1    16
  1.2147914186020330E-01 a       417     0    17     1    17
 -6.9821044715181979E-01 a       418     0    17     1    18
  1.5559484877642556E-02 a       419     0    17     1    19
  1.1016499744935070E-01 a       420     0    17     1    20
  2.3863825365730457E-01 a       421     0    17     1    21
 -1.2255597139664795E-01 a       422     0    17     1    22
 -1.8808087033163834E-01 a       423     0    17     1    23
 -3.3813484664483512E-01 a       424     0    17     1    24
 -1.9270771093754008E-01 a       425     0    17     1    25
 -4.9096146966519802E-02 a       426     0    18     1     1
  1.3015711473173960E-01 a       427     0    18     1     2
 -1.3797305004463759E-01 a       428     0    18     1     3
  2.4938001741886914E-01 a       429     0    18     1     4
 -1.2109615374846733E-01 a       430     0    18     1     5
  9.5968277827210326E-03 a       431     0    18     1     6
 -1.2777626229647782E-01 a       432     0    18     1     7
  2.1013675872112828E-01 a       433     0    18     1     8
 -2.2418022041819818E-01 a       434     0    18     1     9
 -1.6455236473262094E-01 a       435     0    18     1    10
 -1.6601598944907928E-01 a       436     0    18     1    11
 -6.5319975509820410E-02 a       437     0    18     1    12
  2.3907124079627490E-01 a       438     0    18     1    13
 -3.4525011116817600E-01 a       439     0    18     1    14
  1.6973704527974956E-01 a       440     0    18     1    15
 -5.1662175754897247E-02 a       441     0    18     1    16
 -2.3949368507209035E-01 a       442     0    18     1    17
 -3.9977801630309492E-02 a       443     0    18     1    18
  2.6937309260016758E-02 a       444     0    18     1    19
  4.0053808726910516E-03 a       445     0    18     1    20
  2.4977066826739255E-01 a       446     0    18     1    21
 -3.6109419127296177E-01 a       447     0    18     1    22
  2.5648971283878114E-01 a       448     0    18     1    23
  3.7095235620743811E-01 a       449     0    18     1    24
 -6.4376489943927473E-02 a       450     0    18     1    25
 -2.1832662335261485E-01 a       451     0    19     1     1
  2.9391758404961693E-01 a       452     0    19     1     2
 -9.5290631330198924E-02 a       453     0    19     1     3
  5.2177079059729764E-02 a       454     0    19     1     4
 -9.9027675886249555E-02 a       455     0    19     1     5
  2.9671260079014609E-02 a       456     0    19     1     6
  5.9563156461921781E-03 a       457     0    19     1     7
 -3.9470459036049935E-03 a       458     0    19     1     8
  1.6860058930903302E-01 a       459     0    19     1     9
 -1.1134123286365825E-01 a       460     0    19     1    10
 -2.4003968659455427E-01 a       461     0    19     1    11
 -4.2604326942232061E-02 a       462     0    19     1    12
 -2.0035158315405827E-01 a       463     0    19     1    13
  4.2912723148247872E-01 a       464     0    19     1    14
  1.6272445408244676E-01 a       465     0    19     1    15
 -8.7782687923644978E-02 a       466     0    19     1    16
  3.5438943619514629E-01 a       467     0    19     1    17
 -3.0986871087717704E-01 a       468     0    19     1    18
 -9.9103790221440630E-03 a       469     0    19     1    19
  6.5059009700252912E-02 a       470     0    19     1    20
  1.9451976685209288E-01 a       471     0    19     1    21
  1.2531938748097574E-01 a       472     0    19     1    22
 -5.6496608946003488E-02 a       473     0    19     1    23
 -2.1525557243471805E-01 a       474     0    19     1    24
  2.5486048054136838E-02 a       475     0    19     1    25
  2.5237332042803878E-01 a       476     0    20     1     1
  1.2960249748506469E-01 a       477     0    20     1     2
  4.5384882295386147E-02 a       478     0    20     1     3
 -1.3326275775036356E-01 a       479     0    20     1     4
  6.2613373756578980E-02 a       480     0    20     1     5
  1.7689284981637560E-01 a       481     0    20     1     6
  2.4480011198864043E-02 a       482     0    20     1     7
  1.8391320875681683E-01 a       483     0    20     1     8
  2.4460030312980979E-01 a       484     0    20     1     9
 -1.8716279761630419E-01 a       485     0    20     1    10
 -9.1430797205588429E-02 a       486     0    20     1    11
  1.8683765889255043E-02 a       487     0    20     1    12
  3.8780059862265143E-01 a       488     0    20     1    13
 -1.0964151497427589E-01 a       489     0    20     1    14
  1.5305379338533473E-01 a       490     0    20     1    15
  1.4865024108596336E-01 a       491     0    20     1    16
  7.1808101777343031E-03 a       492     0    20     1    17
 -1.4393190932069930E-01 a       493     0    20     1    18
 -3.8033529728039209E-02 a       494     0    20     1    19
 -1.3652580575822379E-01 a       495     0    20     1    20
 -3.2523725962287131E-01 a       496     0    20     1    21
 -4.8652120814021829E-02 a       497     0    20     1    22
  2.6143062021435421E-02 a       498     0    20     1    23
 -3.3127987884046119E-02 a       499     0    20     1    24
  7.7654526411294375E-02 a       500     0    20     1    25
 -2.9806531419907870E-02 a       501     0    21     1     1
 -1.1799440264277695E-02 a       502     0    21     1     2
 -7.2784082980001871E-02 a       503     0    21     1     3
  1.7863923533841027E-02 a       504     0    21     1     4
  1.4574127355672567E-01 a       505     0    21     1     5
 -7.9426975771972594E-02 a       506     0    21     1     6
 -5.0999228752911713E-02 a       507     0    21     1     7
 -9.8370039361511622E-03 a       508     0    21     1     8
  1.2787566975102405E-01 a       509     0    21     1     9
 -2.3338910457434373E-01 a       510     0    21     1    10
  1.7046597759919718E-02 a       511     0    21     1    11
 -1.8301268377638708E-01 a       512     0    21     1    12
 -2.5276218880634793E-01 a       513     0    21     1    13
  3.1049784528737558E-02 a       514     0    21     1    14
 -6.9086834287673829E-02 a       515     0    21     1    15
  2.6515050165648679E-01 a       516     0    21     1    16
  5.0573061704924503E-02 a       517     0    21     1    17
  1.4785733968981621E-01 a       518     0    21     1    18
 -2.4606332816143534E-01 a       519     0    21     1    19
  2.7777290582096003E-02 a       520     0    21     1    20
 -1.4608719563529250E-02 a       521     0    21     1    21
  1.1583455569606463E-01 a       522     0    21     1    22
  7.8013164776435218E-02 a       523     0    21     1    23
 -1.4648802716847906E-01 a       524     0    21     1    24
  4.2466797955685299E-04 a       525     0    21     1    25
  3.2856060317426061E-01 a       526     0    22     1     1
 -2.1868205852824057E-01 a       527     0    22     1     2
  1.8902015361344310E-01 a       528     0    22     1     3
  1.3225273283893396E-01 a       529     0    22     1     4
 -7.0133494509703451E-02 a       530     0    22     1     5
  3.2282324875497931E-01 a       531     0    22     1     6
  2.0804430082525738E-01 a       532     0    22     1     7
  1.0856858494444199E-01 a       533     0    22     1     8
  1.5256920565526033E-01 a       534     0    22     1     9
 -1.2618594737654718E-01 a       535     0    22     1    10
  2.3759431984075426E-02 a       536     0    22     1    11
  1.1862251684999398E-01 a       537     0    22     1    12
  1.0803807999546113E-01 a       538     0    22     1    13
 -1.5456233381165208E-01 a       539     0    22     1    14
  1.2580394161891393E-02 a       540     0    22     1    15
  3.0032957878760654E-02 a       541     0    22     1    16
 -2.1666943940765512E-01 a       542     0    22     1    17
  2.5381034475466063E-01 a       543     0    22     1    18
  1.3481890322818557E-01 a       544     0    22     1    19
 -2.1929141279472331E-01 a       545     0    22     1    20
 -1.5380096842659849E-01 a       546     0    22     1    21
 -4.8939576758439338E-02 a       547     0    22     1    22
 -2.2947648671884738E-01 a       548     0    22     1    23
  1.7125359780399413E-01 a       549     0    22     1    24
  1.8082835713797707E-01 a       550     0    22     1    25
  4.3283621532261243E-02 a       551     0    23     1     1
  1.7509573691856670E-01 a       552     0    23     1     2
 -1.9864657718784945E-01 a       553     0    23     1     3
 -2.4637289858340727E-01 a       554     0    23     1     4
  1.1137524993623876E-01 a       555     0    23     1     5
  7.7809507559730734E-02 a       556     0    23     1     6
  1.6887311415877776E-01 a       557     0    23     1     7
 -1.8782756388388100E-01 a       558     0    23     1     8
  1.0579603898610918E-01 a       559     0    23     1     9
  6.6418565795503454E-02 a       560     0    23     1    10
 -2.8091758653353959E-03 a       561     0    23     1    11
 -3.6157724909130766E-02 a       562     0    23     1    12
 -3.3550085207033881E-01 a       563     0    23     1    13
  5.3600007862614341E-01 a       564     0    23     1    14
  1.4401231869064171E-01 a       565     0    23     1    15
 -5.4221570311130687E-02 a       566     0    23     1    16
  2.2315142345976224E-01 a       567     0    23     1    17
 -4.5457302324752064E-01 a       568     0    23     1    18
  3.6161251089264761E-02 a       569     0    23     1    19
 -1.5366405299468591E-01 a       570     0    23     1    20
  7.9391770893138702E-02 a       571     0    23     1    21
  4.3427371155484118E-02 a       572     0    23     1    22
 -5.7438656942582489E-02 a       573     0    23     1    23
 -3.4785591756979389E-01 a       574     0    23     1    24
 -7.8126062589141954E-02 a       575     0    23     1    25
 -4.3060100411616585E-02 a       576     0    24     1     1
 -2.4112743888905758E-01 a       577     0    24     1     2
 -1.7893551869780835E-01 a       578     0    24     1     3
 -4.1670000923564793E-02 a       579     0    24     1     4
 -1.0765067102288822E-01 a       580     0    24     1     5
  1.7045787112323879E-01 a       581     0    24     1     6
  1.1717529726169862E-01 a       582     0    24     1     7
 -1.9678741451960707E-01 a       583     0    24     1     8
  1.2199713669436332E-01 a       584     0    24     1     9
 -1.4442919503130108E-01 a       585     0    24     1    10
  1.8629366331194011E-01 a       586     0    24     1    11
 -1.2445963874234879E-01 a       587     0    24     1    12
  8.7126341396369975E-02 a       588     0    24     1    13
 -4.5456716743672645E-02 a       589     0    24     1    14
 -5.9840388520236910E-02 a       590     0    24     1    15
  2.2963243217713633E-01 a       591     0    24     1    16
 -3.8972529045345409E-04 a       592     0    24     1    17
  1.8009866322907153E-01 a       593     0    24     1    18
 -1.2782663775675232E-01 a       594     0    24     1    19
  3.0977281219264224E-01 a       595     0    24     1    20
 -2.4408442569825084E-01 a       596     0    24     1    21
 -2.1083063984490624E-01 a       597     0    24     1    22
 -2.6286294838643282E-01 a       598     0    24     1    23
  1.7739503654379216E-01 a       599     0    24     1    24
 -9.7407277353193503E-02 a       600     0    24     1    25
 -2.5929497294300619E-01 a       601     0    25     1     1
  1.7637752198516854E-01 a       602     0    25     1     2
 -1.3192537773948085E-01 a       603     0    25     1     3
 -3.1222703144373681E-01 a       604     0    25     1     4
  2.0972511764984627E-02 a       605     0    25     1     5
  1.3694482124564086E-01 a       606     0    25     1     6
 -5.6970271623979447E-02 a       607     0    25     1     7
  9.0249627721155731E-02 a       608     0    25     1     8
 -8.2429004151202356E-02 a       609     0    25     1     9
 -9.0121700363193100E-02 a       610     0    25     1    10
 -1.6628626042239800E-01 a       611     0    25     1    11
 -6.0115355213937800E-02 a       612     0    25     1    12
 -3.7044258958713538E-01 a       613     0    25     1    13
  3.9433907813644692E-01 a       614     0    25     1    14
  1.0811976812251199E-01 a       615     0    25     1    15
 -2.2860317404022881E-01 a       616     0    25     1    16
  7.4783680923763321E-02 a       617     0    25     1    17
 -3.0346858755761535E-01 a       618     0    25     1    18
 -3.3670140048748270E-02 a       619     0    25     1    19
  1.7819486326449549E-01 a       620     0    25     1    20
  8.2502534262995988E-02 a       621     0    25     1    21
 -1.2628959480041552E-01 a       622     0    25     1    22
 -3.5538514242888064E-02 a       623     0    25     1    23
 -2.2747717079684926E-01 a       624     0    25     1    24
 -1.4010445361280116E-01 a       625     0    25     1    25
 -1.4216619272895781E-01 a       626     0    26     1     1
  3.8681583465944504E-02 a       627     0    26     1     2
 -2.6098792545934515E-02 a       628     0    26     1     3
  2.4587307239019064E-02 a       629     0    26     1     4
  7.2815623893522502E-02 a       630     0    26     1     5
 -8.5229053926521289E-02 a       631     0    26     1     6
 -4.7201843749751782E-02 a       632     0    26     1     7
 -4.6572452201130779E-02 a       633     0    26     1     8
 -1.6941439809749229E-01 a       634     0    26     1     9
  1.0444212992152591E-01 a       635     0    26     1    10
 -6.8078753759286265E-02 a       636     0    26     1    11
 -7.0004089237090547E-02 a       637     0    26     1    12
  1.0540182672997572E-01 a       638     0    26     1    13
 -2.8536219212597075E-01 a       639     0    26     1    14
  1.1260776866918856E-01 a       640     0    26     1    15
  9.4587815144506968E-03 a       641     0    26     1    16
 -1.4948535213537218E-02 a       642     0    26     1    17
 -1.6213665748102592E-02 a       643     0    26     1    18
 -1.5632442411700684E-01 a       644     0    26     1    19
  7.7573196419723711E-02 a       645     0    26     1    20
 -2.2639922165887771E-01 a       646     0    26     1    21
 -6.1865851000141525E-02 a       647     0    26     1    22
  1.2324326321609673E-02 a       648     0    26     1    23
  2.9694104029028534E-01 a       649     0    26     1    24
 -9.0237637300902129E-03 a       650     0    26     1    25
 -1.0979330843894565E-01 a       651     0    27     1     1
 -1.0560942638036333E-01 a       652     0    27     1     2
  1.0366921008808799E-02 a       653     0    27     1     3
  1.1926766184556262E-01 a       654     0    27     1     4
 -1.1730645104004067E-01 a       655     0    27     1     5
  1.1052112776759418E-01 a       656     0    27     1     6
  1.8379117583688553E-01 a       657     0    27     1     7
  1.3328747010506928E-01 a       658     0    27     1     8
 -8.0032245525696877E-02 a       659     0    27     1     9
 -2.0916237816408711E-01 a       660     0    27     1    10
 -8.6180929676966486E-02 a       661     0    27     1    11
  8.5084646253881430E-02 a       662     0    27     1    12
 -3.2681205616760606E-02 a       663     0    27     1    13
  1.5018393938631705E-01 a       664     0    27     1    14
 -5.6379717281498766E-03 a       665     0    27     1    15
 -2.9341756086875725E-01 a       666     0    27     1    16
  9.2150018571565739E-02 a       667     0    27     1    17
 -5.7942407332654822E-02 a       668     0    27     1    18
 -2.9650866974748172E-02 a       669     0    27     1    19
  9.9508014776221246E-02 a       670     0    27     1    20
 -1.8334844679972519E-02 a       671     0    27     1    21
 -9.3209367546940869E-02 a       672     0    27     1    22
 -5.3097186981277009E-02 a       673     0    27     1    23
 -8.3345682677101990E-02 a       674     0    27     1    24
  6.5189155795065401E-02 a       675     0    27     1    25
 -1.6192138985963686E-01 a       676     0    28     1     1
  1.3979081356463560E-01 a       677     0    28     1     2
  7.2433927424045919E-02 a       678     0    28     1     3
  3.2166387733996535E-02 a       679     0    28     1     4
 -5.2472969650828601E-02 a       680     0    28     1     5
 -1.4949921480954209E-01 a       681     0    28     1     6
  1.5655430307761595E-01 a       682     0    28     1     7
  1.6651990744726941E-01 a       683     0    28     1     8
 -2.0698668829695213E-01 a       684     0    28     1     9
  4.3340520469477718E-03 a       685     0    28     1    10
 -1.0507738120010965E-01 a       686     0    28     1    11
  1.0054397108117731E-01 a       687     0    28     1    12
  5.1829186908429407E-02 a       688     0    28     1    13
 -1.8302633119752959E-01 a       689     0    28     1    14
 -1.1007583003994727E-01 a       690     0    28     1    15
  1.8860738410219982E-01 a       691     0    28     1    16
 -8.6646654698255512E-02 a       692     0    28     1    17
  7.3657370453755547E-02 a       693     0    28     1    18
 -5.3640549903593293E-02 a       694     0    28     1    19
  1.0062658431379210E-02 a       695     0    28     1    20
  2.7377949404773072E-01 a       696     0    28     1    21
  2.2550063361585002E-01 a       697     0    28     1    22
  2.0119666315331713E-01 a       698     0    28     1    23
  3.4239110376901477E-01 a       699     0    28     1    24
 -1.8744973075218302E-01 a       700     0    28     1    25
 -3.2119146229519183E-02 a       701     0    29     1     1
 -1.3382264307981129E-01 a       702     0    29     1     2
  3.5634696755673385E-02 a       703     0    29     1     3
  7.8459679054122239E-02 a       704     0    29     1     4
 -4.6459076573854265E-02 a       705     0    29     1     5
  1.4249793757866885E-01 a       706     0    29     1     6
  9.3062983827930879E-02 a       707     0    29     1     7
 -2.8917861571344641E-02 a       708     0    29     1     8
 -1.1834906580638896E-01 a       709     0    29     1     9
 -1.9388625119019345E-01 a       710     0    29     1    10
  1.8831150197414437E-01 a       711     0    29     1    11
 -1.7248715919136223E-01 a       712     0    29     1    12
 -6.1711071797324914E-05 a       713     0    29     1    13
 -3.2027393736068492E-02 a       714     0    29     1    14
  3.3213269109221327E-03 a       715     0    29     1    15
 -1.3861932717420339E-01 a       716     0    29     1    16
  2.1738733304417202E-01 a       717     0    29     1    17
 -4.2709270900958711E-02 a       718     0    29     1    18
  2.6920806571774352E-02 a       719     0    29     1    19
 -3.1400209354948014E-02 a       720     0    29     1    20
 -9.7041037417569351E-02 a       721     0    29     1    21
 -1.2080980746133203E-01 a       722     0    29     1    22
 -1.3653728934065487E-01 a       723     0    29     1    23
 -3.4426768435031833E-02 a       724     0    29     1    24
  2.6654010806941303E-01 a       725     0    29     1    25
  8.4752551477487933E-02 a       726     0    30     1     1
 -1.7942852504347863E-03 a       727     0    30     1     2
  2.2582050025421041E-01 a       728     0    30     1     3
  7.4813748377977038E-02 a       729     0    30     1     4
 -4.4521851489341166E-02 a       730     0    30     1     5
 -1.8571785555585957E-01 a       731     0    30     1     6
 -1.4135871531399757E-01 a       732     0    30     1     7
  1.4552864523822526E-01 a       733     0    30     1     8
  1.7609690706042680E-01 a       734     0    30     1     9
 -1.1337031280282106E-01 a       735     0    30     1    10
 -4.8249673203482384E-02 a       736     0    30     1    11
  1.0790069558580868E-01 a       737     0    30     1    12
  3.2973571121457483E-02 a       738     0    30     1    13
 -2.1531207075244582E-01 a       739     0    30     1    14
 -1.2535537597432936E-02 a       740     0    30     1    15
  1.2727189307644463E-01 a       741     0    30     1    16
 -3.9269205002374880E-01 a       742     0    30     1    17
  2.8052380191918236E-01 a       743     0    30     1    18
  1.0152742472801868E-01 a       744     0    30     1    19
 -6.8484607567531247E-02 a       745     0    30     1    20
  5.2844378792741738E-02 a       746     0    30     1    21
  7.8160355032505582E-02 a       747     0    30     1    22
  1.9892972168338338E-01 a       748     0    30     1    23
  1.8294963670502570E-01 a       749     0    30     1    24
  1.5714986286470986E-01 a       750     0    30     1    25
  5.2653270476005272E-02 a       751     0    31     1     1
  1.4847698772698381E-01 a       752     0    31     1     2
 -2.0923348101396569E-01 a       753     0    31     1     3
 -2.7770185469514843E-02 a       754     0    31     1     4
  9.2169021323546804E-02 a       755     0    31     1     5
  1.6999630790012321E-01 a       756     0    31     1     6
  7.6631081909681060E-03 a       757     0    31     1     7
  9.0900481973931416E-03 a       758     0    31     1     8
  1.0306515374839975E-01 a       759     0    31     1     9
  1.3809613552570522E-02 a       760     0    31     1    10
 -6.1188409679764034E-03 a       761     0    31     1    11
 -7.3066508870321706E-02 a       762     0    31     1    12
 -2.1864626964477182E-01 a       763     0    31     1    13
  4.8655714778424140E-02 a       764     0    31     1    14
  7.1918067419134701E-02 a       765     0    31     1    15
 -8.2158667040248504E-02 a       766     0    31     1    16
  5.4618730297038690E-02 a       767     0    31     1    17
 -9.5467834934123960E-02 a       768     0    31     1    18
  1.3410338249942954E-02 a       769     0    31     1    19
 -6.2782730104887108E-02 a       770     0    31     1    20
  5.9106849656174895E-02 a       771     0    31     1    21
  7.5494991959732957E-02 a       772     0    31     1    22
 -4.8810117474681440E-02 a       773     0    31     1    23
 -1.6802273715308964E-02 a       774     0    31     1    24
 -5.7562008752541020E-02 a       775     0    31     1    25
  8.6338100637494697E-02 a       776     0    32     1     1
 -1.9306466470632597E-01 a       777     0    32     1     2
 -4.5702165838079907E-02 a       778     0    32     1     3
  9.1410430168858040E-02 a       779     0    32     1     4
 -3.1457193368331332E-02 a       780     0    32     1     5
  1.5930874571483980E-01 a       781     0    32     1     6
 -6.5317112170630992E-02 a       782     0    32     1     7
 -4.2834560633225480E-02 a       783     0    32     1     8
  1.6093776437513263E-01 a       784     0    32     1     9
 -3.0169217853304061E-02 a       785     0    32     1    10
  1.0885574924799009E-01 a       786     0    32     1    11
 -4.9414926110920167E-02 a       787     0    32     1    12
  4.0146587474890298E-02 a       788     0    32     1    13
 -2.3454440194935963E-01 a       789     0    32     1    14
 -3.8367973983521021E-02 a       790     0    32     1    15
  1.3892863782945263E-02 a       791     0    32     1    16
 -6.7728269558884849E-02 a       792     0    32     1    17
  2.9638383350170359E-02 a       793     0    32     1    18
 -2.5294828255767299E-01 a       794     0    32     1    19
 -6.6621514519214220E-02 a       795     0    32     1    20
  1.2671328039443830E-01 a       796     0    32     1    21
 -9.1133209440248247E-02 a       797     0    32     1    22
 -5.9681585123400209E-02 a       798     0    32     1    23
  1.6084828994499978E-02 a       799     0    32     1    24
  1.0657117291996962E-01 a       800     0    32     1    25
 -8.7575200198153694E-02 a       801     0    33     1     1
  3.3267743693929638E-02 a       802     0    33     1     2
 -1.1001371116124961E-01 a       803     0    33     1     3
 -2.7148105880514700E-01 a       804     0    33     1     4
  4.9973114562945592E-02 a       805     0    33     1     5
  1.9938015704448853E-02 a       806     0    33     1     6
 -9.8904102414584361E-02 a       807     0    33     1     7
 -1.6563730245234234E-02 a       808     0    33     1     8
  8.8603552543880651E-02 a       809     0    33     1     9
 -6.2240107701880390E-02 a       810     0    33     1    10
 -2.1887297756037222E-01 a       811     0    33     1    11
 -1.0070264952051651E-01 a       812     0    33     1    12
 -1.5539566607509195E-02 a       813     0    33     1    13
  1.1866890412682568E-01 a       814     0    33     1    14
 -6.4396627755927693E-02 a       815     0    33     1    15
 -1.0141249556446855E-01 a       816     0    33     1    16
  1.0897646834946247E-01 a       817     0    33     1    17
  4.3556923195588813E-02 a       818     0    33     1    18
  8.7407900975802755E-02 a       819     0    33     1    19
  2.7481702943877029E-02 a       820     0    33     1    20
  4.7581239274500253E-02 a       821     0    33     1    21
  4.8000410042423176E-02 a       822     0    33     1    22
  6.0878035865298392E-02 a       823     0    33     1    23
  2.0335600240379550E-04 a       824     0    33     1    24
 -2.0864304925822424E-01 a       825     0    33     1    25
  6.3661145130670699E-02 a       826     0    34     1     1
 -1.6364677893729817E-02 a       827     0    34     1     2
 -8.4165262754813189E-02 a       828     0    34     1     3
  6.0625927827136626E-02 a       829     0    34     1     4
  4.7827971044782064E-02 a       830     0    34     1     5
  1.4164407292240494E-01 a       831     0    34     1     6
  3.3005482902537901E-02 a       832     0    34     1     7
 -1.7561341537971942E-02 a       833     0    34     1     8
 -1.4065355614857356E-01 a       834     0    34     1     9
  8.0361620228025232E-02 a       835     0    34     1    10
 -1.3185959317207668E-01 a       836     0    34     1    11
 -2.9415613076368620E-02 a       837     0    34     1    12
 -5.3931200749661269E-02 a       838     0    34     1    13
 -1.2029185547284516E-01 a       839     0    34     1    14
 -1.0587459159915497E-01 a       840     0    34     1    15
  2.1710454653917688E-01 a       841     0    34     1    16
  1.6254101543528899E-02 a       842     0    34     1    17
 -3.4866413230411730E-02 a       843     0    34     1    18
 -1.7745384844876422E-01 a       844     0    34     1    19
 -1.2955907886443016E-01 a       845     0    34     1    20
  2.1474733613114425E-01 a       846     0    34     1    21
  3.1188161447658395E-02 a       847     0    34     1    22
 -6.7957039034749409E-02 a       848     0    34     1    23
 -6.7945678649506784E-03 a       849     0    34     1    24
 -2.3948519694627041E-01 a       850     0    34     1    25
 -1.0612734505108946E-01 a       851     0    35     1     1
 -1.2171609693132913E-01 a       852     0    35     1     2
  1.5556839995050128E-01 a       853     0    35     1     3
 -8.4593156772642716E-02 a       854     0    35     1     4
 -8.5963960569337458E-02 a       855     0    35     1     5
 -2.2977972629967303E-01 a       856     0    35     1     6
 -1.6381956012637955E-01 a       857     0    35     1     7
 -1.5346625290959581E-01 a       858     0    35     1     8
 -1.2136780022682998E-01 a       859     0    35     1     9
 -1.0578053694047897E-01 a       860     0    35     1    10
 -2.6499642971577541E-02 a       861     0    35     1    11
 -2.1653191778165737E-01 a       862     0    35     1    12
  1.0514928586959513E-01 a       863     0    35     1    13
 -2.9051577498046446E-02 a       864     0    35     1    14
 -1.0512988443710898E-01 a       865     0    35     1    15
  1.1101340622213353E-01 a       866     0    35     1    16
  2.9149340287655073E-02 a       867     0    35     1    17
  1.0231436563723223E-01 a       868     0    35     1    18
 -3.5051122555811651E-02 a       869     0    35     1    19
  1.4842540126443846E-01 a       870     0    35     1    20
 -2.3355364755885660E-01 a       871     0    35     1    21
 -8.9999981818609590E-02 a       872     0    35     1    22
  1.2671614066390691E-01 a       873     0    35     1    23
 -7.3968738620893787E-02 a       874     0    35     1    24
  9.6457235682458620E-02 a       875     0    35     1    25
 -6.4851907325406341E-03 a       876     0    36     1     1
  3.9117613510603236E-02 a       877     0    36     1     2
 -1.6514312148151834E-05 a       878     0    36     1     3
 -7.7701141597938936E-02 a       879     0    36     1     4
 -8.8463098556472983E-02 a       880     0    36     1     5
  8.5470948694163426E-02 a       881     0    36     1     6
  1.2942360687170004E-01 a       882     0    36     1     7
 -4.0380558232136404E-02 a       883     0    36     1     8
 -1.4869654803074625E-01 a       884     0    36     1     9
 -7.4300551861518516E-02 a       885     0    36     1    10
 -1.5545627608629509E-01 a       886     0    36     1    11
 -3.6130275352328330E-02 a       887     0    36     1    12
  6.0520152920453221E-02 a       888     0    36     1    13
 -1.9037070956934091E-02 a       889     0    36     1    14
 -7.9142307756670721E-02 a       890     0    36     1    15
  2.9469943997473991E-01 a       891     0    36     1    16
  5.6069286355743325E-03 a       892     0    36     1    17
  6.0418261573840469E-03 a       893     0    36     1    18
 -1.6520279448274522E-01 a       894     0    36     1    19
  8.1982778945314888E-02 a       895     0    36     1    20
  4.5865122205109493E-02 a       896     0    36     1    21
 -2.2216868120087710E-03 a       897     0    36     1    22
 -1.6963090253029381E-03 a       898     0    36     1    23
  2.3096557320659371E-02 a       899     0    36     1    24
 -2.6005221602937156E-01 a       900     0    36     1    25
 -7.6390598426228348E-02 a       901     0    37     1     1
  2.5119177305870877E-02 a       902     0    37     1     2
  7.2002825289524758E-02 a       903     0    37     1     3
 -5.1896869542699411E-02 a       904     0    37     1     4
  2.1660575164595249E-02 a       905     0    37     1     5
  1.4853136419276983E-01 a       906     0    37     1     6
  1.3926533910017322E-01 a       907     0    37     1     7
  3.2239786091132060E-02 a       908     0    37     1     8
 -2.0917899351937630E-01 a       909     0    37     1     9
 -1.1772442505879034E-01 a       910     0    37     1    10
  2.7354397912485270E-02 a       911     0    37     1    11
 -3.9038421374981029E-02 a       912     0    37     1    12
 -1.6822581046641671E-01 a       913     0    37     1    13
 -1.9302242481934734E-01 a       914     0    37     1    14
  2.4403295639730267E-02 a       915     0    37     1    15
  7.5452326412145748E-02 a       916     0    37     1    16
 -1.4062654031445238E-01 a       917     0    37     1    17
  1.4160361119848773E-02 a       918     0    37     1    18
 -1.9403452177931588E-01 a       919     0    37     1    19
 -2.9045043777832898E-02 a       920     0    37     1    20
 -3.6308093119558418E-02 a       921     0    37     1    21
 -5.8900406294718877E-02 a       922     0    37     1    22
 -2.9192323433853813E-02 a       923     0    37     1    23
  1.0254162685645203E-01 a       924     0    37     1    24
 -4.9107182626291157E-02 a       925     0    37     1    25
  1.2322841058759908E-02 a       926     0    38     1     1
  2.1259728196029230E-02 a       927     0    38     1     2
  1.0143246110990334E-01 a       928     0    38     1     3
  2.2640177291072136E-02 a       929     0    38     1     4
 -1.0420961640466872E-02 a       930     0    38     1     5
 -7.2654581649409813E-02 a       931     0    38     1     6
  1.2970628383353106E-01 a       932     0    38     1     7
  9.7905889307162985E-02 a       933     0    38     1     8
  2.3838479255272042E-02 a       934     0    38     1     9
 -8.6082005793740091E-02 a       935     0    38     1    10
  1.5016893597129635E-01 a       936     0    38     1    11
 -3.2929681544207778E-02 a       937     0    38     1    12
 -2.9237053776202587E-02 a       938     0    38     1    13
 -1.2282535367225474E-01 a       939     0    38     1    14
  8.7675979172383900E-02 a       940     0    38     1    15
  8.7642018765987456E-02 a       941     0    38     1    16
 -1.5718811955378911E-01 a       942     0    38     1    17
  2.0262708876244911E-02 a       943     0    38     1    18
  1.0722785714952848E-01 a       944     0    38     1    19
  9.4349639806276379E-04 a       945     0    38     1    20
  3.4505770752103364E-02 a       946     0    38     1    21
 -4.3441361764913020E-02 a       947     0    38     1    22
  6.1726416811658587E-02 a       948     0    38     1    23
  4.2269830669632379E-02 a       949     0    38     1    24
  2.4907406689087874E-01 a       950     0    38     1    25
 -3.6216757810494819E-02 a       951     0    39     1     1
 -1.0188430090051466E-02 a       952     0    39     1     2
 -8.2194633191640346E-02 a       953     0    39     1     3
  1.0541961429141747E-01 a       954     0    39     1     4
  7.4744925457687923E-03 a       955     0    39     1     5
  3.6968507726541380E-02 a       956     0    39     1     6
  1.3372963365513521E-01 a       957     0    39     1     7
  3.6849784307066147E-02 a       958     0    39     1     8
  1.1299313437085562E-01 a       959     0    39     1     9
 -9.0665789644243502E-02 a       960     0    39     1    10
 -8.5393950846318831E-02 a       961     0    39     1    11
  1.9891073212992515E-02 a       962     0    39     1    12
 -1.5896386665162560E-01 a       963     0    39     1    13
  1.8628800898279255E-01 a       964     0    39     1    14
 -7.3956441009239357E-02 a       965     0    39     1    15
 -5.9202932156252504E-02 a       966     0    39     1    16
  1.3221970155822174E-01 a       967     0    39     1    17
 -9.3666072296878400E-02 a       968     0    39     1    18
  1.8503157628263586E-01 a       969     0    39     1    19
 -9.0815966950696894E-02 a       970     0    39     1    20
 -8.5605206645400139E-02 a       971     0    39     1    21
  4.2271734561359686E-02 a       972     0    39     1    22
 -2.2040716330457250E-01 a       973     0    39     1    23
 -8.0703566726949130E-02 a       974     0    39     1    24
  1.5506437986042429E-01 a       975     0    39     1    25
 -8.3853621411006163E-02 a       976     0    40     1     1
 -5.7605076148525787E-02 a       977     0    40     1     2
 -2.8650190073423697E-02 a       978     0    40     1     3
  6.2258125196656952E-02 a       979     0    40     1     4
  3.6478813784115480E-02 a       980     0    40     1     5
 -1.0733927607789684E-01 a       981     0    40     1     6
  8.0892423560250584E-03 a       982     0    40     1     7
 -9.0445231097415521E-02 a       983     0    40     1     8
  2.2258633413565165E-01 a       984     0    40     1     9
 -1.2156623163462252E-01 a       985     0    40     1    10
 -2.3300881421526376E-01 a       986     0    40     1    11
 -2.9098170207097183E-02 a       987     0    40     1    12
  1.0886878270021887E-01 a       988     0    40     1    13
 -9.1421142978362329E-03 a       989     0    40     1    14
  2.9489773966655943E-02 a       990     0    40     1    15
 -1.0634637435627863E-01 a       991     0    40     1    16
  2.2185325180348321E-03 a       992     0    40     1    17
  1.0654985995327022E-01 a       993     0    40     1    18
  2.7486394429220085E-01 a       994     0    40     1    19
  1.1112534530856480E-01 a       995     0    40     1    20
 -1.2977339744665917E-01 a       996     0    40     1    21
 -1.2803384186491802E-02 a       997     0    40     1    22
 -8.0245021841373818E-03 a       998     0    40     1    23
  1.0474525134898460E-01 a       999     0    40     1    24
 -1.0473140003373542E-02 a      1000     0    40     1    25
  9.3802804988095227E-03 a      1001     0    41     1     1
 -2.5399571660574854E-02 a      1002     0    41     1     2
  6.4241678474418862E-02 a      1003     0    41     1     3
 -1.1782314714664932E-01 a      1004     0    41     1     4
  7.4970326988039446E-02 a      1005     0    41     1     5
 -2.3968885684874289E-01 a      1006     0    41     1     6
  2.3839589563874045E-01 a      1007     0    41     1     7
 -1.7420752552696492E-01 a      1008     0    41     1     8
 -2.5885597065279009E-01 a      1009     0    41     1     9
 -1.2501572739716577E-01 a      1010     0    41     1    10
 -6.3786549906625439E-02 a      1011     0    41     1    11
 -5.8829660539157273E-02 a      1012     0    41     1    12
 -1.1373457185622880E-01 a      1013     0    41     1    13
  2.1408829802767015E-01 a      1014     0    41     1    14
  3.7884391557699892E-01 a      1015     0    41     1    15
  1.1551873303740746E-01 a      1016     0    41     1    16
  2.9805238824780844E-01 a      1017     0    41     1    17
  1.8212987850604459E-01 a      1018     0    41     1    18
 -2.5450412528557537E-01 a      1019     0    41     1    19
 -5.0998908906021947E-02 a      1020     0    41     1    20
 -4.5030548942474539E-02 a      1021     0    41     1    21
  9.2394235632635380E-02 a      1022     0    41     1    22
 -5.0406958821671254E-02 a      1023     0    41     1    23
  1.9806651688976190E-01 a      1024     0    41     1    24
  4.9128839134119549E-02 a      1025     0    41     1    25
 -3.2930656738111258E-01 a      1026     0    42     1     1
 -1.7048141976823342E-01 a      1027     0    42     1     2
 -7.4267756586590419E-02 a      1028     0    42     1     3
  9.3382289633581167E-02 a      1029     0    42     1     4
 -7.0409929019500023E-02 a      1030     0    42     1     5
  3.3817786827361535E-01 a      1031     0    42     1     6
  2.5130716974731415E-01 a      1032     0    42     1     7
  1.6953248382538261E-01 a      1033     0    42     1     8
  9.9461577903032755E-02 a      1034     0    42     1     9
 -2.1687525244144751E-01 a      1035     0    42     1    10
 -2.6670839087848563E-01 a      1036     0    42     1    11
  1.9086070028184463E-01 a      1037     0    42     1    12
  3.9415805408775589E-01 a      1038     0    42     1    13
  5.4803326121517941E-02 a      1039     0    42     1    14
 -2.5124338678257949E-02 a      1040     0    42     1    15
 -2.1794321362321140E-01 a      1041     0    42     1    16
 -1.1234725533645380E-01 a      1042     0    42     1    17
 -1.8539383411634411E-01 a      1043     0    42     1    18
  2.5236228440170622E-01 a      1044     0    42     1    19
  1.5801625657979733E-02 a      1045     0    42     1    20
 -1.8587619021704740E-01 a      1046     0    42     1    21
 -6.2157374397172165E-02 a      1047     0    42     1    22
  2.8896659447851047E-01 a      1048     0    42     1    23
  1.7138770290428534E-01 a      1049     0    42     1    24
 -5.6068020847554460E-02 a      1050     0    42     1    25
 -3.4550196558692575E-01 a      1051     0    43     1     1
 -3.1873027381836183E-01 a      1052     0    43     1     2
 -8.3409976888470794E-02 a      1053     0    43     1     3
  1.7987828849194518E-01 a      1054     0    43     1     4
  1.6263709839732601E-01 a      1055     0    43     1     5
 -1.8445439534278390E-02 a      1056     0    43     1     6
 -8.2560467784454722E-02 a      1057     0    43     1     7
  7.8406867325217580E-02 a      1058     0    43     1     8
  9.6878671245309120E-02 a      1059     0    43     1     9
 -1.9771563605846026E-01 a      1060     0    43     1    10
  1.2910729811093252E-01 a      1061     0    43     1    11
  1.2450133519210724E-01 a      1062     0    43     1    12
  2.3337210175436881E-02 a      1063     0    43     1    13
  3.0478698723105652E-01 a      1064     0    43     1    14
  1.7411791710034769E-01 a      1065     0    43     1    15
  1.1560295893029158E-02 a      1066     0    43     1    16
  5.0769201330169482E-02 a      1067     0    43     1    17
 -9.0739963307582813E-02 a      1068     0    43     1    18
 -5.7051211836640012E-02 a      1069     0    43     1    19
  1.0766734798217853E-01 a      1070     0    43     1    20
 -1.4733968865198505E-01 a      1071     0    43     1    21
  3.3176476000325500E-02 a      1072     0    43     1    22
 -6.3085449160455540E-02 a      1073     0    43     1    23
 -1.1307216216087654E-01 a      1074     0    43     1    24
 -1.6143555843282414E-01 a      1075     0    43     1    25
  2.6542020943297584E-01 a      1076     0    44     1     1
  8.8306477045676818E-02 a      1077     0    44     1     2
  8.2816851303514710E-02 a      1078     0    44     1     3
 -1.7078692953886715E-01 a      1079     0    44     1     4
  6.5271821904487229E-02 a      1080     0    44     1     5
  1.4706306582692209E-02 a      1081     0    44     1     6
  3.5637670883398510E-02 a      1082     0    44     1     7
  3.3186141122332447E-01 a      1083     0    44     1     8
 -1.2524664043194858E-01 a      1084     0    44     1     9
  8.9005891774692480E-02 a      1085     0    44     1    10
  1.1447752403717150E-01 a      1086     0    44     1    11
 -2.1427694569490593E-01 a      1087     0    44     1    12
 -1.8326241887824379E-01 a      1088     0    44     1    13
  1.1203900170894958E-01 a      1089     0    44     1    14
 -1.8975048347940876E-01 a      1090     0    44     1    15
  2.3907924637453926E-01 a      1091     0    44     1    16
 -6.0324472670481077E-02 a      1092     0    44     1    17
  1.0547313464009123E-01 a      1093     0    44     1    18
  1.1446395677954273E-01 a      1094     0    44     1    19
  1.1081555921539683E-01 a      1095     0    44     1    20
 -2.3007720336719722E-01 a      1096     0    44     1    21
  5.3505172412725607E-02 a      1097     0    44     1    22
 -4.7672142011076994E-02 a      1098     0    44     1    23
 -1.8545585800132200E-01 a      1099     0    44     1    24
  1.6359124931002680E-01 a      1100     0    44     1    25
 -8.3573441980974044E-04 a      1101     0    45     1     1
 -1.2223897617758360E-01 a      1102     0    45     1     2
  9.6728080141560813E-02 a      1103     0    45     1     3
 -1.9451597550478150E-01 a      1104     0    45     1     4
  7.2741822505176116E-03 a      1105     0    45     1     5
 -6.5824483452595912E-03 a      1106     0    45     1     6
 -1.2899084533805460E-01 a      1107     0    45     1     7
 -1.4582355482270906E-01 a      1108     0    45     1     8
  2.8896958956633866E-02 a      1109     0    45     1     9
 -4.5523283943882588E-02 a      1110     0    45     1    10
  1.2861951329952331E-01 a      1111     0    45     1    11
 -1.4764138408330207E-01 a      1112     0    45     1    12
 -3.0701275206707945E-01 a      1113     0    45     1    13
 -1.5508734175028821E-01 a      1114     0    45     1    14
 -1.2875853120947464E-01 a      1115     0    45     1    15
  2.3289297693519997E-01 a      1116     0    45     1    16
 -2.3604707974853456E-01 a      1117     0    45     1    17
  1.6382675246524223E-01 a      1118     0    45     1    18
 -1.3290213508605442E-01 a      1119     0    45     1    19
  2.4472588366788647E-01 a      1120     0    45     1    20
  1.8509069552370688E-01 a      1121     0    45     1    21
  1.5367034945518734E-01 a      1122     0    45     1    22
 -1.5376013989876175E-01 a      1123     0    45     1    23
  1.2049583947107352E-01 a      1124     0    45     1    24
  1.8222093057877167E-01 a      1125     0    45     1    25
 -1.0655125379875831E-01 a      1126     0    46     1     1
  7.9911537745770700E-02 a      1127     0    46     1     2
  5.7632310389233971E-02 a      1128     0    46     1     3
 -5.2587452328457705E-02 a      1129     0    46     1     4
 -6.8566071237244994E-02 a      1130     0    46     1     5
 -3.0361527854794231E-02 a      1131     0    46     1     6
 -1.7852331959975901E-01 a      1132     0    46     1     7
 -9.6308340114095767E-02 a      1133     0    46     1     8
  5.1167401486408139E-03 a      1134     0    46     1     9
  1.0872823367764711E-01 a      1135     0    46     1    10
  1.2321676748109452E-01 a      1136     0    46     1    11
 -1.6903007604858813E-01 a      1137     0    46     1    12
 -9.1390440914286455E-02 a      1138     0    46     1    13
 -2.2612587183900407E-01 a      1139     0    46     1    14
 -1.9778363386337344E-01 a      1140     0    46     1    15
  1.0209814763316766E-01 a      1141     0    46     1    16
 -2.1501775241051879E-01 a      1142     0    46     1    17
  9.7613736623023015E-02 a      1143     0    46     1    18
 -2.8651920273498166E-01 a      1144     0    46     1    19
  2.5303286151166232E-01 a      1145     0    46     1    20
  4.0488579522369741E-02 a      1146     0    46     1    21
  3.6569139368614945E-02 a      1147     0    46     1    22
 -6.6172191738660929E-02 a      1148     0    46     1    23
  1.5466939528082136E-02 a      1149     0    46     1    24
  8.4893671474535595E-02 a      1150     0    46     1    25
 -1.1905516814984529E-01 a      1151     0    47     1     1
  2.3124015277691226E-01 a      1152     0    47     1     2
 -1.8209112656541646E-03 a      1153     0    47     1     3
 -2.0995553713148626E-01 a      1154     0    47     1     4
  1.0231494356834359E-01 a      1155     0    47     1     5
  2.9700868622507141E-02 a      1156     0    47     1     6
 -2.4940417753806421E-01 a      1157     0    47     1     7
 -6.4549642567910320E-02 a      1158     0    47     1     8
  3.5912566517791213E-02 a      1159     0    47     1     9
  4.1147827033253398E-02 a      1160     0    47     1    10
 -1.0391014212508308E-01 a      1161     0    47     1    11
  5.8770467780012207E-02 a      1162     0    47     1    12
  1.0267121017854527E-01 a      1163     0    47     1    13
 -1.1809423384106445E-01 a      1164     0    47     1    14
 -1.4053592675601531E-01 a      1165     0    47     1    15
 -1.7454159275426418E-02 a      1166     0    47     1    16
  1.1971629479680355E-01 a      1167     0    47     1    17
  1.0475217327185975E-01 a      1168     0    47     1    18
  3.3802189520145115E-01 a      1169     0    47     1    19
 -1.8505996948617938E-02 a      1170     0    47     1    20
  1.9690277704752790E-01 a      1171     0    47     1    21
 -5.5988984681563776E-02 a      1172     0    47     1    22
  1.2108224988463084E-01 a      1173     0    47     1    23
  2.1403788404810223E-01 a      1174     0    47     1    24
 -1.8122347905077968E-01 a      1175     0    47     1    25
 -8.3164581103306115E-02 a      1176     0    48     1     1
 -5.2600792540800620E-02 a      1177     0    48     1     2
 -2.0118392806723243E-01 a      1178     0    48     1     3
  2.4795148577626294E-01 a      1179     0    48     1     4
 -9.5944964515714645E-02 a      1180     0    48     1     5
 -1.4868437142966301E-01 a      1181     0    48     1     6
 -1.6870927651918985E-01 a      1182     0    48     1     7
 -8.4246427164725024E-02 a      1183     0    48     1     8
 -2.2541188371948001E-01 a      1184     0    48     1     9
 -8.0656145413901301E-02 a      1185     0    48     1    10
 -1.9007831957355587E-02 a      1186     0    48     1    11
 -5.4189096267309875E-02 a      1187     0    48     1    12
 -4.7141367525573429E-02 a      1188     0    48     1    13
  2.2466673058821701E-01 a      1189     0    48     1    14
 -2.2701074434388426E-02 a      1190     0    48     1    15
  3.0119521499312119E-01 a      1191     0    48     1    16
 -1.6012233120649931E-03 a      1192     0    48     1    17
 -3.5716241840193806E-02 a      1193     0    48     1    18
 -5.4927134195897523E-02 a      1194     0    48     1    19
 -2.2771792156296777E-02 a      1195     0    48     1    20
 -5.7803606787555570E-03 a      1196     0    48     1    21
  9.2698267760150152E-02 a      1197     0    48     1    22
  8.5814866383147254E-02 a      1198     0    48     1    23
  1.4563925951101864E-01 a      1199     0    48     1    24
 -1.5152400414623032E-02 a      1200     0    48     1    25
  5.9041867856253441E-02 a      1201     0    49     1     1
  1.0111155731788861E-01 a      1202     0    49     1     2
  7.5381657839183991E-02 a      1203     0    49     1     3
 -1.0805722998239362E-01 a      1204     0    49     1     4
  8.4525255062347371E-02 a      1205     0    49     1     5
  3.2233222868086053E-02 a      1206     0    49     1     6
 -2.3899036895870390E-02 a      1207     0    49     1     7
  3.1727384639467740E-02 a      1208     0    49     1     8
 -1.0579348784540944E-03 a      1209     0    49     1     9
 -6.8998413801278538E-02 a      1210     0    49     1    10
 -2.1829033833905328E-03 a      1211     0    49     1    11
 -1.8710623839416224E-01 a      1212     0    49     1    12
 -1.0206475520626604E-01 a      1213     0    49     1    13
  6.3770994137772860E-02 a      1214     0    49     1    14
 -7.0119667630900828E-02 a      1215     0    49     1    15
  6.9710090243417538E-02 a      1216     0    49     1    16
 -1.7207765781973496E-04 a      1217     0    49     1    17
  1.7182353211175515E-02 a      1218     0    49     1    18
  1.7392143141408728E-01 a      1219     0    49     1    19
 -5.8117883207929516E-02 a      1220     0    49     1    20
  2.5714551483136405E-01 a      1221     0    49     1    21
  1.0192932582724276E-01 a      1222     0    49     1    22
  1.5568653084368997E-01 a      1223     0    49     1    23
 -1.4285432127291461E-01 a      1224     0    49     1    24
 -2.5428181766334380E-05 a      1225     0    49     1    25
 -2.0755958686137388E-01 a      1226     0    50     1     1
  1.0972228411248565E-01 a      1227     0    50     1     2
  4.0500117212076532E-02 a      1228     0    50     1     3
 -1.6180475416441673E-01 a      1229     0    50     1     4
  1.2102442287833491E-02 a      1230     0    50     1     5
 -4.0087813497507105E-02 a      1231     0    50     1     6
  5.2653501820241984E-02 a      1232     0    50     1     7
 -1.3325215992898254E-01 a      1233     0    50     1     8
 -5.1324523046987154E-02 a      1234     0    50     1     9
  7.2113157468914946E-02 a      1235     0    50     1    10
 -1.1202054514906494E-01 a      1236     0    50     1    11
 -8.4025817151271109E-02 a      1237     0    50     1    12
 -2.1982421117379555E-01 a      1238     0    50     1    13
 -3.9569117648021297E-02 a      1239     0    50     1    14
 -1.1885074315579520E-01 a      1240     0    50     1    15
 -2.0373928625873791E-01 a      1241     0    50     1    16
 -1.7777479745807893E-02 a      1242     0    50     1    17
  1.8417415718274283E-01 a      1243     0    50     1    18
  1.6534952844604900E-01 a      1244     0    50     1    19
 -9.2945353060770050E-02 a      1245     0    50     1    20
  9.5746381368001149E-02 a      1246     0    50     1    21
 -6.5371640473531195E-02 a      1247     0    50     1    22
  6.4420664355142335E-02 a      1248     0    50     1    23
  3.0292183799058442E-01 a      1249     0    50     1    24
  1.8714679702746911E-01 a      1250     0    50     1    25
 -3.4415542080768408E-01 a      1251     0    51     1     1
  6.7039730343145906E-02 a      1252     0    51     1     2
 -1.4071089762595687E-01 a      1253     0    51     1     3
  3.9095063158841614E-01 a      1254     0    51     1     4
 -2.3346480911890774E-01 a      1255     0    51     1     5
 -1.0512000910078875E-01 a      1256     0    51     1     6
  5.6165465988489371E-02 a      1257     0    51     1     7
  1.2449887863948272E-02 a      1258     0    51     1     8
  2.5430716144017712E-01 a      1259     0    51     1     9
 -7.4387636930437442E-02 a      1260     0    51     1    10
 -1.0218317422534468E-01 a      1261     0    51     1    11
  1.2020233569279903E-02 a      1262     0    51     1    12
 -4.8692219151780756E-03 a      1263     0    51     1    13
  2.2091786228924981E-01 a      1264     0    51     1    14
 -3.4108314262620754E-01 a      1265     0    51     1    15
  3.5794824171756563E-02 a      1266     0    51     1    16
 -8.7630536528992067E-02 a      1267     0    51     1    17
 -5.3511225723753741E-01 a      1268     0    51     1    18
  1.7808147483166203E-01 a      1269     0    51     1    19
 -2.5664962000555295E-02 a      1270     0    51     1    20
 -2.2554034560278005E-01 a      1271     0    51     1    21
 -2.9284661684204633E-01 a      1272     0    51     1    22
 -1.4820613416511841E-01 a      1273     0    51     1    23
 -1.3513053701247174E-01 a      1274     0    51     1    24
 -2.0791732930783227E-01 a      1275     0    51     1    25
  2.7555150888932706E-01 a      1276     0    52     1     1
 -3.9422439419985678E-01 a      1277     0    52     1     2
  2.8611097258379520E-01 a      1278     0    52     1     3
 -1.9062155568227079E-01 a      1279     0    52     1     4
  5.4925324652771203E-02 a      1280     0    52     1     5
 -9.6387840203444583E-02 a      1281     0    52     1     6
 -2.1251867342785738E-01 a      1282     0    52     1     7
  1.4702323452561306E-01 a      1283     0    52     1     8
 -2.6583286899308018E-02 a      1284     0    52     1     9
  6.3952290969562098E-01 a      1285     0    52     1    10
 -1.4137045350924324E-01 a      1286     0    52     1    11
  2.0552431734816252E-02 a      1287     0    52     1    12
  1.8026758259472420E-01 a      1288     0    52     1    13
 -2.9929439484052134E-01 a      1289     0    52     1    14
 -1.8232123035674580E-01 a      1290     0    52     1    15
 -1.0220947557107347E-01 a      1291     0    52     1    16
  1.2100169578450093E-02 a      1292     0    52     1    17
  4.1474489835872380E-01 a      1293     0    52     1    18
 -1.3674129867173340E-01 a      1294     0    52     1    19
  6.6827792414953874E-02 a      1295     0    52     1    20
  2.2929543950360151E-01 a      1296     0    52     1    21
  9.2882708185525908E-02 a      1297     0    52     1    22
 -1.3723124072176077E-01 a      1298     0    52     1    23
 -1.7839139834314466E-01 a      1299     0    52     1    24
  1.6681151769911449E-02 a      1300     0    52     1    25
  9.5585951261144650E-02 a      1301     0    53     1     1
  2.0063130785997874E-01 a      1302     0    53     1     2
 -2.2251736620034747E-02 a      1303     0    53     1     3
  1.3369885240270082E-01 a      1304     0    53     1     4
 -1.9839219452836729E-01 a      1305     0    53     1     5
  4.0959415048018463E-02 a      1306     0    53     1     6
  1.0109273471058766E-01 a      1307     0    53     1     7
 -5.3491113610771648E-02 a      1308     0    53     1     8
 -8.5565051699449293E-02 a      1309     0    53     1     9
  6.3490692461190667E-03 a      1310     0    53     1    10
  1.1774480442977034E-02 a      1311     0    53     1    11
  5.3962653767389762E-02 a      1312     0    53     1    12
 -6.5032635565172386E-02 a      1313     0    53     1    13
 -8.1281644040953144E-02 a      1314     0    53     1    14
 -1.1137999653400200E-01 a      1315     0    53     1    15
  1.9216927278505841E-01 a      1316     0    53     1    16
 -3.7352324785913452E-02 a      1317     0    53     1    17
  1.7412752742763469E-02 a      1318     0    53     1    18
 -1.4411119988501479E-02 a      1319     0    53     1    19
 -1.1220900964540703E-01 a      1320     0    53     1    20
 -2.9252123129218066E-01 a      1321     0    53     1    21
  2.1112784810108708E-02 a      1322     0    53     1    22
  8.9432864928239625E-02 a      1323     0    53     1    23
 -3.7356825943887027E-02 a      1324     0    53     1    24
  9.6532379991938075E-02 a      1325     0    53     1    25
 -3.4964069657451260E-02 a      1326     0    54     1     1
 -2.2125759510839171E-01 a      1327     0    54     1     2
 -2.1299377698999530E-01 a      1328     0    54     1     3
 -1.2693276616899739E-02 a      1329     0    54     1     4
 -3.4695782530270981E-02 a      1330     0    54     1     5
 -2.0600744194604034E-01 a      1331     0    54     1     6
  3.0030610555525944E-01 a      1332     0    54     1     7
  8.9570589886493426E-02 a      1333     0    54     1     8
 -1.3020635129263530E-01 a      1334     0    54     1     9
 -1.6245895115565859E-01 a      1335     0    54     1    10
  1.0771436282011249E-01 a      1336     0    54     1    11
  1.6518372538424803E-01 a      1337     0    54     1    12
  7.9668454762146165E-02 a      1338     0    54     1    13
 -2.8125907138675410E-02 a      1339     0    54     1    14
  1.3134658175520392E-01 a      1340     0    54     1    15
 -2.3628082511798468E-01 a      1341     0    54     1    16
  1.9639210987846908E-01 a      1342     0    54     1    17
  1.3753928868023049E-01 a      1343     0    54     1    18
 -1.7289007009148200E-01 a      1344     0    54     1    19
 -2.8894253018509658E-01 a      1345     0    54     1    20
 -1.2467363759277672E-01 a      1346     0    54     1    21
 -6.8109620240076871E-02 a      1347     0    54     1    22
  1.3217473881739406E-01 a      1348     0    54     1    23
 -5.2821461170408188E-02 a      1349     0    54     1    24
 -4.0315660652663642E-02 a      1350     0    54     1    25
  1.7033010064097815E-02 a      1351     0    55     1     1
  4.2420087976021903E-01 a      1352     0    55     1     2
 -1.2812389305296737E-01 a      1353     0    55     1     3
 -8.9386430496205052E-02 a      1354     0    55     1     4
  1.9406872315661716E-01 a      1355     0    55     1     5
 -4.4134586239517756E-02 a      1356     0    55     1     6
 -5.7749100397827637E-02 a      1357     0    55     1     7
 -2.1993218960815017E-01 a      1358     0    55     1     8
 -2.7345452124106079E-01 a      1359     0    55     1     9
  2.1425849669326005E-02 a      1360     0    55     1    10
  4.6848700157412498E-01 a      1361     0    55     1    11
 -3.4578094436973149E-02 a      1362     0    55     1    12
  1.7499311047242564E-02 a      1363     0    55     1    13
 -7.1893618461298867E-02 a      1364     0    55     1    14
 -1.5425118045870351E-01 a      1365     0    55     1    15
 -1.3644518069167083E-01 a      1366     0    55     1    16
  2.7645808852855225E-01 a      1367     0    55     1    17
 -1.0283978248168810E-01 a      1368     0    55     1    18
  9.5987405055160194E-02 a      1369     0    55     1    19
 -3.6395711312552664E-01 a      1370     0    55     1    20
  1.5209002545655842E-01 a      1371     0    55     1    21
 -1.3071668412299575E-01 a      1372     0    55     1    22
  2.6315446256617658E-01 a      1373     0    55     1    23
 -1.4275267802402922E-01 a      1374     0    55     1    24
 -5.8972347271761115E-02 a      1375     0    55     1    25
  1.8995963045650757E-01 a      1376     0    56     1     1
 -6.4180868553371143E-02 a      1377     0    56     1     2
 -2.3827345042550435E-02 a      1378     0    56     1     3
  5.9009092913399057E-02 a      1379     0    56     1     4
  5.1316342565515365E-02 a      1380     0    56     1     5
 -2.3722081548393135E-02 a      1381     0    56     1     6
 -1.9703563797554560E-01 a      1382     0    56     1     7
  1.3981682615142429E-01 a      1383     0    56     1     8
 -1.2439579815298384E-01 a      1384     0    56     1     9
 -1.5722225567947765E-01 a      1385     0    56     1    10
 -1.0581689592795798E-01 a      1386     0    56     1    11
 -1.8294995445658954E-01 a      1387     0    56     1    12
  1.2459627492244296E-01 a      1388     0    56     1    13
 -6.4895802740233502E-02 a      1389     0    56     1    14
 -7.8785298842417362E-02 a      1390     0    56     1    15
 -6.5605625690318359E-02 a      1391     0    56     1    16
 -3.9339223764471111E-02 a      1392     0    56     1    17
  1.7587016537949269E-02 a      1393     0    56     1    18
 -1.3743745676930447E-01 a      1394     0    56     1    19
  7.2910458137215991E-03 a      1395     0    56     1    20
  3.4053107071849609E-02 a      1396     0    56     1    21
 -4.3963123335084335E-02 a      1397     0    56     1    22
  1.2085669599082074E-01 a      1398     0    56     1    23
 -2.0575954722250253E-02 a      1399     0    56     1    24
 -7.9308834294275904E-02 a      1400     0    56     1    25
  4.0798977415173528E-02 a      1401     0    57     1     1
  1.6616231938743276E-01 a      1402     0    57     1     2
  7.3286116947671481E-02 a      1403     0    57     1     3
  1.7548526221795957E-01 a      1404     0    57     1     4
 -6.2452842593869809E-02 a      1405     0    57     1     5
 -1.1978698310237013E-02 a      1406     0    57     1     6
 -1.4776566773817235E-01 a      1407     0    57     1     7
 -1.4177562416218095E-01 a      1408     0    57     1     8
  3.5491628473658887E-02 a      1409     0    57     1     9
  8.8446767695885692E-02 a      1410     0    57     1    10
  1.6781821456964424E-01 a      1411     0    57     1    11
 -1.5178387246918335E-01 a      1412     0    57     1    12
 -3.0850000014478868E-02 a      1413     0    57     1    13
  1.1216403357190666E-01 a      1414     0    57     1    14
 -1.0335857692798193E-01 a      1415     0    57     1    15
 -1.6233934492623892E-01 a      1416     0    57     1    16
 -1.4452837045727801E-01 a      1417     0    57     1    17
  1.5105030784871677E-02 a      1418     0    57     1    18
 -5.1123217057959254E-02 a      1419     0    57     1    19
  2.3857817577908233E-01 a      1420     0    57     1    20
 -3.3932604009477486E-02 a      1421     0    57     1    21
  5.2634626979245931E-02 a      1422     0    57     1    22
  9.6981940885721887E-02 a      1423     0    57     1    23
 -3.1218074896879489E-02 a      1424     0    57     1    24
 -3.8769639713737612E-02 a      1425     0    57     1    25
 -2.9497253114608421E-02 a      1426     0    58     1     1
  3.0451698080208624E-02 a      1427     0    58     1     2
  9.3639987225684479E-02 a      1428     0    58     1     3
 -2.9241241166924598E-01 a      1429     0    58     1     4
  8.6025606145075456E-02 a      1430     0    58     1     5
  2.4162775065650094E-02 a      1431     0    58     1     6
 -1.5494862037558541E-01 a      1432     0    58     1     7
 -1.0946537676084703E-02 a      1433     0    58     1     8
  2.2876560850845803E-01 a      1434     0    58     1     9
 -1.4193543442071480E-02 a      1435     0    58     1    10
 -1.2812985192011311E-01 a      1436     0    58     1    11
  1.3210693947112778E-01 a      1437     0    58     1    12
  2.0087546623486927E-01 a      1438     0    58     1    13
 -1.2800200827978647E-01 a      1439     0    58     1    14
 -7.9910049676089057E-02 a      1440     0    58     1    15
 -2.7308146603266897E-01 a      1441     0    58     1    16
 -1.0818501038749061E-02 a      1442     0    58     1    17
  2.3032252323508084E-01 a      1443     0    58     1    18
 -1.0002584915006604E-01 a      1444     0    58     1    19
 -2.7333170385186720E-02 a      1445     0    58     1    20
  3.0230609105519507E-01 a      1446     0    58     1    21
 -8.2169131924221248E-02 a      1447     0    58     1    22
 -2.5747618560431096E-01 a      1448     0    58     1    23
  6.3331830552815188E-02 a      1449     0    58     1    24
  1.0991233162598027E-03 a      1450     0    58     1    25
 -1.1963879174179952E-02 a      1451     0    59     1     1
 -2.9680778412897146E-01 a      1452     0    59     1     2
 -3.0993600218409173E-03 a      1453     0    59     1     3
  3.4495571501625334E-02 a      1454     0    59     1     4
  4.9386523678891091E-02 a      1455     0    59     1     5
 -4.4150946936060580E-02 a      1456     0    59     1     6
 -1.7651878721175986E-02 a      1457     0    59     1     7
  1.6378923415285573E-01 a      1458     0    59     1     8
 -2.2509264917676594E-01 a      1459     0    59     1     9
 -2.9258203353573920E-02 a      1460     0    59     1    10
 -1.7480627383562053E-01 a      1461     0    59     1    11
  7.4152729917666374E-02 a      1462     0    59     1    12
 -2.0829515921032320E-02 a      1463     0    59     1    13
 -1.1837256449526286E-01 a      1464     0    59     1    14
  1.1680764792304293E-02 a      1465     0    59     1    15
 -1.9156660416341184E-01 a      1466     0    59     1    16
 -2.9036583844745301E-01 a      1467     0    59     1    17
  7.0897337720675788E-02 a      1468     0    59     1    18
  2.1517017007933609E-01 a      1469     0    59     1    19
  1.2056006741728477E-02 a      1470     0    59     1    20
  3.9670749651051884E-02 a      1471     0    59     1    21
 -1.0780878322275846E-01 a      1472     0    59     1    22
  1.1438874277271878E-01 a      1473     0    59     1    23
  7.3455826631848908E-02 a      1474     0    59     1    24
 -1.0377134485438445E-01 a      1475     0    59     1    25
  5.1175727540220595E-02 a      1476     0    60     1     1
 -1.7993222533269948E-01 a      1477     0    60     1     2
 -6.5718761988717234E-02 a      1478     0    60     1     3
  2.7305974494991038E-02 a      1479     0    60     1     4
  7.2821913377598926E-02 a      1480     0    60     1     5
 -1.4710174337117075E-02 a      1481     0    60     1     6
 -9.7889521540386423E-02 a      1482     0    60     1     7
 -5.2778899344572937E-02 a      1483     0    60     1     8
 -5.6666255070971913E-03 a      1484     0    60     1     9
 -4.7128257200471202E-02 a      1485     0    60     1    10
  1.5402586004736230E-02 a      1486     0    60     1    11
 -2.4560180121459715E-02 a      1487     0    60     1    12
  2.5910288277124599E-01 a      1488     0    60     1    13
  1.5276619448808057E-02 a      1489     0    60     1    14
 -3.1346566150795459E-02 a      1490     0    60     1    15
 -8.4147240558773137E-02 a      1491     0    60     1    16
 -7.4586341802376388E-02 a      1492     0    60     1    17
 -4.3313024838110302E-02 a      1493     0    60     1    18
  1.3654377239648915E-01 a      1494     0    60     1    19
  1.5037874394374479E-01 a      1495     0    60     1    20
  1.9305858566615033E-01 a      1496     0    60     1    21
  1.2685309828393740E-01 a      1497     0    60     1    22
 -1.8406832468009126E-02 a      1498     0    60     1    23
 -6.3722913983387253E-02 a      1499     0    60     1    24
 -1.9892692211043980E-01 a      1500     0    60     1    25
 -2.4296836507372860E-01 a      1501     0    61     1     1
 -5.0224916908043073E-02 a      1502     0    61     1     2
  9.9953060426771143E-02 a      1503     0    61     1     3
 -3.2605621966769810E-01 a      1504     0    61     1     4
  8.4799426810075688E-03 a      1505     0    61     1     5
 -1.7782096213799578E-01 a      1506     0    61     1     6
 -1.1057650438957842E-01 a      1507     0    61     1     7
  9.9824586290913578E-02 a      1508     0    61     1     8
  1.1121621822646383E-02 a      1509     0    61     1     9
 -1.2019964907104508E-01 a      1510     0    61     1    10
  2.3756187084328978E-01 a      1511     0    61     1    11
 -5.5915449684531993E-02 a      1512     0    61     1    12
  8.6857892271431744E-02 a      1513     0    61     1    13
  7.5438319167446912E-04 a      1514     0    61     1    14
  1.7701370359196256E-01 a      1515     0    61     1    15
 -1.0336246590920889E-02 a      1516     0    61     1    16
  1.0954638972172610E-01 a      1517     0    61     1    17
  1.0517511403758405E-01 a      1518     0    61     1    18
 -3.0346116774799720E-02 a      1519     0    61     1    19
 -1.1079669859955739E-01 a      1520     0    61     1    20
  1.5377703077250079E-01 a      1521     0    61     1    21
 -2.1427510657921303E-01 a      1522     0    61     1    22
  3.2710120724262182E-01 a      1523     0    61     1    23
 -7.0131727699424481E-02 a      1524     0    61     1    24
  2.0541513748394788E-01 a      1525     0    61     1    25
  6.9097323432527561E-03 a      1526     0    62     1     1
  7.8096622043457731E-03 a      1527     0    62     1     2
 -2.1731137415052802E-02 a      1528     0    62     1     3
  8.6502210884568262E-02 a      1529     0    62     1     4
  8.2097205779139842E-02 a      1530     0    62     1     5
  2.3168955740134797E-01 a      1531     0    62     1     6
  2.2078415247454861E-03 a      1532     0    62     1     7
 -1.4468124818594352E-01 a      1533     0    62     1     8
  2.9181351273369218E-04 a      1534     0    62     1     9
  9.2696312540322318E-02 a      1535     0    62     1    10
  9.5079472730619397E-02 a      1536     0    62     1    11
  5.8581515157822023E-03 a      1537     0    62     1    12
  1.9409728553307165E-02 a      1538     0    62     1    13
 -7.9743768122833000E-02 a      1539     0    62     1    14
 -1.5795765549298116E-01 a      1540     0    62     1    15
 -3.7430395159058417E-02 a      1541     0    62     1    16
 -2.2472210599710138E-01 a      1542     0    62     1    17
 -9.4272276753160536E-02 a      1543     0    62     1    18
  2.0040560502287072E-01 a      1544     0    62     1    19
  2.7596706021519002E-01 a      1545     0    62     1    20
  1.1600770221049728E-01 a      1546     0    62     1    21
  2.5520306734957532E-01 a      1547     0    62     1    22
 -7.7201590080320459E-02 a      1548     0    62     1    23
  1.4166919458817895E-01 a      1549     0    62     1    24
 -8.4281139780797834E-02 a      1550     0    62     1    25
 -2.4653514961029792E-02 a      1551     0    63     1     1
 -7.8629692588787457E-03 a      1552     0    63     1     2
 -1.6451364937956469E-03 a      1553     0    63     1     3
 -1.4308131064567020E-01 a      1554     0    63     1     4
 -3.9869945204492246E-02 a      1555     0    63     1     5
 -1.0317332099118233E-02 a      1556     0    63     1     6
  2.5918678395493430E-02 a      1557     0    63     1     7
  1.6459904940682318E-02 a      1558     0    63     1     8
 -4.8722054782961405E-02 a      1559     0    63     1     9
  3.8905520176433353E-02 a      1560     0    63     1    10
  7.6464513798927936E-02 a      1561     0    63     1    11
  1.5608264578572573E-01 a      1562     0    63     1    12
  2.0032110114744723E-02 a      1563     0    63     1    13
  1.2583155563523973E-01 a      1564     0    63     1    14
  4.6240164283417082E-02 a      1565     0    63     1    15
 -2.1952705875967254E-01 a      1566     0    63     1    16
  5.8142184818577261E-02 a      1567     0    63     1    17
  2.1072266649803932E-02 a      1568     0    63     1    18
 -1.3088752028832509E-01 a      1569     0    63     1    19
 -1.7565675467969760E-01 a      1570     0    63     1    20
 -1.3299082141542512E-01 a      1571     0    63     1    21
  8.1662242302129082E-02 a      1572     0    63     1    22
  1.2556732398245019E-01 a      1573     0    63     1    23
  1.5794930455173775E-01 a      1574     0    63     1    24
 -1.4092337772314847E-02 a      1575     0    63     1    25
  2.7970378444827264E-03 a      1576     0    64     1     1
  3.6069769947487298E-02 a      1577     0    64     1     2
  7.7259407512610914E-02 a      1578     0    64     1     3
 -6.8616387520124084E-02 a      1579     0    64     1     4
  2.2512323084586301E-02 a      1580     0    64     1     5
  8.8173657106637889E-03 a      1581     0    64     1     6
 -6.9819938704151444E-02 a      1582     0    64     1     7
 -4.2556716355868175E-03 a      1583     0    64     1     8
 -2.1044835274017779E-02 a      1584     0    64     1     9
  5.5597086607455208E-02 a      1585     0    64     1    10
 -1.8298450555961601E-01 a      1586     0    64     1    11
 -5.5753987798812056E-02 a      1587     0    64     1    12
 -8.2793496106111975E-02 a      1588     0    64     1    13
  3.3522904204462356E-02 a      1589     0    64     1    14
 -7.3806609002204676E-02 a      1590     0    64     1    15
  2.5314417059165478E-01 a      1591     0    64     1    16
  2.3926036404829629E-02 a      1592     0    64     1    17
 -9.5946289000657103E-02 a      1593     0    64     1    18
  1.4692866731164500E-01 a      1594     0    64     1    19
 -1.1884921693468163E-01 a      1595     0    64     1    20
 -7.9003909516353924E-04 a      1596     0    64     1    21
 -7.1604049731053138E-03 a      1597     0    64     1    22
  6.7895897546288650E-02 a      1598     0    64     1    23
 -1.5474552167232777E-01 a      1599     0    64     1    24
 -3.0835696451751163E-02 a      1600     0    64     1    25
 -8.5938441975876197E-03 a      1601     0    65     1     1
  1.2704594745011241E-01 a      1602     0    65     1     2
 -2.5488425884514415E-02 a      1603     0    65     1     3
 -4.3217645491983647E-02 a      1604     0    65     1     4
 -2.2373531141857375E-02 a      1605     0    65     1     5
 -3.3877259699077245E-01 a      1606     0    65     1     6
  2.7830588751445179E-01 a      1607     0    65     1     7
 -1.0163176721284517E-01 a      1608     0    65     1     8
  2.5846133794992194E-02 a      1609     0    65     1     9
  2.8819630601811013E-02 a      1610     0    65     1    10
 -8.3038429790439003E-02 a      1611     0    65     1    11
 -7.7790156282947619E-03 a      1612     0    65     1    12
  6.5317639578407041E-02 a      1613     0    65     1    13
 -6.8935474596966598E-02 a      1614     0    65     1    14
 -1.1265372107932929E-01 a      1615     0    65     1    15
 -7.2666562905275137E-02 a      1616     0    65     1    16
  1.0562900532678018E-01 a      1617     0    65     1    17
  1.7517909226430095E-01 a      1618     0    65     1    18
 -2.3946175738152009E-01 a      1619     0    65     1    19
 -1.0345982321064509E-01 a      1620     0    65     1    20
  1.5211857636872325E-01 a      1621     0    65     1    21
 -1.4334459243145001E-01 a      1622     0    65     1    22
 -2.1570460869126742E-01 a      1623     0    65     1    23
