################################################################################
# Neural network connection values (weights and biases).
################################################################################
# Col  Name       Description
################################################################################
# 1    connection Neural network connection value.
# 2    t          Connection type (a = weight, b = bias).
# 3    index      Index enumerating weights.
# 4    l_s        Starting point layer (end point layer for biases).
# 5    n_s        Starting point neuron in starting layer (end point neuron for biases).
# 6    l_e        End point layer.
# 7    n_e        End point neuron in end layer.
################################################################################
#                      1 2         3     4     5     6     7
#             connection t     index   l_s   n_s   l_e   n_e
############################################################
 -1.7421547056606013E-01 a         1     0     1     1     1
  1.3015071752034521E-01 a         2     0     1     1     2
  3.1279191866007361E-02 a         3     0     1     1     3
  7.5491592055233050E-02 a         4     0     1     1     4
 -6.9747511309702160E-03 a         5     0     1     1     5
 -3.6641741400560396E-02 a         6     0     1     1     6
 -3.3871673203552721E-01 a         7     0     1     1     7
  1.2739240737416382E-02 a         8     0     1     1     8
  8.2254800206154333E-02 a         9     0     1     1     9
  1.1947997537716512E-02 a        10     0     1     1    10
  4.5619170313108998E-02 a        11     0     1     1    11
 -1.3140985096336533E-01 a        12     0     1     1    12
 -1.4262812180512011E-02 a        13     0     1     1    13
 -1.0948999133156802E-01 a        14     0     1     1    14
 -1.8406879207894158E-01 a        15     0     1     1    15
  1.2469199710552890E-01 a        16     0     1     1    16
 -2.8284129552577147E-01 a        17     0     1     1    17
  3.5177765971770171E-02 a        18     0     1     1    18
  2.6067989573981629E-02 a        19     0     1     1    19
 -1.5136466860537254E-01 a        20     0     1     1    20
  7.2340835079026319E-02 a        21     0     1     1    21
  9.4833989979885722E-02 a        22     0     1     1    22
  2.4755965859069812E-01 a        23     0     1     1    23
  5.0491245501261349E-02 a        24     0     1     1    24
 -5.7793777466817964E-02 a        25     0     1     1    25
 -4.7516188802060114E-02 a        26     0     2     1     1
 -2.2520240249702592E-02 a        27     0     2     1     2
 -1.1547450408120646E-02 a        28     0     2     1     3
  1.7353435806866307E-01 a        29     0     2     1     4
 -1.1188713453673459E-02 a        30     0     2     1     5
 -2.1829397570433937E-01 a        31     0     2     1     6
  7.7641157504641817E-02 a        32     0     2     1     7
 -1.9188237774221581E-01 a        33     0     2     1     8
 -4.1293975508053344E-03 a        34     0     2     1     9
 -7.5555861991536216E-02 a        35     0     2     1    10
 -9.2630434754262442E-02 a        36     0     2     1    11
 -1.9664914780306875E-01 a        37     0     2     1    12
  7.5244465905052208E-03 a        38     0     2     1    13
 -2.1361705256045374E-02 a        39     0     2     1    14
  1.6680900200360194E-01 a        40     0     2     1    15
  3.6743616559678983E-02 a        41     0     2     1    16
 -1.1639437959207231E-01 a        42     0     2     1    17
 -1.0260004320086588E-01 a        43     0     2     1    18
  8.6273192309560279E-02 a        44     0     2     1    19
  9.7423786060419779E-02 a        45     0     2     1    20
  2.7455457674007894E-01 a        46     0     2     1    21
  1.0798645583211007E-01 a        47     0     2     1    22
  8.2989142403275873E-02 a        48     0     2     1    23
 -2.6776361373902313E-01 a        49     0     2     1    24
 -5.7977172717965292E-02 a        50     0     2     1    25
  1.7451575453312543E-01 a        51     0     3     1     1
  1.1054796243982377E-01 a        52     0     3     1     2
  1.5804982263174183E-02 a        53     0     3     1     3
 -2.4639801178745652E-01 a        54     0     3     1     4
 -3.2299087738911471E-02 a        55     0     3     1     5
 -2.2924673502980938E-01 a        56     0     3     1     6
  5.0773531560484985E-03 a        57     0     3     1     7
 -2.3658274760058140E-01 a        58     0     3     1     8
  1.1725487680481211E-01 a        59     0     3     1     9
 -2.5275054973933557E-02 a        60     0     3     1    10
  7.9059793350144417E-02 a        61     0     3     1    11
 -1.3682916615631663E-01 a        62     0     3     1    12
  9.9305181245511659E-02 a        63     0     3     1    13
 -2.1350254854745421E-01 a        64     0     3     1    14
 -5.2213209676470466E-02 a        65     0     3     1    15
  3.4269580643739139E-02 a        66     0     3     1    16
 -1.5619655382023767E-01 a        67     0     3     1    17
 -5.8761365882824039E-02 a        68     0     3     1    18
  6.1057413458566613E-02 a        69     0     3     1    19
  1.5802476728678230E-01 a        70     0     3     1    20
 -9.9589749413075357E-02 a        71     0     3     1    21
 -1.4677571245039997E-01 a        72     0     3     1    22
  5.4145309347321993E-02 a        73     0     3     1    23
 -1.3604453265124805E-01 a        74     0     3     1    24
 -3.5572632267961818E-01 a        75     0     3     1    25
 -2.1387678829566412E-01 a        76     0     4     1     1
 -1.9416511566464176E-01 a        77     0     4     1     2
 -9.7432037207722436E-02 a        78     0     4     1     3
 -2.9222574970686789E-02 a        79     0     4     1     4
  2.0943266892634693E-01 a        80     0     4     1     5
 -2.4103999462603451E-01 a        81     0     4     1     6
 -1.1085335597604967E-01 a        82     0     4     1     7
  7.6846966276177098E-02 a        83     0     4     1     8
  1.9246831549974078E-01 a        84     0     4     1     9
 -2.6162473609046082E-03 a        85     0     4     1    10
 -2.5192999528549304E-01 a        86     0     4     1    11
  2.4252985679179198E-01 a        87     0     4     1    12
  1.2477891108639543E-02 a        88     0     4     1    13
  1.8955144237508800E-01 a        89     0     4     1    14
  1.3584410921844231E-01 a        90     0     4     1    15
 -4.1408114760620382E-02 a        91     0     4     1    16
 -2.8402534435404192E-01 a        92     0     4     1    17
 -1.4789728666562535E-01 a        93     0     4     1    18
 -1.2864626595145555E-02 a        94     0     4     1    19
  5.7059788502784863E-02 a        95     0     4     1    20
  2.5997521608005619E-01 a        96     0     4     1    21
 -4.1256456440390166E-02 a        97     0     4     1    22
 -1.0073151602701937E-01 a        98     0     4     1    23
 -7.0737644305033501E-02 a        99     0     4     1    24
 -3.0433594935119223E-02 a       100     0     4     1    25
 -3.8668261873788423E-01 a       101     0     5     1     1
  1.4138762177041217E-01 a       102     0     5     1     2
 -1.0955874599541174E-01 a       103     0     5     1     3
 -6.3523481733870388E-02 a       104     0     5     1     4
  1.2366268462507633E-03 a       105     0     5     1     5
  2.0656012962885323E-01 a       106     0     5     1     6
 -1.4985784019893917E-02 a       107     0     5     1     7
 -1.4942181887395078E-01 a       108     0     5     1     8
 -1.1536416090397550E-01 a       109     0     5     1     9
 -4.7898688483189532E-02 a       110     0     5     1    10
  6.9668950371094222E-03 a       111     0     5     1    11
 -4.3146448940431875E-02 a       112     0     5     1    12
  7.3672798919166158E-02 a       113     0     5     1    13
 -4.6729509059452286E-02 a       114     0     5     1    14
  1.4975674191957392E-01 a       115     0     5     1    15
  4.0883037660977783E-02 a       116     0     5     1    16
  1.1518395299826342E-01 a       117     0     5     1    17
 -3.1625315582036523E-01 a       118     0     5     1    18
 -6.5003158489203183E-02 a       119     0     5     1    19
  1.2041669523264682E-01 a       120     0     5     1    20
 -1.7048438826111117E-01 a       121     0     5     1    21
  6.1863247555425820E-02 a       122     0     5     1    22
 -2.6689482728538483E-01 a       123     0     5     1    23
  1.8342902197382027E-01 a       124     0     5     1    24
 -1.1021319438333171E-01 a       125     0     5     1    25
  2.3431117873673640E-01 a       126     0     6     1     1
 -9.0378715436919485E-02 a       127     0     6     1     2
 -4.2564863439036295E-02 a       128     0     6     1     3
  5.7819911719867870E-03 a       129     0     6     1     4
  5.3599159359075117E-02 a       130     0     6     1     5
  9.3473241335763083E-02 a       131     0     6     1     6
 -4.7821283973758962E-02 a       132     0     6     1     7
  2.5472742468670900E-01 a       133     0     6     1     8
 -1.9499162318242513E-01 a       134     0     6     1     9
 -1.4367794096993491E-01 a       135     0     6     1    10
 -1.1901052449084924E-01 a       136     0     6     1    11
  1.9747347292344497E-01 a       137     0     6     1    12
  8.5908251160376342E-02 a       138     0     6     1    13
  1.5258975382971782E-01 a       139     0     6     1    14
  1.1916055002122297E-01 a       140     0     6     1    15
 -1.4650172522273361E-01 a       141     0     6     1    16
  1.5034519918307315E-01 a       142     0     6     1    17
  7.6836453233973770E-02 a       143     0     6     1    18
 -8.0616290164110496E-02 a       144     0     6     1    19
 -1.9092369071104276E-01 a       145     0     6     1    20
 -1.1369185103424177E-01 a       146     0     6     1    21
 -2.7251840623164258E-01 a       147     0     6     1    22
  1.3063740687500097E-01 a       148     0     6     1    23
  7.6974418572583275E-02 a       149     0     6     1    24
  3.1707523066525634E-01 a       150     0     6     1    25
 -1.9311726610732452E-02 a       151     0     7     1     1
 -1.7442468763141963E-01 a       152     0     7     1     2
  8.6390613721217507E-02 a       153     0     7     1     3
 -8.6658462960347796E-03 a       154     0     7     1     4
 -1.0921599646040324E-01 a       155     0     7     1     5
  2.5004401940215909E-01 a       156     0     7     1     6
  1.4874301625748426E-01 a       157     0     7     1     7
  9.1702166896133253E-02 a       158     0     7     1     8
  2.4833664996683238E-02 a       159     0     7     1     9
 -4.3710232720541711E-02 a       160     0     7     1    10
  1.6592564536445117E-01 a       161     0     7     1    11
 -5.4204787237947541E-02 a       162     0     7     1    12
 -9.4688662740835122E-02 a       163     0     7     1    13
 -5.7368772637690142E-02 a       164     0     7     1    14
 -4.8772598289559356E-02 a       165     0     7     1    15
 -2.8115987389615249E-01 a       166     0     7     1    16
  2.1462072865643314E-01 a       167     0     7     1    17
 -7.3879220812916077E-02 a       168     0     7     1    18
 -2.0793698697752088E-02 a       169     0     7     1    19
 -1.8941986249161927E-01 a       170     0     7     1    20
 -1.6686510987096431E-01 a       171     0     7     1    21
  1.1354923819290433E-01 a       172     0     7     1    22
 -6.2001857904074292E-03 a       173     0     7     1    23
 -2.0564039658720543E-01 a       174     0     7     1    24
 -1.5110072393071938E-01 a       175     0     7     1    25
 -9.5700539814862401E-02 a       176     0     8     1     1
  3.0418425905828128E-01 a       177     0     8     1     2
  2.3070714264878153E-01 a       178     0     8     1     3
  3.2849697298288555E-01 a       179     0     8     1     4
 -1.7097229648357035E-01 a       180     0     8     1     5
  1.2947638910417880E-01 a       181     0     8     1     6
  3.5366306580670948E-01 a       182     0     8     1     7
  5.9592017073404301E-02 a       183     0     8     1     8
 -2.2519546658810763E-01 a       184     0     8     1     9
  3.9447611712442161E-02 a       185     0     8     1    10
 -1.1480575680886534E-01 a       186     0     8     1    11
 -1.8212984376884619E-01 a       187     0     8     1    12
 -1.1199330770416639E-01 a       188     0     8     1    13
 -2.4950258003993006E-01 a       189     0     8     1    14
 -4.1781057789341873E-02 a       190     0     8     1    15
 -1.6530465438892356E-01 a       191     0     8     1    16
  2.8252293457994382E-01 a       192     0     8     1    17
  2.9970236096222524E-01 a       193     0     8     1    18
 -2.8910183509285980E-02 a       194     0     8     1    19
 -7.4109255760517648E-02 a       195     0     8     1    20
  9.1790455766847759E-02 a       196     0     8     1    21
  1.9753614295458669E-01 a       197     0     8     1    22
 -7.0818913518542539E-02 a       198     0     8     1    23
  6.1399954013312594E-02 a       199     0     8     1    24
 -2.2203377034234591E-02 a       200     0     8     1    25
 -1.2259198855411610E-01 a       201     0     9     1     1
  4.2748301106050240E-01 a       202     0     9     1     2
 -2.5438922019143806E-01 a       203     0     9     1     3
 -1.3886009441576318E-02 a       204     0     9     1     4
 -1.0182792562719251E-01 a       205     0     9     1     5
 -1.3478384678477567E-01 a       206     0     9     1     6
 -5.3381299596843387E-02 a       207     0     9     1     7
 -2.6474306289981059E-01 a       208     0     9     1     8
  1.0511492470554777E-01 a       209     0     9     1     9
 -7.5936660768026354E-02 a       210     0     9     1    10
  1.0389593308837766E-01 a       211     0     9     1    11
 -1.0778488979309034E-01 a       212     0     9     1    12
  2.4808091471018745E-01 a       213     0     9     1    13
 -7.0397434691410197E-03 a       214     0     9     1    14
  1.7937154373751860E-02 a       215     0     9     1    15
  2.8808044314053061E-01 a       216     0     9     1    16
  9.0047970749887657E-02 a       217     0     9     1    17
 -1.6589560742535522E-01 a       218     0     9     1    18
 -2.4839629646265771E-01 a       219     0     9     1    19
 -7.6658860562027031E-02 a       220     0     9     1    20
 -3.4108426948635667E-01 a       221     0     9     1    21
  1.0667200515414382E-01 a       222     0     9     1    22
 -1.6219865856336643E-01 a       223     0     9     1    23
  2.6002708858869628E-01 a       224     0     9     1    24
  2.3149060268658664E-01 a       225     0     9     1    25
  1.2164911727106580E-01 a       226     0    10     1     1
 -2.9996553726503571E-02 a       227     0    10     1     2
  1.7120775789517542E-01 a       228     0    10     1     3
 -2.3910350697634253E-01 a       229     0    10     1     4
  2.4826853845952335E-02 a       230     0    10     1     5
  8.8357293759936298E-02 a       231     0    10     1     6
 -4.9345502590743301E-02 a       232     0    10     1     7
  9.1551795527699237E-02 a       233     0    10     1     8
  2.7242348317050951E-02 a       234     0    10     1     9
  5.3184410400303361E-02 a       235     0    10     1    10
  1.1278012836753172E-01 a       236     0    10     1    11
  2.3195264928912867E-02 a       237     0    10     1    12
 -2.1347765389283951E-01 a       238     0    10     1    13
  7.4318185704256565E-02 a       239     0    10     1    14
 -1.1052191006466412E-01 a       240     0    10     1    15
  1.5898546570816988E-01 a       241     0    10     1    16
  8.1212280624813865E-02 a       242     0    10     1    17
  1.6540887793801728E-01 a       243     0    10     1    18
 -1.6310351162115733E-01 a       244     0    10     1    19
 -3.8182558723776142E-02 a       245     0    10     1    20
  8.0872581424912784E-02 a       246     0    10     1    21
  6.7737331633645854E-03 a       247     0    10     1    22
 -2.3963365382204804E-01 a       248     0    10     1    23
  7.2770087440600428E-02 a       249     0    10     1    24
 -1.4370202509629157E-01 a       250     0    10     1    25
 -1.6242116044514737E-01 a       251     0    11     1     1
  1.6164548086507319E-01 a       252     0    11     1     2
 -1.8015126948880845E-02 a       253     0    11     1     3
 -9.6826948686016462E-02 a       254     0    11     1     4
  1.6768504014654409E-01 a       255     0    11     1     5
  2.2219224249794167E-01 a       256     0    11     1     6
  5.6856427129175990E-02 a       257     0    11     1     7
  6.2338379609788323E-02 a       258     0    11     1     8
 -1.8467766080187564E-01 a       259     0    11     1     9
 -9.7361316181089341E-02 a       260     0    11     1    10
 -1.1405484596508654E-01 a       261     0    11     1    11
 -1.3407892754973535E-01 a       262     0    11     1    12
 -6.8777543869897831E-02 a       263     0    11     1    13
  8.4651662120884350E-03 a       264     0    11     1    14
  1.6939748119231671E-01 a       265     0    11     1    15
  2.9806445242322754E-01 a       266     0    11     1    16
 -1.2140022762255352E-01 a       267     0    11     1    17
 -1.7363590847249671E-02 a       268     0    11     1    18
 -4.0563821789049326E-02 a       269     0    11     1    19
 -5.5080526235088814E-02 a       270     0    11     1    20
  1.5643568575168623E-01 a       271     0    11     1    21
  3.7237932105894538E-02 a       272     0    11     1    22
  4.3586239025019069E-02 a       273     0    11     1    23
  6.8826922484949676E-02 a       274     0    11     1    24
 -1.5231179791524435E-01 a       275     0    11     1    25
  1.1192889550720138E-01 a       276     0    12     1     1
 -1.6247192088814075E-01 a       277     0    12     1     2
 -1.2200067031664892E-01 a       278     0    12     1     3
  8.1806868625664469E-02 a       279     0    12     1     4
  1.0562252836999672E-01 a       280     0    12     1     5
  2.1111480581063383E-02 a       281     0    12     1     6
 -5.7902017841535806E-02 a       282     0    12     1     7
  2.3649402688205399E-02 a       283     0    12     1     8
  1.6247027527278024E-01 a       284     0    12     1     9
  8.6618029801792271E-02 a       285     0    12     1    10
  2.2953045203168124E-01 a       286     0    12     1    11
  1.9564740534062333E-01 a       287     0    12     1    12
 -1.2270651988732646E-01 a       288     0    12     1    13
 -9.0990745061932415E-02 a       289     0    12     1    14
 -3.6557337938089563E-04 a       290     0    12     1    15
  1.6306609450844886E-01 a       291     0    12     1    16
 -1.3308364308890611E-01 a       292     0    12     1    17
 -1.4375030533880678E-01 a       293     0    12     1    18
  3.7667165794944057E-02 a       294     0    12     1    19
  7.5493859211101036E-02 a       295     0    12     1    20
  2.4838928201484997E-01 a       296     0    12     1    21
 -8.8135484103520262E-02 a       297     0    12     1    22
  5.2440229770880559E-02 a       298     0    12     1    23
 -5.5543993710835467E-02 a       299     0    12     1    24
 -2.1204266989218129E-01 a       300     0    12     1    25
 -4.9495047820462967E-01 a       301     0    13     1     1
  5.5100424674521098E-01 a       302     0    13     1     2
 -2.0765141948273924E-01 a       303     0    13     1     3
 -1.5906470470489691E-02 a       304     0    13     1     4
  1.6916152924663935E-01 a       305     0    13     1     5
  2.2393458549744383E-01 a       306     0    13     1     6
 -4.1073651119528698E-01 a       307     0    13     1     7
 -7.1289234311236155E-02 a       308     0    13     1     8
 -4.5445397613047542E-02 a       309     0    13     1     9
 -2.5681940886747467E-01 a       310     0    13     1    10
 -4.5639804652997870E-02 a       311     0    13     1    11
 -8.8798330141602072E-02 a       312     0    13     1    12
 -3.9157124083038397E-01 a       313     0    13     1    13
  1.5990195479274563E-01 a       314     0    13     1    14
 -4.8818647318056062E-03 a       315     0    13     1    15
 -2.5474004708357678E-01 a       316     0    13     1    16
 -9.0664747806485386E-03 a       317     0    13     1    17
 -3.2853595895869786E-01 a       318     0    13     1    18
 -2.7486410385890497E-01 a       319     0    13     1    19
 -1.8286667294375941E-01 a       320     0    13     1    20
 -5.1383667810917688E-02 a       321     0    13     1    21
  1.8173204708042240E-01 a       322     0    13     1    22
 -3.1924527540504843E-02 a       323     0    13     1    23
 -1.8662736641482031E-01 a       324     0    13     1    24
 -1.8104732040556176E-01 a       325     0    13     1    25
  3.5059359695583624E-02 a       326     0    14     1     1
 -1.9359379732047938E-01 a       327     0    14     1     2
  9.6754149081109131E-02 a       328     0    14     1     3
  1.2373902617450093E-01 a       329     0    14     1     4
  5.4241127194228717E-02 a       330     0    14     1     5
 -1.9821986601916775E-01 a       331     0    14     1     6
  1.2355240875936485E-01 a       332     0    14     1     7
  9.1658326131281581E-02 a       333     0    14     1     8
  6.1914441653702572E-02 a       334     0    14     1     9
  1.6748661291125713E-01 a       335     0    14     1    10
 -1.3190900199499150E-01 a       336     0    14     1    11
  3.7581208581960318E-01 a       337     0    14     1    12
 -1.0108972024073737E-01 a       338     0    14     1    13
  4.0401305462799617E-02 a       339     0    14     1    14
  1.9051730386887528E-01 a       340     0    14     1    15
  5.1797247286208929E-02 a       341     0    14     1    16
 -5.4516046222902154E-02 a       342     0    14     1    17
  5.6235054685947035E-02 a       343     0    14     1    18
  6.7827666633002480E-03 a       344     0    14     1    19
  6.5421793224964817E-02 a       345     0    14     1    20
  1.4489569522592720E-03 a       346     0    14     1    21
 -4.7454603425194378E-02 a       347     0    14     1    22
 -4.1100181974410524E-02 a       348     0    14     1    23
  8.2112818428935318E-03 a       349     0    14     1    24
 -3.6389997243881457E-02 a       350     0    14     1    25
 -9.2906935820701100E-02 a       351     0    15     1     1
  1.0170147868148904E-01 a       352     0    15     1     2
 -3.5583591356194495E-02 a       353     0    15     1     3
  3.5831007683850821E-02 a       354     0    15     1     4
 -8.2073474256862886E-02 a       355     0    15     1     5
 -3.2159147952810346E-01 a       356     0    15     1     6
  2.9182912646951290E-03 a       357     0    15     1     7
 -1.6515235325156716E-01 a       358     0    15     1     8
  2.2278466903916046E-02 a       359     0    15     1     9
 -8.3608784583711279E-02 a       360     0    15     1    10
 -2.1638556980304191E-01 a       361     0    15     1    11
 -7.3751159809277225E-02 a       362     0    15     1    12
 -2.6614866661021430E-01 a       363     0    15     1    13
 -3.6106484218812539E-02 a       364     0    15     1    14
 -2.6669253551415040E-01 a       365     0    15     1    15
  3.3056289297293279E-01 a       366     0    15     1    16
 -1.3708600456608441E-01 a       367     0    15     1    17
 -7.4048885613457169E-02 a       368     0    15     1    18
 -2.4184337130510133E-01 a       369     0    15     1    19
  9.6847345979685126E-02 a       370     0    15     1    20
  7.7741017648056852E-03 a       371     0    15     1    21
  2.9993532051003186E-01 a       372     0    15     1    22
 -3.1762464624396358E-02 a       373     0    15     1    23
 -2.2496853461022923E-01 a       374     0    15     1    24
  8.1329758982677872E-02 a       375     0    15     1    25
  4.9029743333455153E-03 a       376     0    16     1     1
 -8.1464340469939042E-02 a       377     0    16     1     2
  3.7144493585023017E-02 a       378     0    16     1     3
  4.1141656621642736E-02 a       379     0    16     1     4
 -3.1288955021588483E-01 a       380     0    16     1     5
 -9.6219987528165185E-02 a       381     0    16     1     6
 -8.8952629585108606E-02 a       382     0    16     1     7
 -1.9197343519084750E-01 a       383     0    16     1     8
 -2.2554871348343125E-01 a       384     0    16     1     9
 -6.5486822894812877E-02 a       385     0    16     1    10
  1.4657837947212413E-01 a       386     0    16     1    11
 -3.2503542959802278E-01 a       387     0    16     1    12
  8.3428843731211288E-02 a       388     0    16     1    13
 -2.0978600712131903E-01 a       389     0    16     1    14
 -2.1719943717823750E-01 a       390     0    16     1    15
 -1.2142594362714013E-01 a       391     0    16     1    16
 -6.0003530899978230E-02 a       392     0    16     1    17
  2.0450374890126310E-01 a       393     0    16     1    18
  5.4372100259158548E-02 a       394     0    16     1    19
  4.9569067867865399E-02 a       395     0    16     1    20
  1.9786604388546097E-01 a       396     0    16     1    21
 -4.5148219330936934E-02 a       397     0    16     1    22
  1.8948420890607326E-01 a       398     0    16     1    23
  6.8834762404312647E-03 a       399     0    16     1    24
 -8.9493117373749709E-02 a       400     0    16     1    25
 -1.0518825286152328E-01 a       401     0    17     1     1
  2.8518168040549730E-01 a       402     0    17     1     2
 -2.5159493380881647E-02 a       403     0    17     1     3
 -3.3563738282269756E-01 a       404     0    17     1     4
 -1.8497137992098248E-02 a       405     0    17     1     5
  1.2042722370670420E-02 a       406     0    17     1     6
 -9.7912671840731588E-02 a       407     0    17     1     7
 -8.1665193705977454E-02 a       408     0    17     1     8
  1.0538385550177430E-02 a       409     0    17     1     9
  3.6339976086827049E-02 a       410     0    17     1    10
 -8.0193956809008746E-02 a       411     0    17     1    11
 -1.6304473527304887E-02 a       412     0    17     1    12
 -9.0930172995868697E-02 a       413     0    17     1    13
  1.1453124836699584E-01 a       414     0    17     1    14
  2.5763032950080156E-01 a       415     0    17     1    15
  1.0263195191099116E-01 a       416     0    17     1    16
  5.1567852991260793E-02 a       417     0    17     1    17
 -4.3035612496527920E-01 a       418     0    17     1    18
  3.7801052896957565E-02 a       419     0    17     1    19
  9.5411760171089668E-02 a       420     0    17     1    20
  3.4768578043768328E-01 a       421     0    17     1    21
  3.1006955410491869E-02 a       422     0    17     1    22
 -4.6024748076458219E-02 a       423     0    17     1    23
 -2.9221144972659596E-01 a       424     0    17     1    24
 -5.7951534835085888E-02 a       425     0    17     1    25
  7.6824230223728751E-03 a       426     0    18     1     1
  1.5969280827761920E-02 a       427     0    18     1     2
 -4.7807153968254454E-02 a       428     0    18     1     3
  2.2392923264211953E-01 a       429     0    18     1     4
 -1.9471064675033140E-02 a       430     0    18     1     5
  1.2947166747534261E-01 a       431     0    18     1     6
 -1.6073222856198710E-01 a       432     0    18     1     7
  1.3062605317837286E-01 a       433     0    18     1     8
 -1.9024059899533549E-01 a       434     0    18     1     9
 -9.1101425485659193E-02 a       435     0    18     1    10
 -2.3165115276074877E-01 a       436     0    18     1    11
 -1.0093489841237140E-01 a       437     0    18     1    12
  3.0161092652315197E-01 a       438     0    18     1    13
 -3.6293858124710249E-01 a       439     0    18     1    14
  9.7118872983238652E-02 a       440     0    18     1    15
 -1.3006905773975180E-01 a       441     0    18     1    16
 -2.7335920497898081E-01 a       442     0    18     1    17
  1.4225504071854139E-01 a       443     0    18     1    18
  4.5942709682728254E-02 a       444     0    18     1    19
  1.4339774502135921E-01 a       445     0    18     1    20
  2.4476596161598782E-01 a       446     0    18     1    21
 -2.3447218266945036E-01 a       447     0    18     1    22
  1.7170869861195157E-01 a       448     0    18     1    23
  3.8749344823807869E-01 a       449     0    18     1    24
 -8.9228554421222753E-02 a       450     0    18     1    25
 -3.6286797627595757E-01 a       451     0    19     1     1
  3.9408456356389243E-01 a       452     0    19     1     2
 -7.0186589631908602E-02 a       453     0    19     1     3
  2.7823054659753564E-02 a       454     0    19     1     4
 -2.6104849318291939E-01 a       455     0    19     1     5
 -6.0419814606271958E-02 a       456     0    19     1     6
  6.4651385381402490E-03 a       457     0    19     1     7
  1.6517479706609203E-01 a       458     0    19     1     8
  9.4912166842526013E-02 a       459     0    19     1     9
 -1.5600158129963928E-02 a       460     0    19     1    10
 -2.6982669266904719E-01 a       461     0    19     1    11
 -1.7327821522612325E-02 a       462     0    19     1    12
 -2.5666463367842696E-01 a       463     0    19     1    13
  4.3074913874150883E-02 a       464     0    19     1    14
  9.4733472993361142E-02 a       465     0    19     1    15
 -1.8039658105412183E-02 a       466     0    19     1    16
  2.6336022880732451E-01 a       467     0    19     1    17
 -2.5409632305114938E-01 a       468     0    19     1    18
 -2.2770971655031402E-02 a       469     0    19     1    19
  1.6904092886084326E-01 a       470     0    19     1    20
  2.3462935537090090E-01 a       471     0    19     1    21
  1.3031119520820947E-01 a       472     0    19     1    22
 -3.7753263886214430E-02 a       473     0    19     1    23
 -1.1440349734101796E-02 a       474     0    19     1    24
  2.6895345415161160E-02 a       475     0    19     1    25
  1.5580989615896074E-01 a       476     0    20     1     1
  9.2596888275005021E-02 a       477     0    20     1     2
 -7.8378632983193332E-04 a       478     0    20     1     3
 -8.1031368835091724E-02 a       479     0    20     1     4
 -1.7398806783326053E-02 a       480     0    20     1     5
  1.7044088657919898E-01 a       481     0    20     1     6
  1.2858988899800119E-01 a       482     0    20     1     7
  1.8410703207196186E-01 a       483     0    20     1     8
  2.3905369489543224E-01 a       484     0    20     1     9
 -2.6537222068119404E-01 a       485     0    20     1    10
 -3.9243047133842142E-02 a       486     0    20     1    11
 -1.7356876179709931E-02 a       487     0    20     1    12
  2.9765949448962820E-01 a       488     0    20     1    13
 -2.2231131076350111E-01 a       489     0    20     1    14
  8.7359641515251371E-02 a       490     0    20     1    15
  1.7702653209005487E-01 a       491     0    20     1    16
  2.6639199310608729E-02 a       492     0    20     1    17
 -1.8964178864565659E-01 a       493     0    20     1    18
  1.2957290398728465E-02 a       494     0    20     1    19
 -1.4807190548059290E-01 a       495     0    20     1    20
 -2.4189430384484370E-01 a       496     0    20     1    21
 -4.7566287065349731E-02 a       497     0    20     1    22
  1.4483625866374322E-01 a       498     0    20     1    23
  2.3584369715840228E-02 a       499     0    20     1    24
  2.2479215154349509E-02 a       500     0    20     1    25
 -9.8996335693663819E-03 a       501     0    21     1     1
  1.7399892622852406E-01 a       502     0    21     1     2
 -4.0034169686124686E-02 a       503     0    21     1     3
  8.3008874199089252E-03 a       504     0    21     1     4
  2.8597958673799401E-01 a       505     0    21     1     5
 -2.2965576638706847E-01 a       506     0    21     1     6
 -2.3630151454720881E-02 a       507     0    21     1     7
 -1.4144381985658802E-01 a       508     0    21     1     8
  7.3651528507999636E-02 a       509     0    21     1     9
 -2.1710971360028086E-01 a       510     0    21     1    10
  1.2400129671480839E-01 a       511     0    21     1    11
 -1.8851996546225697E-01 a       512     0    21     1    12
 -3.2813178578023583E-01 a       513     0    21     1    13
 -7.3188129752400036E-02 a       514     0    21     1    14
 -1.4862515821926470E-01 a       515     0    21     1    15
  1.5559834995761404E-01 a       516     0    21     1    16
  1.4590151211206417E-01 a       517     0    21     1    17
 -8.3974689484195269E-03 a       518     0    21     1    18
 -1.4823434598502269E-01 a       519     0    21     1    19
 -7.2871683811354726E-02 a       520     0    21     1    20
  4.4811534584596933E-02 a       521     0    21     1    21
  2.3999380147136602E-02 a       522     0    21     1    22
 -4.8425191413267246E-02 a       523     0    21     1    23
 -1.7855483600957331E-01 a       524     0    21     1    24
 -5.7067657360221236E-02 a       525     0    21     1    25
  3.4668175208970631E-01 a       526     0    22     1     1
 -2.2290060578651988E-01 a       527     0    22     1     2
  2.2435504883688395E-01 a       528     0    22     1     3
  6.7942060761575591E-03 a       529     0    22     1     4
 -4.1095478000487858E-02 a       530     0    22     1     5
  2.7684339066406405E-01 a       531     0    22     1     6
  7.2981520268267597E-02 a       532     0    22     1     7
  9.1804020042348985E-02 a       533     0    22     1     8
  9.6179515565340309E-02 a       534     0    22     1     9
 -5.7591355550229976E-02 a       535     0    22     1    10
  1.1014407635853608E-01 a       536     0    22     1    11
  8.7298879700921247E-02 a       537     0    22     1    12
  6.9671259074348513E-02 a       538     0    22     1    13
 -1.2488427229861120E-01 a       539     0    22     1    14
 -9.2638058291114628E-02 a       540     0    22     1    15
 -4.9397490370587757E-02 a       541     0    22     1    16
 -3.3210574439574964E-01 a       542     0    22     1    17
  1.6269600256845743E-01 a       543     0    22     1    18
  1.3980031687867761E-01 a       544     0    22     1    19
 -1.5257796502349139E-01 a       545     0    22     1    20
 -1.4524848151752737E-01 a       546     0    22     1    21
 -6.0220353141277300E-02 a       547     0    22     1    22
 -8.9763766288056504E-02 a       548     0    22     1    23
  2.8177449965497003E-01 a       549     0    22     1    24
  3.5522094257611637E-02 a       550     0    22     1    25
  5.5027979485268469E-02 a       551     0    23     1     1
  7.8196971222532344E-02 a       552     0    23     1     2
 -1.4714581755747766E-01 a       553     0    23     1     3
 -2.4077847766299579E-01 a       554     0    23     1     4
  8.6473080769063806E-02 a       555     0    23     1     5
  1.6273398252395158E-01 a       556     0    23     1     6
  1.1590768930021045E-01 a       557     0    23     1     7
 -1.5466440569606785E-01 a       558     0    23     1     8
  1.1442149507057395E-02 a       559     0    23     1     9
  1.3550901930226739E-01 a       560     0    23     1    10
  1.0380843008229329E-01 a       561     0    23     1    11
 -1.1254005493632557E-01 a       562     0    23     1    12
 -3.9477866257381505E-01 a       563     0    23     1    13
  1.5239532838089068E-01 a       564     0    23     1    14
  8.5836737544342706E-02 a       565     0    23     1    15
  2.0093946334552196E-02 a       566     0    23     1    16
  2.3873179102930570E-01 a       567     0    23     1    17
 -4.4690510621261177E-02 a       568     0    23     1    18
  2.8420780195319389E-02 a       569     0    23     1    19
 -3.4797415349855018E-02 a       570     0    23     1    20
  1.0971032529473027E-01 a       571     0    23     1    21
 -6.2388145525487278E-02 a       572     0    23     1    22
 -1.5021934698937390E-02 a       573     0    23     1    23
 -5.9815095513552977E-02 a       574     0    23     1    24
 -6.2944228449601139E-02 a       575     0    23     1    25
 -1.6519495236005177E-01 a       576     0    24     1     1
 -3.2688025816522648E-01 a       577     0    24     1     2
 -1.8662330915578837E-01 a       578     0    24     1     3
 -4.7061127095342083E-02 a       579     0    24     1     4
 -9.9412695074842627E-02 a       580     0    24     1     5
  1.8526474569359122E-01 a       581     0    24     1     6
  2.4919441675183074E-01 a       582     0    24     1     7
 -2.2278333308218629E-01 a       583     0    24     1     8
  1.2892321227869319E-01 a       584     0    24     1     9
 -1.6645403289048505E-01 a       585     0    24     1    10
  2.0543982613454176E-01 a       586     0    24     1    11
 -1.6465116127786356E-01 a       587     0    24     1    12
  8.6487874278965107E-02 a       588     0    24     1    13
 -9.5515596962654579E-03 a       589     0    24     1    14
 -4.3268157348966003E-02 a       590     0    24     1    15
  2.7279738195250752E-01 a       591     0    24     1    16
  1.7066521652852204E-01 a       592     0    24     1    17
  1.5368321114605105E-01 a       593     0    24     1    18
 -1.0134122546370455E-01 a       594     0    24     1    19
  2.9799627826923564E-01 a       595     0    24     1    20
 -1.6571912726337731E-01 a       596     0    24     1    21
 -2.2621062359172150E-01 a       597     0    24     1    22
 -1.2625399474987214E-01 a       598     0    24     1    23
  1.2290331556588165E-01 a       599     0    24     1    24
 -2.3315016099368999E-01 a       600     0    24     1    25
 -1.9941224680207575E-01 a       601     0    25     1     1
  9.6168624532266087E-02 a       602     0    25     1     2
 -8.1653327652605107E-02 a       603     0    25     1     3
 -2.7320010464102618E-01 a       604     0    25     1     4
  3.5184266250212662E-02 a       605     0    25     1     5
  1.4002345568007496E-01 a       606     0    25     1     6
 -7.6367681974130450E-02 a       607     0    25     1     7
  8.0232752564362242E-02 a       608     0    25     1     8
 -5.9513761841702525E-02 a       609     0    25     1     9
 -6.5319155912467813E-02 a       610     0    25     1    10
 -1.4098830753907129E-01 a       611     0    25     1    11
  7.9511748562590190E-02 a       612     0    25     1    12
 -2.9577088874755442E-01 a       613     0    25     1    13
  6.8791708812779684E-02 a       614     0    25     1    14
  6.3801722525042848E-02 a       615     0    25     1    15
 -3.0351243206996059E-01 a       616     0    25     1    16
  3.9289906315736561E-02 a       617     0    25     1    17
 -5.0319516646794100E-04 a       618     0    25     1    18
 -8.8480347240928511E-03 a       619     0    25     1    19
  1.6314372729284080E-01 a       620     0    25     1    20
  1.5471879629001731E-01 a       621     0    25     1    21
 -4.9089328311463537E-02 a       622     0    25     1    22
 -7.1927428434870169E-02 a       623     0    25     1    23
 -3.6528271468294887E-01 a       624     0    25     1    24
 -1.5460326263849769E-01 a       625     0    25     1    25
 -6.5531790983225258E-02 a       626     0    26     1     1
  9.2010682039908743E-03 a       627     0    26     1     2
 -2.5151753090218998E-02 a       628     0    26     1     3
  2.3234492777420679E-02 a       629     0    26     1     4
  4.5652429955985320E-02 a       630     0    26     1     5
 -3.1287269252665471E-02 a       631     0    26     1     6
  2.1794659166201026E-02 a       632     0    26     1     7
  2.8611560912468231E-02 a       633     0    26     1     8
 -1.8950965352548263E-01 a       634     0    26     1     9
  8.5575898645202597E-02 a       635     0    26     1    10
 -4.9734237263181222E-03 a       636     0    26     1    11
 -5.2087101553575751E-02 a       637     0    26     1    12
  1.7561829469032722E-01 a       638     0    26     1    13
 -1.2549112454695674E-01 a       639     0    26     1    14
  1.5074949150370534E-01 a       640     0    26     1    15
  3.5954062929580949E-02 a       641     0    26     1    16
 -4.6934859173004537E-02 a       642     0    26     1    17
 -4.6555958080015579E-02 a       643     0    26     1    18
 -8.6957415049875031E-02 a       644     0    26     1    19
  7.1814495601123338E-02 a       645     0    26     1    20
 -2.9533162105992583E-01 a       646     0    26     1    21
 -7.2213620851330415E-02 a       647     0    26     1    22
 -1.8494751416153369E-02 a       648     0    26     1    23
  3.8871984829546397E-01 a       649     0    26     1    24
  2.5595044012079127E-02 a       650     0    26     1    25
 -1.5987334392660596E-01 a       651     0    27     1     1
 -1.5060302436162000E-02 a       652     0    27     1     2
 -1.0616201949150461E-01 a       653     0    27     1     3
  4.3988497547788587E-02 a       654     0    27     1     4
 -3.5532549714146044E-02 a       655     0    27     1     5
  1.8738082309403298E-01 a       656     0    27     1     6
  1.6759077464823824E-01 a       657     0    27     1     7
  1.4954007469439143E-01 a       658     0    27     1     8
 -2.3826162794786382E-01 a       659     0    27     1     9
 -2.3856727112289053E-01 a       660     0    27     1    10
 -6.4364372067602631E-03 a       661     0    27     1    11
  1.9607187459058292E-01 a       662     0    27     1    12
  3.9855871996359121E-02 a       663     0    27     1    13
  2.0814412496851753E-01 a       664     0    27     1    14
 -3.4763597232179547E-02 a       665     0    27     1    15
 -1.3786337512088445E-01 a       666     0    27     1    16
  1.5364672422569101E-01 a       667     0    27     1    17
 -6.2072079404283165E-02 a       668     0    27     1    18
 -2.8163584438481777E-02 a       669     0    27     1    19
  9.3879606544291533E-02 a       670     0    27     1    20
 -1.0326241171122269E-01 a       671     0    27     1    21
 -2.0579332013843144E-02 a       672     0    27     1    22
  9.5856842478936350E-03 a       673     0    27     1    23
 -1.4793254359948682E-01 a       674     0    27     1    24
 -6.2363063177036146E-02 a       675     0    27     1    25
 -7.8330741660318851E-02 a       676     0    28     1     1
  9.5837006426602020E-02 a       677     0    28     1     2
  1.0023678641347478E-01 a       678     0    28     1     3
 -5.0870979847386748E-02 a       679     0    28     1     4
  3.3713707900941123E-02 a       680     0    28     1     5
 -1.7175357692631865E-01 a       681     0    28     1     6
  2.5093941213272386E-01 a       682     0    28     1     7
  2.3014159845911361E-01 a       683     0    28     1     8
 -2.2427257664253045E-01 a       684     0    28     1     9
 -2.0612492629233422E-02 a       685     0    28     1    10
 -1.2678046530387271E-01 a       686     0    28     1    11
  9.4378413981908854E-02 a       687     0    28     1    12
  1.0722331508010610E-01 a       688     0    28     1    13
 -1.7334141072515349E-02 a       689     0    28     1    14
  8.5194825224968428E-03 a       690     0    28     1    15
  2.0885827535121185E-01 a       691     0    28     1    16
 -6.1794314620607652E-02 a       692     0    28     1    17
  1.0722587221629605E-01 a       693     0    28     1    18
 -1.0728494994821498E-01 a       694     0    28     1    19
 -6.9153675922177998E-02 a       695     0    28     1    20
  1.6197977233695934E-01 a       696     0    28     1    21
  2.0594469721462708E-01 a       697     0    28     1    22
  1.8750051433721066E-01 a       698     0    28     1    23
  2.5774610261769582E-01 a       699     0    28     1    24
 -2.4630547628610316E-01 a       700     0    28     1    25
 -1.8408334553911643E-01 a       701     0    29     1     1
  1.0212869457529784E-02 a       702     0    29     1     2
  2.0117426880190140E-02 a       703     0    29     1     3
  1.5941961658599652E-01 a       704     0    29     1     4
  4.2126575093742520E-02 a       705     0    29     1     5
  7.4119344674036608E-02 a       706     0    29     1     6
  1.3982143014106765E-01 a       707     0    29     1     7
 -9.0318722854409700E-02 a       708     0    29     1     8
 -1.8820702228481093E-01 a       709     0    29     1     9
 -9.7945466917347221E-02 a       710     0    29     1    10
  2.6249156968497034E-01 a       711     0    29     1    11
 -1.4063052361521378E-01 a       712     0    29     1    12
 -6.3331481664379158E-02 a       713     0    29     1    13
 -7.7969938325477897E-02 a       714     0    29     1    14
  1.2181176151288629E-02 a       715     0    29     1    15
 -8.5262716469500663E-02 a       716     0    29     1    16
  1.3375331504367130E-01 a       717     0    29     1    17
 -8.4193678691038040E-02 a       718     0    29     1    18
  4.0095876039137994E-02 a       719     0    29     1    19
 -6.4936595302639705E-02 a       720     0    29     1    20
 -9.6936030845708621E-02 a       721     0    29     1    21
 -9.9267077564984971E-02 a       722     0    29     1    22
  5.5677998564202899E-02 a       723     0    29     1    23
 -1.8492323604395139E-01 a       724     0    29     1    24
  8.8112980941354196E-02 a       725     0    29     1    25
  1.8336610291569011E-01 a       726     0    30     1     1
 -2.2589312693217858E-03 a       727     0    30     1     2
  1.3850297683901899E-01 a       728     0    30     1     3
  1.7911549754626221E-01 a       729     0    30     1     4
 -9.3838993442079660E-02 a       730     0    30     1     5
 -1.2656849703278297E-01 a       731     0    30     1     6
  5.0362397277996775E-02 a       732     0    30     1     7
  6.3664331722952522E-02 a       733     0    30     1     8
  2.4505309629390737E-01 a       734     0    30     1     9
 -1.1792858903383700E-01 a       735     0    30     1    10
 -1.9961579388246400E-01 a       736     0    30     1    11
  8.2813397029959226E-02 a       737     0    30     1    12
  8.0704581245913315E-02 a       738     0    30     1    13
  7.6247793012274842E-02 a       739     0    30     1    14
  1.0614299850301376E-01 a       740     0    30     1    15
  2.1187155452038453E-01 a       741     0    30     1    16
 -2.7245382743320967E-01 a       742     0    30     1    17
  1.1350174354399953E-01 a       743     0    30     1    18
  2.5354627739400470E-01 a       744     0    30     1    19
 -4.9575301915277800E-02 a       745     0    30     1    20
 -1.3082845209189642E-01 a       746     0    30     1    21
 -6.4854342460837280E-02 a       747     0    30     1    22
  4.0960777480957319E-02 a       748     0    30     1    23
  1.6204319617269375E-01 a       749     0    30     1    24
  2.4670683950313349E-01 a       750     0    30     1    25
  2.0121578225309608E-01 a       751     0    31     1     1
  5.3083985093209218E-02 a       752     0    31     1     2
 -5.2637370571432572E-03 a       753     0    31     1     3
 -7.4344137920068831E-02 a       754     0    31     1     4
  6.2055782174750183E-02 a       755     0    31     1     5
  1.1098769435467687E-01 a       756     0    31     1     6
  2.6820034872367265E-01 a       757     0    31     1     7
  6.0277972143184004E-03 a       758     0    31     1     8
  1.7474824851309564E-01 a       759     0    31     1     9
  1.0135488285172706E-01 a       760     0    31     1    10
 -1.7600684844061779E-01 a       761     0    31     1    11
  1.3709720093040398E-01 a       762     0    31     1    12
 -2.6200613280699764E-01 a       763     0    31     1    13
 -2.9128519235823387E-02 a       764     0    31     1    14
  8.0099460492760927E-02 a       765     0    31     1    15
  4.6659880940750798E-02 a       766     0    31     1    16
 -2.3569686755532816E-02 a       767     0    31     1    17
 -9.4421732214041751E-02 a       768     0    31     1    18
  1.1654742435957345E-01 a       769     0    31     1    19
 -6.0144278393569943E-02 a       770     0    31     1    20
  3.2191116349460439E-02 a       771     0    31     1    21
  9.0798509749502113E-02 a       772     0    31     1    22
 -1.4083285543285834E-01 a       773     0    31     1    23
 -1.2225481268623635E-01 a       774     0    31     1    24
 -1.4578045217846597E-01 a       775     0    31     1    25
  1.4604982720949281E-01 a       776     0    32     1     1
 -7.3483605906438446E-02 a       777     0    32     1     2
 -9.7836515805559313E-02 a       778     0    32     1     3
  6.0865741765135734E-02 a       779     0    32     1     4
 -3.5946790639246509E-02 a       780     0    32     1     5
  6.7341196761306871E-02 a       781     0    32     1     6
 -6.8790935639019307E-02 a       782     0    32     1     7
  4.7909936478578392E-02 a       783     0    32     1     8
  1.2288868452132250E-01 a       784     0    32     1     9
  1.0245212406486762E-01 a       785     0    32     1    10
  9.4890050058363526E-02 a       786     0    32     1    11
  1.5998991221262724E-02 a       787     0    32     1    12
  6.3568192269320839E-02 a       788     0    32     1    13
 -2.0843529511050338E-01 a       789     0    32     1    14
 -6.5567625113630013E-02 a       790     0    32     1    15
  3.2798043336604972E-02 a       791     0    32     1    16
 -1.7217118117469213E-01 a       792     0    32     1    17
 -1.9201402125075998E-02 a       793     0    32     1    18
 -3.3365127308796982E-01 a       794     0    32     1    19
 -1.3554041785717819E-01 a       795     0    32     1    20
 -8.9088787440534306E-02 a       796     0    32     1    21
 -5.4292842977152270E-03 a       797     0    32     1    22
 -8.3743371164810732E-02 a       798     0    32     1    23
 -7.4246915976411976E-02 a       799     0    32     1    24
  1.2746236832147684E-01 a       800     0    32     1    25
  6.3979365628081333E-02 a       801     0    33     1     1
  3.2475325246044701E-03 a       802     0    33     1     2
 -3.9246674898221853E-02 a       803     0    33     1     3
 -3.2863425735645457E-01 a       804     0    33     1     4
  7.4499160485734545E-02 a       805     0    33     1     5
  8.8002368022480435E-03 a       806     0    33     1     6
 -5.1333356460004392E-02 a       807     0    33     1     7
  3.0514112597748673E-02 a       808     0    33     1     8
  7.4315787880200684E-02 a       809     0    33     1     9
 -2.4781755013161880E-02 a       810     0    33     1    10
 -9.2480670352498850E-02 a       811     0    33     1    11
  2.8236215718651054E-02 a       812     0    33     1    12
  2.1043315501987629E-03 a       813     0    33     1    13
  1.3746825602691762E-01 a       814     0    33     1    14
 -3.7521047898341056E-02 a       815     0    33     1    15
 -1.5762294871171184E-01 a       816     0    33     1    16
  2.7325273948881412E-02 a       817     0    33     1    17
  1.2606666061914622E-02 a       818     0    33     1    18
  2.0137141877523215E-01 a       819     0    33     1    19
  5.2197294844293696E-02 a       820     0    33     1    20
 -7.2123764651605457E-02 a       821     0    33     1    21
  1.0792690203542461E-01 a       822     0    33     1    22
  5.6301998004148410E-02 a       823     0    33     1    23
 -1.4810866713597583E-02 a       824     0    33     1    24
 -1.3782034740467869E-01 a       825     0    33     1    25
  8.5864443728985961E-03 a       826     0    34     1     1
 -6.1056681867876349E-02 a       827     0    34     1     2
 -7.7803684906545554E-03 a       828     0    34     1     3
  2.0051925776842998E-02 a       829     0    34     1     4
  2.1402426541602758E-02 a       830     0    34     1     5
  1.4739184992037213E-01 a       831     0    34     1     6
 -8.4449875213152281E-02 a       832     0    34     1     7
  7.8894327690151367E-02 a       833     0    34     1     8
 -5.0972306817780894E-02 a       834     0    34     1     9
  1.0947148104787910E-01 a       835     0    34     1    10
 -2.0309014944021850E-01 a       836     0    34     1    11
  9.4610126035742734E-03 a       837     0    34     1    12
 -5.2837998410422096E-02 a       838     0    34     1    13
 -2.8800446087072101E-01 a       839     0    34     1    14
 -2.1824152789099997E-02 a       840     0    34     1    15
  1.5312847385556608E-01 a       841     0    34     1    16
 -4.3159435084790122E-02 a       842     0    34     1    17
 -1.6047364122398805E-01 a       843     0    34     1    18
 -3.7830851034993597E-02 a       844     0    34     1    19
 -8.1873473023691981E-02 a       845     0    34     1    20
  5.2462947532169117E-02 a       846     0    34     1    21
  1.3147374008468644E-02 a       847     0    34     1    22
 -6.2866140115668101E-02 a       848     0    34     1    23
  8.1460087198473047E-03 a       849     0    34     1    24
 -1.0042075180559773E-01 a       850     0    34     1    25
 -1.4893579715490296E-01 a       851     0    35     1     1
 -3.4137899353749460E-02 a       852     0    35     1     2
  5.6092128330606589E-02 a       853     0    35     1     3
 -2.9185975445824412E-02 a       854     0    35     1     4
 -3.4053461782764374E-02 a       855     0    35     1     5
 -1.7659650708685970E-01 a       856     0    35     1     6
 -5.3686878031588690E-02 a       857     0    35     1     7
 -1.9409265740534082E-01 a       858     0    35     1     8
 -9.9474572342641648E-02 a       859     0    35     1     9
  5.1287496726030676E-04 a       860     0    35     1    10
 -1.5647786790852303E-01 a       861     0    35     1    11
 -3.4088100221735340E-01 a       862     0    35     1    12
  2.3495984012395443E-02 a       863     0    35     1    13
 -1.4751567271229471E-01 a       864     0    35     1    14
 -2.1362728658046903E-01 a       865     0    35     1    15
  1.7833199098885341E-01 a       866     0    35     1    16
  1.6396701025627819E-02 a       867     0    35     1    17
  1.1148449668404536E-01 a       868     0    35     1    18
  5.7453499857026497E-02 a       869     0    35     1    19
  1.0185374432849194E-01 a       870     0    35     1    20
 -2.3703720859973879E-01 a       871     0    35     1    21
 -1.4747570020798317E-01 a       872     0    35     1    22
 -9.7292272703599525E-02 a       873     0    35     1    23
 -1.7693383918632608E-02 a       874     0    35     1    24
 -3.9850359320829559E-02 a       875     0    35     1    25
 -4.4312653760132242E-02 a       876     0    36     1     1
 -9.1712806263626379E-02 a       877     0    36     1     2
  1.1529042507962015E-01 a       878     0    36     1     3
 -1.4079944920520046E-02 a       879     0    36     1     4
 -1.0153596331649578E-01 a       880     0    36     1     5
  1.3676756841124465E-02 a       881     0    36     1     6
  6.9037953628674098E-02 a       882     0    36     1     7
 -8.4850246760009740E-02 a       883     0    36     1     8
 -5.2985906801870916E-02 a       884     0    36     1     9
 -1.2308887525977820E-01 a       885     0    36     1    10
 -1.8499101716753974E-01 a       886     0    36     1    11
 -5.2555291090911990E-02 a       887     0    36     1    12
 -2.7929402136012602E-03 a       888     0    36     1    13
  1.0929648190755465E-02 a       889     0    36     1    14
 -9.8375997153157854E-02 a       890     0    36     1    15
  3.0448978707200669E-01 a       891     0    36     1    16
  6.7152755207408668E-02 a       892     0    36     1    17
 -3.5107665621402516E-02 a       893     0    36     1    18
 -1.5051187085500370E-01 a       894     0    36     1    19
  4.1418663245918814E-02 a       895     0    36     1    20
  2.0114474759136601E-02 a       896     0    36     1    21
  6.7381770263563096E-02 a       897     0    36     1    22
  1.7020939973349680E-01 a       898     0    36     1    23
 -4.2677802710280856E-02 a       899     0    36     1    24
 -1.9631495364006857E-01 a       900     0    36     1    25
  1.2594134165504041E-02 a       901     0    37     1     1
  1.2218999726916450E-01 a       902     0    37     1     2
  6.0003428736958707E-02 a       903     0    37     1     3
  5.5151708070450563E-02 a       904     0    37     1     4
  9.1366857551256009E-02 a       905     0    37     1     5
  2.0327209275627975E-01 a       906     0    37     1     6
  7.2209023810774209E-02 a       907     0    37     1     7
  2.0807220897930623E-02 a       908     0    37     1     8
 -8.3908232446993400E-02 a       909     0    37     1     9
 -5.8735368715476924E-02 a       910     0    37     1    10
  2.2104219370852740E-01 a       911     0    37     1    11
  3.8503209274368108E-02 a       912     0    37     1    12
 -1.0993102877806840E-01 a       913     0    37     1    13
 -1.3847045187564599E-01 a       914     0    37     1    14
  2.3802057937622076E-01 a       915     0    37     1    15
 -5.1659662364895720E-02 a       916     0    37     1    16
 -9.5865233227796401E-02 a       917     0    37     1    17
 -7.5171929610190882E-02 a       918     0    37     1    18
 -1.4908059065510176E-01 a       919     0    37     1    19
 -1.3342990103773425E-01 a       920     0    37     1    20
 -5.7658600177979129E-02 a       921     0    37     1    21
 -5.4805338998140968E-02 a       922     0    37     1    22
  1.2613689838529731E-02 a       923     0    37     1    23
 -5.0929837449841600E-03 a       924     0    37     1    24
  1.6714110216370934E-01 a       925     0    37     1    25
  4.1182287183986498E-02 a       926     0    38     1     1
  1.2811539721208018E-01 a       927     0    38     1     2
  1.5289933722128843E-01 a       928     0    38     1     3
  1.1499341123826130E-02 a       929     0    38     1     4
  6.0547287579145785E-02 a       930     0    38     1     5
 -1.5467246658594649E-01 a       931     0    38     1     6
 -8.1263075744129457E-02 a       932     0    38     1     7
  1.4651541264852640E-02 a       933     0    38     1     8
 -6.2817404345900232E-02 a       934     0    38     1     9
 -6.7261925191734989E-02 a       935     0    38     1    10
  3.2799006820682652E-01 a       936     0    38     1    11
 -1.7078764640199870E-01 a       937     0    38     1    12
  1.9516003315716470E-03 a       938     0    38     1    13
  1.2398789000299532E-02 a       939     0    38     1    14
  1.2165692019046051E-01 a       940     0    38     1    15
  8.8105942954513627E-03 a       941     0    38     1    16
 -2.5311670055004437E-01 a       942     0    38     1    17
  9.7021537370782937E-02 a       943     0    38     1    18
  1.5387917189529438E-01 a       944     0    38     1    19
 -6.4955692575944468E-02 a       945     0    38     1    20
  1.5354530066792244E-02 a       946     0    38     1    21
 -1.1816478676871274E-01 a       947     0    38     1    22
  1.2442803956211322E-01 a       948     0    38     1    23
  3.3982304468074841E-02 a       949     0    38     1    24
  2.2461595934459525E-01 a       950     0    38     1    25
 -8.7273923139381593E-02 a       951     0    39     1     1
 -2.7301764366121126E-02 a       952     0    39     1     2
 -1.0931187006865364E-01 a       953     0    39     1     3
  1.9994840422535468E-01 a       954     0    39     1     4
 -9.9691835427260983E-02 a       955     0    39     1     5
 -3.1185146239714932E-02 a       956     0    39     1     6
  9.6883308749256672E-02 a       957     0    39     1     7
  1.4039241626121449E-01 a       958     0    39     1     8
  3.2279151299484193E-02 a       959     0    39     1     9
 -7.8374255985702704E-02 a       960     0    39     1    10
  2.0961135953093962E-01 a       961     0    39     1    11
  1.9715963969206379E-01 a       962     0    39     1    12
 -1.2101638351291691E-01 a       963     0    39     1    13
  1.5208455014978717E-01 a       964     0    39     1    14
  4.1774013149063545E-02 a       965     0    39     1    15
 -1.4643677555238294E-01 a       966     0    39     1    16
  2.6115686253500903E-01 a       967     0    39     1    17
 -2.3308811532301403E-02 a       968     0    39     1    18
  2.0263486231291147E-01 a       969     0    39     1    19
 -7.2001742470851962E-02 a       970     0    39     1    20
 -1.5347014914274137E-01 a       971     0    39     1    21
  1.4188438091634734E-01 a       972     0    39     1    22
  5.7603777502867541E-02 a       973     0    39     1    23
 -1.1416032579484095E-01 a       974     0    39     1    24
  2.9083402442297440E-01 a       975     0    39     1    25
  6.1898121120039146E-02 a       976     0    40     1     1
  3.7703214623523371E-02 a       977     0    40     1     2
 -9.1160224464441456E-02 a       978     0    40     1     3
  4.4956798045457755E-02 a       979     0    40     1     4
  3.2826267389076798E-02 a       980     0    40     1     5
 -1.0073363189731613E-01 a       981     0    40     1     6
 -1.4124718629632046E-01 a       982     0    40     1     7
 -5.1036381261448369E-02 a       983     0    40     1     8
  7.6025237311592206E-02 a       984     0    40     1     9
 -5.2191630264651900E-02 a       985     0    40     1    10
 -1.4243162922680808E-01 a       986     0    40     1    11
 -8.7982359467952936E-02 a       987     0    40     1    12
  9.5965386410172673E-02 a       988     0    40     1    13
 -5.0617531821306027E-03 a       989     0    40     1    14
  1.6274216796993011E-02 a       990     0    40     1    15
 -7.4067345263863091E-02 a       991     0    40     1    16
 -1.8286142700853613E-02 a       992     0    40     1    17
  4.2590694758281707E-02 a       993     0    40     1    18
  3.0075986674482341E-01 a       994     0    40     1    19
  2.3475708719602490E-02 a       995     0    40     1    20
 -1.4575104759434959E-01 a       996     0    40     1    21
 -1.3212769529800059E-01 a       997     0    40     1    22
 -8.9277478394249099E-02 a       998     0    40     1    23
  4.8288899836084226E-02 a       999     0    40     1    24
  9.5949105705780788E-02 a      1000     0    40     1    25
  9.1448884840579045E-02 a      1001     0    41     1     1
 -4.6469296920328411E-02 a      1002     0    41     1     2
  7.1729684802189206E-02 a      1003     0    41     1     3
 -2.0339654059526258E-01 a      1004     0    41     1     4
  1.0442157984450667E-01 a      1005     0    41     1     5
 -3.2295666679803908E-01 a      1006     0    41     1     6
  3.2581751325652408E-01 a      1007     0    41     1     7
 -2.6796001147297788E-01 a      1008     0    41     1     8
 -1.0518746446363114E-01 a      1009     0    41     1     9
 -4.0540510417901521E-02 a      1010     0    41     1    10
 -4.9771850558885479E-02 a      1011     0    41     1    11
 -7.3120299099733305E-02 a      1012     0    41     1    12
 -2.3133756467983310E-01 a      1013     0    41     1    13
  1.6686706509056976E-01 a      1014     0    41     1    14
  2.2379962438414341E-01 a      1015     0    41     1    15
  1.1788281800327316E-01 a      1016     0    41     1    16
  2.2538787190262874E-01 a      1017     0    41     1    17
  2.3751194096034636E-01 a      1018     0    41     1    18
 -2.1482320365775925E-01 a      1019     0    41     1    19
 -1.8548426542441137E-02 a      1020     0    41     1    20
  3.4709193966498963E-02 a      1021     0    41     1    21
  1.2332969952467868E-01 a      1022     0    41     1    22
  1.3830264155305599E-01 a      1023     0    41     1    23
  2.8232818631054479E-01 a      1024     0    41     1    24
 -2.2825899554055555E-02 a      1025     0    41     1    25
 -4.3231822932332481E-01 a      1026     0    42     1     1
  1.4378522886587322E-01 a      1027     0    42     1     2
 -1.3597424718772297E-01 a      1028     0    42     1     3
  1.5373128657994967E-01 a      1029     0    42     1     4
 -2.9301210256269644E-01 a      1030     0    42     1     5
  2.1785299222646204E-01 a      1031     0    42     1     6
  2.3912634975425476E-01 a      1032     0    42     1     7
  1.7100204704822958E-01 a      1033     0    42     1     8
  1.0885620180009830E-02 a      1034     0    42     1     9
 -1.6747272370606714E-01 a      1035     0    42     1    10
 -2.0276363518923454E-01 a      1036     0    42     1    11
  1.9483692511086190E-01 a      1037     0    42     1    12
  4.3089485399610972E-01 a      1038     0    42     1    13
  8.8454593705186838E-02 a      1039     0    42     1    14
 -4.9821315001403653E-02 a      1040     0    42     1    15
 -1.7127443344880527E-01 a      1041     0    42     1    16
 -4.1360023511684794E-02 a      1042     0    42     1    17
 -4.2059614908450871E-01 a      1043     0    42     1    18
  2.9959690686573254E-01 a      1044     0    42     1    19
 -8.6306605546684623E-02 a      1045     0    42     1    20
 -1.9352560290892817E-01 a      1046     0    42     1    21
 -7.1765934758341254E-02 a      1047     0    42     1    22
  2.8471749511515149E-01 a      1048     0    42     1    23
  2.2618101041103603E-01 a      1049     0    42     1    24
 -1.4738568027875093E-01 a      1050     0    42     1    25
 -2.3057204834615638E-01 a      1051     0    43     1     1
 -3.4021726044674533E-01 a      1052     0    43     1     2
  1.2287736176916017E-01 a      1053     0    43     1     3
  1.8625669185603236E-01 a      1054     0    43     1     4
  5.2327187103780579E-02 a      1055     0    43     1     5
 -6.7976347426253123E-02 a      1056     0    43     1     6
 -1.9552616177457896E-01 a      1057     0    43     1     7
 -1.1905688418118896E-02 a      1058     0    43     1     8
  8.8914313596072936E-02 a      1059     0    43     1     9
 -1.1864543422036020E-01 a      1060     0    43     1    10
  2.0990884403764279E-01 a      1061     0    43     1    11
  9.3988109704839631E-02 a      1062     0    43     1    12
 -4.6472977940325344E-02 a      1063     0    43     1    13
  1.5826482505220588E-01 a      1064     0    43     1    14
  6.4154198990721292E-02 a      1065     0    43     1    15
  1.6694719877780241E-02 a      1066     0    43     1    16
  2.1022155767473841E-01 a      1067     0    43     1    17
 -4.6913436037490375E-02 a      1068     0    43     1    18
 -7.1366294437623226E-02 a      1069     0    43     1    19
  6.0354701675440620E-04 a      1070     0    43     1    20
 -1.8711178838082026E-02 a      1071     0    43     1    21
  8.0047523146982425E-04 a      1072     0    43     1    22
 -7.3133249537744874E-02 a      1073     0    43     1    23
 -3.5699969972424805E-02 a      1074     0    43     1    24
 -2.7103643566374241E-01 a      1075     0    43     1    25
  3.0281759435974359E-01 a      1076     0    44     1     1
  1.4841453658762752E-01 a      1077     0    44     1     2
  3.0440066187542962E-02 a      1078     0    44     1     3
 -1.9026419823284940E-01 a      1079     0    44     1     4
  1.2214084912913283E-01 a      1080     0    44     1     5
  7.1420344962214583E-02 a      1081     0    44     1     6
  2.6310155899692050E-03 a      1082     0    44     1     7
  2.1746711475208094E-01 a      1083     0    44     1     8
 -9.2340616424735039E-02 a      1084     0    44     1     9
  1.2936480611302878E-01 a      1085     0    44     1    10
  1.0390468433967323E-01 a      1086     0    44     1    11
 -7.6103779220546910E-02 a      1087     0    44     1    12
 -2.6338119141534072E-01 a      1088     0    44     1    13
  2.0309886717768605E-01 a      1089     0    44     1    14
 -2.8324299372215433E-01 a      1090     0    44     1    15
  2.3832712540537099E-01 a      1091     0    44     1    16
 -9.4755329437120256E-02 a      1092     0    44     1    17
 -6.4907620567730057E-02 a      1093     0    44     1    18
  1.6337178863176710E-01 a      1094     0    44     1    19
  1.5857626754145143E-01 a      1095     0    44     1    20
 -2.0613046280486885E-01 a      1096     0    44     1    21
 -5.9941306940810145E-02 a      1097     0    44     1    22
 -1.5569123328332668E-01 a      1098     0    44     1    23
 -2.4313885430289425E-01 a      1099     0    44     1    24
  1.9886970037872911E-01 a      1100     0    44     1    25
 -2.7333940865869096E-02 a      1101     0    45     1     1
 -1.8373980429474190E-01 a      1102     0    45     1     2
  1.8845006239972206E-01 a      1103     0    45     1     3
 -7.6793695363385804E-03 a      1104     0    45     1     4
  5.4675359529163289E-02 a      1105     0    45     1     5
 -6.3155850792568122E-02 a      1106     0    45     1     6
 -1.6396124176681987E-01 a      1107     0    45     1     7
 -5.9862579831326493E-02 a      1108     0    45     1     8
  1.7624737134700408E-01 a      1109     0    45     1     9
  6.5850201391966831E-02 a      1110     0    45     1    10
  7.5402096129931553E-02 a      1111     0    45     1    11
 -2.5149675556421158E-01 a      1112     0    45     1    12
 -2.4636091090204540E-01 a      1113     0    45     1    13
  9.6465536482686200E-04 a      1114     0    45     1    14
 -7.9497842740344396E-02 a      1115     0    45     1    15
  2.3834705211152218E-01 a      1116     0    45     1    16
 -2.6208552442652616E-01 a      1117     0    45     1    17
  5.7239331715907144E-02 a      1118     0    45     1    18
 -9.2516005130515791E-02 a      1119     0    45     1    19
  2.8684757938282651E-01 a      1120     0    45     1    20
  8.9310292934606517E-02 a      1121     0    45     1    21
  1.3434132400734000E-01 a      1122     0    45     1    22
 -1.6923885457786456E-01 a      1123     0    45     1    23
  2.2618974980217235E-01 a      1124     0    45     1    24
  1.3131358499660081E-01 a      1125     0    45     1    25
 -9.3155428025866641E-02 a      1126     0    46     1     1
  1.4858660441591701E-01 a      1127     0    46     1     2
  6.7079153867539473E-02 a      1128     0    46     1     3
 -6.6702558450581553E-02 a      1129     0    46     1     4
 -9.4325303852578396E-02 a      1130     0    46     1     5
 -5.3548890278465995E-02 a      1131     0    46     1     6
 -9.2117934373815769E-02 a      1132     0    46     1     7
 -2.6188613425515800E-01 a      1133     0    46     1     8
  7.5310214458697861E-03 a      1134     0    46     1     9
 -8.0629250135698619E-02 a      1135     0    46     1    10
  2.4283423534005796E-01 a      1136     0    46     1    11
 -7.7617646233347284E-02 a      1137     0    46     1    12
 -4.9141461128690826E-02 a      1138     0    46     1    13
 -2.3704010864339337E-01 a      1139     0    46     1    14
 -3.5626692036122115E-01 a      1140     0    46     1    15
  1.8200281359027368E-01 a      1141     0    46     1    16
 -7.3174784545231792E-03 a      1142     0    46     1    17
  4.3018824818443990E-02 a      1143     0    46     1    18
 -2.5356357304725441E-01 a      1144     0    46     1    19
  1.6329380441228733E-01 a      1145     0    46     1    20
  2.1358909772042828E-02 a      1146     0    46     1    21
 -6.0624691085203998E-02 a      1147     0    46     1    22
 -1.0929422285520282E-01 a      1148     0    46     1    23
  9.5401957687317379E-02 a      1149     0    46     1    24
  4.7116154059512576E-02 a      1150     0    46     1    25
 -6.3803551643578232E-02 a      1151     0    47     1     1
  1.9174472390460506E-01 a      1152     0    47     1     2
  1.3486175753379038E-02 a      1153     0    47     1     3
 -2.3841881706787543E-01 a      1154     0    47     1     4
  1.6443742409535417E-01 a      1155     0    47     1     5
 -6.9279375143234470E-02 a      1156     0    47     1     6
 -1.7721703262582994E-01 a      1157     0    47     1     7
 -1.3281222613599344E-01 a      1158     0    47     1     8
  3.7633172323101226E-02 a      1159     0    47     1     9
  2.1663686897272005E-01 a      1160     0    47     1    10
 -1.2848186174459472E-01 a      1161     0    47     1    11
  2.3548707296479184E-02 a      1162     0    47     1    12
  1.8805502071107014E-01 a      1163     0    47     1    13
 -1.6348048037370422E-01 a      1164     0    47     1    14
 -7.0394457004050254E-02 a      1165     0    47     1    15
  1.5212797872931389E-02 a      1166     0    47     1    16
 -3.8800328399718705E-02 a      1167     0    47     1    17
  1.8002054508602264E-01 a      1168     0    47     1    18
  3.4779508969500800E-01 a      1169     0    47     1    19
 -1.0203447534896579E-01 a      1170     0    47     1    20
  2.0362129189795611E-01 a      1171     0    47     1    21
  5.8960850160857031E-02 a      1172     0    47     1    22
 -4.1017645584746847E-02 a      1173     0    47     1    23
  1.9013139936621082E-01 a      1174     0    47     1    24
 -2.4387521679289995E-02 a      1175     0    47     1    25
 -1.1456424105692495E-01 a      1176     0    48     1     1
 -1.9685113758775283E-01 a      1177     0    48     1     2
 -1.3621037790800067E-01 a      1178     0    48     1     3
  3.9650899179246069E-01 a      1179     0    48     1     4
 -1.5139905077765783E-01 a      1180     0    48     1     5
 -1.6934741066185369E-01 a      1181     0    48     1     6
 -3.2834331215946216E-01 a      1182     0    48     1     7
 -2.1619388387703550E-02 a      1183     0    48     1     8
 -3.0430118058616479E-01 a      1184     0    48     1     9
  1.7111649657104816E-01 a      1185     0    48     1    10
 -1.1507855706886432E-01 a      1186     0    48     1    11
 -1.0665764740689367E-01 a      1187     0    48     1    12
  2.3976578818768225E-02 a      1188     0    48     1    13
  1.3290696418353840E-01 a      1189     0    48     1    14
  3.5428714845612989E-02 a      1190     0    48     1    15
  2.1453390378566289E-01 a      1191     0    48     1    16
  2.4761085113832629E-02 a      1192     0    48     1    17
  9.2550686933135173E-02 a      1193     0    48     1    18
  1.4495672310149789E-02 a      1194     0    48     1    19
 -1.3434742928974314E-01 a      1195     0    48     1    20
 -1.1610123244905557E-01 a      1196     0    48     1    21
  4.3543990443710399E-02 a      1197     0    48     1    22
  3.0266044213581894E-01 a      1198     0    48     1    23
  8.1188913193061693E-02 a      1199     0    48     1    24
 -2.1844211278615575E-01 a      1200     0    48     1    25
  1.2494965409839878E-01 a      1201     0    49     1     1
  9.5052503752194997E-02 a      1202     0    49     1     2
 -2.6619324946287541E-02 a      1203     0    49     1     3
 -1.7036407048494520E-01 a      1204     0    49     1     4
  1.9874594238831669E-01 a      1205     0    49     1     5
  1.5705518591327702E-01 a      1206     0    49     1     6
 -1.1354554392068500E-01 a      1207     0    49     1     7
  7.5449649443101660E-02 a      1208     0    49     1     8
  4.6696354974922930E-02 a      1209     0    49     1     9
  1.0711591166994297E-01 a      1210     0    49     1    10
  8.0049150066320227E-02 a      1211     0    49     1    11
 -2.6786421281702566E-01 a      1212     0    49     1    12
 -8.4629024641656198E-02 a      1213     0    49     1    13
  6.4256452235190761E-02 a      1214     0    49     1    14
  3.5957529353797674E-02 a      1215     0    49     1    15
  8.0156599653060837E-02 a      1216     0    49     1    16
 -1.2200584379707283E-01 a      1217     0    49     1    17
 -1.1184912138581979E-01 a      1218     0    49     1    18
  1.3153020736294879E-01 a      1219     0    49     1    19
  7.8653094092849665E-02 a      1220     0    49     1    20
  2.3307615019214520E-01 a      1221     0    49     1    21
 -2.8178897710388107E-02 a      1222     0    49     1    22
  8.1954535696528108E-02 a      1223     0    49     1    23
 -1.3417993391879790E-01 a      1224     0    49     1    24
  3.2278976022133601E-02 a      1225     0    49     1    25
 -1.7866761701193060E-01 a      1226     0    50     1     1
  7.6247507502452599E-02 a      1227     0    50     1     2
  1.0369034733744585E-02 a      1228     0    50     1     3
 -1.8120171695048648E-01 a      1229     0    50     1     4
  8.3414925911701049E-02 a      1230     0    50     1     5
 -3.9271754528450623E-02 a      1231     0    50     1     6
 -8.2012162937375357E-02 a      1232     0    50     1     7
 -1.4230230389794210E-01 a      1233     0    50     1     8
 -1.3109410615598618E-01 a      1234     0    50     1     9
  4.2368588101972908E-02 a      1235     0    50     1    10
 -2.1217309496236267E-01 a      1236     0    50     1    11
 -1.6355255528546445E-01 a      1237     0    50     1    12
 -1.9712686944202884E-01 a      1238     0    50     1    13
 -8.8861221742397342E-02 a      1239     0    50     1    14
 -3.4357517882231549E-02 a      1240     0    50     1    15
 -1.3062030892468565E-01 a      1241     0    50     1    16
  1.1505497543487118E-01 a      1242     0    50     1    17
  2.1747191067545521E-01 a      1243     0    50     1    18
  2.1217892460221968E-01 a      1244     0    50     1    19
 -1.0555206957764930E-01 a      1245     0    50     1    20
  1.3164932212825947E-01 a      1246     0    50     1    21
 -2.0171804054772430E-01 a      1247     0    50     1    22
  8.7697917490863586E-02 a      1248     0    50     1    23
  1.6861890508111005E-01 a      1249     0    50     1    24
  1.8361444089916495E-01 a      1250     0    50     1    25
 -3.1267695911468230E-01 a      1251     0    51     1     1
 -1.5822119542467217E-01 a      1252     0    51     1     2
 -6.9347752678592334E-02 a      1253     0    51     1     3
  3.6680187721775426E-01 a      1254     0    51     1     4
 -1.6062390457370720E-01 a      1255     0    51     1     5
 -4.0361610921531531E-02 a      1256     0    51     1     6
  1.1487988601224305E-01 a      1257     0    51     1     7
  1.1541970281017451E-01 a      1258     0    51     1     8
  1.9453480189343728E-01 a      1259     0    51     1     9
  1.1896432352507003E-01 a      1260     0    51     1    10
 -7.7611856379136673E-02 a      1261     0    51     1    11
 -1.4172735157447916E-02 a      1262     0    51     1    12
  1.1143329701011039E-01 a      1263     0    51     1    13
  1.8848756923885512E-01 a      1264     0    51     1    14
 -3.2099665065172722E-01 a      1265     0    51     1    15
  6.0141446274580103E-02 a      1266     0    51     1    16
 -3.0578900415147065E-02 a      1267     0    51     1    17
 -1.6482029004555679E-01 a      1268     0    51     1    18
  1.9961800323389561E-01 a      1269     0    51     1    19
  1.1319951737426505E-01 a      1270     0    51     1    20
 -1.4501341040392499E-01 a      1271     0    51     1    21
 -1.3188202999849433E-01 a      1272     0    51     1    22
 -8.8865420128621756E-03 a      1273     0    51     1    23
 -1.3225325769745558E-01 a      1274     0    51     1    24
 -2.3442205434923816E-01 a      1275     0    51     1    25
  3.4635114816057577E-01 a      1276     0    52     1     1
 -3.0115057494516856E-01 a      1277     0    52     1     2
  2.1515879747303859E-01 a      1278     0    52     1     3
 -2.6035345315114855E-01 a      1279     0    52     1     4
  7.6977605963624005E-02 a      1280     0    52     1     5
 -7.7521106000133691E-02 a      1281     0    52     1     6
 -2.0805425788133131E-01 a      1282     0    52     1     7
  1.1965603519615622E-01 a      1283     0    52     1     8
 -7.8686606701639975E-02 a      1284     0    52     1     9
  3.6692700913642895E-01 a      1285     0    52     1    10
 -3.8056483543020263E-02 a      1286     0    52     1    11
  6.9133743209441767E-02 a      1287     0    52     1    12
  1.1594607860023884E-01 a      1288     0    52     1    13
 -1.8850429642931588E-01 a      1289     0    52     1    14
 -1.7936826458097430E-01 a      1290     0    52     1    15
 -1.1746928674490292E-01 a      1291     0    52     1    16
  4.2497037386995933E-03 a      1292     0    52     1    17
  3.3473558719602736E-01 a      1293     0    52     1    18
 -1.0450367776293251E-01 a      1294     0    52     1    19
  8.5080130697889028E-02 a      1295     0    52     1    20
  2.4998549583938290E-01 a      1296     0    52     1    21
  2.4112158763832107E-02 a      1297     0    52     1    22
 -1.1558055953114126E-01 a      1298     0    52     1    23
 -1.1511052397638909E-01 a      1299     0    52     1    24
  1.4670628430229506E-02 a      1300     0    52     1    25
  3.7479362352839198E-02 a      1301     0    53     1     1
  8.9493873283341019E-02 a      1302     0    53     1     2
 -9.7270736388227683E-03 a      1303     0    53     1     3
  1.3099597069923263E-01 a      1304     0    53     1     4
 -3.2734800404075443E-01 a      1305     0    53     1     5
  4.1676488926860371E-02 a      1306     0    53     1     6
  1.3296500383400237E-01 a      1307     0    53     1     7
 -1.9776575252522535E-01 a      1308     0    53     1     8
 -4.2633764445199750E-02 a      1309     0    53     1     9
  6.7518656088571341E-02 a      1310     0    53     1    10
  9.3202664427290569E-02 a      1311     0    53     1    11
 -4.2591945253311107E-02 a      1312     0    53     1    12
 -7.5848997378588176E-02 a      1313     0    53     1    13
 -3.6206775130199383E-02 a      1314     0    53     1    14
 -1.7288655235682934E-01 a      1315     0    53     1    15
  2.0286536503504568E-01 a      1316     0    53     1    16
 -9.3184746116241182E-02 a      1317     0    53     1    17
  4.0467850867492515E-02 a      1318     0    53     1    18
 -7.5049855389451095E-02 a      1319     0    53     1    19
 -2.9084085387436220E-01 a      1320     0    53     1    20
 -1.2829917712525596E-01 a      1321     0    53     1    21
  1.6300532243709029E-01 a      1322     0    53     1    22
  1.7031928205274321E-01 a      1323     0    53     1    23
 -2.0034411701152118E-02 a      1324     0    53     1    24
 -1.3706500326248023E-02 a      1325     0    53     1    25
  1.3889104293086573E-02 a      1326     0    54     1     1
 -1.5621578609676723E-01 a      1327     0    54     1     2
 -1.9854719039398450E-01 a      1328     0    54     1     3
 -7.9006168619814993E-02 a      1329     0    54     1     4
 -4.2043956537257177E-02 a      1330     0    54     1     5
 -8.1614065409203213E-02 a      1331     0    54     1     6
  2.2317712901967790E-01 a      1332     0    54     1     7
  5.9629315629344405E-02 a      1333     0    54     1     8
 -1.3851128742823718E-01 a      1334     0    54     1     9
 -2.2172494407450288E-01 a      1335     0    54     1    10
  1.2510370974974608E-01 a      1336     0    54     1    11
  1.3799402527505988E-01 a      1337     0    54     1    12
  6.2054108380058329E-02 a      1338     0    54     1    13
  5.4758827426634842E-02 a      1339     0    54     1    14
  8.0243635505768157E-02 a      1340     0    54     1    15
 -2.6800246351646673E-01 a      1341     0    54     1    16
  1.7194940198512343E-01 a      1342     0    54     1    17
  3.6362430760079265E-02 a      1343     0    54     1    18
 -1.2771074810676247E-01 a      1344     0    54     1    19
 -2.3610154726779500E-01 a      1345     0    54     1    20
 -1.7712604353828218E-01 a      1346     0    54     1    21
 -1.4941622879356919E-01 a      1347     0    54     1    22
  1.9649024379011414E-02 a      1348     0    54     1    23
 -6.2029336669239016E-02 a      1349     0    54     1    24
 -9.6543708138129569E-02 a      1350     0    54     1    25
  4.6805404518032633E-02 a      1351     0    55     1     1
  3.0080882895533723E-01 a      1352     0    55     1     2
 -1.0127847628562453E-01 a      1353     0    55     1     3
  3.6679080354907058E-02 a      1354     0    55     1     4
  1.4451469045152984E-01 a      1355     0    55     1     5
 -5.5528570255658972E-02 a      1356     0    55     1     6
 -2.0833905057172891E-02 a      1357     0    55     1     7
 -1.5453292575895783E-01 a      1358     0    55     1     8
 -1.0498828109908417E-01 a      1359     0    55     1     9
  6.2019103756980359E-02 a      1360     0    55     1    10
  4.0124488040304690E-01 a      1361     0    55     1    11
  7.3706268721542021E-03 a      1362     0    55     1    12
  7.0902139534798930E-02 a      1363     0    55     1    13
 -7.9217869038434918E-02 a      1364     0    55     1    14
  1.2005996929006153E-02 a      1365     0    55     1    15
 -1.8445022302354433E-01 a      1366     0    55     1    16
  2.9109020774688854E-01 a      1367     0    55     1    17
  1.5080072619596978E-02 a      1368     0    55     1    18
  1.7589951823375813E-01 a      1369     0    55     1    19
 -3.0883427125007734E-01 a      1370     0    55     1    20
  1.1249547464305881E-01 a      1371     0    55     1    21
 -7.7916042837386946E-03 a      1372     0    55     1    22
  6.9567691501866896E-02 a      1373     0    55     1    23
 -1.8772423197275140E-01 a      1374     0    55     1    24
  1.0910152204377044E-01 a      1375     0    55     1    25
  1.9765957945703364E-01 a      1376     0    56     1     1
 -1.3342152060273932E-01 a      1377     0    56     1     2
 -7.0763501039953408E-02 a      1378     0    56     1     3
 -8.9742841919305850E-03 a      1379     0    56     1     4
  5.4876492899022439E-02 a      1380     0    56     1     5
  3.7722308340390018E-02 a      1381     0    56     1     6
 -5.4378871972680189E-02 a      1382     0    56     1     7
  1.2113182720305722E-01 a      1383     0    56     1     8
 -5.7723633663193746E-02 a      1384     0    56     1     9
 -2.8941126626128205E-01 a      1385     0    56     1    10
 -1.6404388928786398E-01 a      1386     0    56     1    11
 -1.4248304482605492E-01 a      1387     0    56     1    12
  1.8185303373680964E-01 a      1388     0    56     1    13
  4.3469169273455024E-02 a      1389     0    56     1    14
 -2.5172034912270106E-02 a      1390     0    56     1    15
 -6.6809255745902407E-03 a      1391     0    56     1    16
 -4.4615947412481961E-02 a      1392     0    56     1    17
 -4.7303032606990113E-02 a      1393     0    56     1    18
 -1.2981894279971268E-01 a      1394     0    56     1    19
  4.1842416487364940E-02 a      1395     0    56     1    20
 -4.2382994443743563E-02 a      1396     0    56     1    21
 -9.1877776716831252E-03 a      1397     0    56     1    22
  1.0843780936103575E-01 a      1398     0    56     1    23
 -8.5622894535888006E-02 a      1399     0    56     1    24
 -1.8591369707762040E-02 a      1400     0    56     1    25
  3.8395917590501920E-02 a      1401     0    57     1     1
  1.6709830589725069E-01 a      1402     0    57     1     2
  6.4405661752835186E-02 a      1403     0    57     1     3
  1.6527269190815688E-01 a      1404     0    57     1     4
 -5.2431781260159745E-02 a      1405     0    57     1     5
 -1.1984783783120212E-01 a      1406     0    57     1     6
 -1.0872112979232709E-01 a      1407     0    57     1     7
 -1.8223563172896629E-01 a      1408     0    57     1     8
  4.2593221244210687E-02 a      1409     0    57     1     9
  8.8106994994326629E-02 a      1410     0    57     1    10
  1.4351020720263294E-01 a      1411     0    57     1    11
 -1.1884475851841637E-01 a      1412     0    57     1    12
  2.0700142540726230E-03 a      1413     0    57     1    13
  8.3701455305019018E-02 a      1414     0    57     1    14
  5.9592000817820390E-03 a      1415     0    57     1    15
 -1.1411467732154192E-01 a      1416     0    57     1    16
 -1.8290086138616546E-01 a      1417     0    57     1    17
  2.9009044732205825E-02 a      1418     0    57     1    18
 -2.8669595495700105E-02 a      1419     0    57     1    19
  1.7737820165846005E-01 a      1420     0    57     1    20
 -2.4450350853862841E-02 a      1421     0    57     1    21
  5.8790620360267117E-02 a      1422     0    57     1    22
  3.3736291435677093E-02 a      1423     0    57     1    23
  3.3514566014178153E-04 a      1424     0    57     1    24
  3.7736392181596225E-02 a      1425     0    57     1    25
 -7.1693020407087721E-02 a      1426     0    58     1     1
  2.5436382583713157E-01 a      1427     0    58     1     2
  1.6811235231062283E-01 a      1428     0    58     1     3
 -1.5027060295163314E-01 a      1429     0    58     1     4
  1.3458805175845889E-01 a      1430     0    58     1     5
 -5.2313884238350483E-02 a      1431     0    58     1     6
 -2.8370175276147480E-01 a      1432     0    58     1     7
  2.4863181823241251E-02 a      1433     0    58     1     8
  9.8729455089068691E-02 a      1434     0    58     1     9
 -3.2435871038365656E-02 a      1435     0    58     1    10
 -9.9834829585493515E-02 a      1436     0    58     1    11
  1.6780940642939055E-01 a      1437     0    58     1    12
  2.9312184184310525E-01 a      1438     0    58     1    13
 -7.1950845676244532E-02 a      1439     0    58     1    14
 -6.6856587234338155E-02 a      1440     0    58     1    15
 -3.3840507644291562E-01 a      1441     0    58     1    16
 -2.3582763826633719E-02 a      1442     0    58     1    17
  2.5106521339645093E-02 a      1443     0    58     1    18
 -5.0665131872734366E-02 a      1444     0    58     1    19
 -1.5087972612838088E-01 a      1445     0    58     1    20
  1.9867443703308474E-01 a      1446     0    58     1    21
  3.9177853530109302E-02 a      1447     0    58     1    22
 -1.4493386266218908E-01 a      1448     0    58     1    23
 -3.7948824816544623E-02 a      1449     0    58     1    24
 -8.6669011324546880E-02 a      1450     0    58     1    25
  4.7705193603972837E-02 a      1451     0    59     1     1
 -2.6593287657265624E-01 a      1452     0    59     1     2
 -7.3035654213141510E-02 a      1453     0    59     1     3
  9.6831995319047848E-02 a      1454     0    59     1     4
  4.9736159992543695E-02 a      1455     0    59     1     5
  6.5766702612406483E-02 a      1456     0    59     1     6
 -7.5150489600073742E-02 a      1457     0    59     1     7
  9.0953056227554882E-02 a      1458     0    59     1     8
 -2.3544789823180132E-01 a      1459     0    59     1     9
 -6.2390438882748936E-02 a      1460     0    59     1    10
 -7.8106519981115952E-02 a      1461     0    59     1    11
  5.5269388491611199E-02 a      1462     0    59     1    12
 -8.9651224316151620E-02 a      1463     0    59     1    13
 -5.3378872849485968E-02 a      1464     0    59     1    14
  4.6366808585943407E-02 a      1465     0    59     1    15
 -1.7412929101301566E-01 a      1466     0    59     1    16
 -3.1756706025275511E-01 a      1467     0    59     1    17
  1.0098453835070871E-01 a      1468     0    59     1    18
  2.0230645751653889E-01 a      1469     0    59     1    19
  6.7094693123304142E-02 a      1470     0    59     1    20
 -1.8537267962522419E-02 a      1471     0    59     1    21
 -1.4429599983886451E-01 a      1472     0    59     1    22
  3.6782104658739531E-02 a      1473     0    59     1    23
  1.2333993167685356E-01 a      1474     0    59     1    24
  2.0118766828197198E-02 a      1475     0    59     1    25
  4.1865506559181760E-02 a      1476     0    60     1     1
 -2.0294292327142524E-01 a      1477     0    60     1     2
 -6.9531412820892646E-02 a      1478     0    60     1     3
  1.2547471692933543E-02 a      1479     0    60     1     4
  5.4078969040149416E-02 a      1480     0    60     1     5
  5.9893767537628290E-02 a      1481     0    60     1     6
 -1.7479252072345913E-01 a      1482     0    60     1     7
 -9.5317468087128127E-02 a      1483     0    60     1     8
 -2.4952254367797350E-03 a      1484     0    60     1     9
 -1.1970220597810068E-01 a      1485     0    60     1    10
 -2.2804705437454945E-02 a      1486     0    60     1    11
 -7.7578921547851842E-02 a      1487     0    60     1    12
  2.9074857145347910E-01 a      1488     0    60     1    13
  2.7749843891848518E-02 a      1489     0    60     1    14
 -9.0693488526932112E-02 a      1490     0    60     1    15
  1.3304953271855036E-02 a      1491     0    60     1    16
 -4.7398866964983050E-02 a      1492     0    60     1    17
 -3.8995397495773680E-02 a      1493     0    60     1    18
  1.5754470014200087E-01 a      1494     0    60     1    19
  1.2685644884224628E-01 a      1495     0    60     1    20
  2.0713464595574882E-01 a      1496     0    60     1    21
  1.5491241244189483E-01 a      1497     0    60     1    22
 -4.2008238436994968E-03 a      1498     0    60     1    23
 -2.2965342447233239E-01 a      1499     0    60     1    24
 -2.5126060952503043E-01 a      1500     0    60     1    25
 -1.4915177575363711E-01 a      1501     0    61     1     1
 -2.9404061474115565E-02 a      1502     0    61     1     2
  1.1552935127955341E-01 a      1503     0    61     1     3
 -2.4396355179189411E-01 a      1504     0    61     1     4
  7.4703797233969096E-02 a      1505     0    61     1     5
 -1.8000215289593810E-01 a      1506     0    61     1     6
 -2.3610727775055813E-02 a      1507     0    61     1     7
  7.8975181994438148E-02 a      1508     0    61     1     8
  1.5198800630883897E-02 a      1509     0    61     1     9
 -6.0472916507001172E-02 a      1510     0    61     1    10
  1.2227783405583185E-01 a      1511     0    61     1    11
 -1.7265780897877402E-02 a      1512     0    61     1    12
  4.8026784836756597E-03 a      1513     0    61     1    13
  1.5691228544194102E-01 a      1514     0    61     1    14
 -1.8346474249210046E-03 a      1515     0    61     1    15
  5.5276285180722848E-02 a      1516     0    61     1    16
  5.8359134882537946E-02 a      1517     0    61     1    17
  3.0645961894461539E-02 a      1518     0    61     1    18
 -1.2797959673597223E-01 a      1519     0    61     1    19
 -1.5734139591392912E-01 a      1520     0    61     1    20
  1.3636062526823430E-02 a      1521     0    61     1    21
 -1.7299808849671966E-01 a      1522     0    61     1    22
  1.1853713394196173E-01 a      1523     0    61     1    23
 -1.7611645425324091E-01 a      1524     0    61     1    24
  5.0319827557279991E-02 a      1525     0    61     1    25
  1.9945936419852711E-01 a      1526     0    62     1     1
  3.3869562873084701E-02 a      1527     0    62     1     2
 -1.1908967932071260E-01 a      1528     0    62     1     3
  2.1317107281140826E-01 a      1529     0    62     1     4
  1.7914210087815216E-03 a      1530     0    62     1     5
  2.3449068840539641E-01 a      1531     0    62     1     6
  2.3483274277227982E-02 a      1532     0    62     1     7
 -3.1571038367919926E-02 a      1533     0    62     1     8
 -2.0413083170268197E-02 a      1534     0    62     1     9
  1.8694363070094411E-01 a      1535     0    62     1    10
  1.0589349096493886E-01 a      1536     0    62     1    11
 -1.8565110915363933E-02 a      1537     0    62     1    12
  3.2872305645354559E-02 a      1538     0    62     1    13
 -2.5852462785269220E-01 a      1539     0    62     1    14
 -6.6634954383933798E-02 a      1540     0    62     1    15
 -8.6229057822977184E-02 a      1541     0    62     1    16
 -1.8080501607149493E-01 a      1542     0    62     1    17
 -1.9643099491314314E-01 a      1543     0    62     1    18
  1.6232229081791405E-01 a      1544     0    62     1    19
  8.0001837603076928E-03 a      1545     0    62     1    20
  9.5861731705899247E-02 a      1546     0    62     1    21
  1.0101349287611687E-01 a      1547     0    62     1    22
 -1.1557747587665157E-01 a      1548     0    62     1    23
  9.8064377165425001E-03 a      1549     0    62     1    24
  7.9459249524863763E-03 a      1550     0    62     1    25
 -1.7495965415725084E-01 a      1551     0    63     1     1
 -3.1372539365012546E-02 a      1552     0    63     1     2
  1.9240717312162845E-02 a      1553     0    63     1     3
 -2.1949863084705787E-01 a      1554     0    63     1     4
  8.1159039116554602E-02 a      1555     0    63     1     5
  8.3235260409491335E-02 a      1556     0    63     1     6
 -4.2844478416172678E-02 a      1557     0    63     1     7
  7.4525234802823345E-02 a      1558     0    63     1     8
  1.1383129985332753E-01 a      1559     0    63     1     9
  1.2696692059225143E-01 a      1560     0    63     1    10
 -1.7181647869697603E-02 a      1561     0    63     1    11
  1.3481562112527079E-01 a      1562     0    63     1    12
 -2.4061005342164921E-01 a      1563     0    63     1    13
  3.3196459050661048E-01 a      1564     0    63     1    14
  2.0478282237817926E-02 a      1565     0    63     1    15
 -1.5609123884862469E-01 a      1566     0    63     1    16
 -1.4877551114171506E-01 a      1567     0    63     1    17
 -1.1654195865951339E-01 a      1568     0    63     1    18
 -7.5469819398114322E-03 a      1569     0    63     1    19
 -9.2185337180271332E-02 a      1570     0    63     1    20
  4.9815910385617487E-02 a      1571     0    63     1    21
 -3.0995072331356292E-02 a      1572     0    63     1    22
 -6.3861935803642647E-02 a      1573     0    63     1    23
  9.4498608203375366E-03 a      1574     0    63     1    24
  1.0297187336380544E-02 a      1575     0    63     1    25
 -6.5729560748595692E-02 a      1576     0    64     1     1
 -1.4720491348452909E-02 a      1577     0    64     1     2
  8.9821942559449128E-02 a      1578     0    64     1     3
 -8.3177325308586930E-02 a      1579     0    64     1     4
  5.1134638397837745E-02 a      1580     0    64     1     5
  1.7976748461143418E-03 a      1581     0    64     1     6
 -2.6655965781947755E-01 a      1582     0    64     1     7
 -3.3404017016096320E-02 a      1583     0    64     1     8
 -1.0482547632637148E-02 a      1584     0    64     1     9
  6.3332722098205493E-02 a      1585     0    64     1    10
 -2.1113545699053968E-01 a      1586     0    64     1    11
  1.8030832077669263E-02 a      1587     0    64     1    12
 -5.9706637015346321E-02 a      1588     0    64     1    13
 -1.3146603187582581E-01 a      1589     0    64     1    14
 -1.0579704174107361E-01 a      1590     0    64     1    15
  2.9583216321898931E-01 a      1591     0    64     1    16
 -9.4276876077991886E-02 a      1592     0    64     1    17
 -6.8226901387428304E-02 a      1593     0    64     1    18
 -2.8546601653123345E-02 a      1594     0    64     1    19
  6.6871494537281643E-03 a      1595     0    64     1    20
 -2.1785389745906832E-02 a      1596     0    64     1    21
  3.4170652443007189E-02 a      1597     0    64     1    22
 -2.9525454772185086E-03 a      1598     0    64     1    23
 -7.4048231784877558E-02 a      1599     0    64     1    24
 -1.1616662364731596E-01 a      1600     0    64     1    25
 -3.0203741236924032E-02 a      1601     0    65     1     1
  8.1843192920447644E-02 a      1602     0    65     1     2
 -7.4711189956406278E-03 a      1603     0    65     1     3
 -4.6363509220329183E-02 a      1604     0    65     1     4
  1.2490613674483885E-02 a      1605     0    65     1     5
 -2.9172441913233205E-01 a      1606     0    65     1     6
  2.8193010698279986E-01 a      1607     0    65     1     7
 -1.1469782742094711E-01 a      1608     0    65     1     8
  1.0770287963888839E-01 a      1609     0    65     1     9
 -3.2550147566555256E-02 a      1610     0    65     1    10
 -1.7716008984699508E-01 a      1611     0    65     1    11
  4.7342519051169679E-02 a      1612     0    65     1    12
  5.1638713102147731E-02 a      1613     0    65     1    13
 -1.1211233036776347E-02 a      1614     0    65     1    14
 -9.0494071970573089E-02 a      1615     0    65     1    15
 -1.3221775211677858E-01 a      1616     0    65     1    16
  1.2686448128745392E-01 a      1617     0    65     1    17
  2.5183164007985415E-01 a      1618     0    65     1    18
 -2.1467852473048324E-01 a      1619     0    65     1    19
 -1.8409187887279993E-01 a      1620     0    65     1    20
  2.5454897298424795E-01 a      1621     0    65     1    21
  4.2184959285665777E-02 a      1622     0    65     1    22
 -6.8892034064503657E-02 a      1623     0    65     1    23
