################################################################################
# Neural network connection values (weights and biases).
################################################################################
# Col  Name       Description
################################################################################
# 1    connection Neural network connection value.
# 2    t          Connection type (a = weight, b = bias).
# 3    index      Index enumerating weights.
# 4    l_s        Starting point layer (end point layer for biases).
# 5    n_s        Starting point neuron in starting layer (end point neuron for biases).
# 6    l_e        End point layer.
# 7    n_e        End point neuron in end layer.
################################################################################
#                      1 2         3     4     5     6     7
#             connection t     index   l_s   n_s   l_e   n_e
############################################################
 -4.9148367369405567E-02 a         1     0     1     1     1
 -4.8669376030729856E-02 a         2     0     1     1     2
 -1.6906661515845484E-02 a         3     0     1     1     3
  2.0528967224027958E-01 a         4     0     1     1     4
  5.8973271335375076E-02 a         5     0     1     1     5
 -1.3573854407103378E-01 a         6     0     1     1     6
 -1.3295628478602553E-01 a         7     0     1     1     7
 -2.0893176890633445E-02 a         8     0     1     1     8
 -1.3025610583487593E-01 a         9     0     1     1     9
  2.5195612418339390E-02 a        10     0     1     1    10
  1.4369915055034035E-02 a        11     0     1     1    11
  1.0463837278859155E-01 a        12     0     1     1    12
  8.6830000896588409E-03 a        13     0     1     1    13
  1.0372993756893097E-01 a        14     0     1     1    14
 -9.8793547585014088E-02 a        15     0     1     1    15
  8.3547172579384044E-03 a        16     0     1     1    16
  1.2247758200543589E-01 a        17     0     1     1    17
 -2.1888087849119053E-01 a        18     0     1     1    18
  4.3597135069021201E-02 a        19     0     1     1    19
 -1.4346848468337847E-01 a        20     0     1     1    20
  2.3346452118063332E-01 a        21     0     1     1    21
 -3.2479917208666130E-02 a        22     0     1     1    22
 -2.4538651232663987E-02 a        23     0     1     1    23
 -1.0095259885509265E-01 a        24     0     1     1    24
  9.5303840655934793E-02 a        25     0     1     1    25
  5.5096721511533036E-03 a        26     0     2     1     1
 -1.0335617394497534E-01 a        27     0     2     1     2
  1.9887432931087384E-02 a        28     0     2     1     3
  2.0767796077602813E-01 a        29     0     2     1     4
 -6.2028619101270485E-02 a        30     0     2     1     5
  2.8423684435372493E-02 a        31     0     2     1     6
 -1.0532731915610613E-01 a        32     0     2     1     7
  2.9962462833591268E-02 a        33     0     2     1     8
  2.1819558738869867E-02 a        34     0     2     1     9
  1.2496788261287782E-01 a        35     0     2     1    10
  6.2963650396048773E-02 a        36     0     2     1    11
 -1.2743488366015686E-02 a        37     0     2     1    12
  5.5400459534222006E-02 a        38     0     2     1    13
 -6.6276600992704632E-02 a        39     0     2     1    14
 -3.1910686400601254E-02 a        40     0     2     1    15
  2.6214408117469812E-01 a        41     0     2     1    16
 -5.8530748510355890E-02 a        42     0     2     1    17
 -6.7070916281154122E-02 a        43     0     2     1    18
 -5.3051265736217122E-02 a        44     0     2     1    19
  8.4217468543969914E-02 a        45     0     2     1    20
  1.4258069797477962E-01 a        46     0     2     1    21
 -2.0320948685265827E-01 a        47     0     2     1    22
 -8.1719864616943916E-02 a        48     0     2     1    23
 -2.3585905012389261E-02 a        49     0     2     1    24
 -1.5607086624182198E-01 a        50     0     2     1    25
 -1.1759029282358774E-01 a        51     0     3     1     1
  1.7078562561703614E-01 a        52     0     3     1     2
  1.0880857917734076E-01 a        53     0     3     1     3
 -3.2249678929744605E-02 a        54     0     3     1     4
  1.6672326363991385E-01 a        55     0     3     1     5
  1.0255222823792456E-01 a        56     0     3     1     6
  1.0971125449055937E-01 a        57     0     3     1     7
  1.1339458054497474E-01 a        58     0     3     1     8
  2.1254889648812968E-02 a        59     0     3     1     9
 -2.0374451465829027E-01 a        60     0     3     1    10
  5.3103016576932519E-02 a        61     0     3     1    11
 -2.3394250646982518E-02 a        62     0     3     1    12
  6.5916368317611232E-02 a        63     0     3     1    13
  9.2731448446015122E-02 a        64     0     3     1    14
  1.4919404728973779E-01 a        65     0     3     1    15
  4.9613325623588424E-02 a        66     0     3     1    16
 -1.9884596822363847E-03 a        67     0     3     1    17
 -1.0429569730406839E-01 a        68     0     3     1    18
 -6.2808116557524496E-02 a        69     0     3     1    19
 -2.0103089211782180E-01 a        70     0     3     1    20
 -5.6581236537255823E-02 a        71     0     3     1    21
  1.4225065215251484E-01 a        72     0     3     1    22
 -4.0553849608021636E-02 a        73     0     3     1    23
  1.8203696625627469E-01 a        74     0     3     1    24
 -1.5647594018565200E-01 a        75     0     3     1    25
  9.3974269780606662E-02 a        76     0     4     1     1
 -2.1131229383300119E-02 a        77     0     4     1     2
  7.9317627490883766E-02 a        78     0     4     1     3
 -6.9897357074555203E-02 a        79     0     4     1     4
 -1.7283259098467882E-01 a        80     0     4     1     5
  1.6551558560646130E-03 a        81     0     4     1     6
 -2.0828195678397279E-01 a        82     0     4     1     7
  8.4185009880511138E-03 a        83     0     4     1     8
  3.4729677085946063E-02 a        84     0     4     1     9
 -2.9496059698054738E-01 a        85     0     4     1    10
  1.2538797498712118E-01 a        86     0     4     1    11
 -1.0163325661608230E-01 a        87     0     4     1    12
 -1.5516390482148587E-01 a        88     0     4     1    13
  1.8865882598010747E-01 a        89     0     4     1    14
  1.3317417921082528E-01 a        90     0     4     1    15
  1.4165343968525618E-01 a        91     0     4     1    16
 -1.4562190025561034E-01 a        92     0     4     1    17
 -3.6373642293591905E-02 a        93     0     4     1    18
  3.4140199096332709E-02 a        94     0     4     1    19
  1.2785778974698417E-02 a        95     0     4     1    20
  2.0764572695841316E-01 a        96     0     4     1    21
 -3.0613955666854153E-01 a        97     0     4     1    22
  3.9414240029849862E-02 a        98     0     4     1    23
  1.3274338588480875E-01 a        99     0     4     1    24
  6.0811493404807704E-03 a       100     0     4     1    25
 -1.7817354609481345E-01 a       101     0     5     1     1
  1.1599593046337631E-01 a       102     0     5     1     2
 -5.7556060808862997E-02 a       103     0     5     1     3
 -1.3917545615032972E-01 a       104     0     5     1     4
  1.7909226407442216E-01 a       105     0     5     1     5
  1.5295885771167372E-01 a       106     0     5     1     6
  9.8048889949988213E-02 a       107     0     5     1     7
  4.6283967347947406E-03 a       108     0     5     1     8
 -7.0714666323571582E-02 a       109     0     5     1     9
  4.4817875577386874E-02 a       110     0     5     1    10
 -1.3363207500633861E-01 a       111     0     5     1    11
 -1.6898031474100211E-01 a       112     0     5     1    12
 -1.0515558371603100E-01 a       113     0     5     1    13
 -6.9613924241626532E-02 a       114     0     5     1    14
  5.0013226777100482E-02 a       115     0     5     1    15
  7.9454718476578687E-02 a       116     0     5     1    16
 -2.7642522924450058E-01 a       117     0     5     1    17
  4.0644442769973733E-02 a       118     0     5     1    18
  9.3394505212006443E-02 a       119     0     5     1    19
  1.7269157025081291E-02 a       120     0     5     1    20
  2.1451399706576424E-01 a       121     0     5     1    21
 -1.1892618827955186E-01 a       122     0     5     1    22
  1.3834475456477874E-01 a       123     0     5     1    23
  3.6236908097691083E-02 a       124     0     5     1    24
 -2.5082087365307391E-02 a       125     0     5     1    25
 -1.2355361715893740E-01 a       126     0     6     1     1
  1.3002183569229395E-01 a       127     0     6     1     2
  8.5662219598912660E-03 a       128     0     6     1     3
 -2.6049883691721215E-01 a       129     0     6     1     4
 -1.8116194826870553E-02 a       130     0     6     1     5
 -1.2135002502906361E-01 a       131     0     6     1     6
  7.3688841032825719E-02 a       132     0     6     1     7
  1.9195227840250770E-02 a       133     0     6     1     8
 -4.8329677826487283E-02 a       134     0     6     1     9
  9.1302585666771047E-02 a       135     0     6     1    10
  2.5785293361673223E-02 a       136     0     6     1    11
  2.7924901793978674E-01 a       137     0     6     1    12
  8.8291156074207650E-02 a       138     0     6     1    13
  2.0098056228379405E-01 a       139     0     6     1    14
 -2.0424593614563002E-01 a       140     0     6     1    15
 -2.3230584128587004E-01 a       141     0     6     1    16
 -3.9337814633289794E-02 a       142     0     6     1    17
  1.5992219490370246E-01 a       143     0     6     1    18
  4.0487007159969361E-04 a       144     0     6     1    19
 -5.1562936893755962E-02 a       145     0     6     1    20
 -2.1353345028950488E-01 a       146     0     6     1    21
  8.5262197064630077E-02 a       147     0     6     1    22
  1.8793521297324714E-01 a       148     0     6     1    23
  1.9881137112254940E-01 a       149     0     6     1    24
  8.7891345538193000E-02 a       150     0     6     1    25
  1.2207443759271366E-01 a       151     0     7     1     1
 -1.9002503375544749E-01 a       152     0     7     1     2
 -5.4960768694562415E-02 a       153     0     7     1     3
  6.9098737962672824E-02 a       154     0     7     1     4
 -1.0111862053594976E-01 a       155     0     7     1     5
  1.4744779086358648E-01 a       156     0     7     1     6
 -1.8576299871322302E-01 a       157     0     7     1     7
 -1.6071314760948710E-01 a       158     0     7     1     8
 -4.1848897102844229E-02 a       159     0     7     1     9
 -2.4847068508128185E-02 a       160     0     7     1    10
 -8.0852954973453753E-02 a       161     0     7     1    11
 -4.6966627527719282E-02 a       162     0     7     1    12
 -6.2603162965208806E-02 a       163     0     7     1    13
  1.4433945741443141E-01 a       164     0     7     1    14
 -5.0723830623136547E-02 a       165     0     7     1    15
  2.8476181871266770E-02 a       166     0     7     1    16
  3.5503942059022450E-02 a       167     0     7     1    17
 -4.0935604821583656E-02 a       168     0     7     1    18
 -1.9929190018587215E-02 a       169     0     7     1    19
  7.6119249158240559E-02 a       170     0     7     1    20
  5.1173113834010096E-02 a       171     0     7     1    21
 -7.7724974122865359E-02 a       172     0     7     1    22
  4.4585424649252338E-02 a       173     0     7     1    23
 -1.2725055934612139E-01 a       174     0     7     1    24
 -3.9471042204065269E-02 a       175     0     7     1    25
 -5.1483619269763740E-02 a       176     0     8     1     1
  1.6028584257758488E-01 a       177     0     8     1     2
 -1.6036052813136892E-01 a       178     0     8     1     3
 -7.4595616530684764E-02 a       179     0     8     1     4
  3.0294964183659512E-01 a       180     0     8     1     5
 -1.6722536355215922E-01 a       181     0     8     1     6
 -1.7422631354577733E-02 a       182     0     8     1     7
  2.5511716439846854E-02 a       183     0     8     1     8
 -1.1630587575713167E-01 a       184     0     8     1     9
  9.1461160672972122E-02 a       185     0     8     1    10
 -5.6912371189842853E-02 a       186     0     8     1    11
  1.5657349113463226E-01 a       187     0     8     1    12
  9.6054887264202068E-02 a       188     0     8     1    13
 -1.9641484394311917E-01 a       189     0     8     1    14
  1.9067223544851720E-02 a       190     0     8     1    15
 -2.5091900679419071E-01 a       191     0     8     1    16
 -9.2104853870214470E-02 a       192     0     8     1    17
  9.5418322668945926E-02 a       193     0     8     1    18
  1.8785991606773930E-01 a       194     0     8     1    19
 -1.0567255904633377E-01 a       195     0     8     1    20
 -8.5063540596429801E-02 a       196     0     8     1    21
  5.6524522094814018E-02 a       197     0     8     1    22
  6.1657986975212103E-02 a       198     0     8     1    23
 -1.9186737763191717E-02 a       199     0     8     1    24
 -9.3673383855177074E-03 a       200     0     8     1    25
 -1.8383463915466247E-02 a       201     0     9     1     1
 -1.3504571650351946E-01 a       202     0     9     1     2
 -1.7033193221101517E-01 a       203     0     9     1     3
  3.1774353757657181E-01 a       204     0     9     1     4
  2.1845993644381193E-01 a       205     0     9     1     5
  2.9253946784604024E-03 a       206     0     9     1     6
  3.5774027331707808E-01 a       207     0     9     1     7
 -7.0711295436350031E-03 a       208     0     9     1     8
  5.0343513276125872E-02 a       209     0     9     1     9
  3.0703074763125726E-01 a       210     0     9     1    10
  1.2268187003318883E-01 a       211     0     9     1    11
  2.0908056412629270E-01 a       212     0     9     1    12
  1.8406661882128730E-01 a       213     0     9     1    13
  1.1359359718285376E-01 a       214     0     9     1    14
 -1.1426631924026605E-01 a       215     0     9     1    15
  2.9556044938427273E-01 a       216     0     9     1    16
 -1.7180071300629454E-01 a       217     0     9     1    17
 -2.1297782037049692E-01 a       218     0     9     1    18
 -1.7742629940544155E-01 a       219     0     9     1    19
 -1.3122865718713350E-01 a       220     0     9     1    20
 -5.6114240579967112E-02 a       221     0     9     1    21
  2.7483284546239428E-01 a       222     0     9     1    22
 -8.0737108649377137E-02 a       223     0     9     1    23
 -2.4301539761956964E-01 a       224     0     9     1    24
  4.0634469317091824E-02 a       225     0     9     1    25
  1.5017782325445703E-01 a       226     0    10     1     1
  4.8850893048520506E-02 a       227     0    10     1     2
 -1.2642301868079989E-01 a       228     0    10     1     3
 -1.1063873223752056E-01 a       229     0    10     1     4
 -8.2700724772291997E-02 a       230     0    10     1     5
 -1.2010581739854972E-02 a       231     0    10     1     6
  3.5827183659902693E-03 a       232     0    10     1     7
  5.4532173790582263E-02 a       233     0    10     1     8
  2.0653916290135602E-01 a       234     0    10     1     9
  4.7912538327838185E-02 a       235     0    10     1    10
  3.0592734173700237E-01 a       236     0    10     1    11
 -1.3366054396610824E-01 a       237     0    10     1    12
 -1.1850928148830139E-01 a       238     0    10     1    13
 -9.9160080730072667E-02 a       239     0    10     1    14
  9.0768746868851585E-02 a       240     0    10     1    15
  1.6242091248541762E-01 a       241     0    10     1    16
  3.0048054964416415E-01 a       242     0    10     1    17
  1.2710388470804801E-02 a       243     0    10     1    18
 -8.5195277987286114E-02 a       244     0    10     1    19
  1.5335893205387985E-01 a       245     0    10     1    20
 -5.3359238651379932E-02 a       246     0    10     1    21
 -2.2783968720626407E-02 a       247     0    10     1    22
 -1.5747016715998832E-02 a       248     0    10     1    23
 -2.4615454024644726E-01 a       249     0    10     1    24
  1.9632302009422367E-01 a       250     0    10     1    25
  6.9923798025639293E-03 a       251     0    11     1     1
  7.0788755884767421E-02 a       252     0    11     1     2
  5.6517146424411392E-02 a       253     0    11     1     3
 -1.5217328068257999E-01 a       254     0    11     1     4
  1.7382039600032068E-01 a       255     0    11     1     5
  1.8850498429264853E-01 a       256     0    11     1     6
 -6.8634626764463982E-02 a       257     0    11     1     7
  1.1331395974264365E-01 a       258     0    11     1     8
 -1.8230193897771180E-01 a       259     0    11     1     9
  1.1295221971944568E-01 a       260     0    11     1    10
 -1.0939749907194711E-01 a       261     0    11     1    11
  3.2658893870172062E-01 a       262     0    11     1    12
  1.7703141158797803E-01 a       263     0    11     1    13
 -1.3572482758135779E-01 a       264     0    11     1    14
 -1.2995297855611415E-01 a       265     0    11     1    15
  3.3746562016652715E-02 a       266     0    11     1    16
 -7.0178717594985410E-02 a       267     0    11     1    17
 -9.9003211105654215E-02 a       268     0    11     1    18
  1.3607554606512279E-02 a       269     0    11     1    19
 -2.7694549427771947E-01 a       270     0    11     1    20
  2.2446576688885594E-01 a       271     0    11     1    21
 -1.0426551608477103E-01 a       272     0    11     1    22
 -5.3489049814039381E-02 a       273     0    11     1    23
  6.6133737200861159E-02 a       274     0    11     1    24
 -1.0451056623310261E-02 a       275     0    11     1    25
 -1.5486946071016539E-01 a       276     0    12     1     1
  4.6464899161784640E-03 a       277     0    12     1     2
 -1.7203855127956899E-01 a       278     0    12     1     3
 -1.6446699927905246E-03 a       279     0    12     1     4
 -8.7345011311727075E-02 a       280     0    12     1     5
 -2.9446337764893210E-01 a       281     0    12     1     6
  6.0712123845827699E-02 a       282     0    12     1     7
  8.2254217502355870E-02 a       283     0    12     1     8
  2.2035040563846844E-01 a       284     0    12     1     9
 -2.9347962867006189E-01 a       285     0    12     1    10
 -2.3490877418078310E-01 a       286     0    12     1    11
 -7.3114298464239627E-02 a       287     0    12     1    12
  1.0286797919239668E-01 a       288     0    12     1    13
 -1.2199168113876965E-01 a       289     0    12     1    14
  2.7656787031652658E-01 a       290     0    12     1    15
  1.9430160028643031E-01 a       291     0    12     1    16
  1.4580753758728621E-01 a       292     0    12     1    17
 -7.6263591022253122E-02 a       293     0    12     1    18
 -2.8935760412418722E-02 a       294     0    12     1    19
 -7.8399899459150990E-02 a       295     0    12     1    20
 -1.6408356175937156E-02 a       296     0    12     1    21
  3.5165812438733246E-01 a       297     0    12     1    22
 -2.0858767992915631E-01 a       298     0    12     1    23
 -1.2887869669017737E-01 a       299     0    12     1    24
  9.6552800422988694E-02 a       300     0    12     1    25
 -3.6511577938824019E-01 a       301     0    13     1     1
 -8.0742061413455555E-03 a       302     0    13     1     2
  5.4036913431225055E-02 a       303     0    13     1     3
  2.2952139870930802E-01 a       304     0    13     1     4
  3.9538036482120870E-02 a       305     0    13     1     5
  2.6596928413452103E-01 a       306     0    13     1     6
  6.7722420750173234E-02 a       307     0    13     1     7
 -7.7732501182353128E-03 a       308     0    13     1     8
  9.8985700668265300E-02 a       309     0    13     1     9
  1.5249374630526663E-01 a       310     0    13     1    10
 -7.6913309687033748E-02 a       311     0    13     1    11
 -2.8266070701681793E-02 a       312     0    13     1    12
 -7.2715084085251305E-02 a       313     0    13     1    13
  2.3547620134571526E-01 a       314     0    13     1    14
 -2.4784965623411348E-01 a       315     0    13     1    15
  1.3800929844064047E-01 a       316     0    13     1    16
  2.6394015753281042E-02 a       317     0    13     1    17
 -2.1859914235190259E-01 a       318     0    13     1    18
  2.3829701978240383E-03 a       319     0    13     1    19
 -1.2270990550041640E-01 a       320     0    13     1    20
 -2.3987435349586049E-02 a       321     0    13     1    21
 -1.3419657972262322E-01 a       322     0    13     1    22
 -8.1791238295160509E-02 a       323     0    13     1    23
 -1.8188340421708729E-01 a       324     0    13     1    24
 -5.4412439568757000E-02 a       325     0    13     1    25
 -9.1150601140694149E-02 a       326     0    14     1     1
 -8.0515195413279672E-02 a       327     0    14     1     2
  7.8976573808423309E-02 a       328     0    14     1     3
  1.0589013520150165E-01 a       329     0    14     1     4
 -7.1240422207749260E-02 a       330     0    14     1     5
  9.1088037581687029E-02 a       331     0    14     1     6
 -1.9915542096355618E-01 a       332     0    14     1     7
  1.0572494816017448E-01 a       333     0    14     1     8
 -1.3648443736338473E-01 a       334     0    14     1     9
 -6.0156123145564164E-02 a       335     0    14     1    10
 -2.0295026544946690E-01 a       336     0    14     1    11
  2.1509436031134940E-01 a       337     0    14     1    12
 -1.8761040187134259E-01 a       338     0    14     1    13
 -4.0319837478691910E-02 a       339     0    14     1    14
  4.7449968244665547E-02 a       340     0    14     1    15
  2.9622214720690893E-02 a       341     0    14     1    16
 -2.1475053633203414E-01 a       342     0    14     1    17
 -3.5470609178779915E-02 a       343     0    14     1    18
  1.6832669442644643E-01 a       344     0    14     1    19
 -1.4644737111216929E-01 a       345     0    14     1    20
 -2.0606286116999020E-01 a       346     0    14     1    21
  1.6868401847552342E-01 a       347     0    14     1    22
 -1.0128702226350611E-01 a       348     0    14     1    23
  1.6691120784265776E-01 a       349     0    14     1    24
 -2.1301454856558738E-01 a       350     0    14     1    25
 -7.0217654341781982E-02 a       351     0    15     1     1
  1.9920883725818803E-01 a       352     0    15     1     2
 -1.0833962050486164E-01 a       353     0    15     1     3
  2.9511291803223705E-01 a       354     0    15     1     4
 -7.4725616339988754E-02 a       355     0    15     1     5
 -2.3497740086833321E-01 a       356     0    15     1     6
  1.8947707316006357E-01 a       357     0    15     1     7
  2.7053815526191325E-02 a       358     0    15     1     8
 -2.0051981415940870E-01 a       359     0    15     1     9
 -1.0349154037974921E-02 a       360     0    15     1    10
  1.0584633941815264E-01 a       361     0    15     1    11
 -1.9741800737939733E-01 a       362     0    15     1    12
 -9.8538767014666406E-02 a       363     0    15     1    13
  1.7156139730747746E-01 a       364     0    15     1    14
 -9.7197880578763662E-02 a       365     0    15     1    15
  2.6271981325772596E-02 a       366     0    15     1    16
 -3.3290665425099036E-01 a       367     0    15     1    17
 -5.3395557447557890E-02 a       368     0    15     1    18
  2.1681759351376231E-01 a       369     0    15     1    19
  2.4168478149166261E-01 a       370     0    15     1    20
  4.0064740147576094E-01 a       371     0    15     1    21
 -6.3288924352074949E-02 a       372     0    15     1    22
  2.4166816398112903E-01 a       373     0    15     1    23
  1.1254102997168000E-01 a       374     0    15     1    24
  8.5065095257035719E-02 a       375     0    15     1    25
  2.1502876881135333E-01 a       376     0    16     1     1
  3.3488710951859102E-03 a       377     0    16     1     2
 -1.4654171100173285E-02 a       378     0    16     1     3
  1.3103195126369452E-01 a       379     0    16     1     4
  6.5448965176463925E-02 a       380     0    16     1     5
 -3.9520489672472008E-02 a       381     0    16     1     6
  2.0508695474576644E-01 a       382     0    16     1     7
  4.5321160725697106E-02 a       383     0    16     1     8
 -3.6773849214265891E-01 a       384     0    16     1     9
  2.4698260818402365E-01 a       385     0    16     1    10
  1.8505219660560984E-01 a       386     0    16     1    11
 -4.1534065223017584E-03 a       387     0    16     1    12
  9.7913512468880928E-02 a       388     0    16     1    13
  7.9393507978591488E-02 a       389     0    16     1    14
 -1.9748734478265068E-01 a       390     0    16     1    15
 -2.7005990159843085E-01 a       391     0    16     1    16
 -1.6921216043717568E-01 a       392     0    16     1    17
  2.1889461840995242E-01 a       393     0    16     1    18
 -2.2030199525335323E-01 a       394     0    16     1    19
  1.6408379464606052E-02 a       395     0    16     1    20
  1.2368414970871039E-01 a       396     0    16     1    21
  3.1676243469246523E-01 a       397     0    16     1    22
  6.5346458422940457E-02 a       398     0    16     1    23
  1.2318316414604987E-02 a       399     0    16     1    24
  6.3322464543534268E-02 a       400     0    16     1    25
 -1.9690766323676107E-01 a       401     0    17     1     1
 -1.7158707456922877E-02 a       402     0    17     1     2
 -2.6152911105347038E-01 a       403     0    17     1     3
  2.2717512663941308E-01 a       404     0    17     1     4
  1.5687849871634452E-01 a       405     0    17     1     5
  6.1753968360820095E-02 a       406     0    17     1     6
  3.1533303401304599E-02 a       407     0    17     1     7
  1.0505067735591578E-01 a       408     0    17     1     8
  2.9329944035799660E-01 a       409     0    17     1     9
  1.9616347809865048E-01 a       410     0    17     1    10
 -5.9542269531651960E-02 a       411     0    17     1    11
  1.7910798956151351E-02 a       412     0    17     1    12
 -8.6427391683584973E-02 a       413     0    17     1    13
 -1.7051410494666555E-01 a       414     0    17     1    14
 -4.6582244059636242E-02 a       415     0    17     1    15
  8.1815803033282439E-02 a       416     0    17     1    16
  1.3751671913870593E-03 a       417     0    17     1    17
 -1.2995046272083552E-01 a       418     0    17     1    18
  6.6390209835792566E-02 a       419     0    17     1    19
 -1.3246011965689314E-01 a       420     0    17     1    20
  3.8906798473980687E-02 a       421     0    17     1    21
  1.7734761961125202E-02 a       422     0    17     1    22
  1.6578832731408549E-01 a       423     0    17     1    23
 -2.2607996851184456E-01 a       424     0    17     1    24
  5.1378713257076762E-02 a       425     0    17     1    25
 -4.5232197901281829E-02 a       426     0    18     1     1
 -8.4172590888535334E-02 a       427     0    18     1     2
 -4.4100402894957473E-03 a       428     0    18     1     3
 -1.1439929315567036E-01 a       429     0    18     1     4
 -9.3556391291486157E-02 a       430     0    18     1     5
 -6.4614299886962587E-02 a       431     0    18     1     6
  6.0606726510209374E-02 a       432     0    18     1     7
  1.0896067329731260E-01 a       433     0    18     1     8
  6.7519312262572892E-02 a       434     0    18     1     9
 -4.2020794491662433E-02 a       435     0    18     1    10
  2.2768135975674444E-01 a       436     0    18     1    11
 -8.2785843523866740E-02 a       437     0    18     1    12
  2.4339758830494638E-02 a       438     0    18     1    13
 -7.0774366709793327E-02 a       439     0    18     1    14
 -1.7233359997652051E-02 a       440     0    18     1    15
 -2.6629061599252827E-02 a       441     0    18     1    16
 -2.7961097100075764E-02 a       442     0    18     1    17
 -3.0448438848729796E-02 a       443     0    18     1    18
  5.2176691776064994E-02 a       444     0    18     1    19
  1.7910195929359540E-01 a       445     0    18     1    20
  8.3898958595853015E-02 a       446     0    18     1    21
 -3.6262849110718626E-01 a       447     0    18     1    22
  2.3440139441184377E-01 a       448     0    18     1    23
  1.9940899636426088E-01 a       449     0    18     1    24
  2.4217404212306348E-01 a       450     0    18     1    25
 -1.7706890072797649E-02 a       451     0    19     1     1
 -1.8821741233295719E-01 a       452     0    19     1     2
 -1.0374569426391758E-01 a       453     0    19     1     3
 -3.9297894582116862E-02 a       454     0    19     1     4
 -9.5593909949555245E-02 a       455     0    19     1     5
  1.9288699517256036E-01 a       456     0    19     1     6
  3.0913075041261083E-02 a       457     0    19     1     7
  9.2636715107989848E-02 a       458     0    19     1     8
  3.5097818012473019E-02 a       459     0    19     1     9
  2.4191180683254512E-01 a       460     0    19     1    10
  3.8977647777605942E-02 a       461     0    19     1    11
 -1.4808968587122556E-02 a       462     0    19     1    12
 -5.7806360944675672E-02 a       463     0    19     1    13
 -1.3396763412080137E-01 a       464     0    19     1    14
  1.2690304832470931E-01 a       465     0    19     1    15
  5.0015888497056675E-02 a       466     0    19     1    16
  1.3932830850099268E-01 a       467     0    19     1    17
  2.5784943885211015E-01 a       468     0    19     1    18
 -1.0906665945734675E-01 a       469     0    19     1    19
  2.5678453685007804E-02 a       470     0    19     1    20
  7.1409645736457208E-02 a       471     0    19     1    21
  1.9426112082271726E-01 a       472     0    19     1    22
 -1.8861540065418117E-01 a       473     0    19     1    23
 -3.3928938508839557E-01 a       474     0    19     1    24
  1.5194613279778887E-01 a       475     0    19     1    25
  1.1000083447323090E-01 a       476     0    20     1     1
  2.9051124678659234E-02 a       477     0    20     1     2
 -5.2794043741956669E-02 a       478     0    20     1     3
  1.0912280525656538E-01 a       479     0    20     1     4
 -1.3429462078914386E-01 a       480     0    20     1     5
 -1.0054525997613981E-01 a       481     0    20     1     6
 -2.5903224066910940E-01 a       482     0    20     1     7
 -1.0752556570279623E-01 a       483     0    20     1     8
  6.4055686741497309E-02 a       484     0    20     1     9
  1.5613170420136380E-02 a       485     0    20     1    10
 -4.3801068113531232E-02 a       486     0    20     1    11
  1.3380210900928724E-01 a       487     0    20     1    12
  1.1274405591190273E-01 a       488     0    20     1    13
  2.2987118524877137E-01 a       489     0    20     1    14
 -2.6746262244130563E-02 a       490     0    20     1    15
 -9.5143328617934165E-03 a       491     0    20     1    16
  6.2530589280076029E-02 a       492     0    20     1    17
  2.5002194618168379E-02 a       493     0    20     1    18
 -2.2077847743847537E-02 a       494     0    20     1    19
  1.5402669535407859E-01 a       495     0    20     1    20
 -1.0810660547876105E-01 a       496     0    20     1    21
 -1.1262737688035086E-01 a       497     0    20     1    22
  9.8911635113245841E-02 a       498     0    20     1    23
  4.7707061358590749E-02 a       499     0    20     1    24
  1.0873537412239075E-01 a       500     0    20     1    25
 -1.9283441894990597E-01 a       501     0    21     1     1
 -1.8280600267111149E-01 a       502     0    21     1     2
  1.4905382124353095E-01 a       503     0    21     1     3
 -2.5060010122982500E-02 a       504     0    21     1     4
 -4.9020394318207039E-02 a       505     0    21     1     5
  1.1182165342895023E-01 a       506     0    21     1     6
 -2.9605836885748404E-01 a       507     0    21     1     7
 -6.3179515999539151E-02 a       508     0    21     1     8
  4.6587890610186790E-02 a       509     0    21     1     9
  1.4506223738843083E-01 a       510     0    21     1    10
  1.0614619278669966E-01 a       511     0    21     1    11
  1.1464246576116244E-01 a       512     0    21     1    12
  1.4167136786562637E-01 a       513     0    21     1    13
  1.0645703131390050E-01 a       514     0    21     1    14
 -2.9301620368563397E-01 a       515     0    21     1    15
  7.4161225850147228E-02 a       516     0    21     1    16
 -1.9088539001405649E-01 a       517     0    21     1    17
 -1.3792569149384867E-01 a       518     0    21     1    18
  2.3937418752000242E-02 a       519     0    21     1    19
 -3.1147816428785141E-02 a       520     0    21     1    20
  6.1660832651044217E-02 a       521     0    21     1    21
  1.0243548659039146E-02 a       522     0    21     1    22
 -6.7809636010159338E-02 a       523     0    21     1    23
 -1.1216903450404733E-01 a       524     0    21     1    24
  1.0022917279396258E-01 a       525     0    21     1    25
 -3.0318717086609267E-02 a       526     0    22     1     1
  6.8138516249860157E-02 a       527     0    22     1     2
 -5.1941334798631986E-02 a       528     0    22     1     3
 -5.1861908940831904E-02 a       529     0    22     1     4
 -1.7372997718994787E-01 a       530     0    22     1     5
  9.5999947239616516E-03 a       531     0    22     1     6
 -7.4427214226130706E-03 a       532     0    22     1     7
 -2.9675625455278024E-02 a       533     0    22     1     8
 -1.3936410217701703E-01 a       534     0    22     1     9
  2.7549964056723419E-01 a       535     0    22     1    10
  2.0835237592177977E-01 a       536     0    22     1    11
  2.2794904297280000E-01 a       537     0    22     1    12
 -2.4302096015371694E-01 a       538     0    22     1    13
  1.9932175633065205E-01 a       539     0    22     1    14
 -2.0617973285597532E-01 a       540     0    22     1    15
  2.3233854491368289E-01 a       541     0    22     1    16
  1.2193215955146242E-01 a       542     0    22     1    17
 -7.9503703190679065E-02 a       543     0    22     1    18
  6.7882696605458481E-02 a       544     0    22     1    19
 -1.9219622427339034E-01 a       545     0    22     1    20
 -2.4294300685747994E-01 a       546     0    22     1    21
  5.2394777186221465E-02 a       547     0    22     1    22
 -2.5419762118425834E-02 a       548     0    22     1    23
  1.4723964973033386E-03 a       549     0    22     1    24
 -1.5282374274979782E-01 a       550     0    22     1    25
 -1.9081088951950975E-01 a       551     0    23     1     1
  2.0041603973704886E-02 a       552     0    23     1     2
 -8.6992281485766210E-02 a       553     0    23     1     3
  9.0231163087700933E-02 a       554     0    23     1     4
  1.3504745212069239E-01 a       555     0    23     1     5
  2.4691132271797719E-01 a       556     0    23     1     6
 -1.3338372445372004E-01 a       557     0    23     1     7
  1.7696850231975594E-01 a       558     0    23     1     8
  1.9400967282755803E-02 a       559     0    23     1     9
 -7.1691592936428156E-02 a       560     0    23     1    10
 -3.6668385587854098E-03 a       561     0    23     1    11
  2.0231824857968483E-01 a       562     0    23     1    12
 -9.3875035121841810E-02 a       563     0    23     1    13
 -6.2586785756599927E-02 a       564     0    23     1    14
 -3.8844825226138385E-02 a       565     0    23     1    15
 -1.2073577284803436E-02 a       566     0    23     1    16
 -3.0526494668964976E-01 a       567     0    23     1    17
 -1.5717519919049167E-01 a       568     0    23     1    18
  2.6628897205611481E-02 a       569     0    23     1    19
 -1.6386970563606670E-01 a       570     0    23     1    20
 -1.1137239925602768E-02 a       571     0    23     1    21
  2.4544082249499000E-01 a       572     0    23     1    22
 -7.2185062557587484E-02 a       573     0    23     1    23
 -1.7896828315605734E-01 a       574     0    23     1    24
  2.3808098713813061E-02 a       575     0    23     1    25
  1.0814138875723385E-01 a       576     0    24     1     1
 -6.3142960423287403E-02 a       577     0    24     1     2
 -5.8568728284083604E-02 a       578     0    24     1     3
 -1.0997086563741995E-01 a       579     0    24     1     4
  4.4188923249250155E-03 a       580     0    24     1     5
 -7.8072220639930315E-02 a       581     0    24     1     6
  1.1512206492809683E-01 a       582     0    24     1     7
  1.6016648593795135E-01 a       583     0    24     1     8
 -6.1974986906295590E-02 a       584     0    24     1     9
 -8.0469907000538504E-03 a       585     0    24     1    10
  1.7553273155093432E-01 a       586     0    24     1    11
  9.1467774850674533E-02 a       587     0    24     1    12
 -2.7169768698434232E-01 a       588     0    24     1    13
 -1.0296857880779389E-01 a       589     0    24     1    14
 -3.4634527222604974E-02 a       590     0    24     1    15
  3.1532695004622013E-01 a       591     0    24     1    16
  9.2199821201541771E-02 a       592     0    24     1    17
  2.9100636236660201E-02 a       593     0    24     1    18
  4.8029439615180330E-02 a       594     0    24     1    19
 -2.1284073515550776E-02 a       595     0    24     1    20
 -5.8454149177392993E-02 a       596     0    24     1    21
 -1.9639938994495381E-02 a       597     0    24     1    22
 -9.2814275982923879E-03 a       598     0    24     1    23
 -1.0475124910188567E-01 a       599     0    24     1    24
 -2.4480203619118074E-01 a       600     0    24     1    25
 -1.6235032918650627E-01 a       601     0    25     1     1
  1.2139396160488609E-01 a       602     0    25     1     2
 -2.4874859025314039E-01 a       603     0    25     1     3
  2.1541576544336898E-02 a       604     0    25     1     4
  2.4045668199488004E-01 a       605     0    25     1     5
  1.9281234192774797E-02 a       606     0    25     1     6
 -5.9571346144881597E-02 a       607     0    25     1     7
  1.1563947681403365E-01 a       608     0    25     1     8
  2.5447391914627931E-01 a       609     0    25     1     9
  2.0191847121058398E-01 a       610     0    25     1    10
  1.0959671503119943E-01 a       611     0    25     1    11
  7.1365601635559675E-02 a       612     0    25     1    12
  1.5512340870489058E-01 a       613     0    25     1    13
 -5.1176016906498319E-02 a       614     0    25     1    14
 -2.5698720047713640E-02 a       615     0    25     1    15
  1.5164186677910968E-01 a       616     0    25     1    16
  8.7281538926782365E-02 a       617     0    25     1    17
 -1.6078851083702462E-03 a       618     0    25     1    18
  6.8353927954474425E-02 a       619     0    25     1    19
 -1.2442939493702322E-01 a       620     0    25     1    20
  1.6134602467141373E-01 a       621     0    25     1    21
  3.0184530473589410E-01 a       622     0    25     1    22
  8.0705954750432393E-02 a       623     0    25     1    23
 -2.5042172887997743E-01 a       624     0    25     1    24
  1.4734264480543005E-01 a       625     0    25     1    25
 -6.5583104549494328E-02 a       626     0    26     1     1
 -1.0108192111012927E-01 a       627     0    26     1     2
  1.1589172459217680E-02 a       628     0    26     1     3
 -1.3362679256524275E-02 a       629     0    26     1     4
  5.8319984192107835E-02 a       630     0    26     1     5
  1.4011930700007436E-01 a       631     0    26     1     6
  2.1038419671983882E-01 a       632     0    26     1     7
  1.2020172321557138E-01 a       633     0    26     1     8
 -2.2947517829069664E-01 a       634     0    26     1     9
  2.1615447100663914E-02 a       635     0    26     1    10
  1.0954332728767228E-01 a       636     0    26     1    11
  5.5697109035617740E-02 a       637     0    26     1    12
 -1.0119490739864274E-01 a       638     0    26     1    13
 -2.0387868267602763E-02 a       639     0    26     1    14
 -1.0626487701433610E-02 a       640     0    26     1    15
 -4.9271234131489351E-02 a       641     0    26     1    16
 -1.1302119936021628E-01 a       642     0    26     1    17
 -8.1810760686213346E-02 a       643     0    26     1    18
  2.7170597179967448E-02 a       644     0    26     1    19
  9.8810257643386828E-02 a       645     0    26     1    20
  9.2104160600873147E-02 a       646     0    26     1    21
 -6.7687806742169190E-02 a       647     0    26     1    22
  4.5472579615672568E-02 a       648     0    26     1    23
  1.1060627565138866E-01 a       649     0    26     1    24
  2.0693241646456914E-01 a       650     0    26     1    25
  8.9123752044285187E-02 a       651     0    27     1     1
  1.7194652091874715E-01 a       652     0    27     1     2
 -3.9849076988051884E-03 a       653     0    27     1     3
 -2.7082998132641738E-02 a       654     0    27     1     4
  2.9550091499253393E-02 a       655     0    27     1     5
 -1.4325741639205267E-01 a       656     0    27     1     6
 -1.2866171337625618E-01 a       657     0    27     1     7
 -3.4013927455509721E-03 a       658     0    27     1     8
  6.1312922804635253E-02 a       659     0    27     1     9
 -1.1896103553887268E-02 a       660     0    27     1    10
 -1.9337518433841391E-02 a       661     0    27     1    11
 -1.1544736453931323E-02 a       662     0    27     1    12
  1.7851993896375160E-01 a       663     0    27     1    13
  1.2128594093090996E-02 a       664     0    27     1    14
 -5.0265631543026525E-02 a       665     0    27     1    15
  2.9596675578343968E-03 a       666     0    27     1    16
 -2.1216454595897180E-03 a       667     0    27     1    17
  6.3930198194042012E-02 a       668     0    27     1    18
 -6.3947317250307778E-02 a       669     0    27     1    19
 -3.7853256074421145E-02 a       670     0    27     1    20
  8.1166033561701253E-02 a       671     0    27     1    21
  1.6250610572293081E-01 a       672     0    27     1    22
  9.5023035995292687E-02 a       673     0    27     1    23
 -4.2028774230898951E-02 a       674     0    27     1    24
 -6.5601083788264002E-03 a       675     0    27     1    25
 -1.0490617547168045E-01 a       676     0    28     1     1
  2.0441897642689513E-01 a       677     0    28     1     2
 -6.1761836594551478E-02 a       678     0    28     1     3
  1.4183513210895787E-01 a       679     0    28     1     4
 -3.2988890576877705E-02 a       680     0    28     1     5
 -1.4435441198673214E-02 a       681     0    28     1     6
 -6.1419637720438597E-02 a       682     0    28     1     7
  6.2778793648179204E-02 a       683     0    28     1     8
  6.9732408118941644E-02 a       684     0    28     1     9
  1.3093895118031423E-01 a       685     0    28     1    10
 -3.2704504141195974E-02 a       686     0    28     1    11
  5.7768024452953773E-02 a       687     0    28     1    12
  2.8851764953149067E-01 a       688     0    28     1    13
  5.2036161151682213E-02 a       689     0    28     1    14
  9.1748078776705516E-02 a       690     0    28     1    15
 -1.9431795774121255E-01 a       691     0    28     1    16
 -3.3017782552120296E-02 a       692     0    28     1    17
  1.0248564530594111E-01 a       693     0    28     1    18
  7.2198442497365262E-02 a       694     0    28     1    19
  5.3370253091229558E-02 a       695     0    28     1    20
  1.3202113103736732E-01 a       696     0    28     1    21
 -8.5402370883873535E-02 a       697     0    28     1    22
 -9.0921498219491165E-02 a       698     0    28     1    23
  1.0740685270836672E-01 a       699     0    28     1    24
  2.1587842197151497E-01 a       700     0    28     1    25
 -2.3759566165467794E-01 a       701     0    29     1     1
 -1.6922185624880440E-01 a       702     0    29     1     2
 -4.8187691359814593E-03 a       703     0    29     1     3
  1.1449890280446527E-01 a       704     0    29     1     4
  5.5883325499227060E-02 a       705     0    29     1     5
  9.4167695062725695E-02 a       706     0    29     1     6
 -2.7214209421997637E-01 a       707     0    29     1     7
 -2.6915512664995545E-01 a       708     0    29     1     8
  2.9047517835414594E-01 a       709     0    29     1     9
  1.6293952266304335E-01 a       710     0    29     1    10
  1.6643161773191481E-01 a       711     0    29     1    11
  1.4202463264408624E-01 a       712     0    29     1    12
  6.6395546625991467E-02 a       713     0    29     1    13
  8.1434618045604187E-02 a       714     0    29     1    14
 -1.4235385160226874E-01 a       715     0    29     1    15
  1.7897735815802931E-01 a       716     0    29     1    16
 -2.3961199653174056E-01 a       717     0    29     1    17
 -2.0425972567481609E-01 a       718     0    29     1    18
  2.2627647716062488E-02 a       719     0    29     1    19
 -9.5566896826477038E-02 a       720     0    29     1    20
 -2.4993414976684464E-01 a       721     0    29     1    21
  1.0765564792279401E-01 a       722     0    29     1    22
  7.8487098695591527E-03 a       723     0    29     1    23
  1.4026492298218182E-01 a       724     0    29     1    24
  7.0590732195812800E-02 a       725     0    29     1    25
 -2.8941339870981259E-02 a       726     0    30     1     1
 -1.4373791166902102E-02 a       727     0    30     1     2
  6.4002869959789904E-02 a       728     0    30     1     3
  4.8646192655443170E-02 a       729     0    30     1     4
 -1.7898682205618524E-01 a       730     0    30     1     5
 -4.3371124906493419E-02 a       731     0    30     1     6
 -2.0939894891433365E-02 a       732     0    30     1     7
 -2.7888175842814455E-02 a       733     0    30     1     8
  7.6566310970354171E-02 a       734     0    30     1     9
  1.6722535679063089E-01 a       735     0    30     1    10
  1.9449419770366067E-01 a       736     0    30     1    11
 -5.4711954605300310E-02 a       737     0    30     1    12
 -1.3949228925323967E-01 a       738     0    30     1    13
  9.8502041215501324E-02 a       739     0    30     1    14
 -4.4443129277354082E-02 a       740     0    30     1    15
  2.0362780536838523E-01 a       741     0    30     1    16
  1.1110609612717545E-01 a       742     0    30     1    17
 -6.2171153704140544E-02 a       743     0    30     1    18
  1.0911322085268017E-01 a       744     0    30     1    19
 -4.5244193477066690E-03 a       745     0    30     1    20
 -1.1309358452130520E-01 a       746     0    30     1    21
 -2.0370842841710463E-01 a       747     0    30     1    22
  1.2434354511181755E-01 a       748     0    30     1    23
 -1.0761573431035973E-01 a       749     0    30     1    24
  1.3029821458866065E-02 a       750     0    30     1    25
 -2.3674954631209300E-01 a       751     0    31     1     1
 -2.6062102753855215E-01 a       752     0    31     1     2
 -1.9212699078965145E-01 a       753     0    31     1     3
  5.0956119863626949E-02 a       754     0    31     1     4
 -3.7678545139412656E-02 a       755     0    31     1     5
  9.7524337379668036E-02 a       756     0    31     1     6
  1.2253300851632283E-01 a       757     0    31     1     7
 -9.1900258549337532E-03 a       758     0    31     1     8
 -4.0784775418815464E-02 a       759     0    31     1     9
  3.7495497474059170E-02 a       760     0    31     1    10
  3.1816291944818324E-02 a       761     0    31     1    11
 -6.3660841467907722E-02 a       762     0    31     1    12
 -2.1803131533213706E-02 a       763     0    31     1    13
 -1.0920461669761940E-01 a       764     0    31     1    14
  7.3028595237163596E-02 a       765     0    31     1    15
 -5.4853727852255925E-03 a       766     0    31     1    16
  1.3196327798234004E-02 a       767     0    31     1    17
 -1.4621144427190201E-02 a       768     0    31     1    18
 -1.3564335097897904E-02 a       769     0    31     1    19
 -6.6901970062098179E-02 a       770     0    31     1    20
 -2.3453460298638953E-02 a       771     0    31     1    21
  2.4704598819532575E-01 a       772     0    31     1    22
 -1.8422002876242555E-01 a       773     0    31     1    23
  4.1754823252103508E-02 a       774     0    31     1    24
 -2.5661807433378290E-02 a       775     0    31     1    25
  2.0637374503036821E-01 a       776     0    32     1     1
 -1.4849859324533116E-01 a       777     0    32     1     2
  8.4382091845415133E-02 a       778     0    32     1     3
 -9.5165173731440802E-02 a       779     0    32     1     4
  4.2329944148714653E-02 a       780     0    32     1     5
  3.3501203966545018E-02 a       781     0    32     1     6
  4.1804615035925065E-02 a       782     0    32     1     7
 -1.6852670995469057E-01 a       783     0    32     1     8
 -6.9767927246760536E-02 a       784     0    32     1     9
 -4.6421785191913902E-02 a       785     0    32     1    10
  9.4156017905396239E-02 a       786     0    32     1    11
 -8.8242504824720680E-02 a       787     0    32     1    12
 -1.5732776170990861E-01 a       788     0    32     1    13
  8.1793916499459760E-02 a       789     0    32     1    14
  4.5046523858334589E-02 a       790     0    32     1    15
  8.7540054015357555E-02 a       791     0    32     1    16
 -1.3762560680254271E-01 a       792     0    32     1    17
  6.3126756632060466E-02 a       793     0    32     1    18
 -4.1876454537939457E-02 a       794     0    32     1    19
  1.8047692937500343E-01 a       795     0    32     1    20
 -1.8353140031760154E-01 a       796     0    32     1    21
 -9.1260907411188252E-02 a       797     0    32     1    22
  7.6454973655952982E-02 a       798     0    32     1    23
 -2.8795001875181046E-02 a       799     0    32     1    24
  8.1140171912379586E-02 a       800     0    32     1    25
 -1.2484476066623132E-01 a       801     0    33     1     1
  4.0400990248493793E-02 a       802     0    33     1     2
 -3.6238931534844601E-02 a       803     0    33     1     3
 -7.5672745436566241E-02 a       804     0    33     1     4
  1.4483334364146175E-01 a       805     0    33     1     5
  8.9919177904443856E-02 a       806     0    33     1     6
  8.3839407085941509E-02 a       807     0    33     1     7
  8.3001505296228378E-02 a       808     0    33     1     8
  1.5254034571897071E-01 a       809     0    33     1     9
  2.4917737828514522E-01 a       810     0    33     1    10
  1.5424185346965175E-01 a       811     0    33     1    11
  5.6398294872304827E-02 a       812     0    33     1    12
  1.4939316609938680E-01 a       813     0    33     1    13
  4.5568675966870600E-02 a       814     0    33     1    14
 -1.4721933461971440E-01 a       815     0    33     1    15
  1.4500153180961997E-01 a       816     0    33     1    16
  2.0791087907591496E-01 a       817     0    33     1    17
 -2.0546394784259070E-02 a       818     0    33     1    18
  1.2195529983071481E-01 a       819     0    33     1    19
  4.8018314159179870E-03 a       820     0    33     1    20
  1.6778579350408979E-01 a       821     0    33     1    21
 -4.6095351192657820E-02 a       822     0    33     1    22
  3.9907367068225327E-02 a       823     0    33     1    23
 -2.0534381626818071E-01 a       824     0    33     1    24
  1.5928670529617772E-01 a       825     0    33     1    25
 -7.1312684872776061E-02 a       826     0    34     1     1
 -1.2153464266185024E-01 a       827     0    34     1     2
 -3.6435861906374913E-02 a       828     0    34     1     3
 -6.2084244262598079E-02 a       829     0    34     1     4
  3.4982690594912873E-02 a       830     0    34     1     5
  4.0693242512707586E-03 a       831     0    34     1     6
  2.1834214908043051E-01 a       832     0    34     1     7
  3.8460993185814802E-03 a       833     0    34     1     8
 -1.5603015366188264E-01 a       834     0    34     1     9
  9.3958544605102751E-02 a       835     0    34     1    10
 -3.6628954136426008E-02 a       836     0    34     1    11
  3.8582340022496178E-02 a       837     0    34     1    12
  3.4951167658157506E-02 a       838     0    34     1    13
 -3.1208601910437301E-02 a       839     0    34     1    14
 -1.5627254776257574E-01 a       840     0    34     1    15
 -5.8265924741750588E-02 a       841     0    34     1    16
  6.8862205601445750E-02 a       842     0    34     1    17
 -5.5224591289402256E-02 a       843     0    34     1    18
 -2.9452269811384088E-02 a       844     0    34     1    19
  3.1496615575766454E-02 a       845     0    34     1    20
  1.6813411355152219E-01 a       846     0    34     1    21
 -3.0484373883548896E-02 a       847     0    34     1    22
 -2.4178259192567445E-02 a       848     0    34     1    23
  4.1650411976798134E-02 a       849     0    34     1    24
 -2.1615370388187890E-02 a       850     0    34     1    25
  2.8310859902190011E-02 a       851     0    35     1     1
  1.0419539310297445E-01 a       852     0    35     1     2
  9.8316534044138690E-02 a       853     0    35     1     3
  6.7171848653190883E-02 a       854     0    35     1     4
 -2.1821626234684247E-01 a       855     0    35     1     5
 -4.2652537826963606E-02 a       856     0    35     1     6
 -4.2114057167967262E-02 a       857     0    35     1     7
  8.0567109946010601E-02 a       858     0    35     1     8
  1.4792058176916218E-02 a       859     0    35     1     9
  5.0099796486183866E-02 a       860     0    35     1    10
  1.1213547105049972E-01 a       861     0    35     1    11
  2.1666567322593460E-02 a       862     0    35     1    12
 -1.4386814723961544E-01 a       863     0    35     1    13
  1.7092780763599798E-03 a       864     0    35     1    14
 -5.5849503079265554E-02 a       865     0    35     1    15
  1.1146700349000176E-01 a       866     0    35     1    16
  1.1003466807002714E-01 a       867     0    35     1    17
 -1.1003555590389978E-02 a       868     0    35     1    18
 -6.1604483302418925E-02 a       869     0    35     1    19
  1.9566731571935263E-02 a       870     0    35     1    20
  2.9223199833978752E-02 a       871     0    35     1    21
  1.3851954993268455E-02 a       872     0    35     1    22
  1.7040039769224938E-01 a       873     0    35     1    23
 -1.6318671621705683E-01 a       874     0    35     1    24
  2.4225311732213501E-02 a       875     0    35     1    25
 -5.0393031477435762E-02 a       876     0    36     1     1
  1.1267051652719305E-01 a       877     0    36     1     2
  6.4860959062485235E-02 a       878     0    36     1     3
  4.7481142741004484E-02 a       879     0    36     1     4
 -6.5925729789946083E-02 a       880     0    36     1     5
  7.4325057325567365E-02 a       881     0    36     1     6
 -1.9127614741233925E-01 a       882     0    36     1     7
  1.1463788249655074E-01 a       883     0    36     1     8
  3.6974118685976110E-02 a       884     0    36     1     9
 -3.7345194955049156E-02 a       885     0    36     1    10
  1.7631955274234661E-02 a       886     0    36     1    11
  6.3485289555303970E-02 a       887     0    36     1    12
 -4.0058533738365827E-02 a       888     0    36     1    13
  5.3631578451343630E-03 a       889     0    36     1    14
  1.7459888827218436E-02 a       890     0    36     1    15
  6.8743540108076359E-02 a       891     0    36     1    16
  5.8626924057166602E-02 a       892     0    36     1    17
 -7.6855977700065053E-02 a       893     0    36     1    18
  6.9074074392890678E-02 a       894     0    36     1    19
 -8.2834976084406278E-02 a       895     0    36     1    20
  5.4003142328226297E-02 a       896     0    36     1    21
 -7.3720119353158281E-02 a       897     0    36     1    22
  2.2750496560407254E-02 a       898     0    36     1    23
 -3.7256477568684797E-02 a       899     0    36     1    24
 -4.2547975603499121E-02 a       900     0    36     1    25
 -1.6145646838970246E-01 a       901     0    37     1     1
 -7.8970842830353855E-02 a       902     0    37     1     2
 -3.1002737512723109E-02 a       903     0    37     1     3
  5.3549049133928113E-02 a       904     0    37     1     4
  6.8561659442189213E-02 a       905     0    37     1     5
  7.8836490676036056E-02 a       906     0    37     1     6
 -1.4094935657528185E-01 a       907     0    37     1     7
 -6.5660818476722657E-02 a       908     0    37     1     8
  6.5485005057681289E-02 a       909     0    37     1     9
  1.6252958924332834E-02 a       910     0    37     1    10
  9.2924383756287726E-02 a       911     0    37     1    11
  3.5557160701036310E-02 a       912     0    37     1    12
 -3.2238070886739644E-03 a       913     0    37     1    13
 -7.3575679483185085E-03 a       914     0    37     1    14
  2.0330966286688040E-02 a       915     0    37     1    15
  1.0313512036276082E-01 a       916     0    37     1    16
 -8.7210671945619739E-02 a       917     0    37     1    17
 -1.3754971432553675E-01 a       918     0    37     1    18
  7.1825429447043135E-02 a       919     0    37     1    19
 -6.7559288092684480E-02 a       920     0    37     1    20
 -1.1065360332498100E-02 a       921     0    37     1    21
  1.3278319387078963E-01 a       922     0    37     1    22
  7.5043013183740256E-03 a       923     0    37     1    23
 -1.8877785445363567E-02 a       924     0    37     1    24
  1.3158441448917974E-01 a       925     0    37     1    25
 -9.4546935427914605E-02 a       926     0    38     1     1
 -4.2428013278389173E-02 a       927     0    38     1     2
 -4.3718636454900407E-02 a       928     0    38     1     3
  6.0920372399483419E-02 a       929     0    38     1     4
 -9.7142521870835566E-02 a       930     0    38     1     5
  8.8501968613175414E-02 a       931     0    38     1     6
 -1.4340687600273702E-01 a       932     0    38     1     7
  4.6997287330094867E-02 a       933     0    38     1     8
  6.1478774854628965E-02 a       934     0    38     1     9
  7.9052200222747712E-02 a       935     0    38     1    10
  1.2990685360848142E-01 a       936     0    38     1    11
  1.8412033944940537E-02 a       937     0    38     1    12
 -5.8722830240700637E-02 a       938     0    38     1    13
  7.0822139755532698E-02 a       939     0    38     1    14
 -5.5797970330889811E-02 a       940     0    38     1    15
  6.1293590539291218E-02 a       941     0    38     1    16
 -4.5693442900377794E-02 a       942     0    38     1    17
 -6.0574902797026334E-02 a       943     0    38     1    18
  1.8880523075813485E-03 a       944     0    38     1    19
 -9.8722505611085337E-02 a       945     0    38     1    20
 -1.3516293721720363E-01 a       946     0    38     1    21
  1.0177595306020147E-01 a       947     0    38     1    22
  5.9454019777797421E-02 a       948     0    38     1    23
  2.1305726821966176E-02 a       949     0    38     1    24
  8.9846624832308469E-03 a       950     0    38     1    25
  7.7461358403832087E-03 a       951     0    39     1     1
 -3.0255899094693530E-02 a       952     0    39     1     2
 -2.9724758432026183E-02 a       953     0    39     1     3
 -6.2352955098075064E-02 a       954     0    39     1     4
  9.3969123170553642E-02 a       955     0    39     1     5
  6.5820910734970151E-02 a       956     0    39     1     6
 -1.4864894325859487E-02 a       957     0    39     1     7
 -3.5416388852726459E-02 a       958     0    39     1     8
  1.4436312233340931E-01 a       959     0    39     1     9
 -4.3038596686230356E-03 a       960     0    39     1    10
 -4.6704996765023925E-02 a       961     0    39     1    11
  5.7580270149307750E-02 a       962     0    39     1    12
  6.6791177693649395E-02 a       963     0    39     1    13
 -4.3528840128152797E-03 a       964     0    39     1    14
  1.2786339363979183E-03 a       965     0    39     1    15
 -7.8155442304901374E-02 a       966     0    39     1    16
 -9.9539308006586724E-02 a       967     0    39     1    17
  4.0162667063847926E-02 a       968     0    39     1    18
  6.7271218424356294E-02 a       969     0    39     1    19
 -5.4135483754300167E-03 a       970     0    39     1    20
 -1.7195015127094443E-01 a       971     0    39     1    21
 -5.2032056094855970E-02 a       972     0    39     1    22
 -9.3447399740789514E-02 a       973     0    39     1    23
  6.4038397397509703E-02 a       974     0    39     1    24
  4.6529487691078279E-02 a       975     0    39     1    25
  1.0313069044963812E-02 a       976     0    40     1     1
 -9.9046296225504329E-02 a       977     0    40     1     2
 -3.8810911462880605E-02 a       978     0    40     1     3
  2.6514401253684709E-03 a       979     0    40     1     4
  2.5107023183454626E-02 a       980     0    40     1     5
 -1.2829410072310446E-01 a       981     0    40     1     6
  1.3190932543297251E-01 a       982     0    40     1     7
 -3.4284864792149448E-02 a       983     0    40     1     8
 -6.4630946733407829E-02 a       984     0    40     1     9
 -1.8320322340519293E-02 a       985     0    40     1    10
 -5.2902411950795612E-02 a       986     0    40     1    11
 -5.8830151349475938E-02 a       987     0    40     1    12
  8.0671508089511332E-02 a       988     0    40     1    13
 -1.8680283827766261E-02 a       989     0    40     1    14
  1.4526001313080359E-02 a       990     0    40     1    15
  5.6930810360409602E-03 a       991     0    40     1    16
  3.8010094877176083E-02 a       992     0    40     1    17
 -2.7814666766973244E-02 a       993     0    40     1    18
  6.3304360176270576E-04 a       994     0    40     1    19
  1.3951312980373434E-02 a       995     0    40     1    20
  3.3525142761289609E-02 a       996     0    40     1    21
 -4.4447968361266216E-02 a       997     0    40     1    22
  9.9375706178411061E-03 a       998     0    40     1    23
  1.0073584336523142E-01 a       999     0    40     1    24
 -6.1521982845049998E-02 a      1000     0    40     1    25
 -5.7309549743941771E-02 a      1001     0    41     1     1
 -1.5196345858802085E-01 a      1002     0    41     1     2
  3.5885538552659649E-02 a      1003     0    41     1     3
 -1.8313497469205589E-01 a      1004     0    41     1     4
  6.5084935462387528E-02 a      1005     0    41     1     5
  3.8169275290733107E-02 a      1006     0    41     1     6
 -8.8515834631446202E-02 a      1007     0    41     1     7
 -2.1079461653618719E-02 a      1008     0    41     1     8
  1.6233139390149851E-01 a      1009     0    41     1     9
  2.9450445819507145E-02 a      1010     0    41     1    10
  6.2883423858796306E-02 a      1011     0    41     1    11
  1.9976980010047909E-01 a      1012     0    41     1    12
  1.2719143115146120E-01 a      1013     0    41     1    13
  5.2191243928031194E-03 a      1014     0    41     1    14
  7.6164845090974107E-03 a      1015     0    41     1    15
  1.1096399352549952E-01 a      1016     0    41     1    16
 -1.3609853089463630E-01 a      1017     0    41     1    17
 -1.6092856961054031E-01 a      1018     0    41     1    18
  1.5529391331527623E-01 a      1019     0    41     1    19
  8.2900331533858167E-03 a      1020     0    41     1    20
  2.1528126006671869E-01 a      1021     0    41     1    21
 -6.5929869308081049E-02 a      1022     0    41     1    22
  4.5550772452525083E-02 a      1023     0    41     1    23
 -4.5301020314002733E-03 a      1024     0    41     1    24
  1.8173967057978295E-02 a      1025     0    41     1    25
  8.9046765440620290E-02 a      1026     0    42     1     1
 -2.0527995848158731E-01 a      1027     0    42     1     2
 -1.1774783173598924E-02 a      1028     0    42     1     3
  1.9352120167367948E-01 a      1029     0    42     1     4
 -6.7472106544855262E-02 a      1030     0    42     1     5
 -1.2893061708960529E-01 a      1031     0    42     1     6
 -5.2661820102027614E-02 a      1032     0    42     1     7
 -2.5712406189647047E-01 a      1033     0    42     1     8
 -7.6011254609840748E-02 a      1034     0    42     1     9
  1.2249512797583427E-01 a      1035     0    42     1    10
 -4.1590581390479379E-02 a      1036     0    42     1    11
 -1.7705738650871386E-01 a      1037     0    42     1    12
 -2.3084031688666035E-02 a      1038     0    42     1    13
 -3.6179884932502647E-02 a      1039     0    42     1    14
  2.3013298045515046E-01 a      1040     0    42     1    15
  1.2705792797074225E-01 a      1041     0    42     1    16
 -5.6145248298569025E-02 a      1042     0    42     1    17
  1.1554762011754681E-01 a      1043     0    42     1    18
 -8.5584345135972517E-02 a      1044     0    42     1    19
  1.8075918431103488E-01 a      1045     0    42     1    20
 -1.3911587829988839E-01 a      1046     0    42     1    21
 -2.0060525602816945E-01 a      1047     0    42     1    22
  4.0724038993368891E-02 a      1048     0    42     1    23
 -1.5112252667925258E-01 a      1049     0    42     1    24
  1.1088487820319261E-01 a      1050     0    42     1    25
 -1.4827458920310138E-01 a      1051     0    43     1     1
  2.0357253691732494E-01 a      1052     0    43     1     2
  4.5658187329440458E-04 a      1053     0    43     1     3
  3.4408305610741591E-03 a      1054     0    43     1     4
 -3.3584054635741552E-02 a      1055     0    43     1     5
  1.0141559249777790E-01 a      1056     0    43     1     6
  1.7260066540194541E-01 a      1057     0    43     1     7
 -1.2845629428561312E-01 a      1058     0    43     1     8
 -2.6999202897178564E-02 a      1059     0    43     1     9
 -8.9962719717618767E-02 a      1060     0    43     1    10
  7.3340179851274417E-02 a      1061     0    43     1    11
 -1.0330610566209118E-01 a      1062     0    43     1    12
  2.0208780694107959E-03 a      1063     0    43     1    13
  5.8588425984807235E-02 a      1064     0    43     1    14
 -1.1338814941010968E-01 a      1065     0    43     1    15
  6.3209117289789049E-02 a      1066     0    43     1    16
  1.7578158980395825E-01 a      1067     0    43     1    17
 -1.1196458942324350E-01 a      1068     0    43     1    18
  6.5373500324369976E-02 a      1069     0    43     1    19
  3.0863261349938709E-02 a      1070     0    43     1    20
  9.4699494891391900E-02 a      1071     0    43     1    21
  8.6892396475113723E-02 a      1072     0    43     1    22
  4.4487057196493048E-02 a      1073     0    43     1    23
 -4.7118200945506949E-02 a      1074     0    43     1    24
 -1.9238552740087862E-02 a      1075     0    43     1    25
  1.9982940208096382E-02 a      1076     0    44     1     1
  1.9787086381393232E-01 a      1077     0    44     1     2
 -6.4583265697453721E-02 a      1078     0    44     1     3
  1.1930620586649117E-01 a      1079     0    44     1     4
  2.5319005905868011E-02 a      1080     0    44     1     5
 -1.9617660800166983E-01 a      1081     0    44     1     6
 -2.1306197991004799E-01 a      1082     0    44     1     7
  4.5776037954305321E-02 a      1083     0    44     1     8
  5.3416953297045114E-02 a      1084     0    44     1     9
  4.6504861211132932E-02 a      1085     0    44     1    10
  3.7562844697051213E-02 a      1086     0    44     1    11
 -5.4595186147284869E-03 a      1087     0    44     1    12
  2.2807514190291912E-02 a      1088     0    44     1    13
  1.0087783801693564E-01 a      1089     0    44     1    14
 -1.0097326946689851E-01 a      1090     0    44     1    15
  1.2895377573600295E-02 a      1091     0    44     1    16
  1.1397855320392634E-01 a      1092     0    44     1    17
  1.2497704368414593E-01 a      1093     0    44     1    18
  4.2059547296091182E-02 a      1094     0    44     1    19
  1.9701146114533954E-01 a      1095     0    44     1    20
  1.0357404873000436E-01 a      1096     0    44     1    21
 -1.4742450063809168E-01 a      1097     0    44     1    22
  1.0920444761800155E-01 a      1098     0    44     1    23
  1.2894906347986018E-01 a      1099     0    44     1    24
 -3.7188855227946016E-02 a      1100     0    44     1    25
 -1.3817700884551240E-01 a      1101     0    45     1     1
  9.0922615725615566E-02 a      1102     0    45     1     2
  1.5151034779538278E-01 a      1103     0    45     1     3
 -6.7566654252704889E-02 a      1104     0    45     1     4
  1.6644772794845070E-02 a      1105     0    45     1     5
  1.4891044343625717E-01 a      1106     0    45     1     6
 -2.2948504135727182E-01 a      1107     0    45     1     7
 -1.1159465687317642E-01 a      1108     0    45     1     8
  1.5214457818287927E-01 a      1109     0    45     1     9
  3.8016868454819393E-02 a      1110     0    45     1    10
  1.3218828091019469E-01 a      1111     0    45     1    11
 -1.2615177816994294E-01 a      1112     0    45     1    12
  1.1934824827053207E-01 a      1113     0    45     1    13
  1.7618623834439179E-01 a      1114     0    45     1    14
 -5.9868194681251159E-02 a      1115     0    45     1    15
  1.3901441066081632E-01 a      1116     0    45     1    16
  1.1255040580555944E-01 a      1117     0    45     1    17
 -1.5397010336395109E-01 a      1118     0    45     1    18
  2.3577846384021953E-02 a      1119     0    45     1    19
 -1.5037275816585094E-01 a      1120     0    45     1    20
 -1.2360941856190211E-02 a      1121     0    45     1    21
 -2.1028567735791059E-01 a      1122     0    45     1    22
  7.2137177911631559E-02 a      1123     0    45     1    23
  1.3185540225141268E-01 a      1124     0    45     1    24
 -9.6829990241442593E-02 a      1125     0    45     1    25
  3.9611116237668526E-02 a      1126     0    46     1     1
 -2.3520221054644791E-01 a      1127     0    46     1     2
 -4.6901301034174649E-02 a      1128     0    46     1     3
 -9.5246115650279600E-02 a      1129     0    46     1     4
  6.8436474061606606E-02 a      1130     0    46     1     5
 -5.9981338153938357E-02 a      1131     0    46     1     6
 -2.7311366312676579E-02 a      1132     0    46     1     7
 -8.0511859392810123E-02 a      1133     0    46     1     8
 -3.8935065242657850E-02 a      1134     0    46     1     9
  1.2306956703331187E-01 a      1135     0    46     1    10
 -2.7062939139800384E-02 a      1136     0    46     1    11
  1.5306502431941937E-01 a      1137     0    46     1    12
  9.9578759420485122E-02 a      1138     0    46     1    13
  2.1410885973541217E-02 a      1139     0    46     1    14
 -4.6998445612256058E-02 a      1140     0    46     1    15
 -4.9593626309737029E-02 a      1141     0    46     1    16
 -1.2233092685584332E-01 a      1142     0    46     1    17
 -2.9302654336951961E-03 a      1143     0    46     1    18
 -1.6976678081380264E-01 a      1144     0    46     1    19
  5.3884596599690138E-02 a      1145     0    46     1    20
 -3.1002243995217216E-02 a      1146     0    46     1    21
  5.2196832908893457E-03 a      1147     0    46     1    22
  2.6873636262199286E-02 a      1148     0    46     1    23
 -5.7843366791111087E-02 a      1149     0    46     1    24
 -3.5572377680868114E-02 a      1150     0    46     1    25
 -9.5784600769165708E-03 a      1151     0    47     1     1
  1.5023354799075242E-01 a      1152     0    47     1     2
 -7.2085083324756605E-02 a      1153     0    47     1     3
 -2.1325709096852186E-01 a      1154     0    47     1     4
  2.4105251007221593E-01 a      1155     0    47     1     5
  2.9824238425922517E-01 a      1156     0    47     1     6
  2.1369161464738148E-01 a      1157     0    47     1     7
 -2.0563830244500841E-02 a      1158     0    47     1     8
 -1.4071777383035938E-01 a      1159     0    47     1     9
 -6.4293717492054578E-02 a      1160     0    47     1    10
 -3.1040255131244504E-02 a      1161     0    47     1    11
  1.0395383618520117E-01 a      1162     0    47     1    12
  1.0446259277541856E-01 a      1163     0    47     1    13
  2.4809449307793927E-02 a      1164     0    47     1    14
 -3.6421027543686715E-02 a      1165     0    47     1    15
 -1.0817286185966128E-01 a      1166     0    47     1    16
 -1.2330505410423118E-01 a      1167     0    47     1    17
 -1.3327369681686041E-02 a      1168     0    47     1    18
 -1.9121600335851477E-01 a      1169     0    47     1    19
 -8.4379551363487446E-02 a      1170     0    47     1    20
  1.6827402056422172E-01 a      1171     0    47     1    21
  1.5717107023962706E-01 a      1172     0    47     1    22
 -1.7989748810738580E-02 a      1173     0    47     1    23
  6.7016888300778033E-03 a      1174     0    47     1    24
  2.9249768038330678E-02 a      1175     0    47     1    25
  1.3114299060579617E-02 a      1176     0    48     1     1
 -2.5379067951050036E-02 a      1177     0    48     1     2
 -2.4843717857971487E-02 a      1178     0    48     1     3
 -1.0455054743346602E-01 a      1179     0    48     1     4
 -1.1568369694500821E-01 a      1180     0    48     1     5
 -1.1763802944768013E-01 a      1181     0    48     1     6
  7.2995113742527595E-02 a      1182     0    48     1     7
 -2.5002881253011211E-01 a      1183     0    48     1     8
 -4.2992783440521022E-02 a      1184     0    48     1     9
 -8.6217894168482065E-02 a      1185     0    48     1    10
 -1.2665178040811808E-02 a      1186     0    48     1    11
  4.6044968751231949E-03 a      1187     0    48     1    12
  1.2745191398814143E-01 a      1188     0    48     1    13
  2.4020980888977830E-02 a      1189     0    48     1    14
 -2.4226160457304857E-02 a      1190     0    48     1    15
  7.6455122860144567E-02 a      1191     0    48     1    16
  8.2077094810662263E-02 a      1192     0    48     1    17
 -1.1626603575556740E-01 a      1193     0    48     1    18
 -6.7563745786432206E-02 a      1194     0    48     1    19
 -1.1540762691763223E-01 a      1195     0    48     1    20
  1.1440533886858126E-01 a      1196     0    48     1    21
 -7.7707070504787784E-02 a      1197     0    48     1    22
 -5.8992196802243005E-02 a      1198     0    48     1    23
  1.0434683749703064E-02 a      1199     0    48     1    24
 -1.8954841461474656E-01 a      1200     0    48     1    25
 -1.7187058589026502E-01 a      1201     0    49     1     1
 -7.2498262796326166E-03 a      1202     0    49     1     2
 -1.4187282751461155E-01 a      1203     0    49     1     3
  8.2050044740640066E-02 a      1204     0    49     1     4
 -1.4352926908338781E-01 a      1205     0    49     1     5
 -1.3711152331331020E-01 a      1206     0    49     1     6
  1.2074915149872543E-01 a      1207     0    49     1     7
  1.0763414503779285E-01 a      1208     0    49     1     8
  7.9524345107856317E-02 a      1209     0    49     1     9
  1.8287325451897560E-01 a      1210     0    49     1    10
 -4.2757776000795167E-02 a      1211     0    49     1    11
  1.0276601127671302E-01 a      1212     0    49     1    12
  1.4726231047823325E-02 a      1213     0    49     1    13
 -1.2117128484602870E-01 a      1214     0    49     1    14
 -1.5087648580303378E-01 a      1215     0    49     1    15
  4.5285659281884279E-02 a      1216     0    49     1    16
  1.5344197939809573E-01 a      1217     0    49     1    17
 -4.8824412779171524E-03 a      1218     0    49     1    18
  1.2850546526108853E-01 a      1219     0    49     1    19
 -4.0829717726213494E-02 a      1220     0    49     1    20
 -5.2974455860221377E-02 a      1221     0    49     1    21
 -2.6176541939765693E-02 a      1222     0    49     1    22
 -4.7983840910260540E-02 a      1223     0    49     1    23
  1.3454153069323976E-01 a      1224     0    49     1    24
 -1.8398348566070288E-01 a      1225     0    49     1    25
 -7.0872134891244665E-02 a      1226     0    50     1     1
 -1.9396048396197141E-01 a      1227     0    50     1     2
 -5.4400193983524185E-02 a      1228     0    50     1     3
 -1.7836771338190269E-01 a      1229     0    50     1     4
 -3.7839736397018084E-02 a      1230     0    50     1     5
  1.4297480071401653E-01 a      1231     0    50     1     6
  1.7110302898500215E-01 a      1232     0    50     1     7
  2.3231686427278408E-01 a      1233     0    50     1     8
  1.1005785242199152E-01 a      1234     0    50     1     9
  3.7356267108887460E-02 a      1235     0    50     1    10
  1.6068287900475119E-02 a      1236     0    50     1    11
 -1.1706844098229718E-01 a      1237     0    50     1    12
  1.8143937795472553E-01 a      1238     0    50     1    13
 -2.8627322962836311E-02 a      1239     0    50     1    14
  1.2721096173089011E-01 a      1240     0    50     1    15
  1.2712123863369801E-01 a      1241     0    50     1    16
  8.5702119821340142E-02 a      1242     0    50     1    17
 -5.2635607701630498E-02 a      1243     0    50     1    18
  3.1936287352862393E-02 a      1244     0    50     1    19
 -2.9192585844521612E-02 a      1245     0    50     1    20
  1.7992481277183264E-01 a      1246     0    50     1    21
  6.4351777160253351E-02 a      1247     0    50     1    22
 -8.9295959803989633E-02 a      1248     0    50     1    23
  1.3871585299982220E-01 a      1249     0    50     1    24
 -9.2794652144508410E-02 a      1250     0    50     1    25
 -1.2630593170820778E-01 a      1251     0    51     1     1
 -2.2988377086410161E-01 a      1252     0    51     1     2
  2.1059414267964295E-02 a      1253     0    51     1     3
 -1.6548233501175874E-02 a      1254     0    51     1     4
  1.4747517923491202E-02 a      1255     0    51     1     5
  8.0983402092069293E-02 a      1256     0    51     1     6
 -5.0458584819301024E-02 a      1257     0    51     1     7
 -3.5133553259716371E-02 a      1258     0    51     1     8
  9.1941909718033621E-02 a      1259     0    51     1     9
  7.5436970962976706E-03 a      1260     0    51     1    10
  7.0075862467222277E-02 a      1261     0    51     1    11
  4.5480262952767954E-03 a      1262     0    51     1    12
  8.0368218119739546E-03 a      1263     0    51     1    13
  2.8661630427396029E-01 a      1264     0    51     1    14
 -3.7050443049807133E-02 a      1265     0    51     1    15
  1.5869919044735589E-01 a      1266     0    51     1    16
 -8.7133224412502749E-02 a      1267     0    51     1    17
 -5.4041814365436987E-02 a      1268     0    51     1    18
  8.1320112965919109E-02 a      1269     0    51     1    19
  1.6865957226373685E-01 a      1270     0    51     1    20
  1.2947393601877910E-01 a      1271     0    51     1    21
  1.1284687815641956E-01 a      1272     0    51     1    22
  1.3462449825284406E-01 a      1273     0    51     1    23
  1.7290262043134119E-01 a      1274     0    51     1    24
  2.0149370291252916E-01 a      1275     0    51     1    25
  8.9764957419812719E-02 a      1276     0    52     1     1
 -4.8646444520917244E-02 a      1277     0    52     1     2
  1.8158016768646906E-01 a      1278     0    52     1     3
 -2.9148990774129824E-01 a      1279     0    52     1     4
 -1.0494704210244734E-03 a      1280     0    52     1     5
 -1.1310524846397166E-01 a      1281     0    52     1     6
  3.8679555619512800E-02 a      1282     0    52     1     7
  4.9494137913348363E-02 a      1283     0    52     1     8
 -1.9387509804572900E-01 a      1284     0    52     1     9
  1.5244613592533768E-01 a      1285     0    52     1    10
  2.2546790434613062E-01 a      1286     0    52     1    11
  6.6581123495804764E-02 a      1287     0    52     1    12
 -2.2987885901299764E-02 a      1288     0    52     1    13
 -2.1279722736451898E-01 a      1289     0    52     1    14
 -2.4193745514405526E-01 a      1290     0    52     1    15
 -3.0314051066288972E-01 a      1291     0    52     1    16
  1.5330414016328317E-01 a      1292     0    52     1    17
  1.5253201630977077E-02 a      1293     0    52     1    18
 -3.1657630685524969E-02 a      1294     0    52     1    19
 -1.0972845488568243E-01 a      1295     0    52     1    20
  2.0401398686076250E-01 a      1296     0    52     1    21
  1.2604479434319527E-01 a      1297     0    52     1    22
 -5.5683454128019505E-02 a      1298     0    52     1    23
  2.1628122292648205E-01 a      1299     0    52     1    24
  7.1777586142869998E-02 a      1300     0    52     1    25
  7.1544185961199228E-02 a      1301     0    53     1     1
 -1.7004656852354649E-01 a      1302     0    53     1     2
  2.2661331118566976E-03 a      1303     0    53     1     3
  2.3898281545449451E-01 a      1304     0    53     1     4
 -6.3533353237182857E-02 a      1305     0    53     1     5
 -1.0643948860574663E-01 a      1306     0    53     1     6
  1.4582829904388528E-01 a      1307     0    53     1     7
 -4.7760856611908521E-02 a      1308     0    53     1     8
  1.8145568010641969E-03 a      1309     0    53     1     9
  1.7734261176403837E-01 a      1310     0    53     1    10
  6.7504823863582405E-02 a      1311     0    53     1    11
  1.5104128870439473E-01 a      1312     0    53     1    12
 -1.2837695453638512E-01 a      1313     0    53     1    13
  1.4553024044145799E-01 a      1314     0    53     1    14
  1.3761360164566455E-01 a      1315     0    53     1    15
  1.1580824242551729E-01 a      1316     0    53     1    16
  7.3327809013322864E-02 a      1317     0    53     1    17
  7.5044710750821692E-03 a      1318     0    53     1    18
 -1.0011097371495742E-01 a      1319     0    53     1    19
  2.8714350552974777E-01 a      1320     0    53     1    20
 -6.3593879584519938E-02 a      1321     0    53     1    21
 -1.0373340251665930E-01 a      1322     0    53     1    22
 -6.8049929617957222E-02 a      1323     0    53     1    23
  1.0867115696331722E-01 a      1324     0    53     1    24
  4.0186457856140931E-02 a      1325     0    53     1    25
 -1.1219834058747358E-01 a      1326     0    54     1     1
 -2.5366456838402607E-01 a      1327     0    54     1     2
 -7.8495157999609169E-02 a      1328     0    54     1     3
 -2.2384121440739210E-01 a      1329     0    54     1     4
  6.1903100223035315E-02 a      1330     0    54     1     5
 -6.1056719097035229E-02 a      1331     0    54     1     6
  8.5805260196760047E-02 a      1332     0    54     1     7
 -5.2676556160936860E-02 a      1333     0    54     1     8
 -6.8446211109737712E-02 a      1334     0    54     1     9
  1.9547362586216813E-01 a      1335     0    54     1    10
  1.1719575774997384E-01 a      1336     0    54     1    11
  7.3486554690558911E-02 a      1337     0    54     1    12
  6.9474035065123882E-02 a      1338     0    54     1    13
 -2.7698812372587778E-01 a      1339     0    54     1    14
  5.6390717960295919E-03 a      1340     0    54     1    15
  1.1663755503090667E-01 a      1341     0    54     1    16
 -1.5997980261876057E-02 a      1342     0    54     1    17
 -6.9164102533671626E-02 a      1343     0    54     1    18
 -6.0313481738511282E-02 a      1344     0    54     1    19
 -1.2526364671905156E-03 a      1345     0    54     1    20
 -5.7662491884501690E-02 a      1346     0    54     1    21
  2.6865520212695021E-01 a      1347     0    54     1    22
 -1.0905355024853508E-01 a      1348     0    54     1    23
  1.5059299232603102E-01 a      1349     0    54     1    24
  3.2845203544444840E-02 a      1350     0    54     1    25
  1.5905584324197358E-01 a      1351     0    55     1     1
  3.9200866282255380E-02 a      1352     0    55     1     2
  1.9620930426426345E-01 a      1353     0    55     1     3
  1.9294601019849542E-01 a      1354     0    55     1     4
  2.9303924624645233E-01 a      1355     0    55     1     5
  1.1956991365742109E-01 a      1356     0    55     1     6
 -8.5340326008118035E-03 a      1357     0    55     1     7
 -2.0786520856699835E-02 a      1358     0    55     1     8
  2.2644438298363562E-01 a      1359     0    55     1     9
 -2.2595111688023591E-02 a      1360     0    55     1    10
 -2.2990491723431197E-01 a      1361     0    55     1    11
  3.7464426643536018E-02 a      1362     0    55     1    12
 -6.3943018882354680E-02 a      1363     0    55     1    13
  5.8148435334670068E-02 a      1364     0    55     1    14
 -1.6972659282430702E-01 a      1365     0    55     1    15
 -1.6814085442421528E-01 a      1366     0    55     1    16
 -1.5761820818832659E-01 a      1367     0    55     1    17
 -9.2775438222132758E-02 a      1368     0    55     1    18
  1.4809885654653099E-01 a      1369     0    55     1    19
  1.7741010749368225E-01 a      1370     0    55     1    20
 -1.4639530493280116E-02 a      1371     0    55     1    21
 -2.2857689865759559E-01 a      1372     0    55     1    22
  9.8713381868328703E-02 a      1373     0    55     1    23
 -3.5359806624946083E-01 a      1374     0    55     1    24
  7.7780098622029128E-02 a      1375     0    55     1    25
  1.2772892931457919E-01 a      1376     0    56     1     1
 -6.4868016026994393E-02 a      1377     0    56     1     2
  1.7401124975152549E-01 a      1378     0    56     1     3
 -6.6696665179369133E-02 a      1379     0    56     1     4
  6.7573478474045254E-02 a      1380     0    56     1     5
 -2.2333745073456293E-01 a      1381     0    56     1     6
  1.7330632935038254E-01 a      1382     0    56     1     7
 -1.9475799050968459E-01 a      1383     0    56     1     8
  4.7549397203506235E-03 a      1384     0    56     1     9
  2.0740905733888503E-02 a      1385     0    56     1    10
 -1.1343502435220029E-01 a      1386     0    56     1    11
 -8.1131288942841773E-02 a      1387     0    56     1    12
 -3.6402992068521468E-02 a      1388     0    56     1    13
  7.9016483625532846E-02 a      1389     0    56     1    14
 -3.0108752626848950E-02 a      1390     0    56     1    15
  2.4563224167936543E-01 a      1391     0    56     1    16
  1.5439774667511935E-01 a      1392     0    56     1    17
 -2.4146618630324638E-02 a      1393     0    56     1    18
  1.1974352043782611E-01 a      1394     0    56     1    19
 -1.8934607681261159E-01 a      1395     0    56     1    20
  1.8468012548522084E-02 a      1396     0    56     1    21
 -3.1826654704327988E-02 a      1397     0    56     1    22
 -1.5292862033993732E-01 a      1398     0    56     1    23
 -2.0922953328269524E-02 a      1399     0    56     1    24
  1.9136832504364928E-01 a      1400     0    56     1    25
 -8.3918189882167052E-02 a      1401     0    57     1     1
 -2.1206522383243004E-01 a      1402     0    57     1     2
  8.1111914505151872E-02 a      1403     0    57     1     3
  9.6653610013290953E-02 a      1404     0    57     1     4
 -1.1090421145999524E-01 a      1405     0    57     1     5
 -2.1181626212826291E-01 a      1406     0    57     1     6
 -1.6765804980997012E-01 a      1407     0    57     1     7
 -1.6894288500163018E-01 a      1408     0    57     1     8
 -3.7824999643981103E-02 a      1409     0    57     1     9
  2.6625212388578018E-01 a      1410     0    57     1    10
  4.9788097109316351E-02 a      1411     0    57     1    11
 -1.5612216059796266E-01 a      1412     0    57     1    12
 -1.3236722561086744E-01 a      1413     0    57     1    13
  1.1573495685596115E-01 a      1414     0    57     1    14
 -2.3479026025267738E-01 a      1415     0    57     1    15
  8.3373533237477565E-03 a      1416     0    57     1    16
  8.1666145629948166E-03 a      1417     0    57     1    17
 -6.1612046808373476E-02 a      1418     0    57     1    18
 -4.9724544851558417E-02 a      1419     0    57     1    19
  5.7230658674459083E-02 a      1420     0    57     1    20
 -6.2054363093461372E-02 a      1421     0    57     1    21
  2.4550559223019350E-01 a      1422     0    57     1    22
  3.7372839359752899E-02 a      1423     0    57     1    23
 -1.7472662683305076E-01 a      1424     0    57     1    24
 -8.0702350602886150E-02 a      1425     0    57     1    25
 -8.9600578533520742E-02 a      1426     0    58     1     1
 -1.2071677110115402E-01 a      1427     0    58     1     2
 -3.7585966800694599E-02 a      1428     0    58     1     3
  1.2418516091979838E-01 a      1429     0    58     1     4
 -3.0790832429238687E-02 a      1430     0    58     1     5
 -9.8700771927448486E-02 a      1431     0    58     1     6
  4.7680720057245773E-02 a      1432     0    58     1     7
  1.8489695246091820E-01 a      1433     0    58     1     8
 -7.5651841103330952E-02 a      1434     0    58     1     9
 -4.1509298094758260E-03 a      1435     0    58     1    10
 -6.2244225240261977E-02 a      1436     0    58     1    11
 -1.9333629987547771E-01 a      1437     0    58     1    12
 -5.4899900228562622E-02 a      1438     0    58     1    13
 -6.1569573816137403E-02 a      1439     0    58     1    14
 -7.9031748560983526E-03 a      1440     0    58     1    15
 -3.2823716152213439E-02 a      1441     0    58     1    16
 -1.5314714248445807E-01 a      1442     0    58     1    17
  4.4233782452378551E-02 a      1443     0    58     1    18
 -6.1734249754176802E-02 a      1444     0    58     1    19
  1.7133985342430574E-01 a      1445     0    58     1    20
  1.9999920421808989E-01 a      1446     0    58     1    21
  6.5094769906383632E-02 a      1447     0    58     1    22
  2.1008006321184558E-01 a      1448     0    58     1    23
 -3.1644047539531657E-02 a      1449     0    58     1    24
 -5.6455507063522380E-03 a      1450     0    58     1    25
  2.4571092145116460E-01 a      1451     0    59     1     1
 -3.3592856803918991E-02 a      1452     0    59     1     2
  1.3339638902957807E-01 a      1453     0    59     1     3
 -1.7251669574991499E-01 a      1454     0    59     1     4
  2.8907972053264525E-01 a      1455     0    59     1     5
 -4.2324074283957340E-02 a      1456     0    59     1     6
 -8.3024098083511508E-02 a      1457     0    59     1     7
  6.5294171957739719E-02 a      1458     0    59     1     8
 -1.1684254767202173E-01 a      1459     0    59     1     9
 -1.2781798696134700E-01 a      1460     0    59     1    10
  9.6627602366974930E-02 a      1461     0    59     1    11
 -1.3505020159490222E-01 a      1462     0    59     1    12
 -2.0653754326970294E-02 a      1463     0    59     1    13
  1.9382241950453122E-01 a      1464     0    59     1    14
  5.8097837892555890E-02 a      1465     0    59     1    15
  8.1229780136884873E-03 a      1466     0    59     1    16
  1.9842029188029997E-01 a      1467     0    59     1    17
  6.0067060485439278E-02 a      1468     0    59     1    18
 -2.8904514804499537E-01 a      1469     0    59     1    19
  1.1874316264643069E-01 a      1470     0    59     1    20
 -1.7165534304396182E-01 a      1471     0    59     1    21
  1.0957604717929724E-02 a      1472     0    59     1    22
  1.7106823711371396E-02 a      1473     0    59     1    23
  1.8513871522824964E-03 a      1474     0    59     1    24
  9.4945737441841094E-02 a      1475     0    59     1    25
 -4.0817869770271367E-03 a      1476     0    60     1     1
  1.8791064258993445E-01 a      1477     0    60     1     2
  1.2987855421802560E-01 a      1478     0    60     1     3
  2.0835951902855709E-02 a      1479     0    60     1     4
  2.1424351002216686E-02 a      1480     0    60     1     5
  7.8079719527568800E-02 a      1481     0    60     1     6
 -1.3999414191977508E-01 a      1482     0    60     1     7
 -8.5754218470148066E-02 a      1483     0    60     1     8
 -3.2648020296336074E-02 a      1484     0    60     1     9
 -1.4161677471508743E-01 a      1485     0    60     1    10
  2.3090394042160423E-01 a      1486     0    60     1    11
  1.7474398307170205E-01 a      1487     0    60     1    12
 -1.0381510367385709E-02 a      1488     0    60     1    13
  2.4964794557959991E-01 a      1489     0    60     1    14
 -3.9642267720176819E-03 a      1490     0    60     1    15
  1.9977263736535633E-01 a      1491     0    60     1    16
 -1.2287639486665296E-01 a      1492     0    60     1    17
  1.9880601114056362E-01 a      1493     0    60     1    18
 -8.4221293002100461E-02 a      1494     0    60     1    19
 -9.0520316456370292E-02 a      1495     0    60     1    20
 -9.5429857279121608E-02 a      1496     0    60     1    21
  4.6348333071855756E-02 a      1497     0    60     1    22
  2.0060114211355791E-02 a      1498     0    60     1    23
 -3.4703766440514139E-01 a      1499     0    60     1    24
 -2.5428887363396976E-02 a      1500     0    60     1    25
 -1.0213067212885860E-01 a      1501     0    61     1     1
 -2.0289342439366176E-01 a      1502     0    61     1     2
  6.4448711696171848E-02 a      1503     0    61     1     3
  3.6045076471337527E-02 a      1504     0    61     1     4
 -1.7698093392663808E-01 a      1505     0    61     1     5
  7.5755754859960639E-02 a      1506     0    61     1     6
 -1.0112995484783788E-01 a      1507     0    61     1     7
 -3.9217992387437194E-02 a      1508     0    61     1     8
  7.2733520072055677E-02 a      1509     0    61     1     9
  7.7155758789980947E-02 a      1510     0    61     1    10
  9.5264962595662861E-02 a      1511     0    61     1    11
 -3.7941446629331646E-02 a      1512     0    61     1    12
 -6.7280360548090695E-02 a      1513     0    61     1    13
 -7.3156799361091651E-02 a      1514     0    61     1    14
  3.6144107328087115E-02 a      1515     0    61     1    15
  4.6258782916476969E-02 a      1516     0    61     1    16
 -6.3434130564553659E-02 a      1517     0    61     1    17
 -3.2561486631270252E-02 a      1518     0    61     1    18
  3.0106382571991233E-02 a      1519     0    61     1    19
  1.7950551768351249E-02 a      1520     0    61     1    20
 -2.5462039107883670E-02 a      1521     0    61     1    21
 -6.7213955290219424E-02 a      1522     0    61     1    22
  5.3460868425989183E-02 a      1523     0    61     1    23
  8.1083253350294093E-02 a      1524     0    61     1    24
  3.3829532496839593E-02 a      1525     0    61     1    25
  5.3942408494417234E-02 a      1526     0    62     1     1
 -1.7314760346127309E-02 a      1527     0    62     1     2
 -3.7537698314358214E-02 a      1528     0    62     1     3
  1.2209584755054403E-01 a      1529     0    62     1     4
 -1.0599511210354050E-01 a      1530     0    62     1     5
 -1.4165070546928218E-01 a      1531     0    62     1     6
 -1.8114969589773519E-01 a      1532     0    62     1     7
  1.6563811078714744E-01 a      1533     0    62     1     8
 -2.3250582738040304E-01 a      1534     0    62     1     9
 -6.7271328427188054E-02 a      1535     0    62     1    10
  1.3105975069647866E-02 a      1536     0    62     1    11
  2.7927982487736223E-03 a      1537     0    62     1    12
  7.2134110668574808E-02 a      1538     0    62     1    13
  1.1035693505651216E-01 a      1539     0    62     1    14
 -7.9497074966972239E-02 a      1540     0    62     1    15
  9.4716891494875971E-02 a      1541     0    62     1    16
  1.8008238409708738E-01 a      1542     0    62     1    17
 -2.3258703854393239E-02 a      1543     0    62     1    18
 -7.8081878920275224E-02 a      1544     0    62     1    19
 -3.8054723780291358E-02 a      1545     0    62     1    20
  7.4519581687134170E-02 a      1546     0    62     1    21
  2.2393949599622076E-01 a      1547     0    62     1    22
 -1.5516444353446098E-02 a      1548     0    62     1    23
 -1.6971385725258101E-01 a      1549     0    62     1    24
 -3.0959633171790190E-02 a      1550     0    62     1    25
  5.5841682605469616E-02 a      1551     0    63     1     1
  4.9041851430602539E-03 a      1552     0    63     1     2
  5.8440228690039273E-02 a      1553     0    63     1     3
 -1.0482032943595511E-02 a      1554     0    63     1     4
 -2.5307369570986438E-02 a      1555     0    63     1     5
  7.0525267836969677E-02 a      1556     0    63     1     6
  1.4673217835707630E-01 a      1557     0    63     1     7
 -7.5128194527154871E-02 a      1558     0    63     1     8
  1.4360943106981588E-01 a      1559     0    63     1     9
  1.0685351059334675E-01 a      1560     0    63     1    10
  9.4893626608604648E-02 a      1561     0    63     1    11
  6.2766394285953764E-02 a      1562     0    63     1    12
 -1.3597127843829819E-02 a      1563     0    63     1    13
  8.6231538628072479E-02 a      1564     0    63     1    14
 -7.1375152821250482E-02 a      1565     0    63     1    15
  8.9546705275119608E-03 a      1566     0    63     1    16
  1.7953265435002509E-02 a      1567     0    63     1    17
  6.2860808551368164E-02 a      1568     0    63     1    18
 -2.7737163614037896E-02 a      1569     0    63     1    19
  3.0150601389853249E-02 a      1570     0    63     1    20
 -1.5372771207550937E-01 a      1571     0    63     1    21
 -1.5434991271547352E-01 a      1572     0    63     1    22
 -5.8918481314745315E-02 a      1573     0    63     1    23
 -3.9311105101499079E-02 a      1574     0    63     1    24
 -1.9099721909958832E-03 a      1575     0    63     1    25
 -4.3309559313890585E-02 a      1576     0    64     1     1
  9.6809008050412204E-02 a      1577     0    64     1     2
  1.1536871113953046E-01 a      1578     0    64     1     3
 -2.9796320910091290E-01 a      1579     0    64     1     4
  5.0279290671484962E-02 a      1580     0    64     1     5
  2.6436482661482852E-01 a      1581     0    64     1     6
  2.3987374351385490E-01 a      1582     0    64     1     7
 -3.6307921242277517E-02 a      1583     0    64     1     8
  3.0973602352377810E-02 a      1584     0    64     1     9
  1.8826851344940590E-01 a      1585     0    64     1    10
  7.9916306360935191E-02 a      1586     0    64     1    11
  5.1774204724344762E-02 a      1587     0    64     1    12
 -8.3066505543440750E-02 a      1588     0    64     1    13
  5.7080713331458845E-03 a      1589     0    64     1    14
 -1.8326842893642242E-01 a      1590     0    64     1    15
  2.2878996200899827E-02 a      1591     0    64     1    16
  1.0998489880419919E-01 a      1592     0    64     1    17
  5.2088778626683728E-02 a      1593     0    64     1    18
  5.3085209742798796E-02 a      1594     0    64     1    19
  1.8654109359542589E-01 a      1595     0    64     1    20
 -4.8640454858864091E-02 a      1596     0    64     1    21
 -2.5680636550297425E-01 a      1597     0    64     1    22
 -4.9747537826617769E-02 a      1598     0    64     1    23
 -7.9281147673204030E-02 a      1599     0    64     1    24
  1.0710760464018228E-01 a      1600     0    64     1    25
 -8.0653997474603820E-02 a      1601     0    65     1     1
  2.6642356972420511E-02 a      1602     0    65     1     2
 -9.3643530180612070E-02 a      1603     0    65     1     3
 -8.7860713431083579E-02 a      1604     0    65     1     4
  6.4832194400899934E-02 a      1605     0    65     1     5
  3.3796704933945494E-02 a      1606     0    65     1     6
  3.5106906895656503E-01 a      1607     0    65     1     7
 -6.5877481351517761E-02 a      1608     0    65     1     8
  1.3931478524096005E-01 a      1609     0    65     1     9
  2.9461622932136056E-01 a      1610     0    65     1    10
  5.7827453164586498E-02 a      1611     0    65     1    11
  1.2238150540072525E-03 a      1612     0    65     1    12
  6.0847148627353582E-02 a      1613     0    65     1    13
  4.5718256819075832E-03 a      1614     0    65     1    14
 -1.5457569972412569E-01 a      1615     0    65     1    15
 -1.1796876922552643E-01 a      1616     0    65     1    16
 -3.2206318693962649E-02 a      1617     0    65     1    17
  1.2545819879543221E-01 a      1618     0    65     1    18
 -3.1385767483266054E-02 a      1619     0    65     1    19
  3.3708203995528097E-02 a      1620     0    65     1    20
  8.0569338510060276E-02 a      1621     0    65     1    21
  9.3011287876529226E-03 a      1622     0    65     1    22
 -4.5084916398236828E-02 a      1623     0    65     1    23
